svm_type c_svc
kernel_type rbf
gamma 3.189385724309498E-5
nr_class 2
total_sv 1530
rho 0.4612906860401486
label 1 -1
nr_sv 630 900
SV
1.0 1:19.0 2:3.0 4:3.0 7:4.0 12:1.0 14:1.0 15:224.0 16:11843.0 17:14.0 18:157.0 19:1.0 25:1.0 26:2.0 27:2.0 28:1.0 11874:1.0 11875:1.0 11892:1.0 24942:1.0 25202:1.0 25455:1.0 25970:1.0 26414:1.0 27950:1.0 28275:1.0 28525:1.0 29281:1.0 29287:1.0 29541:1.0 29810:1.0 30510:1.0 30583:2.0 
1.0 1:26.0 2:3.0 3:4.0 4:7.0 5:1.0 7:5.75 8:0.15384615384615385 9:0.038461538461538464 11:3.0 12:1.0 13:1.0 14:1.0 15:6.0 16:99.0 18:5.0 25:1.0 33:1.0 11576:1.0 11875:1.0 11884:1.0 11885:1.0 12341:1.0 12592:1.0 13613:1.0 14382:1.0 25189:1.0 25455:1.0 25701:1.0 25902:1.0 25965:1.0 25970:1.0 26929:1.0 26990:1.0 27753:2.0 28002:1.0 28005:1.0 28271:1.0 28516:1.0 28525:1.0 29299:1.0 29486:1.0 
1.0 1:8.0 2:1.0 3:2.0 4:1.0 7:3.5 8:0.25 11:2.0 12:1.0 14:0.0 25:1.0 26:2.0 27:2.0 11878:1.0 13614:1.0 13877:1.0 26226:2.0 26982:1.0 29238:1.0 
1.0 1:12.0 2:1.0 4:5.0 7:5.5 12:2.0 14:0.0 33:1.0 11875:1.0 24931:1.0 25448:1.0 25455:1.0 25902:1.0 26725:1.0 28001:1.0 28525:1.0 28533:1.0 29807:1.0 30061:1.0 
1.0 1:18.0 2:2.0 4:5.0 7:5.333333333333333 12:1.0 14:0.0 33:3930000.0 11876:1.0 11881:1.0 24932:1.0 25701:2.0 25966:1.0 26989:1.0 27745:1.0 28016:1.0 28206:1.0 28530:1.0 28783:1.0 29300:1.0 29804:1.0 30510:1.0 30583:2.0 
1.0 1:12.0 2:2.0 4:3.0 7:3.3333333333333335 12:1.0 14:1.0 15:198.0 16:9718.0 17:22.0 18:140.0 19:1.0 25:1.0 26:2.0 27:2.0 11875:1.0 11890:1.0 25458:1.0 25902:1.0 26224:1.0 28531:1.0 28787:1.0 29295:2.0 29486:1.0 29541:1.0 
1.0 1:11.0 2:1.0 4:5.0 7:5.0 12:2.0 14:0.0 25:1.0 11875:1.0 24878:1.0 24937:1.0 25455:1.0 26990:1.0 27489:1.0 28257:1.0 28277:1.0 28525:1.0 30062:1.0 
1.0 1:11.0 2:1.0 4:4.0 7:5.0 12:1.0 14:0.0 25:2.0 26:2.0 27:2.0 33:8160000.0 11874:1.0 24942:1.0 24950:1.0 25193:1.0 26996:1.0 27002:1.0 28265:1.0 29817:1.0 30305:1.0 31022:1.0 
1.0 1:14.0 2:1.0 4:6.0 7:6.5 12:2.0 14:0.0 25:1.0 33:1.14E7 11881:1.0 24930:1.0 25199:1.0 25705:1.0 26414:1.0 26977:1.0 26990:3.0 28260:1.0 28263:1.0 28536:1.0 30825:1.0 
1.0 1:11.0 2:1.0 4:4.0 7:5.0 12:2.0 14:0.0 25:1.0 26:2.0 27:2.0 33:100000.0 11875:1.0 24878:1.0 24947:1.0 25452:1.0 26473:1.0 26977:1.0 26989:1.0 28014:1.0 28257:1.0 29545:1.0 
1.0 1:12.0 2:1.0 4:5.0 7:5.5 12:1.0 14:0.0 25:2.0 26:2.0 27:2.0 33:4.0 11875:1.0 24878:1.0 25455:1.0 25965:1.0 27759:1.0 28021:1.0 28525:1.0 28534:1.0 29281:1.0 30066:1.0 30309:1.0 
1.0 1:12.0 2:1.0 4:4.0 5:1.0 7:5.5 9:0.08333333333333333 12:1.0 13:1.0 14:0.0 25:1.0 33:1620.0 11617:1.0 11888:1.0 24935:1.0 26482:1.0 28015:1.0 28461:1.0 28462:1.0 28532:1.0 28780:1.0 29295:1.0 29807:1.0 
1.0 1:15.0 2:1.0 4:6.0 7:7.0 12:2.0 14:0.0 25:1.0 26:2.0 27:2.0 33:1740.0 11886:1.0 24946:1.0 25902:1.0 25966:1.0 25972:1.0 26721:1.0 26991:1.0 28261:1.0 28265:1.0 28530:1.0 29285:1.0 29299:1.0 29541:1.0 29544:1.0 
1.0 1:39.0 2:1.0 4:15.0 7:19.0 12:2.0 14:0.0 25:1.0 26:4.0 27:4.0 33:30.0 11875:1.0 24930:1.0 25189:1.0 25445:1.0 25449:1.0 25455:2.0 25701:2.0 25705:1.0 25955:1.0 25956:1.0 25966:1.0 25971:1.0 25972:1.0 26977:1.0 26979:1.0 26991:1.0 27748:1.0 28206:1.0 28276:2.0 28277:1.0 28516:1.0 28524:1.0 28525:1.0 28526:2.0 29289:1.0 29295:2.0 29561:1.0 29797:1.0 29810:3.0 30068:1.0 31086:1.0 
1.0 1:24.0 2:2.0 4:8.0 7:7.333333333333333 12:2.0 14:0.0 25:1.0 33:757000.0 11875:1.0 11892:1.0 24878:1.0 24946:1.0 24947:1.0 24954:1.0 25452:1.0 25701:1.0 25961:1.0 25964:1.0 25970:1.0 26990:1.0 27745:1.0 28257:1.0 29281:1.0 29285:1.0 29298:1.0 29540:1.0 29797:1.0 30510:1.0 30583:2.0 31329:1.0 
1.0 1:11.0 2:2.0 4:4.0 7:3.0 12:2.0 14:0.0 33:1240.0 11877:1.0 11888:1.0 24954:1.0 25973:1.0 26988:1.0 27694:1.0 28009:1.0 28782:1.0 29998:1.0 31341:1.0 
1.0 1:13.0 2:1.0 4:5.0 7:6.0 12:2.0 14:0.0 25:1.0 26:2.0 27:2.0 11875:1.0 24947:1.0 25202:1.0 25455:1.0 25701:1.0 25953:1.0 26980:1.0 27000:1.0 28525:1.0 29289:1.0 29486:1.0 30825:1.0 
1.0 1:7.0 2:1.0 7:3.0 14:0.0 25:2.0 26:2.0 27:2.0 33:162000.0 11891:1.0 28276:1.0 28786:1.0 29294:1.0 29539:1.0 29742:1.0 
1.0 1:15.0 2:2.0 4:4.0 7:4.333333333333333 12:1.0 14:0.0 25:1.0 26:2.0 27:2.0 28:1.0 33:4630000.0 11873:1.0 11888:1.0 24878:1.0 24931:1.0 24940:1.0 24947:1.0 25441:1.0 27764:1.0 28788:1.0 29537:1.0 29793:1.0 30510:1.0 30583:2.0 
1.0 1:24.0 2:2.0 4:7.0 7:7.333333333333333 12:2.0 14:1.0 15:174.0 16:12252.0 17:15.0 18:155.0 19:1.0 25:1.0 26:2.0 27:2.0 11873:1.0 11875:1.0 24942:2.0 24946:1.0 25455:2.0 25953:1.0 26467:1.0 26476:1.0 26725:1.0 26990:1.0 27753:1.0 27950:1.0 28016:1.0 28263:2.0 28281:1.0 28525:2.0 28769:1.0 29800:1.0 31022:1.0 
1.0 1:12.0 2:1.0 4:4.0 7:5.5 12:1.0 14:0.0 25:1.0 33:95.0 11875:1.0 24941:1.0 25455:1.0 25971:1.0 26228:1.0 28019:1.0 28518:1.0 28525:1.0 29537:1.0 29551:1.0 29742:1.0 
1.0 1:15.0 2:2.0 4:4.0 7:4.333333333333333 12:2.0 14:0.0 25:1.0 33:5270.0 11881:1.0 11883:1.0 25957:1.0 25963:1.0 25972:1.0 26994:1.0 27500:1.0 27502:1.0 27749:1.0 28261:1.0 29742:1.0 30510:1.0 30583:2.0 
1.0 1:10.0 2:1.0 4:3.0 7:4.5 12:1.0 14:0.0 25:1.0 26:2.0 27:2.0 11880:1.0 24944:1.0 26414:1.0 26741:1.0 26990:1.0 27497:1.0 28001:1.0 28263:1.0 28779:1.0 
1.0 1:20.0 2:3.0 3:2.0 4:5.0 5:1.0 7:4.25 8:0.1 9:0.05 11:2.0 12:2.0 13:1.0 14:1.0 15:127.0 16:7219.0 17:15.0 18:140.0 19:1.0 25:1.0 33:1350000.0 11572:1.0 11874:1.0 11875:1.0 11883:1.0 13366:1.0 13870:1.0 25133:1.0 25134:1.0 25196:1.0 25455:1.0 25954:2.0 25975:1.0 27506:1.0 27765:1.0 28462:1.0 30053:1.0 30565:2.0 
1.0 1:7.0 2:1.0 4:4.0 7:3.0 12:2.0 14:0.0 25:2.0 26:2.0 27:2.0 33:12700.0 11884:1.0 25961:1.0 27002:1.0 27745:1.0 28462:1.0 31343:1.0 
1.0 1:10.0 2:2.0 4:2.0 7:2.6666666666666665 12:1.0 14:0.0 25:1.0 26:2.0 27:2.0 33:697.0 11875:1.0 11892:1.0 25455:1.0 25960:1.0 26739:1.0 28462:1.0 29486:1.0 29555:1.0 29800:1.0 
1.0 1:8.0 2:1.0 4:2.0 7:3.5 12:1.0 14:1.0 15:10.0 16:6562.0 18:8.0 20:1.0 25:2.0 26:2.0 27:2.0 33:2800.0 11884:1.0 24932:1.0 25722:1.0 26465:1.0 26926:1.0 27755:1.0 31337:1.0 
1.0 1:36.0 2:3.0 4:11.0 5:2.0 7:8.25 9:0.05555555555555555 12:2.0 13:1.0 14:0.0 25:1.0 26:2.0 27:2.0 28:1.0 33:4360000.0 11618:1.0 11620:1.0 11875:1.0 11891:1.0 11893:1.0 24877:1.0 24942:1.0 25205:1.0 25455:1.0 25460:1.0 25705:1.0 25953:1.0 25955:1.0 25971:1.0 26990:1.0 26994:1.0 28261:1.0 28275:1.0 28462:1.0 28530:1.0 29285:1.0 29305:1.0 29485:1.0 29541:1.0 29545:1.0 29555:1.0 29559:1.0 29807:1.0 30059:1.0 30067:1.0 30510:1.0 30561:1.0 30583:2.0 31022:1.0 
1.0 1:17.0 2:1.0 4:6.0 7:8.0 12:2.0 14:0.0 25:1.0 26:2.0 27:2.0 33:8920000.0 11875:1.0 24940:1.0 24941:1.0 25193:1.0 25448:1.0 25452:1.0 25902:1.0 25966:1.0 26729:1.0 26981:1.0 26988:1.0 27747:1.0 27749:1.0 28002:1.0 28276:1.0 29793:1.0 
1.0 1:5.0 2:1.0 4:1.0 7:2.0 12:1.0 14:1.0 15:14.0 16:201.0 18:9.0 19:1.0 25:1.0 26:4.0 27:4.0 33:122000.0 11881:1.0 26989:1.0 29230:1.0 29810:1.0 
1.0 1:12.0 2:2.0 4:4.0 7:3.3333333333333335 12:3.0 14:0.0 25:1.0 28:1.0 33:5760000.0 11888:1.0 11893:1.0 25957:2.0 25968:1.0 28718:1.0 28773:1.0 30067:1.0 30510:1.0 30583:2.0 
1.0 1:12.0 2:1.0 3:3.0 4:3.0 5:1.0 7:5.5 8:0.25 9:0.08333333333333333 11:3.0 12:1.0 13:1.0 14:0.0 25:1.0 26:6.0 27:6.0 33:30900.0 11569:1.0 11890:1.0 12594:1.0 12852:1.0 13358:1.0 25970:1.0 27503:1.0 28534:1.0 29229:1.0 29301:1.0 30309:1.0 
1.0 1:12.0 2:1.0 4:4.0 7:5.5 12:2.0 14:0.0 25:1.0 26:3.0 27:3.0 33:2520000.0 11877:1.0 24878:1.0 25466:1.0 25973:1.0 27489:1.0 27765:1.0 28275:1.0 29547:1.0 30051:1.0 31086:1.0 31353:1.0 
1.0 1:11.0 2:1.0 4:4.0 7:5.0 12:1.0 14:0.0 25:1.0 26:2.0 27:2.0 33:1.0 11875:1.0 25455:1.0 25959:1.0 26414:1.0 27759:1.0 28524:1.0 28525:1.0 28531:1.0 29541:1.0 29551:1.0 
1.0 1:24.0 2:1.0 4:11.0 7:11.5 12:3.0 14:1.0 15:215.0 16:23288.0 17:1.0 18:304.0 19:1.0 25:1.0 26:2.0 27:2.0 11875:1.0 24931:1.0 24932:1.0 24933:1.0 24940:1.0 24946:1.0 25441:1.0 25449:1.0 25455:1.0 25718:1.0 25965:1.0 25971:1.0 26977:2.0 27694:1.0 28016:1.0 28515:1.0 28525:1.0 28786:1.0 29285:1.0 29289:1.0 29537:1.0 30319:1.0 
0.5049210181265184 1:17.0 2:1.0 4:5.0 7:8.0 12:1.0 14:0.0 25:1.0 26:2.0 27:2.0 33:17200.0 11886:1.0 25205:1.0 25971:1.0 25972:1.0 26472:1.0 26740:1.0 26983:1.0 26990:1.0 28261:2.0 29289:1.0 29486:1.0 29545:1.0 29555:1.0 29794:1.0 30067:1.0 
1.0 1:16.0 2:2.0 4:4.0 7:4.666666666666667 12:1.0 14:1.0 15:4.0 16:44.0 18:4.0 25:1.0 33:1.0 11886:1.0 11892:1.0 25971:1.0 25972:1.0 26217:1.0 26988:1.0 27749:1.0 28261:1.0 29486:1.0 29542:1.0 29813:1.0 30067:1.0 30510:1.0 30583:2.0 
1.0 1:22.0 2:1.0 4:6.0 5:1.0 7:10.5 9:0.045454545454545456 12:1.0 13:1.0 14:1.0 15:4.0 16:44.0 18:4.0 25:1.0 26:3.0 27:3.0 33:1500.0 11635:1.0 11875:1.0 25451:1.0 25455:1.0 25970:1.0 25974:1.0 25976:1.0 26414:1.0 26729:1.0 26990:1.0 27493:1.0 28263:1.0 28515:1.0 28525:1.0 29305:1.0 29556:1.0 29800:1.0 29807:1.0 30309:1.0 30765:1.0 31092:1.0 
1.0 1:21.0 2:3.0 4:4.0 7:4.5 12:2.0 14:1.0 15:223.0 16:15947.0 17:83.0 18:273.0 19:1.0 20:1.0 25:1.0 11875:2.0 11897:1.0 24943:1.0 25390:1.0 25454:1.0 25455:1.0 25966:1.0 26414:1.0 26721:1.0 26725:1.0 27950:1.0 28263:1.0 28525:1.0 28531:1.0 29544:1.0 29814:1.0 30307:1.0 31092:1.0 31336:1.0 
1.0 1:14.0 2:1.0 4:3.0 7:6.5 12:1.0 14:0.0 25:1.0 11875:1.0 24940:1.0 25455:1.0 25970:1.0 26477:1.0 27749:1.0 27756:1.0 28007:1.0 28020:1.0 28525:1.0 29293:1.0 29742:1.0 29793:1.0 
1.0 1:24.0 2:2.0 4:8.0 7:7.333333333333333 12:2.0 14:0.0 25:1.0 26:2.0 27:2.0 33:3540.0 11873:1.0 11875:1.0 24942:1.0 24948:1.0 24949:1.0 25455:1.0 26217:1.0 26740:1.0 26990:1.0 26995:1.0 27745:1.0 27950:1.0 28265:1.0 28270:1.0 28275:1.0 28525:1.0 28530:1.0 29230:1.0 29281:1.0 29544:1.0 29548:1.0 29807:1.0 29810:1.0 
1.0 1:17.0 2:1.0 4:7.0 7:8.0 12:1.0 14:0.0 25:1.0 26:4.0 27:4.0 33:1.0 11875:1.0 24878:1.0 24940:1.0 24948:1.0 24954:1.0 25455:1.0 26729:1.0 26986:1.0 26995:1.0 27233:1.0 27752:1.0 28525:1.0 29537:1.0 29793:1.0 30569:1.0 31351:1.0 
1.0 1:13.0 2:2.0 4:1.0 7:3.6666666666666665 12:1.0 14:0.0 25:1.0 11879:1.0 11887:1.0 25187:1.0 25390:1.0 26489:1.0 28002:1.0 28530:1.0 29287:1.0 30510:1.0 30583:2.0 31085:1.0 
1.0 1:12.0 2:1.0 4:4.0 7:5.5 12:1.0 14:0.0 26:2.0 27:2.0 33:4.57E7 11888:1.0 24946:1.0 25441:1.0 25458:1.0 28531:1.0 28773:1.0 29283:1.0 29301:1.0 29539:1.0 30074:1.0 31278:1.0 
1.0 1:18.0 2:2.0 4:8.0 7:5.333333333333333 12:3.0 14:1.0 15:301.0 16:19618.0 17:31.0 18:249.0 19:1.0 25:1.0 26:2.0 33:4690.0 11875:1.0 11883:1.0 24878:1.0 24929:1.0 24934:1.0 25189:1.0 25441:1.0 25455:1.0 25953:1.0 25965:1.0 26226:1.0 26979:1.0 27493:1.0 28002:1.0 28462:1.0 29289:1.0 29797:1.0 
1.0 1:26.0 2:3.0 4:8.0 7:5.75 12:1.0 14:1.0 15:374.0 16:37533.0 17:86.0 18:353.0 19:1.0 25:1.0 26:2.0 27:2.0 28:1.0 33:2.95E7 11875:1.0 11881:1.0 11893:1.0 25455:1.0 25701:1.0 25956:1.0 25964:1.0 25965:1.0 25966:1.0 26990:1.0 26994:1.0 27749:1.0 28005:1.0 28275:1.0 28276:1.0 28462:1.0 28777:1.0 29285:1.0 29486:1.0 29552:1.0 29811:1.0 30059:1.0 30510:1.0 30583:2.0 
1.0 1:13.0 2:2.0 3:1.0 4:5.0 7:3.6666666666666665 8:0.07692307692307693 11:1.0 12:2.0 14:0.0 25:1.0 33:3.0 11873:1.0 11875:1.0 12846:1.0 24939:1.0 24949:1.0 25441:1.0 25449:1.0 25455:1.0 26979:1.0 27442:1.0 27950:1.0 28525:1.0 
1.0 1:11.0 2:2.0 4:2.0 7:3.0 12:1.0 14:0.0 25:1.0 26:2.0 27:1.0 28:1.0 33:26800.0 11877:1.0 11891:1.0 25390:1.0 25955:1.0 25972:1.0 29547:1.0 29797:1.0 30510:1.0 30583:2.0 
1.0 1:16.0 2:1.0 3:1.0 4:5.0 5:1.0 7:7.5 8:0.0625 9:0.0625 11:1.0 12:2.0 13:1.0 14:0.0 25:1.0 26:4.0 27:4.0 11635:1.0 11890:1.0 12590:1.0 25448:1.0 25701:1.0 25964:1.0 26735:1.0 26998:1.0 27693:1.0 27697:1.0 28524:1.0 28527:1.0 29301:1.0 29539:1.0 30308:1.0 
1.0 1:22.0 2:2.0 4:6.0 7:6.666666666666667 12:2.0 14:1.0 15:4.0 16:44.0 18:4.0 25:4.0 33:4670.0 11874:1.0 11875:1.0 24932:1.0 24942:1.0 25185:1.0 25455:1.0 25458:1.0 25699:1.0 25705:1.0 25956:1.0 26996:1.0 27759:1.0 28275:1.0 28513:1.0 28525:1.0 29285:1.0 29486:1.0 29804:1.0 30510:1.0 30583:2.0 
1.0 1:11.0 2:1.0 4:4.0 7:5.0 12:2.0 14:0.0 25:1.0 33:55.0 11888:1.0 25451:1.0 26988:1.0 27507:1.0 27694:1.0 28515:1.0 28521:1.0 28773:1.0 29295:1.0 29551:1.0 
1.0 1:13.0 2:1.0 4:4.0 7:6.0 12:2.0 14:0.0 26:2.0 27:2.0 33:1.0 11881:1.0 24949:1.0 26223:1.0 26736:1.0 26990:1.0 28262:1.0 28786:1.0 29303:1.0 29800:1.0 30068:1.0 30586:1.0 31278:1.0 
1.0 1:231.0 2:10.0 3:119.0 4:31.0 5:1.0 7:20.09090909090909 8:0.5151515151515151 9:0.004329004329004329 11:7.0 12:2.0 13:1.0 14:0.0 33:25400.0 11618:1.0 11824:1.0 11825:1.0 11828:1.0 11875:4.0 11876:1.0 11888:1.0 11893:1.0 12336:1.0 12337:1.0 12338:1.0 12340:1.0 12341:1.0 12342:1.0 12343:1.0 12344:1.0 12345:1.0 12387:1.0 12389:1.0 12390:1.0 12594:2.0 12596:1.0 12597:1.0 12598:1.0 12599:1.0 12600:3.0 12601:2.0 12642:2.0 12646:2.0 12846:1.0 12848:1.0 12849:2.0 12851:1.0 12853:1.0 12856:2.0 12857:2.0 12897:1.0 12898:1.0 12899:1.0 12902:1.0 13105:1.0 13106:1.0 13107:3.0 13110:2.0 13113:1.0 13155:1.0 13157:1.0 13158:1.0 13361:1.0 13362:1.0 13363:1.0 13364:1.0 13365:1.0 13367:1.0 13410:1.0 13411:1.0 13412:1.0 13413:1.0 13414:1.0 13614:1.0 13622:1.0 13625:1.0 13666:1.0 13668:1.0 13669:1.0 13670:1.0 13870:1.0 13872:1.0 13877:2.0 13878:3.0 13922:1.0 13924:2.0 13925:3.0 14131:2.0 14136:2.0 14137:1.0 14180:1.0 14181:1.0 14182:1.0 14384:2.0 14385:2.0 14386:3.0 14387:2.0 14388:1.0 14390:2.0 14434:1.0 14435:1.0 14437:2.0 14438:1.0 14640:2.0 14645:1.0 14647:1.0 14648:2.0 14649:1.0 14691:1.0 14692:2.0 14693:1.0 24882:1.0 24888:1.0 24930:1.0 24940:1.0 24944:1.0 24953:1.0 25137:1.0 25138:2.0 25142:1.0 25143:2.0 25144:2.0 25186:1.0 25187:1.0 25189:1.0 25190:1.0 25193:1.0 25393:2.0 25394:1.0 25400:1.0 25401:1.0 25442:1.0 25444:1.0 25445:1.0 25446:1.0 25447:1.0 25453:1.0 25455:1.0 25461:1.0 25646:1.0 25648:1.0 25649:1.0 25650:1.0 25651:1.0 25652:1.0 25655:2.0 25697:2.0 25701:1.0 25702:1.0 25904:2.0 25906:1.0 25907:1.0 25908:3.0 25910:2.0 25912:2.0 25954:1.0 25955:1.0 25957:3.0 25958:2.0 26160:1.0 26161:3.0 26164:2.0 26168:1.0 26169:1.0 26210:1.0 26211:1.0 26212:2.0 26213:2.0 26214:1.0 26473:1.0 26925:1.0 26990:1.0 27438:1.0 27694:1.0 27950:1.0 28001:1.0 28004:1.0 28013:1.0 28206:1.0 28525:2.0 28718:1.0 28769:2.0 29556:1.0 29807:1.0 30059:1.0 30067:1.0 30510:1.0 30583:2.0 31088:1.0 
1.0 1:13.0 2:2.0 4:2.0 7:3.6666666666666665 12:1.0 14:0.0 25:1.0 26:2.0 27:2.0 33:1130.0 11873:1.0 11887:1.0 24940:1.0 27764:1.0 28530:1.0 29287:1.0 29486:1.0 29811:1.0 29812:1.0 30510:1.0 30583:2.0 
1.0 1:16.0 2:3.0 4:4.0 7:3.25 12:1.0 14:0.0 25:1.0 33:5.52E7 11875:1.0 11881:1.0 11893:1.0 24931:1.0 25451:1.0 25455:1.0 26996:1.0 27233:1.0 27438:1.0 28462:1.0 29802:1.0 30059:1.0 30510:1.0 30583:2.0 
1.0 1:16.0 2:1.0 4:6.0 7:7.5 12:1.0 14:0.0 33:976.0 11875:1.0 24946:1.0 25455:1.0 25968:1.0 26735:1.0 26990:1.0 28001:1.0 28261:1.0 28525:1.0 28531:1.0 28532:1.0 28776:1.0 29289:1.0 29486:1.0 29807:1.0 
1.0 1:35.0 2:3.0 4:11.0 5:1.0 7:8.0 9:0.02857142857142857 12:2.0 13:1.0 14:0.0 25:1.0 33:644000.0 11625:1.0 11878:1.0 11881:1.0 11886:1.0 24948:1.0 25445:1.0 25901:1.0 25902:1.0 25964:1.0 25966:1.0 26223:1.0 26226:1.0 26469:1.0 26983:1.0 26990:2.0 26993:1.0 27753:1.0 27756:1.0 28001:1.0 28259:1.0 28262:2.0 28276:1.0 28530:1.0 29045:1.0 29230:1.0 29293:1.0 29797:1.0 29801:1.0 30053:1.0 30510:1.0 30583:2.0 
1.0 1:23.0 2:2.0 4:6.0 5:1.0 7:7.0 9:0.043478260869565216 12:1.0 13:1.0 14:0.0 25:1.0 33:1840000.0 11635:1.0 11891:2.0 24944:1.0 25134:1.0 25185:1.0 25461:1.0 25954:1.0 25955:1.0 26996:1.0 28770:1.0 28784:1.0 28787:1.0 29289:1.0 29485:1.0 29541:1.0 29552:1.0 29557:1.0 29817:1.0 30066:1.0 30565:1.0 31022:1.0 
1.0 1:18.0 2:2.0 4:5.0 7:5.333333333333333 12:2.0 14:0.0 33:6820000.0 11875:1.0 11890:1.0 25445:1.0 25711:1.0 25966:1.0 28276:1.0 28516:1.0 28527:1.0 28530:1.0 29295:1.0 29299:1.0 29301:1.0 29486:1.0 29810:1.0 30510:1.0 30583:2.0 
1.0 1:20.0 2:2.0 4:5.0 7:6.0 12:1.0 14:0.0 28:1.0 33:3.13E7 11875:1.0 11895:1.0 24932:1.0 24947:1.0 25441:1.0 25452:1.0 25711:1.0 26217:1.0 26979:1.0 26982:1.0 27745:1.0 28531:1.0 29486:1.0 29545:1.0 29555:1.0 30510:1.0 30579:1.0 30583:2.0 
1.0 1:15.0 2:1.0 4:6.0 7:7.0 12:2.0 14:0.0 26:2.0 27:2.0 33:1450.0 11875:1.0 24932:1.0 25455:1.0 25701:1.0 25703:1.0 25902:1.0 25956:1.0 25973:1.0 26469:1.0 28525:1.0 29281:1.0 29556:1.0 29810:1.0 30067:1.0 
1.0 1:14.0 2:1.0 4:5.0 7:6.5 12:1.0 14:0.0 25:1.0 26:4.0 27:14.0 33:1.0 11886:1.0 24946:1.0 25445:1.0 25902:1.0 25972:1.0 25975:1.0 26990:1.0 28259:1.0 28261:1.0 28786:1.0 29285:1.0 29289:1.0 30561:1.0 
1.0 1:13.0 2:1.0 4:5.0 7:6.0 12:2.0 14:0.0 25:1.0 33:1450.0 11875:1.0 25455:2.0 25902:1.0 26725:1.0 28275:1.0 28525:1.0 28526:1.0 28533:1.0 28783:1.0 29544:1.0 30064:1.0 
1.0 1:8.0 2:1.0 4:2.0 7:3.5 12:1.0 14:0.0 25:1.0 26:2.0 27:2.0 33:6810.0 11876:1.0 24938:1.0 25707:1.0 26996:1.0 27182:1.0 27497:1.0 29793:1.0 
0.7306042566257693 1:15.0 2:1.0 4:4.0 5:1.0 7:7.0 9:0.06666666666666667 12:2.0 13:1.0 14:0.0 25:1.0 26:2.0 27:1.0 33:42000.0 11635:1.0 11883:1.0 25701:1.0 25966:1.0 25970:1.0 26926:1.0 27495:1.0 28260:1.0 28521:1.0 29229:1.0 29295:1.0 29556:1.0 29797:1.0 29810:1.0 
1.0 1:19.0 2:1.0 4:6.0 7:9.0 12:1.0 14:0.0 33:1400.0 11875:1.0 25455:1.0 25958:1.0 25970:1.0 26213:1.0 26217:1.0 26472:1.0 26476:1.0 26740:1.0 26982:1.0 26983:1.0 27753:1.0 27759:1.0 28263:1.0 28525:1.0 28526:1.0 29230:1.0 29797:1.0 
1.0 1:7.0 2:1.0 4:2.0 7:3.0 12:1.0 14:0.0 25:2.0 33:3110000.0 11884:1.0 25958:1.0 26158:1.0 26738:1.0 27753:1.0 29285:1.0 
1.0 1:11.0 2:1.0 4:3.0 7:5.0 12:1.0 14:0.0 33:4.0 11875:1.0 24947:1.0 25455:1.0 26729:1.0 26995:1.0 28525:1.0 29486:1.0 29544:1.0 29559:1.0 30561:1.0 
1.0 1:19.0 2:2.0 4:5.0 7:5.666666666666667 12:1.0 14:0.0 33:10.0 11875:1.0 11892:1.0 24942:1.0 24947:1.0 25448:1.0 25455:1.0 25902:1.0 26721:1.0 27950:1.0 28259:1.0 28276:1.0 28525:1.0 28526:1.0 29541:1.0 29556:1.0 29793:1.0 29807:1.0 29810:1.0 
1.0 1:9.0 2:1.0 4:4.0 7:4.0 12:1.0 14:0.0 11881:1.0 24940:1.0 26994:2.0 27765:1.0 28009:1.0 29230:1.0 30061:1.0 
1.0 1:9.0 2:1.0 4:1.0 7:4.0 12:1.0 14:0.0 33:1.0 11879:1.0 26158:1.0 26465:1.0 26470:1.0 27499:1.0 27500:1.0 27757:1.0 28007:1.0 
1.0 1:11.0 2:1.0 4:3.0 7:5.0 12:1.0 14:0.0 25:1.0 33:15.0 11875:1.0 25455:1.0 26729:1.0 26926:1.0 28276:1.0 28525:1.0 29544:1.0 29557:1.0 29811:1.0 30067:1.0 
1.0 1:13.0 2:2.0 4:2.0 7:3.6666666666666665 12:1.0 14:0.0 26:3.0 27:3.0 28:1.0 33:1420.0 11875:1.0 11886:1.0 25455:1.0 25977:1.0 28206:1.0 28261:1.0 28525:1.0 29550:1.0 30510:1.0 30583:2.0 31091:1.0 
1.0 1:20.0 2:2.0 4:6.0 7:6.0 12:2.0 14:0.0 33:1310.0 11873:1.0 11875:1.0 24935:1.0 24940:1.0 24949:1.0 25455:1.0 26220:1.0 26483:1.0 27745:1.0 27750:1.0 27756:1.0 28462:1.0 28525:1.0 29537:1.0 29807:1.0 30068:1.0 30510:1.0 30583:2.0 
1.0 1:21.0 2:1.0 4:7.0 7:10.0 12:2.0 14:0.0 33:2000.0 11875:1.0 24948:1.0 25448:1.0 25455:1.0 25971:1.0 25975:1.0 26217:1.0 26736:1.0 26981:1.0 26988:1.0 27749:1.0 28001:1.0 28518:1.0 28525:1.0 28786:1.0 29295:1.0 29486:1.0 29795:1.0 30313:1.0 30573:1.0 
1.0 1:11.0 2:2.0 7:3.0 14:1.0 15:1195.0 16:122988.0 17:739.0 18:2028.0 19:1.0 25:1.0 33:24.0 11875:1.0 11884:1.0 25390:1.0 25454:1.0 26738:1.0 27752:1.0 29283:1.0 30510:1.0 30583:2.0 
1.0 1:19.0 2:2.0 4:7.0 7:5.666666666666667 12:3.0 14:0.0 33:2440.0 11874:1.0 11875:1.0 24933:1.0 25202:1.0 25449:1.0 25455:1.0 25717:1.0 25956:1.0 26977:1.0 26990:1.0 26992:1.0 27950:1.0 28259:1.0 28525:1.0 28777:1.0 28786:1.0 29289:1.0 29998:1.0 
1.0 1:20.0 2:2.0 4:6.0 5:1.0 7:6.0 9:0.05 12:1.0 13:1.0 14:1.0 15:4.0 16:44.0 18:4.0 25:1.0 28:1.0 11628:1.0 11875:1.0 11876:1.0 25389:1.0 25455:1.0 25711:1.0 26473:1.0 26926:1.0 26990:1.0 27235:1.0 27759:1.0 28009:1.0 28206:1.0 28519:1.0 28525:2.0 28532:1.0 29546:1.0 29807:1.0 
1.0 1:18.0 2:1.0 4:6.0 7:8.5 12:1.0 14:0.0 25:1.0 26:2.0 27:1.0 33:178000.0 11881:1.0 25970:1.0 26223:1.0 26990:2.0 28262:1.0 28275:1.0 28276:1.0 28526:1.0 28535:1.0 29299:1.0 29486:1.0 29556:1.0 29807:2.0 30565:1.0 30569:1.0 
1.0 1:16.0 2:2.0 4:5.0 7:4.666666666666667 12:1.0 14:0.0 33:3180.0 11875:1.0 11877:1.0 24948:1.0 25455:1.0 25902:1.0 25966:1.0 27247:1.0 28266:1.0 28525:1.0 28537:1.0 29797:1.0 30510:1.0 30583:2.0 31073:1.0 
1.0 1:14.0 2:2.0 4:3.0 7:4.0 12:1.0 14:0.0 28:1.0 33:3.0 11874:1.0 11876:1.0 24944:1.0 25185:1.0 25390:1.0 25701:1.0 25964:1.0 27764:1.0 28771:1.0 29793:1.0 30510:1.0 30583:2.0 
1.0 1:19.0 2:1.0 4:7.0 5:1.0 7:9.0 9:0.05263157894736842 12:2.0 13:1.0 14:0.0 25:1.0 26:2.0 27:2.0 33:783.0 11636:1.0 11875:1.0 24937:1.0 24942:2.0 25455:1.0 25646:1.0 25901:1.0 26469:1.0 26721:1.0 26988:1.0 27745:1.0 28260:1.0 28263:1.0 28525:1.0 28530:1.0 29281:1.0 29800:1.0 
1.0 1:22.0 2:2.0 3:1.0 4:5.0 5:1.0 7:6.666666666666667 8:0.045454545454545456 9:0.045454545454545456 11:1.0 12:1.0 13:1.0 14:0.0 25:1.0 33:1010000.0 11637:1.0 11885:1.0 11890:1.0 12590:1.0 25455:1.0 25460:1.0 25955:1.0 25970:1.0 27769:1.0 28025:1.0 28530:1.0 29285:1.0 29298:1.0 29299:1.0 29301:1.0 29486:1.0 29541:1.0 29804:1.0 30067:1.0 31021:1.0 31025:1.0 
1.0 1:12.0 2:1.0 4:1.0 7:5.5 12:1.0 14:0.0 33:1.0 11875:1.0 25202:1.0 25455:1.0 27500:1.0 27769:1.0 28018:1.0 28206:1.0 28525:1.0 29282:1.0 29291:1.0 31086:1.0 
1.0 1:20.0 2:1.0 4:7.0 7:9.5 12:1.0 14:1.0 15:366.0 16:25504.0 17:71.0 18:357.0 19:1.0 20:1.0 25:1.0 26:2.0 27:2.0 11880:1.0 24946:1.0 25189:1.0 25954:1.0 25964:1.0 25970:1.0 25972:1.0 26735:1.0 26741:1.0 27496:1.0 27694:1.0 28532:1.0 28769:1.0 29291:1.0 29306:1.0 29541:1.0 29797:1.0 29808:1.0 31347:1.0 
1.0 1:16.0 2:1.0 4:6.0 7:7.5 12:2.0 14:0.0 26:2.0 27:2.0 33:4270.0 11875:1.0 24935:1.0 24940:1.0 24949:1.0 25455:1.0 26220:1.0 26483:1.0 27745:1.0 27750:1.0 27756:1.0 28462:1.0 28525:1.0 29537:1.0 29807:1.0 30068:1.0 
1.0 1:20.0 2:2.0 4:8.0 7:6.0 12:2.0 14:0.0 28:1.0 33:1180000.0 11877:1.0 11890:1.0 24942:1.0 24949:1.0 25705:1.0 25956:1.0 26996:1.0 28277:1.0 29281:2.0 29295:1.0 29486:1.0 29813:1.0 30066:2.0 30067:1.0 30510:1.0 30583:2.0 
1.0 1:12.0 2:1.0 4:2.0 7:5.5 12:1.0 14:0.0 33:4280000.0 11888:1.0 24934:1.0 25707:1.0 26228:1.0 26990:1.0 27506:1.0 28260:1.0 28780:1.0 29281:1.0 29742:1.0 30569:1.0 
1.0 1:19.0 2:2.0 4:9.0 7:5.666666666666667 12:2.0 14:0.0 26:2.0 27:2.0 33:647.0 11873:1.0 11875:1.0 24930:1.0 24939:1.0 24940:1.0 24949:1.0 25185:1.0 25455:1.0 26990:1.0 27497:1.0 27503:1.0 27765:1.0 27950:1.0 28257:1.0 28525:1.0 28532:1.0 29793:1.0 29998:1.0 
1.0 1:15.0 2:2.0 3:1.0 4:5.0 7:4.333333333333333 8:0.06666666666666667 11:1.0 12:1.0 14:0.0 33:340000.0 11874:1.0 11877:1.0 12900:1.0 25202:1.0 25701:1.0 25717:1.0 25956:1.0 25962:1.0 26735:1.0 27253:1.0 27752:1.0 28462:1.0 29998:1.0 30060:1.0 
1.0 1:16.0 2:2.0 4:6.0 7:4.666666666666667 12:2.0 14:0.0 25:1.0 26:2.0 27:2.0 33:1.0 11873:1.0 11875:1.0 24949:1.0 25455:1.0 25957:1.0 25966:1.0 26995:1.0 27950:1.0 28009:1.0 28206:1.0 28525:1.0 29555:1.0 29556:1.0 29815:1.0 30565:1.0 
1.0 1:11.0 2:1.0 4:2.0 7:5.0 12:1.0 14:0.0 25:1.0 26:2.0 27:2.0 33:6.0 11875:1.0 24946:1.0 25455:1.0 25702:1.0 26158:1.0 28525:1.0 28769:1.0 28772:1.0 29300:1.0 29808:1.0 
1.0 1:19.0 2:2.0 4:5.0 7:5.666666666666667 12:1.0 14:0.0 25:1.0 26:2.0 27:1.0 28:1.0 33:67.0 11875:2.0 24878:1.0 24932:1.0 24942:1.0 25441:1.0 25449:1.0 25452:1.0 25455:1.0 25697:1.0 26990:1.0 27747:1.0 28257:1.0 28259:1.0 28525:1.0 30510:1.0 30583:2.0 
1.0 1:14.0 2:1.0 4:5.0 7:6.5 12:1.0 14:0.0 26:2.0 27:2.0 11875:1.0 24878:1.0 25455:1.0 25701:1.0 25964:1.0 25970:1.0 27509:1.0 27745:1.0 27756:1.0 28525:1.0 29284:1.0 29285:1.0 30066:1.0 
0.4928313855275147 1:12.0 2:2.0 4:4.0 7:3.3333333333333335 12:2.0 14:1.0 15:281.0 16:22728.0 17:45.0 18:249.0 19:1.0 25:1.0 26:2.0 27:1.0 11874:1.0 11875:1.0 24931:1.0 24952:1.0 25202:1.0 25449:1.0 25455:1.0 26977:1.0 27950:1.0 28525:1.0 30766:1.0 
1.0 1:14.0 2:2.0 4:4.0 7:4.0 12:2.0 14:0.0 26:2.0 27:2.0 28:1.0 33:695.0 11875:2.0 25441:1.0 25455:1.0 27764:1.0 28524:1.0 28527:1.0 28537:1.0 29807:1.0 30510:1.0 30583:2.0 31022:1.0 
1.0 1:10.0 2:1.0 4:5.0 7:4.5 12:3.0 14:0.0 25:1.0 33:14.0 11875:1.0 24929:1.0 24942:1.0 25455:1.0 28271:1.0 28525:1.0 28535:1.0 30049:1.0 30510:1.0 
1.0 1:12.0 2:1.0 4:5.0 7:5.5 12:2.0 14:1.0 15:350.0 16:29489.0 17:78.0 18:342.0 19:1.0 20:1.0 25:1.0 33:5030.0 11894:1.0 24940:1.0 24942:1.0 25972:1.0 27493:1.0 27759:1.0 28206:1.0 28513:1.0 28523:1.0 29807:1.0 30318:1.0 
0.8846304046307203 1:12.0 2:1.0 4:5.0 7:5.5 12:2.0 14:1.0 15:193.0 16:13804.0 17:20.0 18:172.0 19:1.0 25:1.0 26:2.0 27:1.0 33:59.0 11875:1.0 24942:1.0 25455:1.0 25953:1.0 25972:1.0 28261:1.0 28271:1.0 28462:1.0 28525:1.0 29814:1.0 30309:1.0 
0.7457671626129203 1:25.0 2:3.0 4:7.0 7:5.5 12:1.0 14:0.0 25:1.0 26:2.0 27:2.0 28:1.0 33:100000.0 11873:1.0 11875:1.0 11893:1.0 24932:1.0 24946:1.0 25455:1.0 25700:1.0 25701:1.0 25970:1.0 25977:1.0 26989:1.0 27749:1.0 28001:1.0 28462:1.0 28786:1.0 29289:1.0 29292:1.0 29305:1.0 30059:1.0 30510:1.0 30583:2.0 31022:1.0 31088:1.0 
1.0 1:12.0 2:1.0 4:5.0 7:5.5 12:1.0 14:0.0 25:1.0 26:2.0 11875:1.0 24878:1.0 25441:1.0 25455:1.0 25705:1.0 26990:1.0 26998:1.0 28271:1.0 28515:1.0 28525:1.0 30313:1.0 
1.0 1:15.0 2:2.0 4:3.0 7:4.333333333333333 12:1.0 14:0.0 25:1.0 26:2.0 27:2.0 28:1.0 33:43000.0 11880:1.0 11888:1.0 26741:1.0 28015:1.0 28276:1.0 28526:1.0 28531:1.0 28783:1.0 29556:1.0 29742:1.0 29805:1.0 30510:1.0 30583:2.0 
1.0 1:15.0 2:2.0 4:3.0 7:4.333333333333333 12:2.0 14:1.0 15:363.0 16:16553.0 17:84.0 18:300.0 19:1.0 25:1.0 11875:1.0 11880:1.0 24931:1.0 25448:1.0 25454:2.0 26729:1.0 26741:1.0 26979:1.0 28206:1.0 30049:1.0 30510:1.0 30583:2.0 
1.0 1:12.0 2:2.0 4:2.0 7:3.3333333333333335 12:1.0 14:1.0 15:206.0 16:25846.0 17:41.0 18:233.0 19:1.0 25:1.0 33:7140.0 11875:1.0 11879:1.0 24947:1.0 25455:1.0 26477:1.0 28001:1.0 29486:1.0 29555:1.0 30510:1.0 30583:2.0 
1.0 1:16.0 2:1.0 4:5.0 7:7.5 12:2.0 14:0.0 25:1.0 26:2.0 27:2.0 33:3.29E7 11890:1.0 24878:1.0 25197:1.0 25202:1.0 25452:1.0 26977:1.0 27765:1.0 28023:1.0 29301:2.0 29545:1.0 29555:1.0 30050:1.0 30067:1.0 30563:1.0 
1.0 1:8.0 2:1.0 4:2.0 7:3.5 12:1.0 14:0.0 25:1.0 26:2.0 27:2.0 11890:1.0 25715:1.0 26479:1.0 28462:1.0 29301:1.0 29543:1.0 29796:1.0 
1.0 1:15.0 2:1.0 4:4.0 7:7.0 12:1.0 14:1.0 15:18.0 16:1416.0 17:2.0 18:15.0 19:1.0 25:1.0 26:2.0 27:2.0 33:731.0 11875:1.0 25390:1.0 25455:1.0 25701:1.0 25712:1.0 25971:1.0 26478:1.0 26983:1.0 26990:1.0 28259:1.0 28265:1.0 28525:1.0 28772:1.0 29545:1.0 
1.0 1:14.0 2:1.0 4:3.0 7:6.5 12:1.0 14:0.0 26:2.0 27:2.0 11887:1.0 25186:1.0 25199:1.0 25209:1.0 26226:1.0 26996:1.0 28514:1.0 28530:1.0 29287:1.0 29289:1.0 29818:1.0 31078:1.0 31278:1.0 
1.0 1:28.0 2:2.0 4:10.0 7:8.666666666666666 12:2.0 14:0.0 25:1.0 26:4.0 27:4.0 28:1.0 33:329000.0 11875:1.0 11892:1.0 24930:1.0 24937:1.0 24938:1.0 25185:1.0 25441:1.0 25452:1.0 25701:1.0 25961:1.0 25970:1.0 26926:1.0 26981:1.0 26990:1.0 27247:1.0 28271:1.0 28278:1.0 28515:1.0 28531:1.0 29281:1.0 29294:1.0 29540:1.0 29810:1.0 30313:1.0 30510:1.0 30583:2.0 
0.6401641728766629 1:12.0 2:1.0 4:4.0 7:5.5 12:2.0 14:1.0 15:23.0 16:744.0 17:12.0 18:31.0 19:1.0 25:1.0 26:2.0 27:2.0 33:19.0 11880:1.0 24941:1.0 26476:1.0 26731:1.0 27745:1.0 28015:1.0 28530:1.0 28533:1.0 29295:1.0 29486:1.0 30067:1.0 
1.0 1:13.0 2:2.0 4:3.0 7:3.6666666666666665 12:1.0 14:0.0 25:1.0 26:2.0 27:2.0 28:1.0 33:2190.0 11873:1.0 11875:1.0 24945:1.0 25455:1.0 25646:1.0 28525:1.0 28534:1.0 29039:1.0 30308:1.0 30510:1.0 30583:2.0 
1.0 1:21.0 2:1.0 4:7.0 7:10.0 12:1.0 14:1.0 15:16.0 16:1289.0 18:12.0 25:1.0 11887:1.0 25966:2.0 25972:1.0 25974:1.0 26223:1.0 26469:1.0 28005:1.0 28271:1.0 28276:1.0 28530:2.0 28532:1.0 29287:2.0 29486:1.0 29797:1.0 29805:1.0 29811:1.0 30309:1.0 
1.0 1:10.0 2:1.0 4:1.0 7:4.5 12:1.0 14:0.0 25:1.0 26:2.0 27:2.0 33:1.0 11887:1.0 25191:1.0 25390:1.0 26467:1.0 27242:1.0 27243:1.0 27490:1.0 28530:1.0 29287:1.0 
1.0 1:25.0 2:2.0 4:8.0 5:2.0 7:7.666666666666667 9:0.08 12:2.0 13:1.0 14:0.0 25:1.0 26:2.0 27:1.0 33:11700.0 11621:1.0 11628:1.0 11875:1.0 11893:1.0 25455:1.0 25701:1.0 25901:1.0 25957:1.0 25966:1.0 25974:1.0 26229:1.0 26472:1.0 26740:1.0 26983:1.0 27693:1.0 27753:1.0 28276:1.0 28462:1.0 29486:1.0 29798:1.0 29811:1.0 30059:1.0 30060:1.0 30309:1.0 
1.0 1:96.0 2:10.0 3:1.0 4:31.0 5:3.0 7:7.818181818181818 8:0.010416666666666666 9:0.03125 11:1.0 12:2.0 13:1.0 14:1.0 15:12.0 16:219.0 17:1.0 18:9.0 19:1.0 25:1.0 11617:1.0 11629:1.0 11637:1.0 11873:2.0 11874:1.0 11875:3.0 11876:1.0 11887:1.0 11890:1.0 11891:1.0 14382:1.0 24931:2.0 24935:1.0 24937:1.0 24940:1.0 24942:1.0 24947:1.0 24948:1.0 25202:1.0 25443:1.0 25455:4.0 25460:1.0 25705:1.0 25953:1.0 25961:1.0 25965:1.0 25966:1.0 25970:2.0 26424:1.0 26469:1.0 26725:1.0 26988:1.0 26990:2.0 26991:1.0 26994:1.0 26998:1.0 27694:1.0 27749:1.0 27753:1.0 27949:1.0 27950:2.0 28001:2.0 28005:1.0 28206:1.0 28257:1.0 28261:1.0 28264:1.0 28268:1.0 28276:3.0 28462:1.0 28525:3.0 28526:2.0 28533:1.0 28717:1.0 29287:1.0 29293:1.0 29295:1.0 29300:1.0 29301:1.0 29485:1.0 29541:1.0 29552:1.0 29556:1.0 29557:1.0 29742:3.0 29801:2.0 29810:1.0 29811:1.0 30062:2.0 30067:2.0 30305:1.0 30510:1.0 30583:2.0 
1.0 1:20.0 2:2.0 4:8.0 5:1.0 7:6.0 9:0.05 12:2.0 13:1.0 14:0.0 25:1.0 33:1010.0 11629:1.0 11887:1.0 11891:1.0 24937:1.0 26988:1.0 27437:1.0 27759:2.0 28001:1.0 28462:1.0 28523:1.0 28527:1.0 28533:1.0 29541:1.0 29804:1.0 30068:1.0 30510:1.0 30583:2.0 
1.0 1:19.0 2:1.0 4:6.0 7:9.0 12:2.0 14:0.0 25:1.0 26:2.0 27:2.0 33:9.0 11886:1.0 24940:1.0 24946:1.0 25441:1.0 25451:1.0 25953:1.0 25971:1.0 25972:1.0 26723:1.0 26725:1.0 27438:1.0 27764:1.0 28261:1.0 28515:1.0 29285:1.0 29556:1.0 29800:1.0 29807:1.0 
1.0 1:13.0 2:2.0 4:6.0 7:3.6666666666666665 12:2.0 14:0.0 25:2.0 33:293000.0 11875:1.0 11893:1.0 25193:1.0 25455:1.0 25902:1.0 25966:1.0 26991:1.0 28261:1.0 28462:1.0 28534:1.0 30059:1.0 30309:1.0 
1.0 1:25.0 2:3.0 4:5.0 7:5.5 12:1.0 14:0.0 25:1.0 28:1.0 33:9340.0 11881:1.0 11891:2.0 24941:1.0 24953:1.0 25185:1.0 25448:1.0 25710:1.0 26670:1.0 26980:1.0 27509:1.0 27759:1.0 28002:1.0 28206:1.0 28274:1.0 28526:1.0 29281:1.0 29539:1.0 29540:1.0 30060:1.0 30510:1.0 30583:2.0 31083:1.0 
1.0 1:23.0 2:2.0 4:8.0 7:7.0 12:2.0 14:0.0 26:2.0 27:2.0 28:1.0 33:1570.0 11875:1.0 11876:1.0 25455:1.0 25461:1.0 25711:1.0 25970:1.0 25974:1.0 25975:1.0 26217:1.0 26981:1.0 26988:1.0 27749:1.0 28515:1.0 28525:1.0 29285:1.0 29542:1.0 30067:1.0 30313:1.0 30510:2.0 30583:2.0 
1.0 1:14.0 2:1.0 4:4.0 7:6.5 12:1.0 14:0.0 25:1.0 26:2.0 27:2.0 33:1680.0 11875:1.0 24878:1.0 25466:1.0 25701:1.0 25956:1.0 25974:1.0 27489:1.0 28528:1.0 28773:1.0 28787:1.0 29295:1.0 29547:1.0 30322:1.0 
1.0 1:14.0 2:2.0 4:1.0 7:4.0 12:1.0 14:0.0 25:1.0 26:2.0 27:2.0 11878:1.0 11886:1.0 25972:1.0 26228:1.0 26670:1.0 28261:1.0 29812:1.0 29818:1.0 30510:1.0 30583:2.0 30824:1.0 31352:1.0 
1.0 1:10.0 2:1.0 4:2.0 7:4.5 12:1.0 14:0.0 25:1.0 26:2.0 27:2.0 11875:1.0 25455:1.0 26482:1.0 28525:1.0 28531:1.0 28786:1.0 29295:1.0 29296:1.0 29486:1.0 
1.0 1:12.0 2:1.0 4:4.0 7:5.5 12:2.0 14:0.0 25:1.0 26:3.0 27:3.0 33:7900000.0 11888:1.0 24878:1.0 24929:1.0 24940:1.0 26209:1.0 26988:1.0 27745:1.0 27750:1.0 27756:1.0 28780:1.0 30313:1.0 
1.0 1:24.0 2:3.0 4:8.0 7:5.25 12:2.0 14:0.0 25:1.0 26:2.0 27:2.0 28:1.0 33:6.0E7 11875:1.0 11889:1.0 11898:1.0 25451:1.0 25455:1.0 25965:1.0 25969:1.0 26979:1.0 27500:1.0 27769:1.0 28005:1.0 28462:1.0 28532:1.0 29045:2.0 29797:1.0 30057:1.0 30063:1.0 30510:1.0 30583:2.0 31022:1.0 31329:1.0 
1.0 1:18.0 2:2.0 4:4.0 7:5.333333333333333 12:1.0 14:0.0 26:3.0 27:3.0 33:49500.0 11888:1.0 11891:1.0 24946:2.0 25189:1.0 25646:1.0 25963:1.0 26465:1.0 27438:1.0 27759:1.0 28514:1.0 28780:1.0 29284:1.0 29287:1.0 29556:1.0 29793:1.0 31340:1.0 
1.0 1:16.0 2:2.0 3:3.0 4:2.0 5:1.0 7:4.666666666666667 8:0.1875 9:0.0625 11:3.0 12:1.0 13:1.0 14:0.0 25:1.0 26:2.0 27:2.0 28:1.0 33:7.0 11636:1.0 11874:1.0 11875:1.0 13102:1.0 13880:1.0 14387:1.0 25196:1.0 25455:1.0 25901:1.0 27749:1.0 28525:1.0 29750:1.0 30510:1.0 30583:2.0 
1.0 1:13.0 2:1.0 4:4.0 7:6.0 12:2.0 14:0.0 25:1.0 26:2.0 33:3590.0 11875:1.0 24931:2.0 25185:1.0 25451:1.0 25455:1.0 25460:1.0 25953:1.0 27438:1.0 28525:1.0 29285:1.0 29794:1.0 
1.0 1:14.0 2:1.0 4:5.0 7:6.5 12:2.0 14:0.0 25:1.0 26:3.0 27:3.0 33:4550000.0 11874:1.0 24941:1.0 24948:1.0 25193:1.0 25953:1.0 25971:1.0 27002:1.0 28001:1.0 28013:2.0 29486:1.0 29797:2.0 
0.7309118471859976 1:20.0 2:2.0 4:6.0 7:6.0 12:2.0 14:0.0 25:1.0 26:2.0 27:2.0 28:1.0 33:1620000.0 11875:1.0 11891:1.0 25441:1.0 25445:1.0 25902:1.0 25957:1.0 25972:1.0 26979:1.0 27763:1.0 28524:1.0 29551:1.0 29556:1.0 29559:1.0 29801:1.0 29811:1.0 30510:1.0 30565:1.0 30583:2.0 
1.0 1:16.0 2:1.0 4:5.0 7:7.5 12:1.0 14:1.0 15:316.0 16:40576.0 17:84.0 18:360.0 19:1.0 25:1.0 26:2.0 27:2.0 33:1.0 11875:1.0 24940:1.0 25205:1.0 25455:1.0 25966:1.0 26469:1.0 26996:1.0 27694:1.0 27756:1.0 27763:1.0 28265:1.0 28525:1.0 29543:1.0 29793:1.0 30060:1.0 
1.0 1:18.0 2:2.0 4:5.0 7:5.333333333333333 12:1.0 14:0.0 25:1.0 26:2.0 27:2.0 28:1.0 33:148000.0 11877:1.0 11892:1.0 24932:1.0 24942:1.0 25441:1.0 25448:1.0 25711:1.0 25955:1.0 25966:1.0 28257:1.0 28259:1.0 28530:1.0 29230:1.0 29797:1.0 30510:1.0 30583:2.0 
1.0 1:10.0 2:1.0 4:2.0 7:4.5 12:1.0 14:0.0 25:1.0 26:2.0 27:2.0 11875:1.0 25202:1.0 25203:1.0 25455:1.0 26996:1.0 28525:1.0 29230:1.0 29538:1.0 29794:1.0 
1.0 1:21.0 2:2.0 4:5.0 7:6.333333333333333 12:2.0 14:1.0 15:49.0 16:4044.0 17:1.0 18:33.0 19:1.0 25:1.0 26:2.0 27:2.0 28:1.0 33:68.0 11875:1.0 11885:1.0 24940:1.0 24948:1.0 25448:1.0 25455:1.0 25701:1.0 25953:1.0 25970:1.0 26724:1.0 27749:1.0 28025:1.0 28525:1.0 29230:1.0 29795:1.0 30510:1.0 30561:1.0 30583:2.0 31095:1.0 
1.0 1:15.0 2:1.0 4:5.0 7:7.0 12:1.0 14:0.0 25:1.0 26:2.0 27:3.0 33:948.0 11890:1.0 24948:1.0 25701:1.0 25971:1.0 25975:1.0 26478:1.0 26983:1.0 28001:1.0 28206:1.0 28261:1.0 29295:1.0 29545:1.0 29796:1.0 30573:1.0 
1.0 1:14.0 2:2.0 4:2.0 7:4.0 12:1.0 14:0.0 25:1.0 26:2.0 27:2.0 28:1.0 33:7680.0 11874:1.0 11875:1.0 24942:1.0 25185:1.0 25455:1.0 27500:1.0 27763:1.0 28267:1.0 28525:1.0 29486:1.0 30510:1.0 30583:2.0 
1.0 1:16.0 2:2.0 4:6.0 7:4.666666666666667 12:2.0 14:0.0 25:1.0 26:2.0 27:2.0 33:4.0 11874:1.0 11875:1.0 24878:1.0 24948:1.0 25185:1.0 25202:1.0 25455:1.0 25961:1.0 26978:1.0 27950:1.0 28525:1.0 29285:1.0 29793:1.0 29813:1.0 30068:1.0 
1.0 1:14.0 2:1.0 4:4.0 7:6.5 12:1.0 14:0.0 25:1.0 26:2.0 27:2.0 33:682.0 11875:1.0 25455:1.0 26990:1.0 27507:1.0 27753:1.0 28015:1.0 28267:1.0 28524:1.0 28525:2.0 28786:1.0 29295:1.0 29486:1.0 
0.9410681966487535 1:19.0 2:2.0 4:7.0 7:5.666666666666667 12:1.0 14:1.0 15:105.0 16:7619.0 17:5.0 18:82.0 19:1.0 25:1.0 26:2.0 27:2.0 11873:1.0 11875:1.0 24940:1.0 24946:2.0 24947:1.0 25455:1.0 25971:1.0 26989:1.0 27745:1.0 27950:1.0 28001:1.0 28016:1.0 28525:1.0 28773:1.0 29293:1.0 29486:1.0 29537:1.0 
1.0 1:20.0 2:2.0 3:1.0 4:4.0 7:6.0 8:0.05 11:1.0 12:1.0 14:0.0 25:1.0 26:2.0 27:2.0 28:1.0 33:11100.0 11875:1.0 11888:1.0 12590:1.0 24944:1.0 25455:1.0 25459:1.0 26482:1.0 26729:1.0 26979:1.0 28519:1.0 28525:1.0 28776:1.0 28786:1.0 29281:1.0 29295:1.0 29489:1.0 30510:1.0 30583:2.0 
1.0 1:19.0 2:2.0 4:7.0 7:5.666666666666667 12:2.0 14:0.0 25:2.0 26:2.0 27:2.0 33:1430000.0 11875:1.0 11898:1.0 25205:1.0 25455:2.0 25701:1.0 25705:1.0 25970:1.0 26988:1.0 26994:1.0 27748:1.0 28462:1.0 28514:1.0 29283:1.0 29299:1.0 29486:1.0 30057:1.0 31329:1.0 
1.0 1:15.0 2:1.0 4:6.0 7:7.0 12:2.0 14:0.0 25:1.0 26:2.0 27:2.0 11875:1.0 24933:1.0 24944:1.0 25455:1.0 25978:1.0 26977:1.0 27438:1.0 28011:1.0 28265:1.0 28525:1.0 28526:1.0 28769:1.0 29551:1.0 31341:1.0 
1.0 1:12.0 2:1.0 4:5.0 7:5.5 12:3.0 14:0.0 25:1.0 26:2.0 27:4.0 33:25.0 11875:1.0 25452:1.0 27002:1.0 27765:1.0 28527:1.0 28530:1.0 29033:1.0 29230:1.0 30050:1.0 30063:1.0 31349:1.0 
1.0 1:16.0 2:1.0 4:6.0 7:7.5 12:1.0 14:0.0 25:1.0 26:2.0 27:2.0 33:2030.0 11887:1.0 24935:1.0 24942:1.0 24950:1.0 25697:1.0 25902:1.0 26469:1.0 26988:1.0 27745:1.0 27756:1.0 28260:1.0 28530:1.0 28769:1.0 29287:1.0 30313:1.0 
1.0 1:32.0 2:2.0 3:4.0 4:10.0 7:10.0 8:0.125 11:4.0 12:1.0 14:1.0 15:6.0 16:122.0 18:5.0 25:1.0 11875:1.0 11888:1.0 12590:1.0 12853:1.0 13105:1.0 13619:1.0 25455:2.0 25970:5.0 25972:1.0 26989:1.0 28005:1.0 28016:1.0 28525:2.0 28773:1.0 28789:1.0 29230:1.0 29234:1.0 29283:1.0 29289:1.0 29302:1.0 29541:1.0 29797:2.0 30068:1.0 30309:1.0 
1.0 1:11.0 2:1.0 4:3.0 7:5.0 12:1.0 14:0.0 25:1.0 26:2.0 27:2.0 33:1.0 11886:1.0 24940:1.0 24942:1.0 25703:1.0 25972:1.0 26465:1.0 27748:1.0 28206:1.0 28257:1.0 28261:1.0 
1.0 1:13.0 2:2.0 4:4.0 7:3.6666666666666665 12:2.0 14:1.0 15:367.0 16:19843.0 17:21.0 18:298.0 19:1.0 25:1.0 26:2.0 27:2.0 11875:1.0 11885:1.0 25455:1.0 25961:1.0 26735:1.0 26995:1.0 27950:1.0 28005:1.0 28025:1.0 28462:1.0 28525:1.0 29544:1.0 
1.0 1:18.0 2:1.0 4:6.0 7:8.5 12:1.0 14:1.0 15:17.0 16:1176.0 17:2.0 18:17.0 19:1.0 25:1.0 26:2.0 27:2.0 33:1650.0 11887:1.0 24932:1.0 25459:1.0 25701:1.0 25964:1.0 26473:1.0 26979:1.0 26995:1.0 27759:1.0 28519:1.0 28530:1.0 29281:1.0 29287:1.0 29486:1.0 29556:1.0 29801:1.0 29810:1.0 
0.7101742649133053 1:19.0 2:2.0 4:5.0 7:5.666666666666667 12:1.0 14:1.0 15:179.0 16:13571.0 17:16.0 18:156.0 19:1.0 25:1.0 26:2.0 27:2.0 28:1.0 33:2.0 11873:1.0 11886:1.0 24935:1.0 25964:1.0 25971:1.0 25972:1.0 26469:1.0 26990:1.0 27497:1.0 27749:1.0 28206:1.0 28261:1.0 29547:1.0 29555:2.0 30510:1.0 30583:2.0 
1.0 1:26.0 2:2.0 4:8.0 7:8.0 12:2.0 14:0.0 25:1.0 33:2930.0 11883:1.0 11886:1.0 24932:1.0 24947:1.0 24948:1.0 25709:1.0 25971:1.0 26981:1.0 26990:1.0 26995:1.0 27489:1.0 28009:1.0 28265:1.0 28268:1.0 28513:1.0 29281:1.0 29486:1.0 29556:2.0 29801:1.0 29807:1.0 29810:1.0 30510:1.0 30583:2.0 
1.0 1:12.0 2:1.0 4:3.0 5:1.0 7:5.5 9:0.08333333333333333 12:1.0 13:1.0 14:0.0 25:1.0 26:2.0 27:2.0 11627:1.0 11875:1.0 24878:1.0 25455:1.0 26988:1.0 27507:1.0 27753:1.0 27769:1.0 28525:1.0 29537:1.0 31021:1.0 
1.0 1:19.0 2:1.0 4:7.0 5:1.0 7:9.0 9:0.05263157894736842 12:2.0 13:1.0 14:0.0 25:1.0 26:2.0 27:10.0 33:17400.0 11617:1.0 11875:1.0 24931:1.0 24948:1.0 25443:1.0 25455:2.0 25645:1.0 25697:1.0 25956:1.0 28276:1.0 28525:1.0 28533:1.0 28772:1.0 29742:1.0 29797:1.0 30062:1.0 30064:1.0 
1.0 1:14.0 2:2.0 4:4.0 7:4.0 12:1.0 14:1.0 15:480.0 16:30335.0 17:56.0 18:436.0 19:1.0 25:1.0 33:379000.0 11881:1.0 11890:1.0 25972:1.0 26926:1.0 26990:1.0 28276:1.0 29301:1.0 29541:1.0 29801:1.0 29811:1.0 30510:1.0 30583:2.0 
1.0 1:24.0 2:2.0 4:8.0 5:1.0 7:7.333333333333333 9:0.041666666666666664 12:2.0 13:1.0 14:0.0 25:1.0 26:2.0 27:2.0 33:169000.0 11619:1.0 11875:1.0 11893:1.0 24948:1.0 25451:1.0 25455:1.0 25458:1.0 25717:1.0 25902:1.0 25953:1.0 26229:1.0 26998:1.0 27437:1.0 28462:1.0 29285:1.0 29801:1.0 30051:1.0 30059:1.0 30074:1.0 30309:1.0 31076:1.0 31353:1.0 31354:1.0 
1.0 1:12.0 2:2.0 4:4.0 7:3.3333333333333335 12:2.0 14:0.0 33:9660.0 11884:1.0 11893:1.0 24942:1.0 25972:1.0 27745:1.0 28261:1.0 29742:1.0 30049:1.0 30510:1.0 30583:2.0 
1.0 1:19.0 2:1.0 4:7.0 7:9.0 12:1.0 14:0.0 25:2.0 26:2.0 27:2.0 33:8420000.0 11885:1.0 24948:1.0 25441:1.0 25701:1.0 25704:1.0 25705:1.0 25956:2.0 26414:1.0 26735:1.0 26979:1.0 26990:1.0 28005:1.0 28263:1.0 28531:1.0 29556:1.0 29797:1.0 29801:1.0 
1.0 1:14.0 2:2.0 4:4.0 7:4.0 12:1.0 14:1.0 15:8.0 16:109.0 18:5.0 25:1.0 26:3.0 27:3.0 33:1.0 11875:1.0 11885:1.0 25205:1.0 25455:1.0 25902:1.0 26476:1.0 26990:1.0 27749:1.0 28026:1.0 28263:1.0 28462:1.0 29289:1.0 30066:1.0 
1.0 1:18.0 2:2.0 4:7.0 7:5.333333333333333 12:2.0 14:1.0 15:133.0 16:21866.0 17:6.0 18:106.0 19:1.0 25:1.0 26:2.0 27:2.0 33:125000.0 11875:1.0 11893:1.0 24946:1.0 25455:1.0 25702:1.0 26220:1.0 27759:1.0 28462:1.0 28516:1.0 28527:2.0 28530:1.0 29230:1.0 29298:1.0 29303:1.0 30059:1.0 30575:1.0 
1.0 1:14.0 2:1.0 4:5.0 7:6.5 12:1.0 14:0.0 25:1.0 26:2.0 27:2.0 33:2.0 11875:1.0 25189:1.0 25445:1.0 25455:1.0 25954:1.0 25966:1.0 25970:1.0 25972:1.0 28276:1.0 28525:1.0 29285:1.0 29742:1.0 29797:1.0 
1.0 1:8.0 2:1.0 4:4.0 7:3.5 12:2.0 14:0.0 33:118000.0 11881:1.0 26981:1.0 28462:1.0 29301:1.0 29810:1.0 30070:1.0 30319:1.0 
1.0 1:14.0 2:1.0 4:6.0 7:6.5 12:2.0 14:0.0 25:1.0 26:2.0 27:2.0 33:5.0 11875:1.0 24878:1.0 24940:1.0 25455:1.0 26479:1.0 26990:1.0 26996:1.0 27769:1.0 28263:1.0 28513:1.0 28525:1.0 29793:1.0 31081:1.0 
1.0 1:24.0 2:2.0 4:10.0 7:7.333333333333333 12:2.0 14:1.0 15:147.0 16:10237.0 17:9.0 18:104.0 19:1.0 23:1.0 24:1.0 25:1.0 26:2.0 27:2.0 33:3.0 11873:1.0 11875:1.0 24941:1.0 24942:1.0 24949:1.0 25445:1.0 25455:1.0 25902:1.0 25958:1.0 26209:1.0 26217:1.0 26735:1.0 26988:1.0 26990:1.0 27769:1.0 27950:1.0 28005:1.0 28009:1.0 28257:1.0 28259:1.0 28525:2.0 31080:1.0 
1.0 1:18.0 2:1.0 4:5.0 7:8.5 12:1.0 14:0.0 25:1.0 26:2.0 27:2.0 33:90.0 11875:1.0 24942:1.0 25455:2.0 25959:1.0 26473:1.0 26725:1.0 26988:1.0 27747:1.0 27756:1.0 28016:1.0 28281:1.0 28525:2.0 28769:1.0 29800:1.0 31022:1.0 
1.0 1:17.0 2:2.0 3:2.0 4:3.0 7:5.0 8:0.11764705882352941 11:2.0 12:1.0 14:0.0 25:1.0 26:2.0 27:2.0 28:1.0 33:67200.0 11873:1.0 11890:1.0 12846:1.0 13618:1.0 24942:1.0 24948:1.0 27745:1.0 28213:1.0 28270:1.0 28276:1.0 29301:1.0 29804:1.0 29806:1.0 30510:1.0 30583:2.0 
1.0 1:21.0 2:1.0 4:7.0 7:10.0 12:1.0 14:1.0 15:4.0 16:44.0 18:4.0 24:1.0 25:1.0 33:24900.0 11875:1.0 25189:1.0 25455:1.0 25902:1.0 25970:1.0 25971:1.0 25972:1.0 26223:1.0 26735:1.0 27749:1.0 28005:1.0 28525:2.0 28530:1.0 29286:1.0 29292:1.0 29544:1.0 29555:1.0 29797:1.0 29812:1.0 
1.0 1:29.0 2:3.0 4:8.0 7:6.5 12:2.0 14:0.0 33:291000.0 11875:1.0 11888:1.0 11893:1.0 24946:1.0 25455:1.0 25970:1.0 26220:1.0 26414:1.0 26729:1.0 26990:1.0 26992:1.0 27759:1.0 28261:1.0 28263:1.0 28462:1.0 28527:1.0 28530:1.0 28769:1.0 28774:1.0 29289:1.0 29299:1.0 29300:1.0 29544:1.0 29806:1.0 30059:1.0 30510:1.0 30583:2.0 
1.0 1:17.0 2:2.0 4:5.0 7:5.0 12:1.0 14:0.0 25:1.0 26:2.0 27:2.0 33:46.0 11875:1.0 11894:1.0 24935:1.0 24944:1.0 25455:1.0 25959:1.0 25971:1.0 26465:1.0 26469:1.0 28525:1.0 28769:1.0 29486:1.0 30309:1.0 30510:1.0 30583:2.0 
0.1003259821602016 1:30.0 2:3.0 4:10.0 7:6.75 12:1.0 14:1.0 15:6.0 16:66.0 18:4.0 24:1.0 25:1.0 28:1.0 33:1.0 11873:2.0 11875:1.0 24931:1.0 24932:1.0 24942:1.0 24946:1.0 25185:1.0 25445:1.0 25455:1.0 25718:1.0 25902:1.0 25970:2.0 26209:1.0 26414:1.0 26990:1.0 26995:1.0 27950:1.0 28261:1.0 28263:1.0 28270:1.0 28525:1.0 29286:1.0 29293:1.0 29300:1.0 29545:1.0 29801:1.0 30309:1.0 
1.0 1:16.0 2:1.0 4:5.0 7:7.5 12:1.0 14:1.0 15:113.0 16:15691.0 17:11.0 18:114.0 19:1.0 24:1.0 25:1.0 26:2.0 27:2.0 33:1210.0 11875:1.0 24931:1.0 25448:1.0 25455:1.0 25902:1.0 25970:1.0 26725:1.0 26729:1.0 26990:1.0 28001:1.0 28261:1.0 28525:1.0 29298:1.0 29299:1.0 29549:1.0 
1.0 1:15.0 2:2.0 4:5.0 7:4.333333333333333 12:2.0 14:0.0 25:1.0 33:4320.0 11875:1.0 11897:1.0 24878:1.0 24936:1.0 25455:1.0 26735:1.0 27489:1.0 28523:1.0 28525:1.0 28527:1.0 30510:1.0 30583:2.0 31073:1.0 
1.0 1:19.0 2:1.0 4:8.0 7:9.0 12:2.0 14:0.0 25:1.0 26:2.0 27:2.0 33:13200.0 11881:1.0 24878:1.0 24942:1.0 25448:1.0 25455:1.0 26729:1.0 26977:1.0 26979:1.0 26996:1.0 27759:1.0 28257:1.0 28515:1.0 28524:1.0 28532:1.0 28786:1.0 29289:1.0 29295:1.0 29810:1.0 
1.0 1:13.0 2:2.0 4:2.0 7:3.6666666666666665 12:1.0 14:0.0 25:1.0 33:2960000.0 11877:1.0 11888:1.0 25459:1.0 25711:1.0 25971:1.0 26214:1.0 26220:1.0 27694:1.0 28515:1.0 28788:1.0 29486:1.0 29542:1.0 
1.0 1:15.0 2:1.0 4:6.0 7:7.0 12:2.0 14:0.0 25:1.0 26:2.0 27:2.0 11875:1.0 24937:1.0 25455:1.0 25701:1.0 25964:1.0 26990:1.0 27489:1.0 27755:1.0 28270:1.0 28271:1.0 28462:1.0 28525:1.0 28534:1.0 30319:1.0 
0.8714563231713132 1:12.0 2:1.0 4:4.0 5:1.0 7:5.5 9:0.08333333333333333 12:1.0 13:1.0 14:1.0 15:142.0 16:8296.0 17:35.0 18:135.0 19:1.0 24:1.0 25:1.0 26:2.0 27:2.0 33:5.0 11625:1.0 11888:1.0 25701:1.0 25964:1.0 26223:1.0 26925:1.0 26990:1.0 27753:1.0 28262:1.0 28462:1.0 28780:1.0 
1.0 1:14.0 2:1.0 4:5.0 7:6.5 12:1.0 14:0.0 25:1.0 26:4.0 27:4.0 33:5400000.0 11881:1.0 24940:1.0 25902:1.0 25970:1.0 26223:1.0 26725:1.0 26990:1.0 27756:1.0 27763:1.0 28262:1.0 28776:1.0 29285:1.0 29552:1.0 
1.0 1:18.0 2:1.0 4:8.0 7:8.5 12:1.0 14:0.0 25:1.0 26:2.0 27:2.0 33:7080000.0 11881:1.0 24940:1.0 25902:1.0 25959:1.0 26229:1.0 26465:1.0 26990:1.0 26996:1.0 27759:1.0 28265:1.0 28530:1.0 29285:2.0 29294:1.0 29813:1.0 30066:2.0 
1.0 1:20.0 2:2.0 4:6.0 7:6.0 12:1.0 14:1.0 15:706.0 16:52516.0 17:198.0 18:721.0 19:1.0 23:1.0 24:1.0 25:1.0 26:2.0 27:2.0 11879:1.0 11888:1.0 24940:1.0 24941:2.0 25185:1.0 25390:1.0 25441:1.0 25443:1.0 26479:1.0 26995:1.0 27745:1.0 28002:1.0 28009:1.0 28515:1.0 28534:1.0 28776:1.0 29551:1.0 30254:1.0 
1.0 1:16.0 2:2.0 4:5.0 7:4.666666666666667 12:1.0 14:1.0 15:63.0 16:19111.0 17:18.0 18:63.0 19:1.0 24:1.0 25:1.0 28:1.0 33:5150.0 11881:1.0 11894:1.0 25193:1.0 25902:1.0 26988:1.0 26992:1.0 26996:1.0 27749:1.0 28015:1.0 28514:1.0 28781:1.0 30313:1.0 30510:1.0 30583:2.0 
1.0 1:20.0 2:2.0 4:7.0 7:6.0 12:2.0 14:0.0 25:1.0 26:2.0 27:1.0 33:745.0 11874:1.0 11875:1.0 24878:1.0 24935:1.0 25202:2.0 25449:1.0 25455:1.0 26465:1.0 26979:1.0 26990:1.0 26997:1.0 27950:1.0 28265:1.0 28525:1.0 29281:1.0 29538:1.0 30067:1.0 30313:1.0 
1.0 1:13.0 2:1.0 4:4.0 7:6.0 12:1.0 14:0.0 25:1.0 26:2.0 27:2.0 11875:1.0 24942:1.0 25455:1.0 26473:1.0 26477:1.0 26983:1.0 26996:1.0 28001:1.0 28265:1.0 28525:1.0 29817:1.0 31022:1.0 
1.0 1:17.0 2:2.0 4:6.0 7:5.0 12:2.0 14:0.0 25:1.0 26:2.0 27:2.0 33:4850000.0 11875:1.0 11890:1.0 24940:1.0 25455:1.0 25953:1.0 26670:1.0 26725:1.0 26991:1.0 27764:1.0 28264:1.0 28265:1.0 28462:1.0 28526:1.0 29299:1.0 29800:1.0 30062:1.0 
1.0 1:24.0 2:2.0 4:8.0 7:7.333333333333333 12:2.0 14:0.0 25:1.0 26:3.0 27:3.0 33:940.0 11875:1.0 11886:1.0 24940:1.0 25445:1.0 25455:1.0 25970:1.0 25971:2.0 26979:1.0 27763:1.0 28282:1.0 28462:1.0 28517:1.0 29281:1.0 29295:1.0 29301:1.0 29302:1.0 29486:1.0 29541:1.0 29556:1.0 29810:1.0 30066:1.0 30313:1.0 
1.0 1:33.0 2:2.0 3:5.0 4:9.0 5:1.0 7:10.333333333333334 8:0.15151515151515152 9:0.030303030303030304 11:5.0 12:1.0 13:1.0 14:1.0 15:103.0 16:23584.0 17:12.0 18:81.0 19:1.0 20:1.0 24:1.0 25:1.0 11635:1.0 11875:1.0 11892:1.0 12336:1.0 12337:1.0 12596:1.0 13366:1.0 13870:1.0 24947:1.0 25197:1.0 25445:1.0 25455:1.0 25646:1.0 25904:1.0 25954:1.0 25970:2.0 26979:1.0 26992:1.0 28001:1.0 28516:1.0 28525:1.0 28783:1.0 29229:1.0 29289:1.0 29302:1.0 29541:1.0 29556:1.0 29797:1.0 29810:1.0 30313:1.0 30565:1.0 
1.0 1:21.0 2:2.0 4:6.0 7:6.333333333333333 12:2.0 14:0.0 25:1.0 33:1210.0 11875:1.0 11878:1.0 25445:1.0 25448:1.0 25455:1.0 25967:1.0 26217:1.0 26735:1.0 26979:1.0 26994:1.0 27438:1.0 28521:1.0 28523:1.0 28525:1.0 29299:1.0 29556:1.0 29795:1.0 30510:1.0 30583:2.0 
1.0 1:27.0 2:1.0 4:9.0 5:2.0 7:13.0 9:0.07407407407407407 12:2.0 13:1.0 14:0.0 25:1.0 26:2.0 27:2.0 33:85800.0 11620:1.0 11634:1.0 11876:1.0 24935:1.0 24937:1.0 25133:1.0 25189:1.0 25448:1.0 25701:1.0 25711:1.0 25954:1.0 25955:1.0 25972:1.0 26413:1.0 26466:1.0 26741:1.0 26990:1.0 28001:1.0 28206:1.0 28263:1.0 28525:1.0 29281:1.0 29285:1.0 29810:1.0 30062:1.0 30565:1.0 
1.0 1:13.0 2:3.0 4:3.0 7:2.5 12:1.0 14:1.0 15:151.0 16:16096.0 17:14.0 18:130.0 19:1.0 24:1.0 25:1.0 26:2.0 27:2.0 28:1.0 33:6080.0 11875:1.0 11888:1.0 11890:1.0 24878:1.0 25455:1.0 27950:1.0 28525:1.0 28773:1.0 29281:1.0 30510:1.0 30583:2.0 
1.0 1:29.0 2:2.0 4:9.0 5:1.0 7:9.0 9:0.034482758620689655 12:2.0 13:1.0 14:0.0 33:8520.0 11629:1.0 11875:1.0 11891:1.0 24931:1.0 25443:1.0 25455:2.0 25461:1.0 25955:1.0 25964:1.0 26473:1.0 26990:1.0 27759:1.0 28025:1.0 28205:1.0 28276:1.0 28519:1.0 28525:1.0 28533:1.0 29285:1.0 29541:1.0 29742:1.0 30062:1.0 30066:1.0 30510:1.0 30583:2.0 31073:1.0 
1.0 1:12.0 2:2.0 4:3.0 7:3.3333333333333335 12:1.0 14:0.0 25:1.0 26:3.0 27:3.0 33:65.0 11875:1.0 11894:1.0 25390:1.0 25455:1.0 25965:1.0 26979:1.0 27950:1.0 28009:1.0 28525:1.0 29541:1.0 30318:1.0 
1.0 1:12.0 2:1.0 4:3.0 7:5.5 12:1.0 14:0.0 25:1.0 26:2.0 27:2.0 33:1170000.0 11875:1.0 25441:1.0 25701:1.0 25971:1.0 26478:1.0 26983:1.0 28275:1.0 29300:1.0 29486:1.0 29545:1.0 29796:1.0 
1.0 1:17.0 2:1.0 4:6.0 7:8.0 12:1.0 14:1.0 15:152.0 16:11215.0 17:26.0 18:159.0 19:1.0 24:1.0 25:1.0 26:2.0 27:1.0 11886:1.0 25445:1.0 25701:1.0 25960:1.0 25966:1.0 25971:1.0 25972:1.0 26729:1.0 26980:1.0 26988:1.0 27694:1.0 27756:1.0 28259:1.0 28261:1.0 29285:1.0 29545:1.0 
0.7307437092599789 1:12.0 2:1.0 4:5.0 7:5.5 12:2.0 14:0.0 25:1.0 26:2.0 27:2.0 33:1000000.0 11875:1.0 24930:1.0 24942:1.0 25196:1.0 25455:1.0 27253:1.0 27759:1.0 28272:1.0 28462:1.0 28769:1.0 30049:1.0 
1.0 1:19.0 2:2.0 3:4.0 4:5.0 5:1.0 7:5.666666666666667 8:0.21052631578947367 9:0.05263157894736842 11:4.0 12:1.0 13:1.0 14:0.0 33:108000.0 11568:1.0 11888:1.0 11893:1.0 12345:1.0 13111:1.0 14126:1.0 14643:1.0 24948:1.0 25455:1.0 25697:1.0 25901:1.0 28538:1.0 28772:1.0 28780:1.0 29797:1.0 30051:1.0 30064:1.0 31278:1.0 
1.0 1:15.0 2:2.0 4:5.0 7:4.333333333333333 12:2.0 14:0.0 25:1.0 26:2.0 27:2.0 11873:1.0 11875:1.0 24949:1.0 25455:1.0 25902:1.0 26472:1.0 26740:1.0 26983:1.0 27502:1.0 27950:1.0 28265:1.0 28525:1.0 29285:1.0 29810:1.0 
1.0 1:13.0 2:1.0 4:4.0 7:6.0 12:1.0 14:0.0 25:1.0 11875:1.0 24951:1.0 25455:1.0 27745:1.0 28012:1.0 28206:1.0 28525:2.0 28526:1.0 29807:2.0 30580:1.0 
1.0 1:21.0 2:1.0 4:7.0 7:10.0 12:2.0 14:1.0 15:712.0 16:104249.0 17:99.0 18:475.0 19:1.0 24:1.0 25:1.0 26:2.0 27:2.0 11875:1.0 24937:1.0 25455:1.0 25966:1.0 26988:1.0 26990:1.0 27759:1.0 28005:1.0 28275:1.0 28276:1.0 28525:1.0 28530:1.0 29289:1.0 29301:1.0 29486:1.0 29537:1.0 29556:1.0 29810:1.0 29811:1.0 30061:1.0 
1.0 1:21.0 2:2.0 4:6.0 7:6.333333333333333 12:2.0 14:0.0 25:1.0 33:1860000.0 11873:1.0 11890:1.0 24946:1.0 24947:1.0 25970:1.0 26482:1.0 28001:1.0 28533:1.0 28718:1.0 29287:1.0 29295:1.0 29300:1.0 29301:1.0 29556:1.0 29797:1.0 29805:1.0 30064:1.0 30510:1.0 30583:2.0 
1.0 1:15.0 2:2.0 4:4.0 7:4.333333333333333 12:1.0 14:1.0 15:20.0 16:1087.0 18:19.0 24:1.0 25:1.0 26:2.0 27:1.0 33:10.0 11874:1.0 11875:1.0 25202:1.0 25455:2.0 25970:1.0 27950:1.0 28525:1.0 28531:1.0 29301:1.0 29486:1.0 29556:1.0 29797:1.0 30067:1.0 
1.0 1:12.0 2:2.0 4:4.0 7:3.3333333333333335 12:2.0 14:0.0 25:1.0 28:1.0 33:2130.0 11873:1.0 11882:1.0 24878:1.0 24933:1.0 24934:1.0 26226:1.0 27233:1.0 29281:1.0 30510:1.0 30583:2.0 
0.7305186613082599 1:8.0 2:1.0 4:3.0 7:3.5 12:1.0 14:0.0 33:74100.0 11881:1.0 25963:1.0 26994:1.0 26996:1.0 27438:1.0 29797:1.0 30313:1.0 
1.0 1:13.0 2:1.0 4:5.0 7:6.0 12:1.0 14:0.0 33:1.0 11875:1.0 24938:1.0 24941:1.0 25455:1.0 26473:1.0 26926:1.0 27247:1.0 28020:1.0 28519:1.0 28525:1.0 29281:1.0 29793:1.0 
1.0 1:24.0 2:2.0 4:9.0 7:7.333333333333333 12:2.0 14:1.0 15:341.0 16:32465.0 17:54.0 18:262.0 19:1.0 24:1.0 25:1.0 26:2.0 27:2.0 33:12.0 11873:1.0 11875:1.0 24938:1.0 24942:1.0 24946:1.0 24947:1.0 25441:1.0 25455:1.0 25460:1.0 25717:1.0 27253:1.0 27950:1.0 28206:1.0 28516:1.0 28525:1.0 28531:1.0 28786:1.0 29295:1.0 29537:1.0 29539:1.0 29807:1.0 30049:1.0 30051:1.0 
1.0 1:13.0 2:2.0 4:3.0 7:3.6666666666666665 12:1.0 14:0.0 25:1.0 11874:1.0 11875:1.0 24935:1.0 24947:1.0 25202:1.0 25455:1.0 26414:1.0 26465:1.0 27950:1.0 28257:1.0 28525:1.0 29550:1.0 
1.0 1:14.0 2:2.0 4:3.0 7:4.0 12:1.0 14:0.0 25:1.0 33:7.4E7 11880:1.0 11888:1.0 25902:1.0 26213:1.0 26729:1.0 26982:1.0 26996:1.0 27753:1.0 28788:1.0 29804:1.0 30510:1.0 30583:2.0 
1.0 1:14.0 2:2.0 4:4.0 7:4.0 12:1.0 14:0.0 25:1.0 28:1.0 33:57.0 11875:1.0 11880:1.0 24938:1.0 25455:1.0 26735:1.0 26926:1.0 27241:1.0 28001:1.0 28525:2.0 30510:1.0 30583:2.0 
1.0 1:17.0 2:2.0 4:5.0 7:5.0 12:1.0 14:1.0 15:6.0 16:127.0 18:5.0 24:1.0 25:1.0 11875:1.0 11894:1.0 24878:1.0 24940:1.0 25455:1.0 25971:1.0 27749:1.0 27756:1.0 28525:1.0 29537:1.0 29557:1.0 30067:1.0 30305:1.0 30510:1.0 30583:2.0 
1.0 1:13.0 2:1.0 4:6.0 7:6.0 12:2.0 14:0.0 25:1.0 26:2.0 27:2.0 33:218000.0 11881:1.0 24878:1.0 24931:1.0 24947:1.0 25441:1.0 25445:1.0 25970:1.0 26977:1.0 26996:1.0 29302:1.0 29537:1.0 30313:1.0 
0.731810300373715 1:15.0 2:1.0 4:4.0 7:7.0 12:2.0 14:0.0 25:1.0 26:2.0 27:2.0 33:1620000.0 11875:1.0 24931:1.0 25448:2.0 25455:1.0 26670:1.0 26979:1.0 28025:1.0 28277:1.0 28513:1.0 29289:1.0 29810:1.0 30068:1.0 31086:1.0 
1.0 1:18.0 2:1.0 4:6.0 7:8.5 12:2.0 14:0.0 25:1.0 33:764000.0 11875:1.0 24940:1.0 24942:1.0 25202:1.0 25441:1.0 25717:1.0 26977:1.0 26990:1.0 27694:1.0 28260:1.0 28276:1.0 29281:1.0 29289:1.0 29556:1.0 29801:1.0 29810:1.0 30067:1.0 
1.0 1:25.0 2:3.0 4:9.0 7:5.5 12:2.0 14:1.0 15:142.0 16:6988.0 17:17.0 18:147.0 19:1.0 24:1.0 25:1.0 33:1.0 11875:1.0 11886:1.0 11891:1.0 24878:1.0 24949:1.0 25455:1.0 25461:1.0 25902:1.0 25955:1.0 25972:1.0 26485:1.0 28261:1.0 28525:1.0 29285:1.0 29541:1.0 29556:1.0 29793:2.0 30055:1.0 30066:1.0 30067:1.0 30510:1.0 30583:2.0 
1.0 1:18.0 2:2.0 4:5.0 7:5.333333333333333 12:2.0 14:0.0 25:1.0 26:2.0 27:2.0 28:1.0 33:1040000.0 11873:1.0 11879:1.0 24933:1.0 24940:1.0 25185:1.0 25646:1.0 25966:1.0 26476:1.0 27759:1.0 27764:1.0 28260:1.0 28514:1.0 29285:1.0 29810:1.0 30510:1.0 30583:2.0 
1.0 1:19.0 2:2.0 3:1.0 4:5.0 7:5.666666666666667 8:0.05263157894736842 11:1.0 12:1.0 14:1.0 15:179.0 16:12331.0 17:18.0 18:154.0 19:1.0 24:1.0 25:1.0 26:2.0 27:2.0 28:1.0 11875:1.0 11879:1.0 12917:1.0 24944:1.0 25455:1.0 26465:1.0 26473:1.0 26983:1.0 26990:1.0 28276:1.0 28525:1.0 28786:1.0 29289:1.0 29746:1.0 29998:1.0 30510:1.0 30583:2.0 
1.0 1:17.0 2:2.0 4:5.0 7:5.0 12:1.0 14:0.0 25:1.0 26:2.0 27:2.0 33:18900.0 11875:1.0 11893:1.0 25189:1.0 25455:2.0 25970:1.0 25971:1.0 28462:1.0 28532:1.0 29298:1.0 29305:1.0 29539:1.0 29742:1.0 29812:1.0 30059:1.0 31077:1.0 
1.0 1:11.0 2:1.0 4:4.0 7:5.0 12:2.0 14:0.0 25:1.0 26:2.0 27:1.0 33:34400.0 11875:1.0 24932:1.0 24945:1.0 25441:1.0 25452:1.0 25697:1.0 25971:1.0 29045:1.0 29486:1.0 30053:1.0 
1.0 1:22.0 2:2.0 4:7.0 7:6.666666666666667 12:2.0 14:0.0 25:1.0 26:2.0 27:2.0 28:1.0 33:4180.0 11886:1.0 11888:1.0 24935:1.0 25717:1.0 25961:1.0 25971:1.0 25972:1.0 26469:1.0 26981:1.0 26990:1.0 28260:1.0 28261:1.0 28769:1.0 29289:1.0 29486:1.0 29556:1.0 29810:1.0 30067:1.0 30510:1.0 30583:2.0 
1.0 1:14.0 2:1.0 4:4.0 7:6.5 12:1.0 14:0.0 25:1.0 26:2.0 27:1.0 11875:1.0 24947:1.0 25449:1.0 25455:1.0 26987:1.0 26990:1.0 27491:1.0 27745:1.0 28206:1.0 28525:1.0 28780:1.0 29556:1.0 29801:1.0 
1.0 1:17.0 2:1.0 4:7.0 7:8.0 12:1.0 14:1.0 15:520.0 16:35064.0 17:144.0 18:582.0 19:1.0 24:1.0 25:1.0 26:2.0 27:2.0 11875:1.0 25449:1.0 25455:1.0 25970:1.0 26213:1.0 26926:1.0 26979:1.0 26989:1.0 26995:1.0 26996:1.0 28006:1.0 28525:1.0 29289:1.0 29545:2.0 29801:1.0 
1.0 1:12.0 2:1.0 4:2.0 7:5.5 12:1.0 14:0.0 25:1.0 26:2.0 27:2.0 11875:1.0 25186:2.0 25187:1.0 25442:1.0 25455:2.0 28525:1.0 28530:1.0 28718:1.0 29296:1.0 
1.0 1:10.0 2:2.0 4:1.0 7:2.6666666666666665 12:1.0 14:0.0 25:1.0 26:2.0 27:1.0 33:6.0 11887:1.0 11888:1.0 25390:1.0 26414:1.0 28530:1.0 28779:1.0 29283:1.0 29287:1.0 29810:1.0 
1.0 1:16.0 2:2.0 4:4.0 7:4.666666666666667 12:1.0 14:0.0 26:2.0 27:1.0 33:3.0 11875:1.0 11892:1.0 24940:1.0 24942:1.0 24947:1.0 25455:1.0 25646:1.0 27745:1.0 27950:1.0 28260:1.0 28525:1.0 28769:1.0 29556:1.0 29793:1.0 29810:1.0 
1.0 1:11.0 2:1.0 4:2.0 7:5.0 12:1.0 14:0.0 25:1.0 26:2.0 27:2.0 11888:1.0 24946:1.0 25134:1.0 25954:1.0 28001:1.0 28788:1.0 29300:1.0 29549:1.0 29815:1.0 30565:1.0 
1.0 1:15.0 2:2.0 4:2.0 7:4.333333333333333 12:1.0 14:0.0 25:1.0 26:2.0 27:2.0 28:1.0 11887:1.0 11898:1.0 25188:1.0 25390:1.0 25699:1.0 26729:1.0 26978:1.0 28530:1.0 28776:1.0 29287:1.0 30510:1.0 30583:2.0 31344:1.0 
1.0 1:15.0 2:1.0 4:5.0 7:7.0 12:1.0 14:0.0 26:2.0 27:2.0 33:4.0 11875:1.0 24942:1.0 24944:1.0 25441:1.0 25455:1.0 25705:1.0 26721:1.0 26979:1.0 26990:1.0 28260:1.0 28264:1.0 28525:1.0 28718:1.0 30569:1.0 
1.0 1:28.0 2:2.0 4:8.0 7:8.666666666666666 12:2.0 14:1.0 15:203.0 16:11606.0 17:16.0 18:151.0 19:1.0 24:1.0 25:1.0 26:2.0 27:2.0 33:2.0 11874:1.0 11875:1.0 24937:1.0 24941:1.0 24942:1.0 25196:1.0 25455:1.0 25966:1.0 25968:1.0 26729:1.0 26992:1.0 26994:1.0 27493:1.0 27745:1.0 28016:1.0 28267:1.0 28275:1.0 28525:1.0 28769:2.0 28786:1.0 29230:1.0 29285:1.0 29544:1.0 30510:1.0 30583:2.0 
1.0 1:15.0 2:1.0 4:5.0 7:7.0 12:2.0 14:0.0 25:1.0 33:2.0 11875:1.0 24941:1.0 24946:1.0 25191:1.0 25199:1.0 25455:1.0 25646:1.0 25976:1.0 26469:1.0 28002:1.0 28513:1.0 28525:1.0 29284:1.0 30817:1.0 
1.0 1:20.0 2:3.0 4:6.0 7:4.25 12:2.0 14:0.0 25:1.0 28:1.0 33:23.0 11878:2.0 11892:1.0 24942:1.0 24943:1.0 25448:1.0 25902:1.0 25957:1.0 26226:2.0 26721:2.0 26741:1.0 28206:1.0 28462:1.0 28776:1.0 29285:1.0 29800:1.0 30051:1.0 
1.0 1:17.0 2:2.0 3:1.0 4:6.0 7:5.0 8:0.058823529411764705 11:1.0 12:2.0 14:1.0 15:40.0 16:1902.0 17:6.0 18:30.0 19:1.0 24:1.0 25:1.0 26:2.0 27:2.0 33:11200.0 11874:1.0 11875:1.0 12921:1.0 25202:1.0 25455:1.0 25705:1.0 26991:1.0 27950:1.0 28466:1.0 28525:1.0 28533:1.0 29556:1.0 29813:1.0 29998:1.0 30052:1.0 31087:1.0 
1.0 1:12.0 2:2.0 4:4.0 7:3.3333333333333335 12:2.0 14:0.0 25:2.0 26:2.0 27:2.0 11873:1.0 11875:1.0 24931:1.0 24949:1.0 25452:1.0 25455:1.0 27762:1.0 27950:1.0 28525:1.0 29304:1.0 30766:1.0 
1.0 1:24.0 2:2.0 4:8.0 7:7.333333333333333 12:2.0 14:0.0 26:2.0 27:2.0 28:1.0 33:5140.0 11875:1.0 11880:1.0 24946:1.0 25448:1.0 25455:1.0 25953:1.0 25971:2.0 26728:1.0 26735:2.0 28005:1.0 28525:2.0 28533:1.0 29283:1.0 29486:1.0 29541:2.0 30067:1.0 30510:1.0 30583:2.0 
1.0 1:13.0 2:2.0 4:4.0 7:3.6666666666666665 12:1.0 14:0.0 25:1.0 26:3.0 27:3.0 33:6600.0 11875:1.0 11886:1.0 24946:1.0 25455:1.0 25646:1.0 25956:1.0 26721:1.0 26995:1.0 28282:1.0 28462:1.0 29285:1.0 29544:1.0 
1.0 1:27.0 2:1.0 4:9.0 5:1.0 7:13.0 9:0.037037037037037035 12:2.0 13:1.0 14:1.0 15:135.0 16:9040.0 17:16.0 18:145.0 19:1.0 23:1.0 24:1.0 25:1.0 26:4.0 27:4.0 33:8.0 11624:1.0 11876:1.0 24940:1.0 24942:1.0 25448:1.0 25701:2.0 25716:1.0 25955:1.0 25961:1.0 25966:1.0 25970:1.0 26721:1.0 26725:1.0 26734:1.0 26980:1.0 26987:1.0 27437:1.0 27745:1.0 27749:1.0 28260:1.0 28265:1.0 28276:1.0 29230:1.0 29797:1.0 29800:1.0 
1.0 1:17.0 2:2.0 4:4.0 7:5.0 12:1.0 14:0.0 25:1.0 33:78.0 11875:1.0 11885:1.0 25455:1.0 28015:1.0 28275:1.0 28276:1.0 28525:1.0 28526:2.0 28531:1.0 29486:1.0 29551:1.0 29807:1.0 30510:1.0 30583:2.0 
1.0 1:10.0 2:1.0 4:3.0 7:4.5 12:1.0 14:0.0 25:1.0 33:45.0 11875:1.0 24930:1.0 25197:1.0 25455:1.0 25697:1.0 27000:1.0 28009:1.0 28525:1.0 30766:1.0 
1.0 1:14.0 2:1.0 4:5.0 7:6.5 12:1.0 14:0.0 25:1.0 26:2.0 27:3.0 33:4160000.0 11881:1.0 24931:1.0 25452:1.0 25902:1.0 25965:1.0 25966:1.0 26226:1.0 26996:1.0 27749:1.0 28005:1.0 28276:1.0 29281:1.0 29797:1.0 
1.0 1:15.0 2:2.0 4:5.0 7:4.333333333333333 12:1.0 14:1.0 15:41.0 16:993.0 17:4.0 18:30.0 24:1.0 25:1.0 26:2.0 27:2.0 33:2920000.0 11875:1.0 11898:1.0 25455:1.0 25461:1.0 25972:1.0 27764:1.0 28462:1.0 29285:1.0 29813:1.0 29814:1.0 30060:1.0 30066:1.0 30254:1.0 31329:1.0 
1.0 1:37.0 2:3.0 4:10.0 7:8.5 12:1.0 14:0.0 25:1.0 26:2.0 27:2.0 28:1.0 33:2.16E7 11875:1.0 11884:1.0 11893:1.0 24950:1.0 24953:1.0 25455:2.0 25697:1.0 25964:1.0 26220:1.0 26472:1.0 26735:1.0 26740:1.0 26980:1.0 26983:1.0 27694:1.0 27753:2.0 27759:1.0 28462:1.0 28524:1.0 28531:1.0 28535:1.0 29281:1.0 29556:2.0 29800:1.0 29810:1.0 29811:1.0 30059:1.0 30309:1.0 30510:1.0 30563:1.0 30583:2.0 31078:1.0 
1.0 1:15.0 2:1.0 4:6.0 7:7.0 12:1.0 14:0.0 26:2.0 27:2.0 33:4.0 11875:1.0 24940:1.0 24941:1.0 25441:1.0 25455:1.0 25705:1.0 25956:1.0 26979:1.0 26994:1.0 27694:1.0 28005:1.0 28009:1.0 28525:1.0 29281:1.0 
1.0 1:14.0 2:2.0 4:2.0 5:1.0 7:4.0 9:0.07142857142857142 12:1.0 13:1.0 14:0.0 25:1.0 26:3.0 27:3.0 33:36.0 11635:1.0 11882:1.0 11888:1.0 26735:1.0 27247:1.0 28461:1.0 28528:1.0 28718:1.0 28780:1.0 29544:1.0 30510:1.0 30583:2.0 
1.0 1:15.0 2:2.0 4:4.0 7:4.333333333333333 12:1.0 14:1.0 15:205.0 16:16397.0 17:77.0 18:292.0 19:1.0 24:1.0 25:1.0 33:1.0 11875:1.0 11883:1.0 25455:1.0 25705:1.0 26926:1.0 26987:1.0 26989:1.0 27497:2.0 28004:1.0 28525:1.0 30510:1.0 30583:2.0 
1.0 1:16.0 2:2.0 4:4.0 7:4.666666666666667 12:2.0 14:0.0 25:1.0 26:2.0 27:2.0 28:1.0 33:1.0 11875:1.0 11880:1.0 24948:1.0 25455:1.0 25953:1.0 26729:1.0 26990:1.0 28276:1.0 28525:1.0 29486:1.0 29797:1.0 29811:1.0 30510:1.0 30583:2.0 
1.0 1:16.0 2:2.0 3:1.0 4:3.0 5:1.0 7:4.666666666666667 8:0.0625 9:0.0625 11:1.0 12:1.0 13:1.0 14:1.0 15:89.0 16:9642.0 17:90.0 18:245.0 19:1.0 24:1.0 25:1.0 26:2.0 27:2.0 28:1.0 33:3.0 11619:1.0 11875:1.0 11878:1.0 12590:1.0 25455:2.0 26229:1.0 28024:1.0 28205:1.0 28525:1.0 28530:1.0 28718:1.0 29296:1.0 30062:1.0 30769:1.0 
1.0 1:21.0 2:1.0 4:8.0 7:10.0 12:1.0 14:1.0 15:299.0 16:26284.0 17:53.0 18:347.0 19:1.0 24:1.0 25:1.0 26:2.0 27:5.0 11887:1.0 24939:1.0 24940:1.0 24942:1.0 26741:1.0 27002:1.0 27489:1.0 27753:1.0 28257:1.0 28528:1.0 28530:1.0 28786:1.0 29281:1.0 29287:1.0 29557:1.0 29807:1.0 29812:1.0 30056:1.0 30068:1.0 31278:1.0 
1.0 1:12.0 2:1.0 4:5.0 7:5.5 12:1.0 14:0.0 26:2.0 27:2.0 11887:1.0 26741:1.0 26995:1.0 27509:2.0 28530:1.0 29287:1.0 29544:1.0 29998:1.0 30059:2.0 
1.0 1:11.0 2:1.0 4:3.0 7:5.0 12:2.0 14:0.0 11892:1.0 24931:1.0 25199:1.0 25451:1.0 26209:1.0 27438:1.0 27490:1.0 28523:1.0 28527:1.0 29803:1.0 
1.0 1:13.0 2:1.0 4:4.0 7:6.0 12:2.0 14:1.0 15:14.0 16:201.0 18:9.0 19:1.0 24:1.0 25:1.0 26:3.0 27:3.0 33:1.0 11875:1.0 24947:1.0 25455:1.0 25953:1.0 26989:1.0 27241:1.0 28013:1.0 28025:1.0 28525:1.0 29486:1.0 29541:1.0 31091:1.0 
1.0 1:12.0 2:2.0 4:3.0 7:3.3333333333333335 12:1.0 14:0.0 25:2.0 33:2400000.0 11882:1.0 11891:1.0 25970:1.0 26469:1.0 27247:1.0 28519:1.0 29230:1.0 29541:1.0 30510:1.0 30583:2.0 
1.0 1:15.0 2:1.0 4:5.0 7:7.0 12:1.0 14:0.0 25:1.0 26:2.0 27:2.0 11875:1.0 24930:1.0 25187:1.0 25444:1.0 25455:2.0 25701:1.0 25964:1.0 27747:1.0 27759:1.0 28524:1.0 28525:1.0 28530:1.0 29230:1.0 
1.0 1:23.0 2:2.0 4:8.0 7:7.0 12:1.0 14:0.0 25:1.0 26:2.0 27:6.0 33:1400000.0 11875:1.0 11881:1.0 24942:1.0 24948:1.0 25185:1.0 25455:1.0 25902:1.0 25954:1.0 26221:1.0 26990:1.0 27503:1.0 28025:1.0 28267:1.0 28462:1.0 28518:1.0 28530:1.0 29285:1.0 29551:1.0 29556:1.0 29793:1.0 29797:1.0 31091:1.0 
1.0 1:23.0 2:1.0 4:6.0 7:11.0 12:1.0 14:1.0 15:205.0 16:19408.0 17:14.0 18:152.0 19:1.0 20:1.0 24:1.0 25:1.0 33:1.0 11887:1.0 24942:1.0 25697:1.0 25971:2.0 26414:1.0 26990:1.0 27247:1.0 27753:1.0 28263:1.0 28279:1.0 28530:2.0 29284:1.0 29285:1.0 29287:1.0 29556:2.0 29802:1.0 29804:1.0 30565:1.0 30578:1.0 
1.0 1:15.0 2:1.0 4:6.0 7:7.0 12:2.0 14:1.0 15:52.0 16:21356.0 17:1.0 18:46.0 19:1.0 24:1.0 25:1.0 26:2.0 27:2.0 11875:1.0 24932:1.0 24949:1.0 25448:1.0 25455:1.0 25701:1.0 25902:1.0 25960:1.0 26721:1.0 26725:1.0 27747:1.0 28525:1.0 28769:1.0 30060:1.0 
1.0 1:15.0 2:1.0 4:5.0 7:7.0 12:1.0 14:0.0 25:1.0 33:2.0 11875:1.0 24944:1.0 24950:1.0 25455:1.0 25964:1.0 26996:1.0 27233:1.0 27241:1.0 27694:1.0 28525:1.0 28778:1.0 29281:1.0 29810:1.0 30309:1.0 
1.0 1:9.0 2:1.0 4:3.0 7:4.0 12:1.0 14:1.0 15:261.0 16:27757.0 17:40.0 18:293.0 19:1.0 24:1.0 25:1.0 26:2.0 27:2.0 33:227000.0 11890:1.0 25646:1.0 25956:1.0 26988:1.0 27749:1.0 28265:1.0 29299:1.0 30062:1.0 
1.0 1:19.0 2:2.0 4:5.0 7:5.666666666666667 12:2.0 14:0.0 25:1.0 26:2.0 27:2.0 28:1.0 33:6210.0 11874:1.0 11876:1.0 24933:1.0 25189:1.0 25707:1.0 25714:1.0 25956:1.0 25966:1.0 25970:1.0 25972:1.0 28257:1.0 29230:1.0 29285:1.0 29797:1.0 29812:1.0 30510:1.0 30583:2.0 
1.0 1:15.0 2:1.0 4:5.0 5:1.0 7:7.0 9:0.06666666666666667 12:1.0 13:1.0 14:0.0 25:1.0 26:2.0 27:2.0 33:7400.0 11623:1.0 11875:1.0 25199:1.0 25441:1.0 25966:1.0 25971:1.0 26482:1.0 28205:1.0 28534:1.0 28535:1.0 29295:1.0 29486:1.0 30309:1.0 30565:1.0 
1.0 1:14.0 2:1.0 4:5.0 7:6.5 12:2.0 14:0.0 25:1.0 26:2.0 27:2.0 33:283000.0 11890:1.0 28015:1.0 28525:1.0 28527:1.0 28528:1.0 28532:1.0 28786:1.0 28787:1.0 29295:3.0 29486:1.0 29810:1.0 
1.0 1:30.0 2:3.0 4:10.0 7:6.75 12:2.0 14:0.0 25:1.0 28:1.0 33:7.03E7 11875:1.0 11888:1.0 11893:1.0 24932:1.0 25445:2.0 25455:1.0 25646:1.0 25718:1.0 25902:1.0 25953:1.0 25966:1.0 25970:1.0 26979:2.0 28260:1.0 28462:1.0 28528:1.0 28773:1.0 28786:2.0 29289:1.0 29295:1.0 29300:1.0 29541:1.0 29817:1.0 30059:1.0 30313:1.0 31088:1.0 
1.0 1:13.0 2:1.0 4:4.0 7:6.0 12:1.0 14:0.0 25:1.0 26:2.0 27:2.0 33:2500000.0 11892:1.0 24878:1.0 25460:1.0 25955:1.0 26725:1.0 28015:1.0 28530:2.0 29281:1.0 29293:1.0 29807:1.0 29814:1.0 
1.0 1:12.0 2:1.0 3:1.0 4:3.0 7:5.5 8:0.08333333333333333 11:1.0 12:1.0 14:1.0 15:18.0 16:2430.0 17:1.0 18:29.0 19:1.0 24:1.0 25:1.0 26:2.0 27:2.0 33:9440.0 11875:1.0 13427:1.0 25455:1.0 26217:1.0 26988:1.0 27757:1.0 27956:1.0 28206:1.0 28525:1.0 29557:1.0 30062:1.0 
1.0 1:16.0 2:1.0 4:6.0 7:7.5 12:2.0 14:1.0 15:22.0 16:1161.0 17:1.0 18:17.0 19:1.0 24:1.0 25:1.0 26:4.0 27:4.0 33:203000.0 11875:1.0 24940:1.0 24953:1.0 25455:1.0 25974:1.0 25975:1.0 26981:1.0 27762:1.0 28525:1.0 28769:2.0 29285:1.0 30313:1.0 30510:1.0 31088:1.0 
0.8708411267261388 1:19.0 2:2.0 4:6.0 7:5.666666666666667 12:2.0 14:1.0 15:134.0 16:7499.0 17:29.0 18:102.0 19:1.0 24:1.0 25:1.0 26:2.0 27:2.0 28:1.0 11875:1.0 11898:1.0 24937:1.0 25455:1.0 26741:3.0 26926:1.0 28525:1.0 30056:1.0 30071:1.0 30074:1.0 30510:1.0 30561:1.0 30583:2.0 31336:2.0 
0.9413340042641786 1:16.0 2:2.0 4:4.0 7:4.666666666666667 12:1.0 14:0.0 25:1.0 26:2.0 27:2.0 11874:1.0 11875:1.0 24941:1.0 24947:1.0 25202:1.0 25441:1.0 25455:1.0 25699:1.0 26995:1.0 27950:1.0 28009:1.0 28525:1.0 29284:1.0 29486:1.0 29537:1.0 
1.0 1:16.0 2:1.0 4:5.0 7:7.5 12:2.0 14:1.0 15:215.0 16:13033.0 17:20.0 18:167.0 19:1.0 24:1.0 25:1.0 26:2.0 27:2.0 33:2.0 11875:1.0 25134:1.0 25196:1.0 25452:1.0 25455:1.0 25971:1.0 25975:1.0 27765:2.0 28261:1.0 28525:1.0 29539:1.0 30050:1.0 30053:1.0 30562:1.0 
1.0 1:22.0 2:2.0 4:5.0 5:1.0 7:6.666666666666667 9:0.045454545454545456 12:1.0 13:1.0 14:0.0 25:1.0 33:14700.0 11617:1.0 11890:1.0 11891:1.0 24931:1.0 24935:1.0 25389:1.0 25451:1.0 25955:1.0 26482:1.0 26992:1.0 27438:1.0 28769:1.0 29289:1.0 29295:1.0 29556:1.0 29561:1.0 29797:1.0 30510:1.0 30583:2.0 31091:1.0 
1.0 1:16.0 2:2.0 4:3.0 7:4.666666666666667 12:1.0 14:1.0 15:353.0 16:25505.0 17:65.0 18:421.0 19:1.0 24:1.0 25:1.0 33:32000.0 11878:1.0 11888:1.0 25964:1.0 26226:1.0 26992:1.0 26995:1.0 27694:1.0 28777:2.0 29285:1.0 29556:1.0 29810:1.0 30510:1.0 30583:2.0 
1.0 1:9.0 2:2.0 4:2.0 7:2.3333333333333335 12:1.0 14:0.0 25:1.0 26:2.0 27:2.0 33:1820000.0 11875:1.0 11881:1.0 25200:1.0 25390:1.0 25455:1.0 26980:1.0 28462:1.0 28771:1.0 
1.0 1:11.0 2:2.0 4:3.0 7:3.0 12:1.0 14:0.0 25:1.0 26:2.0 27:2.0 33:54.0 11875:1.0 11892:1.0 25455:1.0 25711:1.0 27950:1.0 28462:1.0 28525:1.0 29810:1.0 29813:1.0 30052:1.0 
1.0 1:19.0 2:2.0 4:6.0 7:5.666666666666667 12:1.0 14:1.0 15:70.0 16:9186.0 17:23.0 18:70.0 19:1.0 24:1.0 25:1.0 26:2.0 27:3.0 11874:1.0 11875:1.0 25202:1.0 25455:1.0 25717:1.0 25965:1.0 26992:1.0 27749:1.0 27950:1.0 28009:1.0 28516:1.0 28525:1.0 28531:1.0 28786:1.0 29295:1.0 29486:1.0 29807:1.0 30068:1.0 
1.0 1:11.0 2:1.0 3:1.0 4:3.0 7:5.0 8:0.09090909090909091 11:1.0 12:2.0 14:0.0 25:1.0 26:2.0 27:4.0 11875:1.0 13412:1.0 25455:1.0 25703:1.0 25957:1.0 25963:1.0 26469:1.0 27507:1.0 28525:1.0 29486:1.0 
0.7308368494862378 1:22.0 2:2.0 4:5.0 7:6.666666666666667 12:1.0 14:0.0 25:1.0 26:3.0 27:6.0 28:1.0 33:1020000.0 11875:1.0 11888:1.0 25445:1.0 25722:1.0 25966:1.0 26926:1.0 26990:1.0 27497:1.0 28018:1.0 28267:1.0 28276:1.0 28516:1.0 28780:1.0 29295:1.0 29301:1.0 29810:1.0 30061:1.0 30510:1.0 30583:2.0 31337:1.0 
1.0 1:15.0 2:1.0 4:7.0 7:7.0 12:3.0 14:0.0 26:4.0 27:4.0 33:2.53E7 11890:1.0 24949:1.0 25205:1.0 25953:1.0 25970:1.0 26220:1.0 27759:1.0 28535:1.0 29282:1.0 29285:1.0 29301:1.0 29998:1.0 30066:1.0 30565:1.0 
0.36826939402619097 1:17.0 2:1.0 4:6.0 7:8.0 12:1.0 14:0.0 25:1.0 26:2.0 27:2.0 33:2.0 11875:1.0 24946:1.0 25455:1.0 25965:1.0 25966:1.0 25972:1.0 27493:2.0 28001:1.0 28275:1.0 28525:1.0 29291:1.0 29557:1.0 29742:1.0 29797:1.0 30059:1.0 
1.0 1:14.0 2:1.0 4:6.0 7:6.5 12:2.0 14:0.0 25:1.0 26:2.0 27:2.0 33:28.0 11875:1.0 24932:1.0 24944:1.0 25441:1.0 25455:1.0 25705:1.0 25902:1.0 26977:1.0 26989:1.0 28005:1.0 28525:1.0 28786:1.0 29289:1.0 
1.0 1:13.0 2:2.0 4:3.0 7:3.6666666666666665 12:1.0 14:0.0 25:1.0 26:1.0 27:1.0 33:19.0 11886:1.0 11892:1.0 25970:2.0 25972:1.0 28261:1.0 29230:1.0 29302:1.0 29541:1.0 29742:1.0 29810:1.0 30309:1.0 
1.0 1:16.0 2:1.0 4:5.0 7:7.5 12:1.0 14:0.0 25:1.0 26:2.0 27:2.0 33:925.0 11886:1.0 24946:1.0 24948:1.0 25968:1.0 25972:1.0 26414:1.0 26990:1.0 27497:1.0 28261:1.0 28263:1.0 28769:1.0 29291:1.0 29556:1.0 29793:1.0 29797:1.0 
1.0 1:17.0 2:2.0 4:7.0 7:5.0 12:2.0 14:0.0 25:1.0 26:2.0 27:1.0 33:28300.0 11875:1.0 11898:1.0 24931:1.0 25449:1.0 25455:1.0 25902:1.0 25966:1.0 26482:1.0 26981:1.0 28282:1.0 28462:1.0 28519:1.0 29281:1.0 29285:1.0 31329:1.0 31343:1.0 
1.0 1:11.0 2:1.0 4:2.0 7:5.0 12:1.0 14:0.0 25:1.0 26:2.0 27:2.0 33:1260.0 11875:1.0 25455:1.0 25460:1.0 28206:1.0 28525:1.0 28535:1.0 29283:1.0 29807:1.0 29812:1.0 30574:1.0 
1.0 1:20.0 2:2.0 4:6.0 7:6.0 12:1.0 14:0.0 26:2.0 27:2.0 28:1.0 33:5420.0 11875:1.0 11879:1.0 24940:1.0 24948:1.0 25455:1.0 25697:1.0 25902:1.0 25970:1.0 26465:1.0 27749:1.0 28525:1.0 28772:1.0 29300:1.0 29797:1.0 29813:1.0 30064:1.0 30510:1.0 30583:2.0 
1.0 1:13.0 2:1.0 3:1.0 4:4.0 7:6.0 8:0.07692307692307693 11:1.0 12:1.0 14:0.0 25:1.0 26:4.0 27:4.0 11881:1.0 13427:1.0 24946:1.0 25448:1.0 25902:1.0 25955:1.0 26676:1.0 26721:1.0 26994:1.0 29285:1.0 29544:1.0 29797:1.0 
0.3407008524347508 1:24.0 2:1.0 4:8.0 7:11.5 12:2.0 14:1.0 15:10.0 16:6564.0 18:8.0 20:1.0 24:1.0 25:2.0 26:2.0 27:1.0 33:1.0 11875:1.0 24930:1.0 24940:1.0 24942:1.0 25205:1.0 25455:1.0 25697:1.0 25953:1.0 26472:1.0 26670:1.0 26725:1.0 26990:1.0 26998:1.0 27753:1.0 27764:1.0 28260:1.0 28263:1.0 28276:1.0 28525:1.0 29800:1.0 29804:1.0 30062:1.0 30313:1.0 
1.0 1:29.0 2:2.0 4:10.0 7:9.0 12:3.0 14:0.0 25:1.0 28:1.0 33:37800.0 11877:1.0 11881:1.0 25961:1.0 25964:1.0 25966:1.0 25970:1.0 26223:2.0 26981:1.0 26990:2.0 27763:1.0 28261:1.0 28262:2.0 28270:1.0 28278:1.0 28526:1.0 28531:1.0 28773:1.0 29299:1.0 29486:1.0 29551:1.0 29552:1.0 30313:1.0 30510:1.0 30583:2.0 
1.0 1:10.0 2:1.0 4:3.0 5:1.0 7:4.5 9:0.1 12:1.0 13:1.0 14:0.0 26:2.0 27:2.0 11627:1.0 11875:1.0 24878:1.0 25455:1.0 26925:1.0 27507:1.0 28525:1.0 28777:1.0 29537:1.0 
1.0 1:17.0 2:2.0 4:3.0 7:5.0 12:1.0 14:0.0 26:2.0 27:2.0 28:1.0 33:2160000.0 11874:1.0 11895:1.0 24948:1.0 25185:1.0 25461:1.0 27748:1.0 28530:1.0 28718:1.0 29292:1.0 29795:1.0 29812:1.0 30064:1.0 30510:1.0 30575:1.0 30583:2.0 
1.0 1:22.0 2:2.0 3:3.0 4:4.0 7:6.666666666666667 8:0.13636363636363635 11:3.0 12:1.0 14:1.0 15:10.0 16:6566.0 18:8.0 20:1.0 24:1.0 25:1.0 28:1.0 33:2.0 11829:1.0 11875:1.0 12595:1.0 13172:1.0 13617:1.0 25448:1.0 25455:1.0 25955:1.0 26739:1.0 28525:1.0 28530:1.0 28783:1.0 28784:1.0 29300:1.0 29557:1.0 29742:1.0 29797:1.0 30064:1.0 30510:1.0 30583:2.0 
1.0 1:22.0 2:2.0 4:6.0 7:6.666666666666667 12:1.0 14:1.0 15:232.0 16:9284.0 17:22.0 18:166.0 19:1.0 24:1.0 25:1.0 26:2.0 27:1.0 33:101000.0 11874:1.0 11877:1.0 24942:1.0 25191:1.0 25445:1.0 25715:1.0 25902:1.0 25956:1.0 25959:1.0 25964:1.0 26465:1.0 26483:1.0 26990:1.0 27749:1.0 28259:1.0 28263:1.0 28786:1.0 29285:1.0 29289:1.0 29486:1.0 29552:1.0 
1.0 1:21.0 2:2.0 4:6.0 7:6.333333333333333 12:1.0 14:0.0 25:1.0 26:2.0 27:2.0 33:45.0 11875:1.0 11886:1.0 24940:1.0 25455:1.0 25964:1.0 26735:1.0 27763:1.0 27764:1.0 27950:1.0 28263:1.0 28264:1.0 28525:1.0 28526:1.0 28532:1.0 28537:1.0 29295:1.0 29486:1.0 29797:1.0 29807:1.0 31073:1.0 
1.0 1:10.0 2:2.0 4:1.0 7:2.6666666666666665 12:1.0 14:0.0 25:1.0 11874:1.0 11875:1.0 25202:1.0 25455:1.0 27950:1.0 28206:1.0 28270:1.0 28525:1.0 29550:1.0 
1.0 1:13.0 2:2.0 4:1.0 7:3.6666666666666665 12:1.0 14:0.0 25:1.0 26:2.0 27:2.0 28:1.0 33:25.0 11875:2.0 25452:1.0 25455:1.0 25456:1.0 27694:1.0 28003:1.0 28525:1.0 28781:1.0 30510:1.0 30583:2.0 
0.692443853382597 1:25.0 2:3.0 4:9.0 7:5.5 12:3.0 14:1.0 15:149.0 16:13257.0 17:15.0 18:102.0 19:1.0 24:1.0 25:1.0 26:3.0 27:3.0 28:1.0 33:2.0 11873:1.0 11875:1.0 11886:1.0 24941:2.0 24949:1.0 25455:1.0 25697:1.0 25970:1.0 25973:1.0 26981:1.0 27950:2.0 28019:1.0 28265:1.0 28525:1.0 29284:1.0 29556:1.0 29797:1.0 30071:1.0 30510:1.0 30561:1.0 30583:2.0 
0.7950365769625404 1:26.0 2:1.0 4:9.0 7:12.5 12:2.0 14:0.0 25:1.0 26:2.0 27:2.0 33:1.0E8 11875:1.0 24931:1.0 24942:1.0 24948:1.0 25443:1.0 25452:2.0 25455:1.0 25953:1.0 25970:2.0 27749:1.0 27765:1.0 28001:1.0 28016:1.0 28279:1.0 28525:1.0 28789:1.0 29230:1.0 29283:1.0 29797:2.0 30050:1.0 30068:1.0 30561:1.0 
0.2190180259983847 1:14.0 2:2.0 4:5.0 7:4.0 12:4.0 14:1.0 15:10.0 16:6562.0 18:8.0 20:1.0 24:1.0 25:1.0 28:1.0 33:2.0 11875:1.0 11891:1.0 25455:1.0 28525:1.0 28527:3.0 28538:1.0 29551:1.0 30510:1.0 30583:2.0 31278:1.0 
1.0 1:10.0 2:1.0 4:3.0 7:4.5 12:2.0 14:0.0 25:1.0 11875:1.0 25193:1.0 25455:1.0 25708:1.0 26991:1.0 27746:1.0 28525:1.0 28536:1.0 30766:1.0 
1.0 1:15.0 2:1.0 4:6.0 7:7.0 12:1.0 14:0.0 26:4.0 27:4.0 33:21800.0 11881:1.0 24946:1.0 25902:1.0 25964:1.0 26223:1.0 26228:1.0 26996:1.0 27750:1.0 28518:1.0 28531:1.0 29285:1.0 29551:1.0 29815:1.0 30561:1.0 
1.0 1:16.0 2:1.0 4:6.0 7:7.5 12:1.0 14:0.0 25:1.0 26:2.0 27:2.0 33:4.0 11875:1.0 24934:1.0 25441:1.0 25455:2.0 25955:1.0 25964:1.0 26213:1.0 27000:1.0 27694:1.0 28016:1.0 28525:2.0 28777:1.0 30821:1.0 
1.0 1:14.0 2:1.0 4:4.0 7:6.5 12:1.0 14:1.0 15:10.0 16:206.0 18:9.0 24:1.0 25:1.0 26:2.0 27:1.0 33:76.0 11875:1.0 24948:1.0 25448:1.0 25455:1.0 25964:1.0 26213:1.0 26721:1.0 27756:1.0 27759:1.0 28525:1.0 28535:1.0 29798:1.0 30510:1.0 
1.0 1:18.0 2:1.0 4:5.0 7:8.5 12:2.0 14:0.0 25:1.0 33:7420000.0 11874:1.0 24947:1.0 25210:1.0 25953:1.0 25970:1.0 26414:1.0 26725:1.0 26990:1.0 27749:1.0 28263:1.0 28268:1.0 28271:1.0 28530:1.0 29294:1.0 29300:1.0 29545:1.0 29800:1.0 
1.0 1:4.0 2:1.0 7:1.5 14:0.0 25:2.0 26:2.0 27:2.0 33:535.0 11879:1.0 26483:1.0 27182:1.0 
1.0 1:11.0 2:1.0 4:4.0 7:5.0 12:1.0 14:0.0 25:1.0 11875:1.0 25189:1.0 25455:1.0 25959:1.0 25975:1.0 26479:1.0 28525:1.0 28531:1.0 29541:1.0 30510:1.0 
1.0 1:21.0 2:2.0 4:6.0 7:6.333333333333333 12:1.0 14:1.0 15:4.0 16:44.0 18:4.0 24:1.0 25:1.0 33:1850.0 11873:1.0 11875:1.0 24932:1.0 24946:1.0 25455:1.0 25715:1.0 25972:2.0 27438:1.0 27493:1.0 28001:1.0 28261:1.0 28525:1.0 28530:1.0 29291:2.0 29549:1.0 29742:1.0 29815:1.0 30575:1.0 
1.0 1:22.0 2:1.0 4:10.0 7:10.5 12:2.0 14:0.0 33:1070.0 11874:1.0 24932:1.0 24946:1.0 25202:1.0 25455:1.0 25701:1.0 25970:1.0 25971:1.0 26991:1.0 26996:1.0 26998:1.0 28265:1.0 28462:1.0 29281:1.0 29289:1.0 29299:1.0 29539:1.0 29545:1.0 29793:1.0 30062:1.0 30309:1.0 
1.0 1:16.0 2:2.0 4:5.0 7:4.666666666666667 12:2.0 14:0.0 33:2210000.0 11875:1.0 11881:1.0 25455:1.0 25957:1.0 25970:1.0 26228:1.0 26473:1.0 26725:1.0 26982:1.0 26988:1.0 28462:1.0 29287:1.0 29486:1.0 29544:1.0 29811:1.0 
0.6542443602663878 1:10.0 2:1.0 4:3.0 7:4.5 12:1.0 14:1.0 15:218.0 16:13616.0 17:53.0 18:217.0 19:1.0 24:1.0 25:1.0 26:2.0 27:2.0 11887:1.0 24934:1.0 25441:1.0 25449:1.0 26227:1.0 26926:1.0 28530:1.0 29287:1.0 29539:1.0 
1.0 1:22.0 2:2.0 4:6.0 7:6.666666666666667 12:1.0 14:0.0 26:2.0 27:1.0 33:2040000.0 11875:1.0 11885:1.0 24946:2.0 24947:1.0 24948:1.0 25452:1.0 26465:1.0 26735:1.0 26996:1.0 28001:2.0 28525:1.0 29287:1.0 29289:1.0 29486:1.0 29793:1.0 29800:1.0 30510:1.0 30583:2.0 
0.9468101189342354 1:21.0 2:2.0 4:6.0 7:6.333333333333333 12:2.0 14:1.0 15:239.0 16:22827.0 17:29.0 18:215.0 19:1.0 24:1.0 25:1.0 26:2.0 27:1.0 28:1.0 33:3.0 11891:1.0 11892:1.0 24942:1.0 24946:1.0 25646:1.0 25701:1.0 25953:1.0 25956:1.0 26209:1.0 28260:1.0 28261:1.0 28528:1.0 29286:1.0 29294:1.0 29557:1.0 29807:1.0 30066:1.0 30510:1.0 30583:2.0 
1.0 1:19.0 2:2.0 4:4.0 7:5.666666666666667 12:1.0 14:0.0 25:1.0 33:1.1E7 11885:1.0 11893:1.0 24942:1.0 26480:1.0 26988:1.0 26990:1.0 27497:1.0 27756:1.0 27763:1.0 28001:1.0 28263:1.0 28267:1.0 28777:1.0 29486:1.0 30067:1.0 30510:1.0 30583:2.0 
1.0 1:17.0 2:2.0 4:6.0 7:5.0 12:2.0 14:0.0 28:1.0 33:500000.0 11886:1.0 11890:1.0 24940:1.0 24941:1.0 24946:1.0 24950:1.0 26977:1.0 27753:1.0 27950:1.0 28257:1.0 29281:1.0 29295:1.0 30305:1.0 30510:1.0 30583:2.0 
1.0 1:15.0 2:2.0 4:4.0 7:4.333333333333333 12:2.0 14:1.0 15:369.0 16:22250.0 17:47.0 18:368.0 19:1.0 24:1.0 25:1.0 33:9440.0 11873:1.0 11875:1.0 24949:1.0 25455:1.0 26736:1.0 28462:1.0 28525:1.0 28786:1.0 29295:1.0 29800:1.0 30068:1.0 30510:1.0 30583:2.0 
1.0 1:23.0 2:2.0 4:6.0 7:7.0 12:2.0 14:0.0 25:1.0 26:3.0 27:3.0 28:1.0 33:130000.0 11892:1.0 11894:1.0 24937:1.0 24942:1.0 25966:1.0 26721:1.0 26729:1.0 26734:1.0 26926:1.0 26990:1.0 28257:1.0 28264:3.0 29301:1.0 29810:1.0 30073:1.0 30318:1.0 30510:1.0 30583:2.0 31077:1.0 
1.0 1:16.0 2:1.0 3:1.0 4:4.0 7:7.5 8:0.0625 11:1.0 12:1.0 14:0.0 25:1.0 26:2.0 27:2.0 33:91.0 11875:1.0 13175:1.0 24931:1.0 25455:1.0 25460:1.0 25907:1.0 26209:1.0 26725:1.0 28525:1.0 28530:1.0 29305:1.0 29800:1.0 29807:1.0 30566:1.0 31022:1.0 
1.0 1:20.0 2:1.0 4:4.0 7:9.5 12:1.0 14:1.0 15:159.0 16:7169.0 17:13.0 18:126.0 19:1.0 20:3.0 24:1.0 25:1.0 33:1.0 11875:1.0 24940:1.0 25185:1.0 25455:1.0 25459:1.0 26476:1.0 26480:1.0 26745:1.0 26979:1.0 27759:1.0 27760:1.0 27950:1.0 28514:1.0 28525:1.0 28776:1.0 28781:1.0 29543:1.0 29545:1.0 31091:1.0 
1.0 1:21.0 2:1.0 4:7.0 5:1.0 7:10.0 9:0.047619047619047616 12:1.0 13:1.0 14:0.0 25:1.0 26:2.0 27:1.0 33:97.0 11635:1.0 11875:1.0 24950:1.0 25449:1.0 25455:1.0 25460:1.0 25955:1.0 25964:1.0 25970:1.0 26979:1.0 26996:1.0 27749:1.0 28525:1.0 29230:1.0 29289:1.0 29537:1.0 29810:1.0 29817:1.0 30309:1.0 31021:1.0 
1.0 1:18.0 2:1.0 4:6.0 7:8.5 12:2.0 14:0.0 25:1.0 33:10600.0 11888:1.0 24878:1.0 24931:1.0 24937:1.0 24947:1.0 25450:1.0 26990:1.0 26994:1.0 27233:1.0 28257:1.0 28275:1.0 28777:1.0 28780:1.0 29281:1.0 29552:1.0 29562:1.0 31329:1.0 
1.0 1:13.0 2:1.0 4:3.0 7:6.0 12:1.0 14:0.0 25:1.0 33:2650.0 11875:1.0 24942:1.0 25390:1.0 25448:1.0 25455:1.0 25705:1.0 26738:1.0 26990:1.0 28259:1.0 28260:1.0 28525:1.0 29281:1.0 
0.7306446200629476 1:18.0 2:3.0 4:6.0 7:3.75 12:2.0 14:0.0 26:3.0 27:2.0 28:1.0 33:869000.0 11875:1.0 11876:1.0 11893:1.0 25455:1.0 25701:1.0 25902:1.0 25957:1.0 25958:1.0 25978:1.0 26226:1.0 28462:1.0 29285:1.0 30059:1.0 30510:1.0 30583:2.0 31333:1.0 
1.0 1:10.0 2:1.0 7:4.5 14:0.0 25:1.0 11896:1.0 25706:1.0 26158:1.0 27242:1.0 27255:1.0 28004:1.0 30566:1.0 30841:1.0 31098:1.0 
1.0 1:15.0 2:3.0 4:3.0 7:3.0 12:1.0 14:0.0 25:1.0 26:2.0 27:2.0 28:1.0 33:259000.0 11875:1.0 11888:1.0 11898:1.0 25455:1.0 28462:1.0 28528:1.0 28783:1.0 28784:1.0 28793:1.0 30510:1.0 30583:2.0 31022:1.0 31329:1.0 
1.0 1:23.0 2:2.0 4:7.0 5:1.0 7:7.0 9:0.043478260869565216 12:3.0 13:1.0 14:1.0 15:30.0 16:1768.0 17:2.0 18:29.0 19:1.0 24:1.0 25:1.0 33:1040.0 11620:1.0 11874:1.0 11875:1.0 24949:1.0 25189:1.0 25455:1.0 25711:1.0 25953:1.0 26229:1.0 26982:1.0 27693:1.0 27756:1.0 27763:1.0 28524:1.0 28525:1.0 29486:1.0 29801:1.0 30060:1.0 30068:1.0 30510:1.0 30583:2.0 
1.0 1:18.0 2:2.0 4:4.0 5:1.0 7:5.333333333333333 9:0.05555555555555555 12:1.0 13:1.0 14:0.0 33:1.92E7 11620:1.0 11883:1.0 11890:1.0 24878:1.0 24948:1.0 25722:1.0 26721:1.0 26990:1.0 27489:1.0 28205:1.0 29289:1.0 29301:1.0 29810:1.0 30510:1.0 30583:2.0 31336:1.0 
1.0 1:15.0 2:2.0 4:4.0 5:1.0 7:4.333333333333333 9:0.06666666666666667 12:1.0 13:1.0 14:0.0 25:1.0 33:1.74E7 11619:1.0 11876:1.0 11877:1.0 24877:1.0 24946:1.0 25441:1.0 25701:1.0 25965:1.0 28001:1.0 28013:1.0 29230:1.0 30510:1.0 30583:2.0 
1.0 1:13.0 2:1.0 4:3.0 7:6.0 12:1.0 14:0.0 26:2.0 27:2.0 33:1020.0 11875:1.0 25455:1.0 25646:1.0 25701:1.0 25971:1.0 26478:1.0 26983:1.0 28275:1.0 28525:1.0 28772:1.0 29545:1.0 29552:1.0 
1.0 1:22.0 2:2.0 4:8.0 7:6.666666666666667 12:2.0 14:0.0 25:1.0 26:2.0 27:1.0 33:1600.0 11874:1.0 11875:1.0 24878:1.0 24940:1.0 25202:1.0 25455:1.0 25965:1.0 25970:1.0 26977:1.0 27764:1.0 27950:1.0 28005:1.0 28015:1.0 28277:1.0 28525:1.0 28530:1.0 29281:1.0 29289:1.0 29294:1.0 29797:1.0 30066:1.0 
0.12081064402918917 1:16.0 2:2.0 4:4.0 7:4.666666666666667 12:1.0 14:0.0 25:1.0 33:1360.0 11875:1.0 11880:1.0 24932:1.0 25445:1.0 25455:1.0 25718:1.0 25902:1.0 26738:1.0 26979:1.0 28525:1.0 29281:1.0 30313:1.0 30510:1.0 30583:2.0 
1.0 1:25.0 2:1.0 4:8.0 7:12.0 12:1.0 14:1.0 15:198.0 16:23096.0 17:20.0 18:167.0 19:1.0 24:1.0 25:1.0 26:2.0 27:2.0 11875:1.0 24940:1.0 24946:1.0 25455:1.0 25959:1.0 25970:2.0 26465:1.0 26988:1.0 27507:1.0 27749:2.0 27756:2.0 28001:1.0 28005:1.0 28525:2.0 29291:1.0 29302:1.0 29305:1.0 29551:1.0 30313:1.0 31022:1.0 
1.0 1:15.0 2:1.0 4:5.0 7:7.0 12:1.0 14:0.0 25:1.0 26:2.0 27:4.0 33:1.0 11875:1.0 25455:1.0 25709:1.0 25959:1.0 25966:1.0 25972:1.0 26472:1.0 26725:1.0 26926:1.0 28005:1.0 28261:1.0 28525:1.0 29801:1.0 29812:1.0 
1.0 1:18.0 2:2.0 4:5.0 7:5.333333333333333 12:2.0 14:1.0 15:97.0 16:11942.0 17:23.0 18:92.0 19:1.0 24:1.0 25:1.0 28:1.0 33:4170.0 11875:1.0 11881:1.0 24941:1.0 24948:1.0 25448:1.0 25455:1.0 25705:1.0 26670:1.0 26977:1.0 26990:1.0 28001:1.0 28260:1.0 28525:1.0 29795:1.0 30510:1.0 30583:2.0 
1.0 1:17.0 2:2.0 4:4.0 7:5.0 12:1.0 14:0.0 26:2.0 27:2.0 33:1460000.0 11875:2.0 24940:1.0 25445:1.0 25452:1.0 25970:1.0 27694:1.0 28001:1.0 28271:1.0 28526:1.0 28530:1.0 29293:1.0 29295:1.0 30510:1.0 30583:2.0 
1.0 1:16.0 2:3.0 4:4.0 7:3.25 12:2.0 14:0.0 25:1.0 33:137000.0 11875:1.0 11883:1.0 11891:1.0 25455:1.0 25902:1.0 27506:1.0 27757:1.0 28015:1.0 28462:1.0 28517:1.0 28524:1.0 29551:1.0 30510:1.0 30583:2.0 
1.0 1:10.0 2:2.0 4:1.0 7:2.6666666666666665 12:1.0 14:0.0 33:3.0 11874:1.0 11878:1.0 25189:1.0 26228:1.0 29817:1.0 30510:1.0 30583:2.0 31022:1.0 
1.0 1:25.0 2:4.0 4:3.0 5:1.0 7:4.2 9:0.04 12:2.0 13:1.0 14:1.0 15:4.0 16:44.0 18:4.0 24:1.0 25:1.0 33:18500.0 11635:1.0 11875:1.0 11876:1.0 11878:1.0 11891:1.0 25452:1.0 25458:1.0 25646:1.0 25701:1.0 25974:1.0 26226:2.0 27759:1.0 28259:1.0 28533:1.0 29230:2.0 29542:1.0 29550:1.0 30052:1.0 30253:1.0 30510:1.0 30583:2.0 
1.0 1:11.0 2:2.0 4:5.0 7:3.0 12:3.0 14:0.0 25:1.0 26:2.0 27:2.0 11887:1.0 11893:1.0 25972:1.0 26414:1.0 26981:1.0 26985:1.0 28530:1.0 29287:1.0 29742:1.0 30059:1.0 
1.0 1:16.0 2:2.0 4:4.0 7:4.666666666666667 12:1.0 14:0.0 33:88.0 11875:1.0 11880:1.0 25455:1.0 25902:1.0 26228:1.0 26735:1.0 26996:1.0 27749:1.0 28518:1.0 28525:1.0 29801:1.0 29804:1.0 30510:1.0 30583:2.0 
1.0 1:27.0 2:3.0 4:10.0 7:6.0 12:2.0 14:1.0 15:188.0 16:33878.0 17:8.0 18:128.0 19:1.0 20:1.0 24:1.0 25:1.0 26:2.0 27:2.0 28:1.0 11873:1.0 11874:1.0 11875:1.0 24931:1.0 24948:1.0 24949:1.0 25196:1.0 25451:1.0 25455:1.0 25697:1.0 25964:1.0 25970:1.0 26981:1.0 27511:1.0 27745:1.0 27753:1.0 27950:1.0 28516:1.0 28525:1.0 28527:1.0 29230:1.0 29797:1.0 30510:1.0 30575:1.0 30583:2.0 
1.0 1:10.0 2:1.0 4:4.0 7:4.5 12:2.0 14:0.0 25:1.0 26:4.0 27:4.0 11875:1.0 24953:1.0 25455:1.0 25972:1.0 26981:1.0 27233:1.0 28525:1.0 29802:1.0 31022:1.0 
1.0 1:12.0 2:1.0 4:5.0 7:5.5 12:2.0 14:0.0 11875:1.0 25455:1.0 26997:1.0 27000:1.0 27753:1.0 27950:1.0 28524:1.0 28525:1.0 28777:1.0 30061:1.0 30831:1.0 
1.0 1:12.0 2:2.0 4:2.0 7:3.3333333333333335 12:1.0 14:0.0 33:489000.0 11874:1.0 11877:1.0 25188:1.0 25195:1.0 25448:1.0 25717:1.0 25956:1.0 26739:1.0 27491:1.0 29486:1.0 29998:1.0 
1.0 1:15.0 2:1.0 4:5.0 7:7.0 12:1.0 14:0.0 25:1.0 26:2.0 27:2.0 11875:1.0 25197:1.0 25455:1.0 25954:1.0 26489:1.0 26990:1.0 27759:1.0 28009:1.0 28271:1.0 28519:1.0 28524:1.0 28525:1.0 30565:1.0 31022:1.0 
1.0 1:23.0 2:2.0 4:9.0 7:7.0 12:1.0 14:0.0 33:20.0 11887:1.0 11888:1.0 24935:1.0 25455:1.0 25701:1.0 25955:1.0 25971:1.0 26469:1.0 26989:1.0 26990:2.0 27753:1.0 28001:1.0 28260:1.0 28261:1.0 28268:1.0 28526:1.0 28530:1.0 28786:1.0 29230:1.0 29289:1.0 29486:1.0 
1.0 1:19.0 2:1.0 4:6.0 7:9.0 12:1.0 14:1.0 15:77.0 16:8531.0 17:19.0 18:82.0 19:1.0 20:1.0 24:1.0 25:1.0 11875:1.0 24940:1.0 24944:1.0 25455:1.0 25456:1.0 26482:1.0 26735:1.0 26745:1.0 26979:1.0 27753:1.0 28519:1.0 28525:1.0 28532:1.0 28776:2.0 29281:1.0 29807:1.0 31022:1.0 
1.0 1:21.0 2:2.0 4:4.0 7:6.333333333333333 12:1.0 14:0.0 25:1.0 28:1.0 33:740.0 11875:1.0 11876:1.0 24942:1.0 25455:2.0 25716:1.0 25718:1.0 25970:1.0 26213:1.0 28275:1.0 28462:1.0 28525:1.0 29281:1.0 29283:1.0 29542:1.0 29810:1.0 30308:1.0 30510:1.0 30583:2.0 
1.0 1:11.0 2:1.0 4:4.0 7:5.0 12:2.0 14:0.0 25:1.0 26:4.0 27:4.0 33:4480.0 11891:1.0 25390:1.0 25955:1.0 25966:1.0 28275:1.0 28517:1.0 28773:1.0 29552:1.0 29557:1.0 30319:1.0 
0.7314808170915015 1:20.0 2:2.0 4:6.0 7:6.0 12:1.0 14:0.0 26:2.0 27:2.0 28:1.0 33:869000.0 11875:1.0 11881:1.0 24878:1.0 24950:1.0 25445:1.0 25455:1.0 25966:1.0 25971:1.0 26996:1.0 28257:1.0 28270:1.0 28532:1.0 29281:1.0 29539:1.0 29810:1.0 30309:1.0 30510:1.0 30583:2.0 
1.0 1:13.0 2:2.0 3:2.0 4:3.0 7:3.6666666666666665 8:0.15384615384615385 11:2.0 12:1.0 14:0.0 25:1.0 33:2.0 11875:1.0 11881:1.0 14638:1.0 14649:1.0 24889:1.0 25455:1.0 27002:1.0 28525:1.0 30510:1.0 30583:2.0 31329:1.0 
1.0 1:29.0 2:2.0 4:11.0 5:2.0 7:9.0 9:0.06896551724137931 12:3.0 13:1.0 14:1.0 15:8.0 16:160.0 18:6.0 19:1.0 24:1.0 25:1.0 11619:1.0 11620:1.0 11875:2.0 24948:1.0 24949:1.0 25448:1.0 25455:2.0 25458:1.0 25701:1.0 25901:1.0 25953:1.0 25955:1.0 25973:1.0 25974:1.0 26721:1.0 28517:1.0 28525:1.0 29230:1.0 29285:1.0 29797:1.0 29997:1.0 30066:1.0 30309:1.0 30510:1.0 30583:2.0 
1.0 1:10.0 2:1.0 4:3.0 5:1.0 7:4.5 9:0.1 12:1.0 13:1.0 14:0.0 25:1.0 26:2.0 27:2.0 33:91000.0 11625:1.0 11890:1.0 25189:1.0 25964:1.0 26996:1.0 27437:1.0 27755:1.0 29301:1.0 29742:1.0 
1.0 1:12.0 2:1.0 4:3.0 7:5.5 12:1.0 14:1.0 15:154.0 16:10700.0 17:34.0 18:187.0 19:1.0 24:1.0 25:1.0 26:4.0 27:4.0 11875:1.0 24940:1.0 25185:1.0 25455:1.0 26414:1.0 27764:1.0 28525:1.0 28530:1.0 29287:1.0 29807:1.0 29812:1.0 
1.0 1:13.0 2:1.0 4:5.0 7:6.0 12:2.0 14:0.0 25:1.0 26:2.0 27:2.0 11875:1.0 24953:1.0 25455:1.0 25957:1.0 25959:1.0 26479:1.0 27745:1.0 28525:1.0 28528:1.0 28780:1.0 30565:1.0 31022:1.0 
1.0 1:20.0 2:1.0 4:7.0 7:9.5 12:1.0 14:1.0 15:42.0 16:5031.0 17:6.0 18:35.0 19:1.0 24:1.0 25:1.0 26:2.0 27:2.0 33:2.0 11875:1.0 24946:1.0 25202:1.0 25452:1.0 25455:1.0 25965:1.0 26978:1.0 26979:1.0 26989:1.0 27753:2.0 28005:1.0 28021:1.0 28525:1.0 29281:1.0 29305:1.0 29545:1.0 30067:1.0 31022:1.0 
1.0 1:18.0 2:2.0 4:5.0 7:5.333333333333333 12:1.0 14:1.0 15:119.0 16:8757.0 17:20.0 18:100.0 19:1.0 24:1.0 25:1.0 26:2.0 27:2.0 11874:1.0 11875:1.0 25202:1.0 25455:1.0 26670:1.0 26990:1.0 26996:1.0 27950:1.0 28264:1.0 28275:1.0 28525:1.0 28526:1.0 29556:1.0 29801:1.0 29807:1.0 29813:1.0 30068:1.0 
1.0 1:13.0 2:1.0 4:4.0 7:6.0 12:1.0 14:1.0 15:4.0 16:44.0 18:4.0 24:1.0 25:1.0 33:11200.0 11875:1.0 25445:1.0 25455:1.0 25964:1.0 25966:1.0 25970:1.0 27694:1.0 27756:1.0 28276:1.0 28525:1.0 29283:1.0 29797:1.0 
1.0 1:19.0 2:3.0 4:4.0 7:4.0 12:1.0 14:1.0 15:484.0 16:44427.0 17:91.0 18:429.0 19:1.0 24:1.0 25:1.0 28:1.0 33:1.0 11874:1.0 11875:1.0 11880:1.0 24947:1.0 25185:1.0 25202:1.0 25390:1.0 25455:1.0 26729:1.0 26979:1.0 26996:1.0 27950:1.0 28525:1.0 29545:1.0 29794:1.0 30510:1.0 30583:2.0 
1.0 1:13.0 2:1.0 4:3.0 7:6.0 12:1.0 14:1.0 15:6.0 16:64.0 18:4.0 24:1.0 25:1.0 26:2.0 27:2.0 33:8.0 11875:1.0 24944:1.0 24947:1.0 25455:1.0 25714:1.0 26745:1.0 28525:1.0 28769:1.0 29281:1.0 29486:1.0 29555:1.0 31076:1.0 
1.0 1:12.0 2:1.0 4:3.0 7:5.5 12:1.0 14:1.0 15:278.0 16:18889.0 17:16.0 18:203.0 19:1.0 24:1.0 25:1.0 26:4.0 27:4.0 11875:1.0 24946:1.0 24951:1.0 25185:1.0 25455:1.0 26721:1.0 28525:1.0 29300:1.0 29544:1.0 29811:1.0 30510:1.0 
0.8270778058794107 1:14.0 2:1.0 4:5.0 7:6.5 12:1.0 14:1.0 15:99.0 16:13319.0 17:10.0 18:168.0 19:1.0 23:1.0 24:1.0 25:1.0 26:2.0 27:2.0 11886:1.0 24878:1.0 25964:1.0 25972:1.0 26725:1.0 26741:1.0 27756:1.0 27759:1.0 28261:1.0 28282:1.0 28520:1.0 30062:1.0 31329:1.0 
1.0 1:12.0 2:2.0 4:3.0 7:3.3333333333333335 12:2.0 14:0.0 25:1.0 26:2.0 27:2.0 28:1.0 33:1.08E7 11882:1.0 11892:1.0 25969:1.0 26926:1.0 27237:1.0 29045:1.0 29814:1.0 30057:1.0 30510:1.0 30583:2.0 
1.0 1:18.0 2:2.0 4:4.0 7:5.333333333333333 12:1.0 14:0.0 28:1.0 33:175000.0 11890:1.0 11891:1.0 25203:1.0 25461:1.0 25955:1.0 26996:1.0 28002:1.0 29289:1.0 29295:1.0 29541:1.0 29549:1.0 29817:1.0 30066:1.0 30510:1.0 30583:2.0 31022:1.0 
1.0 1:15.0 2:1.0 4:7.0 7:7.0 12:2.0 14:0.0 25:1.0 26:2.0 27:2.0 33:78600.0 11892:1.0 24950:1.0 26977:1.0 26991:1.0 26995:2.0 28206:1.0 28271:1.0 28521:1.0 28526:1.0 29545:2.0 29814:1.0 30313:1.0 
1.0 1:24.0 2:2.0 4:10.0 7:7.333333333333333 12:2.0 14:1.0 15:303.0 16:17421.0 17:69.0 18:347.0 19:1.0 24:1.0 25:1.0 26:2.0 27:2.0 11874:1.0 11875:1.0 24936:1.0 25202:1.0 25455:1.0 25961:2.0 26735:1.0 26989:1.0 26995:1.0 27002:1.0 27950:1.0 28015:1.0 28276:1.0 28525:1.0 28526:1.0 28530:1.0 28534:1.0 29289:1.0 29486:1.0 29797:1.0 30309:1.0 31343:1.0 
1.0 1:16.0 2:1.0 4:6.0 7:7.5 12:2.0 14:1.0 15:12.0 16:396.0 17:1.0 18:10.0 19:1.0 24:1.0 25:1.0 26:2.0 27:2.0 33:1.0 11875:1.0 24942:1.0 24946:1.0 25441:1.0 25455:1.0 25966:1.0 25971:1.0 26977:1.0 28261:1.0 28276:1.0 28525:1.0 29300:1.0 29545:1.0 29742:1.0 29797:1.0 
0.7229545601649581 1:13.0 2:1.0 4:5.0 7:6.0 12:2.0 14:1.0 15:31.0 16:1958.0 17:1.0 18:26.0 19:1.0 24:1.0 25:1.0 26:2.0 27:2.0 11875:1.0 24929:1.0 24930:1.0 24934:1.0 25134:1.0 25455:1.0 25459:1.0 26217:1.0 26979:1.0 28525:1.0 29537:1.0 30561:1.0 
1.0 1:27.0 2:1.0 4:10.0 7:13.0 12:2.0 14:1.0 15:248.0 16:31517.0 17:27.0 18:217.0 19:1.0 24:1.0 25:1.0 11875:1.0 24931:1.0 24935:1.0 24940:1.0 25445:1.0 25455:1.0 25458:1.0 25714:1.0 25902:1.0 25966:2.0 25971:2.0 26469:1.0 26977:1.0 27745:1.0 28265:1.0 28270:1.0 28276:1.0 28525:1.0 29285:2.0 29537:1.0 29540:1.0 29555:1.0 29797:1.0 
1.0 1:22.0 2:1.0 4:8.0 7:10.5 12:1.0 14:1.0 15:169.0 16:15537.0 17:13.0 18:130.0 19:1.0 24:1.0 25:1.0 26:2.0 27:2.0 11875:1.0 24936:2.0 24941:1.0 24947:1.0 24950:1.0 25455:1.0 26482:1.0 26721:1.0 26736:1.0 27950:1.0 28519:1.0 28525:1.0 28530:1.0 28786:1.0 29281:2.0 29295:1.0 29556:1.0 29807:1.0 30305:1.0 
1.0 1:20.0 2:1.0 4:5.0 7:9.5 12:1.0 14:1.0 15:400.0 16:29514.0 17:64.0 18:414.0 19:1.0 24:1.0 25:1.0 26:4.0 27:4.0 33:4.0 11875:1.0 24942:1.0 24944:1.0 24946:1.0 25444:1.0 25455:2.0 25699:1.0 26721:1.0 28001:1.0 28016:1.0 28281:1.0 28525:2.0 28769:1.0 28771:1.0 28776:1.0 29293:1.0 31022:1.0 
0.7330542862809013 1:27.0 2:3.0 4:10.0 7:6.0 12:2.0 14:0.0 25:1.0 26:2.0 27:2.0 28:1.0 33:1020000.0 11875:2.0 11898:1.0 24940:1.0 25445:1.0 25455:1.0 25902:1.0 25966:1.0 26991:1.0 26996:1.0 27756:1.0 27763:1.0 28257:1.0 28276:1.0 28462:1.0 28526:1.0 29289:1.0 29557:1.0 29797:1.0 29813:1.0 30057:1.0 30066:1.0 30510:1.0 30583:2.0 31329:1.0 
0.6844930008007818 1:21.0 2:2.0 3:1.0 4:5.0 7:6.333333333333333 8:0.047619047619047616 11:1.0 12:1.0 14:0.0 28:1.0 33:17200.0 11827:1.0 11875:1.0 13156:1.0 25445:1.0 25455:1.0 25701:1.0 25966:1.0 25970:1.0 25971:1.0 26478:1.0 26983:1.0 28259:1.0 28276:1.0 28525:1.0 29230:1.0 29545:1.0 29797:1.0 30510:1.0 30583:2.0 
1.0 1:16.0 2:2.0 4:6.0 7:4.666666666666667 12:2.0 14:0.0 33:13000.0 11881:1.0 11895:1.0 25134:1.0 25957:1.0 25962:1.0 26223:1.0 26990:1.0 27247:1.0 28262:1.0 28514:1.0 28527:1.0 30510:1.0 30565:1.0 30583:2.0 
1.0 1:28.0 2:4.0 3:3.0 4:9.0 7:4.8 8:0.10714285714285714 11:3.0 12:2.0 14:1.0 15:14.0 16:4716.0 18:11.0 19:1.0 24:1.0 25:1.0 11875:1.0 11876:1.0 11877:1.0 11884:1.0 12600:1.0 12849:1.0 14382:1.0 24878:1.0 24935:1.0 24942:1.0 25455:1.0 25714:1.0 25957:1.0 25960:1.0 25971:1.0 26469:1.0 26721:1.0 26930:1.0 27753:1.0 28257:1.0 28525:1.0 28528:1.0 28769:1.0 28784:1.0 29230:1.0 29295:1.0 29486:1.0 
1.0 1:11.0 2:1.0 3:1.0 4:4.0 7:5.0 8:0.09090909090909091 11:1.0 12:2.0 14:1.0 15:180.0 16:15054.0 17:36.0 18:180.0 19:1.0 20:1.0 24:1.0 25:1.0 26:3.0 27:3.0 11894:1.0 13433:1.0 24942:1.0 28271:1.0 28468:1.0 28533:1.0 28769:1.0 29998:1.0 30318:1.0 31087:1.0 
1.0 1:14.0 2:2.0 4:5.0 7:4.0 12:3.0 14:0.0 25:1.0 26:2.0 27:2.0 28:1.0 11875:1.0 11882:1.0 24878:1.0 24929:1.0 24933:1.0 25455:1.0 25978:1.0 27233:1.0 28525:1.0 30510:1.0 30583:2.0 31329:1.0 
1.0 1:19.0 2:2.0 4:5.0 7:5.666666666666667 12:2.0 14:0.0 25:1.0 26:2.0 27:1.0 33:10.0 11875:1.0 11879:1.0 24931:1.0 25451:1.0 25455:1.0 25957:1.0 25959:1.0 25966:1.0 26414:1.0 26482:1.0 27493:1.0 28272:1.0 28525:1.0 28769:1.0 29285:1.0 30510:1.0 30583:2.0 
1.0 1:22.0 2:2.0 4:6.0 7:6.666666666666667 12:2.0 14:0.0 25:1.0 26:2.0 27:2.0 28:1.0 33:53.0 11875:1.0 11891:1.0 25455:1.0 25701:1.0 25956:1.0 25957:1.0 25966:1.0 25970:1.0 26473:1.0 26990:1.0 28261:1.0 28263:1.0 28525:1.0 29299:1.0 29486:1.0 29561:1.0 30510:1.0 30583:2.0 31077:1.0 31097:1.0 
1.0 1:11.0 2:1.0 4:4.0 7:5.0 12:1.0 14:1.0 15:255.0 16:22564.0 17:24.0 18:171.0 19:1.0 24:1.0 25:1.0 26:2.0 27:2.0 33:1.0 11875:1.0 24878:1.0 25455:1.0 26987:1.0 27508:1.0 28525:1.0 29545:1.0 29793:1.0 29811:1.0 30068:1.0 
1.0 1:12.0 2:1.0 4:6.0 7:5.5 12:2.0 14:0.0 25:1.0 26:2.0 27:2.0 33:1.0 11887:1.0 24878:1.0 24929:1.0 24947:1.0 25441:1.0 26977:1.0 26992:1.0 28530:1.0 28771:1.0 29287:1.0 29545:1.0 
1.0 1:14.0 2:1.0 4:5.0 7:6.5 12:1.0 14:0.0 25:2.0 26:2.0 27:2.0 33:1010.0 11875:1.0 25455:1.0 25964:1.0 26987:1.0 26988:1.0 27497:2.0 27694:1.0 27756:1.0 27759:1.0 28525:1.0 28534:1.0 30309:1.0 
1.0 1:14.0 2:2.0 3:2.0 4:2.0 7:4.0 8:0.14285714285714285 11:2.0 12:1.0 14:0.0 26:2.0 27:2.0 28:1.0 33:2480.0 11875:1.0 11882:1.0 12334:1.0 14640:1.0 25203:1.0 25455:1.0 27247:1.0 28514:1.0 28525:1.0 29497:1.0 30510:1.0 30583:2.0 
1.0 1:4.0 2:1.0 7:1.5 14:1.0 15:4.0 16:44.0 18:4.0 24:1.0 25:2.0 26:4.0 27:4.0 33:1450.0 11885:1.0 27182:1.0 28016:1.0 
1.0 1:12.0 2:1.0 4:4.0 7:5.5 12:1.0 14:1.0 15:494.0 16:40277.0 17:71.0 18:493.0 19:1.0 20:2.0 24:1.0 25:1.0 26:2.0 27:2.0 11887:1.0 25976:1.0 26990:1.0 26996:1.0 28275:1.0 28530:1.0 29287:1.0 29556:1.0 29797:1.0 29801:1.0 30766:1.0 
1.0 1:10.0 2:1.0 4:3.0 7:4.5 12:1.0 14:0.0 25:1.0 26:2.0 27:2.0 33:2330000.0 11880:1.0 25711:1.0 25956:1.0 26738:1.0 26992:1.0 28005:1.0 28528:1.0 28718:1.0 28777:1.0 
1.0 1:13.0 2:2.0 4:2.0 7:3.6666666666666665 12:1.0 14:0.0 26:2.0 27:1.0 28:1.0 33:18100.0 11875:1.0 11887:1.0 25390:1.0 25455:1.0 28525:1.0 28531:1.0 29283:1.0 29554:1.0 29555:1.0 30510:1.0 30583:2.0 
1.0 1:15.0 2:2.0 4:5.0 7:4.333333333333333 12:2.0 14:0.0 33:43.0 11874:1.0 11875:1.0 24932:1.0 24937:1.0 25185:1.0 25455:1.0 25711:1.0 27000:1.0 28462:1.0 28525:1.0 30510:1.0 30583:2.0 30817:1.0 
1.0 1:12.0 2:1.0 4:4.0 7:5.5 12:1.0 14:0.0 25:1.0 26:2.0 27:2.0 11875:1.0 25189:1.0 25455:1.0 25970:1.0 26414:1.0 27759:1.0 28514:1.0 28519:1.0 28525:1.0 29292:1.0 29551:1.0 
1.0 1:18.0 2:1.0 4:5.0 7:8.5 12:1.0 14:0.0 25:1.0 26:4.0 27:4.0 33:9.68E7 11888:1.0 24940:1.0 24946:1.0 24948:1.0 25970:1.0 27760:1.0 28257:1.0 28261:1.0 28769:1.0 28788:1.0 29281:1.0 29299:1.0 29300:1.0 29486:1.0 29806:1.0 29813:1.0 30066:1.0 
1.0 1:12.0 2:2.0 4:3.0 7:3.3333333333333335 12:1.0 14:0.0 33:3760.0 11885:1.0 11891:1.0 25972:1.0 27950:1.0 28001:1.0 28525:1.0 29541:1.0 29807:1.0 30510:1.0 30583:2.0 
1.0 1:15.0 2:2.0 4:4.0 7:4.333333333333333 12:2.0 14:0.0 25:1.0 33:7.0 11875:1.0 11891:1.0 25134:1.0 25455:1.0 25957:1.0 25966:1.0 26482:1.0 26741:1.0 27950:1.0 28264:1.0 28525:1.0 29285:1.0 29543:1.0 30050:1.0 
1.0 1:24.0 2:1.0 4:10.0 5:1.0 7:11.5 9:0.041666666666666664 12:2.0 13:1.0 14:0.0 25:1.0 26:4.0 27:5.0 33:182000.0 11637:1.0 11876:1.0 24877:1.0 24940:1.0 24949:1.0 25203:1.0 25441:1.0 25701:1.0 25902:1.0 25964:1.0 26981:1.0 27745:1.0 27749:1.0 27756:1.0 27759:1.0 28001:1.0 28530:1.0 29283:1.0 29292:1.0 29562:1.0 30050:1.0 30066:1.0 31337:1.0 
1.0 1:21.0 2:1.0 4:7.0 7:10.0 12:2.0 14:1.0 15:10.0 16:254.0 17:1.0 18:8.0 19:1.0 24:1.0 25:1.0 26:2.0 27:2.0 11875:1.0 24940:1.0 24946:1.0 25189:1.0 25455:1.0 25953:1.0 25954:1.0 25966:1.0 26996:1.0 27749:1.0 27753:1.0 27763:1.0 28276:1.0 28525:1.0 29285:1.0 29298:1.0 29486:1.0 29793:1.0 29804:1.0 29812:1.0 
1.0 1:9.0 2:1.0 4:2.0 7:4.0 12:1.0 14:0.0 25:1.0 33:20.0 11876:1.0 25390:1.0 25449:1.0 25707:1.0 25955:1.0 26989:1.0 28018:1.0 29285:1.0 
1.0 1:27.0 2:1.0 3:4.0 4:6.0 5:1.0 7:13.0 8:0.14814814814814814 9:0.037037037037037035 11:4.0 12:1.0 13:1.0 14:0.0 26:2.0 27:2.0 33:9420000.0 11625:1.0 11881:1.0 12337:1.0 12598:1.0 12848:1.0 13870:1.0 24942:1.0 24946:1.0 25441:1.0 25459:1.0 25715:2.0 25970:1.0 25972:1.0 26725:1.0 26979:1.0 26996:1.0 27745:1.0 28260:1.0 28261:1.0 29284:1.0 29292:1.0 29485:1.0 29490:1.0 29539:1.0 29800:1.0 
1.0 1:20.0 2:2.0 4:7.0 7:6.0 12:2.0 14:0.0 25:1.0 26:2.0 27:2.0 28:1.0 33:1.13E7 11881:1.0 11885:1.0 24937:1.0 24953:1.0 25970:1.0 26990:2.0 26991:1.0 28001:1.0 28276:1.0 28530:1.0 29289:1.0 29299:1.0 29486:1.0 29797:1.0 30510:1.0 30583:2.0 31073:1.0 
1.0 1:14.0 2:1.0 4:5.0 7:6.5 12:1.0 14:0.0 33:2880.0 11879:1.0 24936:1.0 24953:1.0 25965:1.0 26465:1.0 26721:1.0 26725:1.0 28001:1.0 28020:1.0 28271:1.0 28525:1.0 29800:1.0 31022:1.0 
1.0 1:14.0 2:1.0 4:4.0 7:6.5 12:1.0 14:0.0 26:2.0 27:2.0 11875:1.0 24936:1.0 25448:1.0 25455:1.0 25955:1.0 26735:1.0 26746:1.0 28525:1.0 28535:1.0 29797:1.0 30586:1.0 31278:1.0 31329:1.0 
1.0 1:16.0 2:2.0 4:4.0 7:4.666666666666667 12:1.0 14:0.0 26:2.0 27:2.0 28:1.0 33:1.0 11881:1.0 11887:1.0 25972:1.0 26990:1.0 28261:1.0 28275:1.0 28530:1.0 29287:1.0 29556:1.0 29742:1.0 29813:1.0 30062:1.0 30510:1.0 30583:2.0 
1.0 1:18.0 2:1.0 4:7.0 7:8.5 12:2.0 14:0.0 26:2.0 27:2.0 33:215.0 11875:1.0 24946:1.0 25441:1.0 25448:1.0 25953:1.0 25966:1.0 25970:1.0 26217:1.0 26725:1.0 26981:1.0 26990:1.0 28261:1.0 28265:1.0 29286:1.0 29300:1.0 29486:1.0 29811:1.0 
1.0 1:17.0 2:1.0 4:5.0 7:8.0 12:1.0 14:0.0 25:1.0 26:2.0 27:2.0 33:3420.0 11875:1.0 24948:1.0 25454:1.0 25455:1.0 25959:1.0 25975:1.0 26473:1.0 26979:1.0 28261:1.0 28525:1.0 29281:1.0 29486:1.0 29556:1.0 29797:1.0 29810:1.0 30579:1.0 
1.0 1:23.0 2:2.0 4:9.0 5:1.0 7:7.0 9:0.043478260869565216 12:2.0 13:1.0 14:0.0 33:1380000.0 11628:1.0 11873:1.0 11888:1.0 24940:1.0 24942:1.0 24948:1.0 25902:1.0 25959:1.0 26479:1.0 26482:1.0 26981:1.0 27693:1.0 27749:1.0 27756:1.0 27759:1.0 28265:1.0 28462:1.0 28519:1.0 28535:1.0 28780:1.0 29295:1.0 30561:1.0 
1.0 1:17.0 2:2.0 4:4.0 7:5.0 12:1.0 14:0.0 25:1.0 26:2.0 27:2.0 33:603000.0 11881:1.0 11891:1.0 24931:1.0 25445:1.0 25975:1.0 26223:1.0 26990:1.0 28262:1.0 28769:1.0 29306:1.0 29552:1.0 30510:1.0 30578:1.0 30583:2.0 31278:1.0 
1.0 1:12.0 2:2.0 4:4.0 7:3.3333333333333335 12:1.0 14:0.0 25:1.0 26:2.0 27:2.0 33:1.89E7 11875:1.0 11893:1.0 24931:1.0 25451:1.0 25455:1.0 26996:1.0 27233:1.0 27438:1.0 28462:1.0 29802:1.0 30059:1.0 
1.0 1:22.0 2:3.0 3:3.0 4:4.0 7:4.75 8:0.13636363636363635 11:3.0 12:1.0 14:0.0 25:1.0 26:2.0 27:2.0 28:1.0 33:1680000.0 11875:1.0 11895:1.0 11898:1.0 12852:1.0 13367:1.0 14126:1.0 25455:1.0 25712:1.0 25971:1.0 28462:1.0 28530:1.0 28786:1.0 29284:1.0 29285:1.0 29490:1.0 29555:1.0 30510:1.0 30575:1.0 30583:2.0 31329:1.0 
1.0 1:11.0 2:1.0 4:4.0 7:5.0 12:2.0 14:0.0 11875:1.0 24947:1.0 25446:1.0 27001:1.0 28462:1.0 29300:1.0 29557:1.0 29793:1.0 30057:1.0 31087:1.0 
1.0 1:14.0 2:1.0 4:5.0 7:6.5 12:1.0 14:0.0 25:1.0 33:2.0 11875:1.0 24942:1.0 24944:1.0 25455:1.0 25902:1.0 25970:1.0 27506:1.0 28261:1.0 28525:1.0 28769:1.0 28773:1.0 29281:1.0 29291:1.0 
1.0 1:14.0 2:1.0 4:5.0 7:6.5 12:1.0 14:0.0 25:1.0 33:1460.0 11875:1.0 24932:1.0 24948:1.0 25455:1.0 25701:1.0 25972:1.0 25976:1.0 28005:1.0 28525:1.0 29281:1.0 29793:1.0 29810:1.0 30766:1.0 
1.0 1:13.0 2:1.0 4:4.0 5:1.0 7:6.0 9:0.07692307692307693 12:1.0 13:1.0 14:0.0 11624:1.0 11875:1.0 24877:1.0 25455:1.0 25964:1.0 25972:1.0 26725:2.0 27760:1.0 28525:1.0 28718:1.0 29793:1.0 
1.0 1:22.0 2:2.0 4:7.0 7:6.666666666666667 12:1.0 14:0.0 33:38200.0 11881:1.0 11890:1.0 24878:1.0 24935:1.0 24947:1.0 25189:1.0 25441:1.0 25970:1.0 26478:1.0 26996:1.0 28257:1.0 28514:1.0 28515:1.0 29295:1.0 29300:1.0 29556:1.0 29793:1.0 29807:1.0 30510:1.0 30583:2.0 
1.0 1:16.0 2:2.0 4:4.0 7:4.666666666666667 12:2.0 14:0.0 33:6.0 11875:1.0 11876:1.0 25455:1.0 25705:1.0 26991:1.0 28274:1.0 28525:1.0 28526:1.0 28531:1.0 29295:1.0 29486:1.0 29555:1.0 30510:1.0 30583:2.0 
1.0 1:14.0 2:2.0 4:3.0 7:4.0 12:2.0 14:0.0 28:1.0 33:2.0 11874:1.0 11887:1.0 24878:1.0 24929:1.0 25196:1.0 25710:1.0 27748:1.0 28257:1.0 28530:1.0 29287:1.0 30510:1.0 30583:2.0 
1.0 1:16.0 2:2.0 4:6.0 7:4.666666666666667 12:2.0 14:0.0 25:1.0 26:2.0 27:2.0 28:1.0 33:1780000.0 11881:1.0 11887:1.0 24878:1.0 25953:1.0 25966:1.0 26990:1.0 26996:1.0 27753:1.0 28261:1.0 28268:1.0 28528:1.0 28773:1.0 30510:1.0 30583:2.0 
1.0 1:13.0 2:1.0 4:4.0 7:6.0 12:1.0 14:0.0 25:1.0 11875:1.0 25455:1.0 25970:1.0 26229:1.0 26725:1.0 27503:1.0 27950:1.0 28525:1.0 28532:1.0 29293:1.0 29800:1.0 30059:1.0 
1.0 1:27.0 2:2.0 4:13.0 7:8.333333333333334 12:2.0 14:0.0 25:1.0 26:4.0 27:4.0 33:2560000.0 11873:1.0 11877:1.0 24931:1.0 24940:1.0 24949:2.0 25449:1.0 25455:1.0 25717:1.0 25902:1.0 25956:1.0 25959:1.0 26469:1.0 26977:1.0 26996:1.0 27749:1.0 27753:1.0 27756:1.0 28524:1.0 29281:1.0 29556:1.0 29810:1.0 29817:1.0 29998:1.0 30067:1.0 31075:1.0 
1.0 1:11.0 2:2.0 4:1.0 7:3.0 12:1.0 14:0.0 33:920.0 11886:1.0 11887:1.0 25390:1.0 25699:1.0 26414:1.0 28272:1.0 28530:1.0 28786:1.0 29284:1.0 29287:1.0 
1.0 1:18.0 2:2.0 4:6.0 7:5.333333333333333 12:1.0 14:0.0 28:1.0 33:4100.0 11882:1.0 11890:1.0 24878:1.0 25461:1.0 26995:1.0 26998:1.0 27247:1.0 28515:1.0 29289:1.0 29295:1.0 29556:1.0 29801:1.0 30066:1.0 30305:1.0 30510:1.0 30583:2.0 
1.0 1:17.0 2:1.0 4:5.0 7:8.0 12:2.0 14:0.0 25:1.0 26:2.0 27:1.0 33:80.0 11875:1.0 24932:1.0 25134:1.0 25209:1.0 25452:1.0 25697:1.0 25701:1.0 25956:1.0 25971:1.0 26981:1.0 28528:1.0 28777:1.0 28786:1.0 29295:1.0 29538:1.0 31074:1.0 
1.0 1:14.0 2:2.0 4:3.0 7:4.0 12:1.0 14:0.0 33:790000.0 11880:1.0 11890:1.0 24940:1.0 26733:1.0 27694:1.0 28018:1.0 28206:1.0 28530:1.0 28783:1.0 29294:1.0 29300:1.0 29301:1.0 29793:1.0 
1.0 1:12.0 2:1.0 4:5.0 7:5.5 12:3.0 14:0.0 25:1.0 11875:1.0 24937:1.0 25455:1.0 26228:1.0 26977:1.0 26995:1.0 28009:1.0 28518:1.0 28525:1.0 29551:1.0 29742:1.0 
1.0 1:10.0 2:1.0 4:2.0 5:1.0 7:4.5 9:0.1 12:1.0 13:1.0 14:0.0 25:2.0 33:60100.0 11632:1.0 11890:1.0 25719:1.0 28462:1.0 28786:1.0 29295:1.0 29301:1.0 29485:1.0 30579:1.0 
