svm_type c_svc
kernel_type rbf
gamma 3.189385724309498E-5
nr_class 2
total_sv 647
rho -0.5879549669190787
label 1 -1
nr_sv 449 198
SV
0.10672738229336402 1:19.0 2:1.0 3:0.0 4:6.0 5:0.0 6:0.0 7:9.0 8:0.0 9:0.0 10:0.0 11:0.0 12:1.0 13:0.0 14:1.0 15:31.0 16:1958.0 17:1.0 18:26.0 19:1.0 20:0.0 21:0.0 22:0.0 23:1.0 24:2.0 25:2.0 26:0.0 27:0.0 28:0.0 29:0.0 30:0.0 31:0.0 32:0.0 11875:1.0 24942:1.0 25455:1.0 25968:1.0 25970:1.0 25975:1.0 26725:1.0 26995:1.0 27745:1.0 28261:1.0 28270:1.0 28525:1.0 28780:1.0 29299:1.0 29486:1.0 29541:1.0 29800:1.0 30569:1.0 
0.10482906977035727 1:19.0 2:3.0 3:0.0 4:3.0 5:0.0 6:0.0 7:4.0 8:0.0 9:0.0 10:0.0 11:0.0 12:1.0 13:0.0 14:1.0 15:224.0 16:11843.0 17:14.0 18:157.0 19:1.0 20:0.0 21:0.0 22:0.0 23:1.0 24:0.0 25:0.0 26:1.0 27:0.0 28:0.0 29:0.0 30:0.0 31:0.0 32:0.0 11874:1.0 11875:1.0 11892:1.0 24942:1.0 25202:1.0 25455:1.0 25970:1.0 26414:1.0 27950:1.0 28275:1.0 28525:1.0 29281:1.0 29287:1.0 29541:1.0 29810:1.0 30510:1.0 30583:2.0 
1.0 1:8.0 2:1.0 3:2.0 4:1.0 5:0.0 6:0.0 7:3.5 8:0.25 9:0.0 10:0.0 11:2.0 12:1.0 13:0.0 14:0.0 23:1.0 24:2.0 25:2.0 26:0.0 27:0.0 28:0.0 29:0.0 30:0.0 31:0.0 32:0.0 11878:1.0 13614:1.0 13877:1.0 26226:2.0 26982:1.0 29238:1.0 
0.41206119112940426 1:18.0 2:2.0 3:0.0 4:5.0 5:0.0 6:0.0 7:5.333333333333333 8:0.0 9:0.0 10:0.0 11:0.0 12:1.0 13:0.0 14:1.0 15:889.0 16:64437.0 17:152.0 18:979.0 19:1.0 20:0.0 21:0.0 22:0.0 23:1.0 24:0.0 25:0.0 26:0.0 27:0.0 28:0.0 29:0.0 30:0.0 31:3930000.0 32:0.0 11876:1.0 11881:1.0 24932:1.0 25701:2.0 25966:1.0 26989:1.0 27745:1.0 28016:1.0 28206:1.0 28530:1.0 28783:1.0 29300:1.0 29804:1.0 30510:1.0 30583:2.0 
0.19129591560577813 1:12.0 2:2.0 3:0.0 4:3.0 5:0.0 6:0.0 7:3.3333333333333335 8:0.0 9:0.0 10:0.0 11:0.0 12:1.0 13:0.0 14:1.0 15:198.0 16:9718.0 17:22.0 18:140.0 19:1.0 20:0.0 21:0.0 22:0.0 23:1.0 24:2.0 25:2.0 26:0.0 27:0.0 28:0.0 29:0.0 30:0.0 31:0.0 32:0.0 11875:1.0 11890:1.0 25458:1.0 25902:1.0 26224:1.0 28531:1.0 28787:1.0 29295:2.0 29486:1.0 29541:1.0 
0.4120535753014753 1:11.0 2:1.0 3:0.0 4:4.0 5:0.0 6:0.0 7:5.0 8:0.0 9:0.0 10:0.0 11:0.0 12:1.0 13:0.0 14:0.0 23:2.0 24:2.0 25:2.0 26:0.0 27:0.0 28:0.0 29:0.0 30:0.0 31:8160000.0 32:0.0 11874:1.0 24942:1.0 24950:1.0 25193:1.0 26996:1.0 27002:1.0 28265:1.0 29817:1.0 30305:1.0 31022:1.0 
0.35703721817474926 1:17.0 2:1.0 3:0.0 4:6.0 5:0.0 6:0.0 7:8.0 8:0.0 9:0.0 10:0.0 11:0.0 12:2.0 13:0.0 14:1.0 15:514.0 16:65531.0 17:71.0 18:428.0 19:1.0 20:1.0 21:0.0 22:0.0 23:1.0 24:2.0 25:2.0 26:0.0 27:0.0 28:0.0 29:0.0 30:0.0 31:1.0 32:0.0 11875:1.0 24937:1.0 25455:1.0 25715:1.0 26209:1.0 26994:1.0 27748:1.0 28525:1.0 28530:2.0 28535:1.0 29230:1.0 29292:1.0 29295:1.0 29542:1.0 30575:1.0 
0.4115978184426752 1:14.0 2:1.0 3:0.0 4:6.0 5:0.0 6:0.0 7:6.5 8:0.0 9:0.0 10:0.0 11:0.0 12:2.0 13:0.0 14:1.0 15:625.0 16:96330.0 17:404.0 18:1069.0 19:1.0 20:0.0 21:0.0 22:0.0 23:1.0 24:2.0 25:2.0 26:0.0 27:0.0 28:0.0 29:0.0 30:0.0 31:1.14E7 32:0.0 11881:1.0 24930:1.0 25199:1.0 25705:1.0 26414:1.0 26977:1.0 26990:3.0 28260:1.0 28263:1.0 28536:1.0 30825:1.0 
0.07347507633207709 1:26.0 2:2.0 3:0.0 4:6.0 5:0.0 6:0.0 7:8.0 8:0.0 9:0.0 10:0.0 11:0.0 12:2.0 13:0.0 14:1.0 15:237.0 16:14949.0 17:22.0 18:227.0 19:1.0 20:0.0 21:0.0 22:0.0 23:1.0 24:0.0 25:0.0 26:0.0 27:0.0 28:0.0 29:0.0 30:0.0 31:1.0 32:0.0 11875:1.0 11880:1.0 24940:1.0 24953:1.0 25455:1.0 25957:1.0 25972:1.0 26478:1.0 26721:1.0 26983:1.0 27756:1.0 27767:1.0 28275:1.0 28525:1.0 29285:1.0 29486:1.0 29545:1.0 29556:1.0 29810:1.0 29811:1.0 30510:1.0 30561:1.0 30583:2.0 31091:1.0 
0.41159873880677245 1:11.0 2:1.0 3:0.0 4:4.0 5:0.0 6:0.0 7:5.0 8:0.0 9:0.0 10:0.0 11:0.0 12:2.0 13:0.0 14:1.0 15:36.0 16:1958.0 17:3.0 18:36.0 19:1.0 20:0.0 21:0.0 22:0.0 23:1.0 24:2.0 25:0.0 26:0.0 27:0.0 28:0.0 29:0.0 30:0.0 31:100000.0 32:0.0 11875:1.0 24878:1.0 24947:1.0 25452:1.0 26473:1.0 26977:1.0 26989:1.0 28014:1.0 28257:1.0 29545:1.0 
0.4118108626755361 1:12.0 2:1.0 3:0.0 4:4.0 5:1.0 6:0.0 7:5.5 8:0.0 9:0.08333333333333333 10:0.0 11:0.0 12:1.0 13:1.0 14:1.0 15:574.0 16:49211.0 17:74.0 18:423.0 19:1.0 20:0.0 21:0.0 22:0.0 23:1.0 24:3.0 25:3.0 26:0.0 27:0.0 28:0.0 29:0.0 30:0.0 31:1620.0 32:0.0 11617:1.0 11888:1.0 24935:1.0 26482:1.0 28015:1.0 28461:1.0 28462:1.0 28532:1.0 28780:1.0 29295:1.0 29807:1.0 
0.41203019496909543 1:15.0 2:1.0 3:0.0 4:6.0 5:0.0 6:0.0 7:7.0 8:0.0 9:0.0 10:0.0 11:0.0 12:2.0 13:0.0 14:1.0 15:26.0 16:908.0 17:14.0 18:36.0 19:1.0 20:0.0 21:0.0 22:0.0 23:1.0 24:2.0 25:2.0 26:0.0 27:0.0 28:0.0 29:0.0 30:0.0 31:1740.0 32:0.0 11886:1.0 24946:1.0 25902:1.0 25966:1.0 25972:1.0 26721:1.0 26991:1.0 28261:1.0 28265:1.0 28530:1.0 29285:1.0 29299:1.0 29541:1.0 29544:1.0 
0.4116087410482401 1:24.0 2:2.0 3:0.0 4:8.0 5:0.0 6:0.0 7:7.333333333333333 8:0.0 9:0.0 10:0.0 11:0.0 12:2.0 13:0.0 14:1.0 15:133.0 16:13408.0 17:22.0 18:126.0 19:1.0 20:0.0 21:0.0 22:0.0 23:1.0 24:0.0 25:0.0 26:0.0 27:0.0 28:0.0 29:0.0 30:0.0 31:758000.0 32:0.0 11875:1.0 11892:1.0 24878:1.0 24946:1.0 24947:1.0 24954:1.0 25452:1.0 25701:1.0 25961:1.0 25964:1.0 25970:1.0 26990:1.0 27745:1.0 28257:1.0 29281:1.0 29285:1.0 29298:1.0 29540:1.0 29797:1.0 30510:1.0 30583:2.0 31329:1.0 
0.41200828918939425 1:28.0 2:2.0 3:0.0 4:9.0 5:0.0 6:0.0 7:8.666666666666666 8:0.0 9:0.0 10:0.0 11:0.0 12:1.0 13:0.0 14:1.0 15:177.0 16:37650.0 17:36.0 18:298.0 19:1.0 20:0.0 21:0.0 22:0.0 23:1.0 24:2.0 25:2.0 26:1.0 27:0.0 28:0.0 29:0.0 30:0.0 31:0.0 32:0.0 11875:1.0 11885:1.0 24878:1.0 24940:1.0 24947:1.0 24948:1.0 25455:1.0 25970:1.0 25971:1.0 26995:1.0 27753:1.0 28001:1.0 28257:1.0 28525:1.0 29281:1.0 29294:1.0 29556:2.0 29558:1.0 29797:2.0 29813:1.0 30066:1.0 30305:1.0 30510:1.0 30583:2.0 
0.3282407212259323 1:11.0 2:2.0 3:0.0 4:4.0 5:0.0 6:0.0 7:3.0 8:0.0 9:0.0 10:0.0 11:0.0 12:2.0 13:0.0 14:1.0 15:45.0 16:1720.0 17:0.0 18:38.0 19:1.0 20:0.0 21:0.0 22:0.0 23:1.0 24:0.0 25:0.0 26:0.0 27:0.0 28:0.0 29:0.0 30:0.0 31:1240.0 32:0.0 11877:1.0 11888:1.0 24954:1.0 25973:1.0 26988:1.0 27694:1.0 28009:1.0 28782:1.0 29998:1.0 31341:1.0 
0.41207543796689594 1:7.0 2:1.0 3:0.0 4:0.0 5:0.0 6:0.0 7:3.0 8:0.0 9:0.0 10:0.0 11:0.0 12:0.0 13:0.0 14:0.0 23:2.0 24:2.0 25:2.0 26:0.0 27:0.0 28:0.0 29:0.0 30:0.0 31:162000.0 32:0.0 11891:1.0 28276:1.0 28786:1.0 29294:1.0 29539:1.0 29742:1.0 
0.41185054414242483 1:15.0 2:2.0 3:0.0 4:4.0 5:0.0 6:0.0 7:4.333333333333333 8:0.0 9:0.0 10:0.0 11:0.0 12:1.0 13:0.0 14:1.0 15:160.0 16:7531.0 17:10.0 18:156.0 19:1.0 20:0.0 21:0.0 22:0.0 23:1.0 24:2.0 25:2.0 26:1.0 27:0.0 28:0.0 29:0.0 30:0.0 31:4630000.0 32:0.0 11873:1.0 11888:1.0 24878:1.0 24931:1.0 24940:1.0 24947:1.0 25441:1.0 27764:1.0 28788:1.0 29537:1.0 29793:1.0 30510:1.0 30583:2.0 
1.0 1:20.0 2:3.0 3:0.0 4:6.0 5:0.0 6:0.0 7:4.25 8:0.0 9:0.0 10:0.0 11:0.0 12:2.0 13:0.0 14:0.0 23:1.0 24:0.0 25:0.0 26:0.0 27:0.0 28:0.0 29:0.0 30:0.0 31:1.0E8 32:0.0 11875:1.0 11890:1.0 11892:1.0 24940:1.0 24948:1.0 25455:1.0 25902:1.0 25953:1.0 25971:1.0 27749:1.0 28462:1.0 29285:1.0 29556:1.0 29793:1.0 29797:1.0 29800:1.0 30510:1.0 30583:2.0 
0.2709389940285583 1:19.0 2:1.0 3:0.0 4:7.0 5:0.0 6:0.0 7:9.0 8:0.0 9:0.0 10:0.0 11:0.0 12:2.0 13:0.0 14:1.0 15:211.0 16:17015.0 17:14.0 18:243.0 19:1.0 20:0.0 21:0.0 22:0.0 23:1.0 24:2.0 25:2.0 26:0.0 27:0.0 28:0.0 29:0.0 30:0.0 31:0.0 32:0.0 11887:1.0 24948:1.0 24951:1.0 25971:1.0 25975:1.0 26725:1.0 26981:1.0 28001:1.0 28530:1.0 29287:1.0 29556:1.0 29800:1.0 29805:1.0 29812:1.0 30074:1.0 30510:1.0 30581:1.0 31337:1.0 
0.41193449120714715 1:20.0 2:3.0 3:2.0 4:5.0 5:1.0 6:0.0 7:4.25 8:0.1 9:0.05 10:0.0 11:2.0 12:2.0 13:1.0 14:1.0 15:127.0 16:7219.0 17:15.0 18:140.0 19:1.0 20:0.0 21:0.0 22:0.0 23:1.0 24:0.0 25:0.0 26:0.0 27:0.0 28:0.0 29:0.0 30:0.0 31:1350000.0 32:0.0 11572:1.0 11874:1.0 11875:1.0 11883:1.0 13366:1.0 13870:1.0 25133:1.0 25134:1.0 25196:1.0 25455:1.0 25954:2.0 25975:1.0 27506:1.0 27765:1.0 28462:1.0 30053:1.0 30565:2.0 
0.36980476974826837 1:7.0 2:1.0 3:0.0 4:4.0 5:0.0 6:0.0 7:3.0 8:0.0 9:0.0 10:0.0 11:0.0 12:2.0 13:0.0 14:0.0 23:2.0 24:2.0 25:2.0 26:0.0 27:0.0 28:0.0 29:0.0 30:0.0 31:12700.0 32:0.0 11884:1.0 25961:1.0 27002:1.0 27745:1.0 28462:1.0 31343:1.0 
0.41207439034934357 1:10.0 2:2.0 3:0.0 4:2.0 5:0.0 6:0.0 7:2.6666666666666665 8:0.0 9:0.0 10:0.0 11:0.0 12:1.0 13:0.0 14:1.0 15:272.0 16:23165.0 17:37.0 18:333.0 19:1.0 20:0.0 21:0.0 22:0.0 23:1.0 24:2.0 25:1.0 26:0.0 27:0.0 28:0.0 29:0.0 30:0.0 31:697.0 32:0.0 11875:1.0 11892:1.0 25455:1.0 25960:1.0 26739:1.0 28462:1.0 29486:1.0 29555:1.0 29800:1.0 
0.14845579553106938 1:8.0 2:1.0 3:0.0 4:2.0 5:0.0 6:0.0 7:3.5 8:0.0 9:0.0 10:0.0 11:0.0 12:1.0 13:0.0 14:0.0 23:2.0 24:2.0 25:2.0 26:0.0 27:0.0 28:0.0 29:0.0 30:0.0 31:2800.0 32:0.0 11884:1.0 24932:1.0 25722:1.0 26465:1.0 26926:1.0 27755:1.0 31337:1.0 
0.41185402005943056 1:36.0 2:3.0 3:0.0 4:11.0 5:2.0 6:0.0 7:8.25 8:0.0 9:0.05555555555555555 10:0.0 11:0.0 12:2.0 13:1.0 14:0.0 23:1.0 24:2.0 25:2.0 26:1.0 27:0.0 28:0.0 29:0.0 30:0.0 31:4350000.0 32:0.0 11618:1.0 11620:1.0 11875:1.0 11891:1.0 11893:1.0 24877:1.0 24942:1.0 25205:1.0 25455:1.0 25460:1.0 25705:1.0 25953:1.0 25955:1.0 25971:1.0 26990:1.0 26994:1.0 28261:1.0 28275:1.0 28462:1.0 28530:1.0 29285:1.0 29305:1.0 29485:1.0 29541:1.0 29545:1.0 29555:1.0 29559:1.0 29807:1.0 30059:1.0 30067:1.0 30510:1.0 30561:1.0 30583:2.0 31022:1.0 
0.4115634639107743 1:17.0 2:1.0 3:0.0 4:6.0 5:0.0 6:0.0 7:8.0 8:0.0 9:0.0 10:0.0 11:0.0 12:2.0 13:0.0 14:0.0 23:1.0 24:2.0 25:2.0 26:0.0 27:0.0 28:0.0 29:0.0 30:0.0 31:8930000.0 32:0.0 11875:1.0 24940:1.0 24941:1.0 25193:1.0 25448:1.0 25452:1.0 25902:1.0 25966:1.0 26729:1.0 26981:1.0 26988:1.0 27747:1.0 27749:1.0 28002:1.0 28276:1.0 29793:1.0 
0.41204877100939724 1:5.0 2:1.0 3:0.0 4:1.0 5:0.0 6:0.0 7:2.0 8:0.0 9:0.0 10:0.0 11:0.0 12:1.0 13:0.0 14:1.0 15:14.0 16:201.0 17:0.0 18:9.0 19:1.0 20:0.0 21:0.0 22:0.0 23:1.0 24:4.0 25:4.0 26:0.0 27:0.0 28:0.0 29:0.0 30:0.0 31:122000.0 32:0.0 11881:1.0 26989:1.0 29230:1.0 29810:1.0 
0.4116348707414237 1:12.0 2:2.0 3:0.0 4:4.0 5:0.0 6:0.0 7:3.3333333333333335 8:0.0 9:0.0 10:0.0 11:0.0 12:3.0 13:0.0 14:1.0 15:85.0 16:5295.0 17:8.0 18:55.0 19:1.0 20:0.0 21:0.0 22:0.0 23:1.0 24:0.0 25:0.0 26:1.0 27:0.0 28:0.0 29:0.0 30:0.0 31:5760000.0 32:0.0 11888:1.0 11893:1.0 25957:2.0 25968:1.0 28718:1.0 28773:1.0 30067:1.0 30510:1.0 30583:2.0 
0.4120294536625599 1:12.0 2:1.0 3:3.0 4:3.0 5:1.0 6:0.0 7:5.5 8:0.25 9:0.08333333333333333 10:0.0 11:3.0 12:1.0 13:1.0 14:0.0 23:1.0 24:0.0 25:0.0 26:0.0 27:0.0 28:0.0 29:0.0 30:0.0 31:31000.0 32:0.0 11569:1.0 11890:1.0 12594:1.0 12852:1.0 13358:1.0 25970:1.0 27503:1.0 28534:1.0 29229:1.0 29301:1.0 30309:1.0 
0.4122572786843786 1:12.0 2:1.0 3:0.0 4:4.0 5:0.0 6:0.0 7:5.5 8:0.0 9:0.0 10:0.0 11:0.0 12:2.0 13:0.0 14:0.0 23:1.0 24:0.0 25:0.0 26:0.0 27:0.0 28:0.0 29:0.0 30:0.0 31:2530000.0 32:0.0 11877:1.0 24878:1.0 25466:1.0 25973:1.0 27489:1.0 27765:1.0 28275:1.0 29547:1.0 30051:1.0 31086:1.0 31353:1.0 
0.31384419832636395 1:24.0 2:1.0 3:0.0 4:11.0 5:0.0 6:0.0 7:11.5 8:0.0 9:0.0 10:0.0 11:0.0 12:3.0 13:0.0 14:1.0 15:215.0 16:23288.0 17:1.0 18:304.0 19:1.0 20:0.0 21:0.0 22:0.0 23:1.0 24:2.0 25:2.0 26:0.0 27:0.0 28:0.0 29:0.0 30:0.0 31:0.0 32:0.0 11875:1.0 24931:1.0 24932:1.0 24933:1.0 24940:1.0 24946:1.0 25441:1.0 25449:1.0 25455:1.0 25718:1.0 25965:1.0 25971:1.0 26977:2.0 27694:1.0 28016:1.0 28515:1.0 28525:1.0 28786:1.0 29285:1.0 29289:1.0 29537:1.0 30319:1.0 
0.3506807201262366 1:17.0 2:1.0 3:0.0 4:5.0 5:0.0 6:0.0 7:8.0 8:0.0 9:0.0 10:0.0 11:0.0 12:1.0 13:0.0 14:0.0 23:1.0 24:0.0 25:0.0 26:0.0 27:0.0 28:0.0 29:0.0 30:0.0 31:17100.0 32:0.0 11886:1.0 25205:1.0 25971:1.0 25972:1.0 26472:1.0 26740:1.0 26983:1.0 26990:1.0 28261:2.0 29289:1.0 29486:1.0 29545:1.0 29555:1.0 29794:1.0 30067:1.0 
0.30778813169485136 1:21.0 2:3.0 3:0.0 4:4.0 5:0.0 6:0.0 7:4.5 8:0.0 9:0.0 10:0.0 11:0.0 12:2.0 13:0.0 14:1.0 15:223.0 16:15947.0 17:83.0 18:273.0 19:1.0 20:1.0 21:0.0 22:0.0 23:1.0 24:0.0 25:0.0 26:0.0 27:0.0 28:0.0 29:0.0 30:0.0 31:0.0 32:0.0 11875:2.0 11897:1.0 24943:1.0 25390:1.0 25454:1.0 25455:1.0 25966:1.0 26414:1.0 26721:1.0 26725:1.0 27950:1.0 28263:1.0 28525:1.0 28531:1.0 29544:1.0 29814:1.0 30307:1.0 31092:1.0 31336:1.0 
0.4120314410694958 1:13.0 2:2.0 3:0.0 4:1.0 5:0.0 6:0.0 7:3.6666666666666665 8:0.0 9:0.0 10:0.0 11:0.0 12:1.0 13:0.0 14:1.0 15:654.0 16:47939.0 17:227.0 18:701.0 19:1.0 20:0.0 21:0.0 22:0.0 23:1.0 24:0.0 25:0.0 26:0.0 27:0.0 28:0.0 29:0.0 30:0.0 31:0.0 32:0.0 11879:1.0 11887:1.0 25187:1.0 25390:1.0 26489:1.0 28002:1.0 28530:1.0 29287:1.0 30510:1.0 30583:2.0 31085:1.0 
0.412477724969541 1:12.0 2:1.0 3:0.0 4:4.0 5:0.0 6:0.0 7:5.5 8:0.0 9:0.0 10:0.0 11:0.0 12:1.0 13:0.0 14:0.0 23:1.0 24:0.0 25:0.0 26:0.0 27:0.0 28:0.0 29:0.0 30:0.0 31:4.58E7 32:0.0 11888:1.0 24946:1.0 25441:1.0 25458:1.0 28531:1.0 28773:1.0 29283:1.0 29301:1.0 29539:1.0 30074:1.0 31278:1.0 
0.5203853117339696 1:18.0 2:2.0 3:0.0 4:8.0 5:0.0 6:0.0 7:5.333333333333333 8:0.0 9:0.0 10:0.0 11:0.0 12:3.0 13:0.0 14:0.0 23:1.0 24:2.0 25:1.0 26:0.0 27:0.0 28:0.0 29:0.0 30:0.0 31:4690.0 32:0.0 11875:1.0 11883:1.0 24878:1.0 24929:1.0 24934:1.0 25189:1.0 25441:1.0 25455:1.0 25953:1.0 25965:1.0 26226:1.0 26979:1.0 27493:1.0 28002:1.0 28462:1.0 29289:1.0 29797:1.0 
0.41198559500924836 1:26.0 2:3.0 3:0.0 4:8.0 5:0.0 6:0.0 7:5.75 8:0.0 9:0.0 10:0.0 11:0.0 12:1.0 13:0.0 14:0.0 23:1.0 24:2.0 25:2.0 26:1.0 27:0.0 28:0.0 29:0.0 30:0.0 31:2.95E7 32:0.0 11875:1.0 11881:1.0 11893:1.0 25455:1.0 25701:1.0 25956:1.0 25964:1.0 25965:1.0 25966:1.0 26990:1.0 26994:1.0 27749:1.0 28005:1.0 28275:1.0 28276:1.0 28462:1.0 28777:1.0 29285:1.0 29486:1.0 29552:1.0 29811:1.0 30059:1.0 30510:1.0 30583:2.0 
0.4117377014613514 1:11.0 2:2.0 3:0.0 4:2.0 5:0.0 6:0.0 7:3.0 8:0.0 9:0.0 10:0.0 11:0.0 12:1.0 13:0.0 14:0.0 23:0.0 24:0.0 25:0.0 26:1.0 27:0.0 28:0.0 29:0.0 30:0.0 31:26800.0 32:0.0 11877:1.0 11891:1.0 25390:1.0 25955:1.0 25972:1.0 29547:1.0 29797:1.0 30510:1.0 30583:2.0 
1.0 1:11.0 2:1.0 3:0.0 4:4.0 5:0.0 6:0.0 7:5.0 8:0.0 9:0.0 10:0.0 11:0.0 12:2.0 13:0.0 14:0.0 23:0.0 24:2.0 25:2.0 26:0.0 27:0.0 28:0.0 29:0.0 30:0.0 31:55.0 32:0.0 11888:1.0 25451:1.0 26988:1.0 27507:1.0 27694:1.0 28515:1.0 28521:1.0 28773:1.0 29295:1.0 29551:1.0 
0.41234829467236583 1:231.0 2:10.0 3:119.0 4:31.0 5:1.0 6:0.0 7:20.09090909090909 8:0.5151515151515151 9:0.004329004329004329 10:0.0 11:7.0 12:2.0 13:1.0 14:0.0 23:0.0 24:0.0 25:0.0 26:0.0 27:0.0 28:0.0 29:0.0 30:0.0 31:25700.0 32:0.0 11618:1.0 11824:1.0 11825:1.0 11828:1.0 11875:4.0 11876:1.0 11888:1.0 11893:1.0 12336:1.0 12337:1.0 12338:1.0 12340:1.0 12341:1.0 12342:1.0 12343:1.0 12344:1.0 12345:1.0 12387:1.0 12389:1.0 12390:1.0 12594:2.0 12596:1.0 12597:1.0 12598:1.0 12599:1.0 12600:3.0 12601:2.0 12642:2.0 12646:2.0 12846:1.0 12848:1.0 12849:2.0 12851:1.0 12853:1.0 12856:2.0 12857:2.0 12897:1.0 12898:1.0 12899:1.0 12902:1.0 13105:1.0 13106:1.0 13107:3.0 13110:2.0 13113:1.0 13155:1.0 13157:1.0 13158:1.0 13361:1.0 13362:1.0 13363:1.0 13364:1.0 13365:1.0 13367:1.0 13410:1.0 13411:1.0 13412:1.0 13413:1.0 13414:1.0 13614:1.0 13622:1.0 13625:1.0 13666:1.0 13668:1.0 13669:1.0 13670:1.0 13870:1.0 13872:1.0 13877:2.0 13878:3.0 13922:1.0 13924:2.0 13925:3.0 14131:2.0 14136:2.0 14137:1.0 14180:1.0 14181:1.0 14182:1.0 14384:2.0 14385:2.0 14386:3.0 14387:2.0 14388:1.0 14390:2.0 14434:1.0 14435:1.0 14437:2.0 14438:1.0 14640:2.0 14645:1.0 14647:1.0 14648:2.0 14649:1.0 14691:1.0 14692:2.0 14693:1.0 24882:1.0 24888:1.0 24930:1.0 24940:1.0 24944:1.0 24953:1.0 25137:1.0 25138:2.0 25142:1.0 25143:2.0 25144:2.0 25186:1.0 25187:1.0 25189:1.0 25190:1.0 25193:1.0 25393:2.0 25394:1.0 25400:1.0 25401:1.0 25442:1.0 25444:1.0 25445:1.0 25446:1.0 25447:1.0 25453:1.0 25455:1.0 25461:1.0 25646:1.0 25648:1.0 25649:1.0 25650:1.0 25651:1.0 25652:1.0 25655:2.0 25697:2.0 25701:1.0 25702:1.0 25904:2.0 25906:1.0 25907:1.0 25908:3.0 25910:2.0 25912:2.0 25954:1.0 25955:1.0 25957:3.0 25958:2.0 26160:1.0 26161:3.0 26164:2.0 26168:1.0 26169:1.0 26210:1.0 26211:1.0 26212:2.0 26213:2.0 26214:1.0 26473:1.0 26925:1.0 26990:1.0 27438:1.0 27694:1.0 27950:1.0 28001:1.0 28004:1.0 28013:1.0 28206:1.0 28525:2.0 28718:1.0 28769:2.0 29556:1.0 29807:1.0 30059:1.0 30067:1.0 30510:1.0 30583:2.0 31088:1.0 
0.4117377756505273 1:16.0 2:3.0 3:0.0 4:4.0 5:0.0 6:0.0 7:3.25 8:0.0 9:0.0 10:0.0 11:0.0 12:1.0 13:0.0 14:0.0 23:0.0 24:0.0 25:0.0 26:0.0 27:0.0 28:0.0 29:0.0 30:0.0 31:5.52E7 32:0.0 11875:1.0 11881:1.0 11893:1.0 24931:1.0 25451:1.0 25455:1.0 26996:1.0 27233:1.0 27438:1.0 28462:1.0 29802:1.0 30059:1.0 30510:1.0 30583:2.0 
0.4120636044806611 1:35.0 2:3.0 3:0.0 4:11.0 5:1.0 6:0.0 7:8.0 8:0.0 9:0.02857142857142857 10:0.0 11:0.0 12:2.0 13:1.0 14:0.0 23:1.0 24:0.0 25:0.0 26:0.0 27:0.0 28:0.0 29:0.0 30:0.0 31:644000.0 32:0.0 11625:1.0 11878:1.0 11881:1.0 11886:1.0 24948:1.0 25445:1.0 25901:1.0 25902:1.0 25964:1.0 25966:1.0 26223:1.0 26226:1.0 26469:1.0 26983:1.0 26990:2.0 26993:1.0 27753:1.0 27756:1.0 28001:1.0 28259:1.0 28262:2.0 28276:1.0 28530:1.0 29045:1.0 29230:1.0 29293:1.0 29797:1.0 29801:1.0 30053:1.0 30510:1.0 30583:2.0 
0.4116184056362094 1:23.0 2:2.0 3:0.0 4:6.0 5:1.0 6:0.0 7:7.0 8:0.0 9:0.043478260869565216 10:0.0 11:0.0 12:1.0 13:1.0 14:0.0 23:0.0 24:0.0 25:0.0 26:0.0 27:0.0 28:0.0 29:0.0 30:0.0 31:1840000.0 32:0.0 11635:1.0 11891:2.0 24944:1.0 25134:1.0 25185:1.0 25461:1.0 25954:1.0 25955:1.0 26996:1.0 28770:1.0 28784:1.0 28787:1.0 29289:1.0 29485:1.0 29541:1.0 29552:1.0 29557:1.0 29817:1.0 30066:1.0 30565:1.0 31022:1.0 
0.4125561101327511 1:18.0 2:2.0 3:0.0 4:5.0 5:0.0 6:0.0 7:5.333333333333333 8:0.0 9:0.0 10:0.0 11:0.0 12:2.0 13:0.0 14:0.0 23:1.0 24:0.0 25:0.0 26:0.0 27:0.0 28:0.0 29:0.0 30:0.0 31:6830000.0 32:0.0 11875:1.0 11890:1.0 25445:1.0 25711:1.0 25966:1.0 28276:1.0 28516:1.0 28527:1.0 28530:1.0 29295:1.0 29299:1.0 29301:1.0 29486:1.0 29810:1.0 30510:1.0 30583:2.0 
0.4120638347852762 1:20.0 2:2.0 3:0.0 4:5.0 5:0.0 6:0.0 7:6.0 8:0.0 9:0.0 10:0.0 11:0.0 12:1.0 13:0.0 14:0.0 23:0.0 24:0.0 25:0.0 26:0.0 27:0.0 28:0.0 29:0.0 30:0.0 31:3.13E7 32:0.0 11875:1.0 11895:1.0 24932:1.0 24947:1.0 25441:1.0 25452:1.0 25711:1.0 26217:1.0 26979:1.0 26982:1.0 27745:1.0 28531:1.0 29486:1.0 29545:1.0 29555:1.0 30510:1.0 30579:1.0 30583:2.0 
0.36512822319221544 1:14.0 2:1.0 3:0.0 4:5.0 5:0.0 6:0.0 7:6.5 8:0.0 9:0.0 10:0.0 11:0.0 12:1.0 13:0.0 14:1.0 15:170.0 16:9991.0 17:29.0 18:170.0 19:3.0 20:0.0 21:0.0 22:0.0 23:1.0 24:4.0 25:2.0 26:0.0 27:0.0 28:0.0 29:0.0 30:0.0 31:1.0 32:0.0 11886:1.0 24946:1.0 25445:1.0 25902:1.0 25972:1.0 25975:1.0 26990:1.0 28259:1.0 28261:1.0 28786:1.0 29285:1.0 29289:1.0 30561:1.0 
0.41203994695373 1:13.0 2:1.0 3:0.0 4:5.0 5:0.0 6:0.0 7:6.0 8:0.0 9:0.0 10:0.0 11:0.0 12:2.0 13:0.0 14:1.0 15:479.0 16:34422.0 17:83.0 18:404.0 19:1.0 20:0.0 21:0.0 22:0.0 23:1.0 24:2.0 25:0.0 26:0.0 27:0.0 28:0.0 29:0.0 30:0.0 31:1450.0 32:0.0 11875:1.0 25455:2.0 25902:1.0 26725:1.0 28275:1.0 28525:1.0 28526:1.0 28533:1.0 28783:1.0 29544:1.0 30064:1.0 
0.79682019198085 1:8.0 2:1.0 3:0.0 4:2.0 5:0.0 6:0.0 7:3.5 8:0.0 9:0.0 10:0.0 11:0.0 12:1.0 13:0.0 14:0.0 23:0.0 24:0.0 25:0.0 26:0.0 27:0.0 28:0.0 29:0.0 30:0.0 31:6810.0 32:0.0 11876:1.0 24938:1.0 25707:1.0 26996:1.0 27182:1.0 27497:1.0 29793:1.0 
0.13417596422475403 1:15.0 2:1.0 3:0.0 4:4.0 5:1.0 6:0.0 7:7.0 8:0.0 9:0.06666666666666667 10:0.0 11:0.0 12:2.0 13:1.0 14:0.0 23:0.0 24:2.0 25:2.0 26:0.0 27:0.0 28:0.0 29:0.0 30:0.0 31:42000.0 32:0.0 11635:1.0 11883:1.0 25701:1.0 25966:1.0 25970:1.0 26926:1.0 27495:1.0 28260:1.0 28521:1.0 29229:1.0 29295:1.0 29556:1.0 29797:1.0 29810:1.0 
0.41200828918939464 1:7.0 2:1.0 3:0.0 4:2.0 5:0.0 6:0.0 7:3.0 8:0.0 9:0.0 10:0.0 11:0.0 12:1.0 13:0.0 14:1.0 15:14.0 16:201.0 17:0.0 18:9.0 19:1.0 20:0.0 21:0.0 22:0.0 23:2.0 24:3.0 25:2.0 26:0.0 27:0.0 28:0.0 29:0.0 30:0.0 31:3100000.0 32:0.0 11884:1.0 25958:1.0 26158:1.0 26738:1.0 27753:1.0 29285:1.0 
0.29083163495732695 1:11.0 2:1.0 3:0.0 4:3.0 5:0.0 6:0.0 7:5.0 8:0.0 9:0.0 10:0.0 11:0.0 12:1.0 13:0.0 14:1.0 15:90.0 16:10346.0 17:11.0 18:81.0 19:1.0 20:0.0 21:0.0 22:0.0 23:1.0 24:2.0 25:4.0 26:0.0 27:0.0 28:0.0 29:0.0 30:0.0 31:15.0 32:0.0 11875:1.0 25455:1.0 26729:1.0 26926:1.0 28276:1.0 28525:1.0 29544:1.0 29557:1.0 29811:1.0 30067:1.0 
0.21495938972905954 1:20.0 2:2.0 3:0.0 4:6.0 5:0.0 6:0.0 7:6.0 8:0.0 9:0.0 10:0.0 11:0.0 12:2.0 13:0.0 14:0.0 23:1.0 24:2.0 25:2.0 26:1.0 27:0.0 28:0.0 29:0.0 30:0.0 31:1310.0 32:0.0 11873:1.0 11875:1.0 24935:1.0 24940:1.0 24949:1.0 25455:1.0 26220:1.0 26483:1.0 27745:1.0 27750:1.0 27756:1.0 28462:1.0 28525:1.0 29537:1.0 29807:1.0 30068:1.0 30510:1.0 30583:2.0 
0.36328565933388224 1:19.0 2:2.0 3:0.0 4:4.0 5:0.0 6:0.0 7:5.666666666666667 8:0.0 9:0.0 10:0.0 11:0.0 12:1.0 13:0.0 14:1.0 15:450.0 16:23294.0 17:29.0 18:359.0 19:1.0 20:0.0 21:0.0 22:0.0 23:1.0 24:0.0 25:0.0 26:1.0 27:0.0 28:0.0 29:0.0 30:0.0 31:0.0 32:0.0 11875:1.0 11890:1.0 24946:1.0 25452:1.0 25455:1.0 25708:1.0 25977:1.0 26980:1.0 27438:1.0 27745:1.0 27749:1.0 28525:1.0 29289:1.0 29291:1.0 30510:1.0 30583:2.0 31075:1.0 
1.0 1:21.0 2:1.0 3:0.0 4:7.0 5:0.0 6:0.0 7:10.0 8:0.0 9:0.0 10:0.0 11:0.0 12:2.0 13:0.0 14:0.0 23:0.0 24:3.0 25:2.0 26:0.0 27:0.0 28:0.0 29:0.0 30:0.0 31:2000.0 32:0.0 11875:1.0 24948:1.0 25448:1.0 25455:1.0 25971:1.0 25975:1.0 26217:1.0 26736:1.0 26981:1.0 26988:1.0 27749:1.0 28001:1.0 28518:1.0 28525:1.0 28786:1.0 29295:1.0 29486:1.0 29795:1.0 30313:1.0 30573:1.0 
0.41204366030528006 1:11.0 2:2.0 3:0.0 4:0.0 5:0.0 6:0.0 7:3.0 8:0.0 9:0.0 10:0.0 11:0.0 12:0.0 13:0.0 14:1.0 15:1195.0 16:122988.0 17:739.0 18:2028.0 19:1.0 20:0.0 21:0.0 22:0.0 23:1.0 24:0.0 25:0.0 26:0.0 27:0.0 28:0.0 29:0.0 30:0.0 31:24.0 32:0.0 11875:1.0 11884:1.0 25390:1.0 25454:1.0 26738:1.0 27752:1.0 29283:1.0 30510:1.0 30583:2.0 
0.4123613004545064 1:18.0 2:1.0 3:0.0 4:6.0 5:0.0 6:0.0 7:8.5 8:0.0 9:0.0 10:0.0 11:0.0 12:1.0 13:0.0 14:1.0 15:271.0 16:16993.0 17:25.0 18:258.0 19:1.0 20:0.0 21:0.0 22:0.0 23:1.0 24:2.0 25:2.0 26:0.0 27:0.0 28:0.0 29:0.0 30:0.0 31:178000.0 32:0.0 11881:1.0 25970:1.0 26223:1.0 26990:2.0 28262:1.0 28275:1.0 28276:1.0 28526:1.0 28535:1.0 29299:1.0 29486:1.0 29556:1.0 29807:2.0 30565:1.0 30569:1.0 
0.11900363600596797 1:20.0 2:1.0 3:0.0 4:8.0 5:0.0 6:0.0 7:9.5 8:0.0 9:0.0 10:0.0 11:0.0 12:2.0 13:0.0 14:1.0 15:15.0 16:1040.0 17:1.0 18:11.0 19:1.0 20:0.0 21:0.0 22:0.0 23:1.0 24:0.0 25:0.0 26:0.0 27:0.0 28:0.0 29:0.0 30:0.0 31:0.0 32:0.0 11875:1.0 24940:1.0 24943:1.0 25455:1.0 25705:1.0 25966:1.0 26721:1.0 26735:1.0 26981:1.0 26996:1.0 27694:1.0 28264:1.0 28516:1.0 28525:1.0 28531:1.0 28777:1.0 29552:1.0 29793:1.0 29800:1.0 
0.8851685566994236 1:16.0 2:2.0 3:0.0 4:5.0 5:0.0 6:0.0 7:4.666666666666667 8:0.0 9:0.0 10:0.0 11:0.0 12:1.0 13:0.0 14:0.0 23:0.0 24:0.0 25:0.0 26:0.0 27:0.0 28:0.0 29:0.0 30:0.0 31:3180.0 32:0.0 11875:1.0 11877:1.0 24948:1.0 25455:1.0 25902:1.0 25966:1.0 27247:1.0 28266:1.0 28525:1.0 28537:1.0 29797:1.0 30510:1.0 30583:2.0 31073:1.0 
0.3284427576535791 1:19.0 2:1.0 3:0.0 4:7.0 5:1.0 6:0.0 7:9.0 8:0.0 9:0.05263157894736842 10:0.0 11:0.0 12:2.0 13:1.0 14:0.0 23:1.0 24:2.0 25:1.0 26:0.0 27:0.0 28:0.0 29:0.0 30:0.0 31:783.0 32:0.0 11636:1.0 11875:1.0 24937:1.0 24942:2.0 25455:1.0 25646:1.0 25901:1.0 26469:1.0 26721:1.0 26988:1.0 27745:1.0 28260:1.0 28263:1.0 28525:1.0 28530:1.0 29281:1.0 29800:1.0 
0.2055093547764596 1:22.0 2:2.0 3:1.0 4:5.0 5:1.0 6:0.0 7:6.666666666666667 8:0.045454545454545456 9:0.045454545454545456 10:0.0 11:1.0 12:1.0 13:1.0 14:0.0 23:0.0 24:0.0 25:0.0 26:0.0 27:0.0 28:0.0 29:0.0 30:0.0 31:1010000.0 32:0.0 11637:1.0 11885:1.0 11890:1.0 12590:1.0 25455:1.0 25460:1.0 25955:1.0 25970:1.0 27769:1.0 28025:1.0 28530:1.0 29285:1.0 29298:1.0 29299:1.0 29301:1.0 29486:1.0 29541:1.0 29804:1.0 30067:1.0 31021:1.0 31025:1.0 
0.41240796978066874 1:20.0 2:2.0 3:0.0 4:8.0 5:0.0 6:0.0 7:6.0 8:0.0 9:0.0 10:0.0 11:0.0 12:2.0 13:0.0 14:0.0 23:0.0 24:0.0 25:0.0 26:1.0 27:0.0 28:0.0 29:0.0 30:0.0 31:1180000.0 32:0.0 11877:1.0 11890:1.0 24942:1.0 24949:1.0 25705:1.0 25956:1.0 26996:1.0 28277:1.0 29281:2.0 29295:1.0 29486:1.0 29813:1.0 30066:2.0 30067:1.0 30510:1.0 30583:2.0 
0.41204864571483424 1:12.0 2:1.0 3:0.0 4:2.0 5:0.0 6:0.0 7:5.5 8:0.0 9:0.0 10:0.0 11:0.0 12:1.0 13:0.0 14:0.0 23:0.0 24:0.0 25:0.0 26:0.0 27:0.0 28:0.0 29:0.0 30:0.0 31:4280000.0 32:0.0 11888:1.0 24934:1.0 25707:1.0 26228:1.0 26990:1.0 27506:1.0 28260:1.0 28780:1.0 29281:1.0 29742:1.0 30569:1.0 
0.08519047372299354 1:19.0 2:2.0 3:0.0 4:9.0 5:0.0 6:0.0 7:5.666666666666667 8:0.0 9:0.0 10:0.0 11:0.0 12:2.0 13:0.0 14:0.0 23:0.0 24:0.0 25:0.0 26:0.0 27:0.0 28:0.0 29:0.0 30:0.0 31:648.0 32:0.0 11873:1.0 11875:1.0 24930:1.0 24939:1.0 24940:1.0 24949:1.0 25185:1.0 25455:1.0 26990:1.0 27497:1.0 27503:1.0 27765:1.0 27950:1.0 28257:1.0 28525:1.0 28532:1.0 29793:1.0 29998:1.0 
0.4115919638123989 1:15.0 2:2.0 3:1.0 4:5.0 5:0.0 6:0.0 7:4.333333333333333 8:0.06666666666666667 9:0.0 10:0.0 11:1.0 12:1.0 13:0.0 14:0.0 23:0.0 24:0.0 25:0.0 26:0.0 27:0.0 28:0.0 29:0.0 30:0.0 31:340000.0 32:0.0 11874:1.0 11877:1.0 12900:1.0 25202:1.0 25701:1.0 25717:1.0 25956:1.0 25962:1.0 26735:1.0 27253:1.0 27752:1.0 28462:1.0 29998:1.0 30060:1.0 
0.30712429278751285 1:12.0 2:2.0 3:0.0 4:4.0 5:0.0 6:0.0 7:3.3333333333333335 8:0.0 9:0.0 10:0.0 11:0.0 12:2.0 13:0.0 14:1.0 15:281.0 16:22728.0 17:45.0 18:249.0 19:1.0 20:0.0 21:0.0 22:0.0 23:1.0 24:2.0 25:0.0 26:0.0 27:0.0 28:0.0 29:0.0 30:0.0 31:0.0 32:0.0 11874:1.0 11875:1.0 24931:1.0 24952:1.0 25202:1.0 25449:1.0 25455:1.0 26977:1.0 27950:1.0 28525:1.0 30766:1.0 
0.9892390900955124 1:14.0 2:2.0 3:0.0 4:4.0 5:0.0 6:0.0 7:4.0 8:0.0 9:0.0 10:0.0 11:0.0 12:2.0 13:0.0 14:1.0 15:10.0 16:219.0 17:1.0 18:8.0 19:1.0 20:0.0 21:0.0 22:0.0 23:1.0 24:0.0 25:0.0 26:0.0 27:0.0 28:0.0 29:0.0 30:0.0 31:695.0 32:0.0 11875:2.0 25441:1.0 25455:1.0 27764:1.0 28524:1.0 28527:1.0 28537:1.0 29807:1.0 30510:1.0 30583:2.0 31022:1.0 
1.0 1:10.0 2:1.0 3:0.0 4:5.0 5:0.0 6:0.0 7:4.5 8:0.0 9:0.0 10:0.0 11:0.0 12:3.0 13:0.0 14:0.0 23:0.0 24:2.0 25:2.0 26:0.0 27:0.0 28:0.0 29:0.0 30:0.0 31:14.0 32:0.0 11875:1.0 24929:1.0 24942:1.0 25455:1.0 28271:1.0 28525:1.0 28535:1.0 30049:1.0 30510:1.0 
0.41204877100939724 1:12.0 2:1.0 3:0.0 4:5.0 5:0.0 6:0.0 7:5.5 8:0.0 9:0.0 10:0.0 11:0.0 12:2.0 13:0.0 14:1.0 15:350.0 16:28485.0 17:78.0 18:342.0 19:1.0 20:1.0 21:0.0 22:0.0 23:1.0 24:3.0 25:3.0 26:0.0 27:0.0 28:0.0 29:0.0 30:0.0 31:5030.0 32:0.0 11894:1.0 24940:1.0 24942:1.0 25972:1.0 27493:1.0 27759:1.0 28206:1.0 28513:1.0 28523:1.0 29807:1.0 30318:1.0 
1.0 1:12.0 2:1.0 3:0.0 4:5.0 5:0.0 6:0.0 7:5.5 8:0.0 9:0.0 10:0.0 11:0.0 12:2.0 13:0.0 14:0.0 23:0.0 24:2.0 25:0.0 26:0.0 27:0.0 28:0.0 29:0.0 30:0.0 31:60.0 32:0.0 11875:1.0 24942:1.0 25455:1.0 25953:1.0 25972:1.0 28261:1.0 28271:1.0 28462:1.0 28525:1.0 29814:1.0 30309:1.0 
0.4118662278587411 1:25.0 2:3.0 3:0.0 4:7.0 5:0.0 6:0.0 7:5.5 8:0.0 9:0.0 10:0.0 11:0.0 12:1.0 13:0.0 14:0.0 23:0.0 24:0.0 25:0.0 26:0.0 27:0.0 28:0.0 29:0.0 30:0.0 31:100000.0 32:0.0 11873:1.0 11875:1.0 11893:1.0 24932:1.0 24946:1.0 25455:1.0 25700:1.0 25701:1.0 25970:1.0 25977:1.0 26989:1.0 27749:1.0 28001:1.0 28462:1.0 28786:1.0 29289:1.0 29292:1.0 29305:1.0 30059:1.0 30510:1.0 30583:2.0 31022:1.0 31088:1.0 
0.41181086267319283 1:15.0 2:2.0 3:0.0 4:3.0 5:0.0 6:0.0 7:4.333333333333333 8:0.0 9:0.0 10:0.0 11:0.0 12:1.0 13:0.0 14:0.0 23:0.0 24:0.0 25:0.0 26:0.0 27:0.0 28:0.0 29:0.0 30:0.0 31:42900.0 32:0.0 11880:1.0 11888:1.0 26741:1.0 28015:1.0 28276:1.0 28526:1.0 28531:1.0 28783:1.0 29556:1.0 29742:1.0 29805:1.0 30510:1.0 30583:2.0 
0.27046682466295546 1:15.0 2:2.0 3:0.0 4:3.0 5:0.0 6:0.0 7:4.333333333333333 8:0.0 9:0.0 10:0.0 11:0.0 12:2.0 13:0.0 14:1.0 15:363.0 16:16553.0 17:84.0 18:300.0 19:1.0 20:0.0 21:0.0 22:0.0 23:1.0 24:0.0 25:0.0 26:0.0 27:0.0 28:0.0 29:0.0 30:0.0 31:0.0 32:0.0 11875:1.0 11880:1.0 24931:1.0 25448:1.0 25454:2.0 26729:1.0 26741:1.0 26979:1.0 28206:1.0 30049:1.0 30510:1.0 30583:2.0 
1.0 1:12.0 2:2.0 3:0.0 4:2.0 5:0.0 6:0.0 7:3.3333333333333335 8:0.0 9:0.0 10:0.0 11:0.0 12:1.0 13:0.0 14:0.0 23:0.0 24:0.0 25:0.0 26:0.0 27:0.0 28:0.0 29:0.0 30:0.0 31:7130.0 32:0.0 11875:1.0 11879:1.0 24947:1.0 25455:1.0 26477:1.0 28001:1.0 29486:1.0 29555:1.0 30510:1.0 30583:2.0 
0.41199815378271604 1:16.0 2:1.0 3:0.0 4:5.0 5:0.0 6:0.0 7:7.5 8:0.0 9:0.0 10:0.0 11:0.0 12:2.0 13:0.0 14:0.0 23:1.0 24:0.0 25:0.0 26:0.0 27:0.0 28:0.0 29:0.0 30:0.0 31:3.29E7 32:0.0 11890:1.0 24878:1.0 25197:1.0 25202:1.0 25452:1.0 26977:1.0 27765:1.0 28023:1.0 29301:2.0 29545:1.0 29555:1.0 30050:1.0 30067:1.0 30563:1.0 
1.0 1:8.0 2:1.0 3:0.0 4:2.0 5:0.0 6:0.0 7:3.5 8:0.0 9:0.0 10:0.0 11:0.0 12:1.0 13:0.0 14:0.0 23:1.0 24:0.0 25:0.0 26:0.0 27:0.0 28:0.0 29:0.0 30:0.0 31:0.0 32:0.0 11890:1.0 25715:1.0 26479:1.0 28462:1.0 29301:1.0 29543:1.0 29796:1.0 
0.2049680024578026 1:15.0 2:3.0 3:0.0 4:2.0 5:0.0 6:0.0 7:3.0 8:0.0 9:0.0 10:0.0 11:0.0 12:1.0 13:0.0 14:1.0 15:10.0 16:6564.0 17:0.0 18:8.0 19:0.0 20:1.0 21:0.0 22:0.0 23:1.0 24:0.0 25:0.0 26:1.0 27:0.0 28:0.0 29:0.0 30:0.0 31:0.0 32:0.0 11883:2.0 11887:1.0 25968:1.0 26414:1.0 27493:1.0 27511:1.0 28530:1.0 28787:1.0 29287:1.0 29486:1.0 30510:1.0 30583:2.0 
0.41234387295917835 1:28.0 2:2.0 3:0.0 4:10.0 5:0.0 6:0.0 7:8.666666666666666 8:0.0 9:0.0 10:0.0 11:0.0 12:2.0 13:0.0 14:0.0 23:0.0 24:0.0 25:0.0 26:1.0 27:0.0 28:0.0 29:0.0 30:0.0 31:329000.0 32:0.0 11875:1.0 11892:1.0 24930:1.0 24937:1.0 24938:1.0 25185:1.0 25441:1.0 25452:1.0 25701:1.0 25961:1.0 25970:1.0 26926:1.0 26981:1.0 26990:1.0 27247:1.0 28271:1.0 28278:1.0 28515:1.0 28531:1.0 29281:1.0 29294:1.0 29540:1.0 29810:1.0 30313:1.0 30510:1.0 30583:2.0 
0.7294560148940599 1:12.0 2:1.0 3:0.0 4:4.0 5:0.0 6:0.0 7:5.5 8:0.0 9:0.0 10:0.0 11:0.0 12:2.0 13:0.0 14:0.0 23:1.0 24:2.0 25:2.0 26:0.0 27:0.0 28:0.0 29:0.0 30:0.0 31:20.0 32:0.0 11880:1.0 24941:1.0 26476:1.0 26731:1.0 27745:1.0 28015:1.0 28530:1.0 28533:1.0 29295:1.0 29486:1.0 30067:1.0 
1.0 1:25.0 2:2.0 3:0.0 4:8.0 5:2.0 6:0.0 7:7.666666666666667 8:0.0 9:0.08 10:0.0 11:0.0 12:2.0 13:1.0 14:0.0 23:0.0 24:0.0 25:0.0 26:0.0 27:0.0 28:0.0 29:0.0 30:0.0 31:11700.0 32:0.0 11621:1.0 11628:1.0 11875:1.0 11893:1.0 25455:1.0 25701:1.0 25901:1.0 25957:1.0 25966:1.0 25974:1.0 26229:1.0 26472:1.0 26740:1.0 26983:1.0 27693:1.0 27753:1.0 28276:1.0 28462:1.0 29486:1.0 29798:1.0 29811:1.0 30059:1.0 30060:1.0 30309:1.0 
0.1691820968455605 1:96.0 2:10.0 3:1.0 4:31.0 5:3.0 6:0.0 7:7.818181818181818 8:0.010416666666666666 9:0.03125 10:0.0 11:1.0 12:2.0 13:1.0 14:0.0 23:1.0 24:0.0 25:0.0 26:0.0 27:0.0 28:0.0 29:0.0 30:0.0 31:0.0 32:0.0 11617:1.0 11629:1.0 11637:1.0 11873:2.0 11874:1.0 11875:3.0 11876:1.0 11887:1.0 11890:1.0 11891:1.0 14382:1.0 24931:2.0 24935:1.0 24937:1.0 24940:1.0 24942:1.0 24947:1.0 24948:1.0 25202:1.0 25443:1.0 25455:4.0 25460:1.0 25705:1.0 25953:1.0 25961:1.0 25965:1.0 25966:1.0 25970:2.0 26424:1.0 26469:1.0 26725:1.0 26988:1.0 26990:2.0 26991:1.0 26994:1.0 26998:1.0 27694:1.0 27749:1.0 27753:1.0 27949:1.0 27950:2.0 28001:2.0 28005:1.0 28206:1.0 28257:1.0 28261:1.0 28264:1.0 28268:1.0 28276:3.0 28462:1.0 28525:3.0 28526:2.0 28533:1.0 28717:1.0 29287:1.0 29293:1.0 29295:1.0 29300:1.0 29301:1.0 29485:1.0 29541:1.0 29552:1.0 29556:1.0 29557:1.0 29742:3.0 29801:2.0 29810:1.0 29811:1.0 30062:2.0 30067:2.0 30305:1.0 30510:1.0 30583:2.0 
0.4119857946648699 1:13.0 2:2.0 3:0.0 4:6.0 5:0.0 6:0.0 7:3.6666666666666665 8:0.0 9:0.0 10:0.0 11:0.0 12:2.0 13:0.0 14:0.0 23:2.0 24:2.0 25:2.0 26:0.0 27:0.0 28:0.0 29:0.0 30:0.0 31:293000.0 32:0.0 11875:1.0 11893:1.0 25193:1.0 25455:1.0 25902:1.0 25966:1.0 26991:1.0 28261:1.0 28462:1.0 28534:1.0 30059:1.0 30309:1.0 
0.3774429753651741 1:25.0 2:3.0 3:0.0 4:5.0 5:0.0 6:0.0 7:5.5 8:0.0 9:0.0 10:0.0 11:0.0 12:1.0 13:0.0 14:0.0 23:0.0 24:2.0 25:1.0 26:1.0 27:0.0 28:0.0 29:0.0 30:0.0 31:9340.0 32:0.0 11881:1.0 11891:2.0 24941:1.0 24953:1.0 25185:1.0 25448:1.0 25710:1.0 26670:1.0 26980:1.0 27509:1.0 27759:1.0 28002:1.0 28206:1.0 28274:1.0 28526:1.0 29281:1.0 29539:1.0 29540:1.0 30060:1.0 30510:1.0 30583:2.0 31083:1.0 
0.41203281999871977 1:12.0 2:1.0 3:0.0 4:4.0 5:0.0 6:0.0 7:5.5 8:0.0 9:0.0 10:0.0 11:0.0 12:2.0 13:0.0 14:0.0 23:1.0 24:0.0 25:0.0 26:0.0 27:0.0 28:0.0 29:0.0 30:0.0 31:7840000.0 32:0.0 11888:1.0 24878:1.0 24929:1.0 24940:1.0 26209:1.0 26988:1.0 27745:1.0 27750:1.0 27756:1.0 28780:1.0 30313:1.0 
0.4123118448905375 1:95.0 2:9.0 3:0.0 4:33.0 5:0.0 6:0.0 7:8.6 8:0.0 9:0.0 10:0.0 11:0.0 12:2.0 13:0.0 14:0.0 23:0.0 24:0.0 25:0.0 26:0.0 27:0.0 28:0.0 29:0.0 30:0.0 31:9470000.0 32:0.0 11874:1.0 11876:2.0 11880:1.0 11881:1.0 11885:3.0 11893:1.0 24930:1.0 24946:3.0 24947:3.0 24948:1.0 24949:1.0 24950:1.0 25189:3.0 25441:3.0 25448:2.0 25646:3.0 25701:2.0 25902:1.0 25954:1.0 25961:2.0 25964:1.0 25966:1.0 25970:6.0 26414:1.0 26465:2.0 26721:1.0 26739:1.0 26740:1.0 26979:2.0 26983:1.0 26991:1.0 26996:1.0 26998:1.0 27763:1.0 28001:3.0 28206:2.0 28257:1.0 28462:1.0 28526:1.0 28775:1.0 28788:1.0 29283:3.0 29284:3.0 29285:1.0 29299:1.0 29303:1.0 29541:1.0 29543:1.0 29545:1.0 29556:3.0 29742:1.0 29797:4.0 29801:1.0 29806:1.0 30053:1.0 30064:1.0 30309:1.0 30313:1.0 30575:1.0 
0.41222362273980806 1:24.0 2:3.0 3:0.0 4:8.0 5:0.0 6:0.0 7:5.25 8:0.0 9:0.0 10:0.0 11:0.0 12:2.0 13:0.0 14:0.0 23:1.0 24:2.0 25:2.0 26:1.0 27:0.0 28:0.0 29:0.0 30:0.0 31:5.91E7 32:0.0 11875:1.0 11889:1.0 11898:1.0 25451:1.0 25455:1.0 25965:1.0 25969:1.0 26979:1.0 27500:1.0 27769:1.0 28005:1.0 28462:1.0 28532:1.0 29045:2.0 29797:1.0 30057:1.0 30063:1.0 30510:1.0 30583:2.0 31022:1.0 31329:1.0 
0.4119951047580946 1:18.0 2:2.0 3:0.0 4:4.0 5:0.0 6:0.0 7:5.333333333333333 8:0.0 9:0.0 10:0.0 11:0.0 12:1.0 13:0.0 14:0.0 23:0.0 24:0.0 25:0.0 26:0.0 27:0.0 28:0.0 29:0.0 30:0.0 31:49500.0 32:0.0 11888:1.0 11891:1.0 24946:2.0 25189:1.0 25646:1.0 25963:1.0 26465:1.0 27438:1.0 27759:1.0 28514:1.0 28780:1.0 29284:1.0 29287:1.0 29556:1.0 29793:1.0 31340:1.0 
0.8641143089986154 1:13.0 2:1.0 3:0.0 4:4.0 5:0.0 6:0.0 7:6.0 8:0.0 9:0.0 10:0.0 11:0.0 12:2.0 13:0.0 14:0.0 23:1.0 24:0.0 25:0.0 26:0.0 27:0.0 28:0.0 29:0.0 30:0.0 31:3590.0 32:0.0 11875:1.0 24931:2.0 25185:1.0 25451:1.0 25455:1.0 25460:1.0 25953:1.0 27438:1.0 28525:1.0 29285:1.0 29794:1.0 
0.4122508788638842 1:14.0 2:1.0 3:0.0 4:5.0 5:0.0 6:0.0 7:6.5 8:0.0 9:0.0 10:0.0 11:0.0 12:2.0 13:0.0 14:0.0 23:1.0 24:3.0 25:3.0 26:0.0 27:0.0 28:0.0 29:0.0 30:0.0 31:4550000.0 32:0.0 11874:1.0 24941:1.0 24948:1.0 25193:1.0 25953:1.0 25971:1.0 27002:1.0 28001:1.0 28013:2.0 29486:1.0 29797:2.0 
0.023224117962242996 1:20.0 2:2.0 3:0.0 4:6.0 5:0.0 6:0.0 7:6.0 8:0.0 9:0.0 10:0.0 11:0.0 12:2.0 13:0.0 14:0.0 23:0.0 24:2.0 25:2.0 26:1.0 27:0.0 28:0.0 29:0.0 30:0.0 31:1630000.0 32:0.0 11875:1.0 11891:1.0 25441:1.0 25445:1.0 25902:1.0 25957:1.0 25972:1.0 26979:1.0 27763:1.0 28524:1.0 29551:1.0 29556:1.0 29559:1.0 29801:1.0 29811:1.0 30510:1.0 30565:1.0 30583:2.0 
0.4121405604433312 1:18.0 2:2.0 3:0.0 4:5.0 5:0.0 6:0.0 7:5.333333333333333 8:0.0 9:0.0 10:0.0 11:0.0 12:1.0 13:0.0 14:0.0 23:0.0 24:0.0 25:0.0 26:0.0 27:0.0 28:0.0 29:0.0 30:0.0 31:148000.0 32:0.0 11877:1.0 11892:1.0 24932:1.0 24942:1.0 25441:1.0 25448:1.0 25711:1.0 25955:1.0 25966:1.0 28257:1.0 28259:1.0 28530:1.0 29230:1.0 29797:1.0 30510:1.0 30583:2.0 
0.37818543989425657 1:10.0 2:1.0 3:0.0 4:2.0 5:0.0 6:0.0 7:4.5 8:0.0 9:0.0 10:0.0 11:0.0 12:1.0 13:0.0 14:0.0 23:1.0 24:2.0 25:2.0 26:0.0 27:0.0 28:0.0 29:0.0 30:0.0 31:0.0 32:0.0 11875:1.0 25202:1.0 25203:1.0 25455:1.0 26996:1.0 28525:1.0 29230:1.0 29538:1.0 29794:1.0 
1.0 1:21.0 2:2.0 3:0.0 4:5.0 5:0.0 6:0.0 7:6.333333333333333 8:0.0 9:0.0 10:0.0 11:0.0 12:2.0 13:0.0 14:1.0 15:49.0 16:4044.0 17:1.0 18:33.0 19:1.0 20:0.0 21:0.0 22:0.0 23:1.0 24:2.0 25:1.0 26:1.0 27:0.0 28:0.0 29:0.0 30:0.0 31:67.0 32:0.0 11875:1.0 11885:1.0 24940:1.0 24948:1.0 25448:1.0 25455:1.0 25701:1.0 25953:1.0 25970:1.0 26724:1.0 27749:1.0 28025:1.0 28525:1.0 29230:1.0 29795:1.0 30510:1.0 30561:1.0 30583:2.0 31095:1.0 
0.4119790460116638 1:15.0 2:1.0 3:0.0 4:5.0 5:0.0 6:0.0 7:7.0 8:0.0 9:0.0 10:0.0 11:0.0 12:1.0 13:0.0 14:1.0 15:30.0 16:7041.0 17:0.0 18:20.0 19:1.0 20:0.0 21:0.0 22:0.0 23:1.0 24:2.0 25:3.0 26:0.0 27:0.0 28:0.0 29:0.0 30:0.0 31:948.0 32:0.0 11890:1.0 24948:1.0 25701:1.0 25971:1.0 25975:1.0 26478:1.0 26983:1.0 28001:1.0 28206:1.0 28261:1.0 29295:1.0 29545:1.0 29796:1.0 30573:1.0 
1.0 1:14.0 2:2.0 3:0.0 4:2.0 5:0.0 6:0.0 7:4.0 8:0.0 9:0.0 10:0.0 11:0.0 12:1.0 13:0.0 14:0.0 23:0.0 24:2.0 25:2.0 26:0.0 27:0.0 28:0.0 29:0.0 30:0.0 31:7590.0 32:0.0 11874:1.0 11875:1.0 24942:1.0 25185:1.0 25455:1.0 27500:1.0 27763:1.0 28267:1.0 28525:1.0 29486:1.0 30510:1.0 30583:2.0 
1.0 1:20.0 2:2.0 3:1.0 4:4.0 5:0.0 6:0.0 7:6.0 8:0.05 9:0.0 10:0.0 11:1.0 12:1.0 13:0.0 14:0.0 23:1.0 24:2.0 25:2.0 26:1.0 27:0.0 28:0.0 29:0.0 30:0.0 31:11100.0 32:0.0 11875:1.0 11888:1.0 12590:1.0 24944:1.0 25455:1.0 25459:1.0 26482:1.0 26729:1.0 26979:1.0 28519:1.0 28525:1.0 28776:1.0 28786:1.0 29281:1.0 29295:1.0 29489:1.0 30510:1.0 30583:2.0 
0.4122871287943304 1:19.0 2:2.0 3:0.0 4:7.0 5:0.0 6:0.0 7:5.666666666666667 8:0.0 9:0.0 10:0.0 11:0.0 12:2.0 13:0.0 14:0.0 23:2.0 24:2.0 25:2.0 26:0.0 27:0.0 28:0.0 29:0.0 30:0.0 31:1430000.0 32:0.0 11875:1.0 11898:1.0 25205:1.0 25455:2.0 25701:1.0 25705:1.0 25970:1.0 26988:1.0 26994:1.0 27748:1.0 28462:1.0 28514:1.0 29283:1.0 29299:1.0 29486:1.0 30057:1.0 31329:1.0 
1.0 1:16.0 2:1.0 3:0.0 4:6.0 5:0.0 6:0.0 7:7.5 8:0.0 9:0.0 10:0.0 11:0.0 12:1.0 13:0.0 14:0.0 23:1.0 24:0.0 25:0.0 26:0.0 27:0.0 28:0.0 29:0.0 30:0.0 31:2030.0 32:0.0 11887:1.0 24935:1.0 24942:1.0 24950:1.0 25697:1.0 25902:1.0 26469:1.0 26988:1.0 27745:1.0 27756:1.0 28260:1.0 28530:1.0 28769:1.0 29287:1.0 30313:1.0 
0.27170940832453555 1:11.0 2:1.0 3:0.0 4:3.0 5:0.0 6:0.0 7:5.0 8:0.0 9:0.0 10:0.0 11:0.0 12:1.0 13:0.0 14:1.0 15:88.0 16:8846.0 17:8.0 18:65.0 19:1.0 20:0.0 21:0.0 22:0.0 23:1.0 24:2.0 25:2.0 26:0.0 27:0.0 28:0.0 29:0.0 30:0.0 31:1.0 32:0.0 11886:1.0 24940:1.0 24942:1.0 25703:1.0 25972:1.0 26465:1.0 27748:1.0 28206:1.0 28257:1.0 28261:1.0 
0.09779696305745347 1:26.0 2:2.0 3:0.0 4:8.0 5:0.0 6:0.0 7:8.0 8:0.0 9:0.0 10:0.0 11:0.0 12:2.0 13:0.0 14:0.0 23:0.0 24:0.0 25:0.0 26:0.0 27:0.0 28:0.0 29:0.0 30:0.0 31:2930.0 32:0.0 11883:1.0 11886:1.0 24932:1.0 24947:1.0 24948:1.0 25709:1.0 25971:1.0 26981:1.0 26990:1.0 26995:1.0 27489:1.0 28009:1.0 28265:1.0 28268:1.0 28513:1.0 29281:1.0 29486:1.0 29556:2.0 29801:1.0 29807:1.0 29810:1.0 30510:1.0 30583:2.0 
0.3775698801712049 1:19.0 2:1.0 3:0.0 4:7.0 5:1.0 6:0.0 7:9.0 8:0.0 9:0.05263157894736842 10:0.0 11:0.0 12:2.0 13:1.0 14:0.0 23:1.0 24:2.0 25:10.0 26:0.0 27:0.0 28:0.0 29:0.0 30:0.0 31:17400.0 32:0.0 11617:1.0 11875:1.0 24931:1.0 24948:1.0 25443:1.0 25455:2.0 25645:1.0 25697:1.0 25956:1.0 28276:1.0 28525:1.0 28533:1.0 28772:1.0 29742:1.0 29797:1.0 30062:1.0 30064:1.0 
0.41189642509072755 1:14.0 2:2.0 3:0.0 4:4.0 5:0.0 6:0.0 7:4.0 8:0.0 9:0.0 10:0.0 11:0.0 12:1.0 13:0.0 14:0.0 23:1.0 24:0.0 25:0.0 26:0.0 27:0.0 28:0.0 29:0.0 30:0.0 31:379000.0 32:0.0 11881:1.0 11890:1.0 25972:1.0 26926:1.0 26990:1.0 28276:1.0 29301:1.0 29541:1.0 29801:1.0 29811:1.0 30510:1.0 30583:2.0 
0.3380576788603911 1:26.0 2:2.0 3:0.0 4:8.0 5:0.0 6:0.0 7:8.0 8:0.0 9:0.0 10:0.0 11:0.0 12:2.0 13:0.0 14:1.0 15:330.0 16:31785.0 17:22.0 18:256.0 19:1.0 20:0.0 21:0.0 22:0.0 23:1.0 24:0.0 25:0.0 26:1.0 27:0.0 28:0.0 29:0.0 30:0.0 31:0.0 32:0.0 11875:1.0 11877:1.0 24930:1.0 25189:1.0 25448:1.0 25455:1.0 25964:1.0 25970:1.0 25972:1.0 25973:1.0 26734:1.0 26746:1.0 27002:1.0 27753:1.0 28261:1.0 28525:1.0 29230:1.0 29539:1.0 29800:1.0 30067:1.0 30510:1.0 30583:2.0 31329:1.0 31333:1.0 
0.41225612459007427 1:24.0 2:2.0 3:0.0 4:8.0 5:1.0 6:0.0 7:7.333333333333333 8:0.0 9:0.041666666666666664 10:0.0 11:0.0 12:2.0 13:1.0 14:0.0 23:1.0 24:2.0 25:2.0 26:0.0 27:0.0 28:0.0 29:0.0 30:0.0 31:169000.0 32:0.0 11619:1.0 11875:1.0 11893:1.0 24948:1.0 25451:1.0 25455:1.0 25458:1.0 25717:1.0 25902:1.0 25953:1.0 26229:1.0 26998:1.0 27437:1.0 28462:1.0 29285:1.0 29801:1.0 30051:1.0 30059:1.0 30074:1.0 30309:1.0 31076:1.0 31353:1.0 31354:1.0 
1.0 1:12.0 2:2.0 3:0.0 4:4.0 5:0.0 6:0.0 7:3.3333333333333335 8:0.0 9:0.0 10:0.0 11:0.0 12:2.0 13:0.0 14:0.0 23:0.0 24:0.0 25:0.0 26:0.0 27:0.0 28:0.0 29:0.0 30:0.0 31:9660.0 32:0.0 11884:1.0 11893:1.0 24942:1.0 25972:1.0 27745:1.0 28261:1.0 29742:1.0 30049:1.0 30510:1.0 30583:2.0 
0.41235502289218096 1:19.0 2:1.0 3:0.0 4:7.0 5:0.0 6:0.0 7:9.0 8:0.0 9:0.0 10:0.0 11:0.0 12:1.0 13:0.0 14:0.0 23:0.0 24:0.0 25:0.0 26:0.0 27:0.0 28:0.0 29:0.0 30:0.0 31:8420000.0 32:0.0 11885:1.0 24948:1.0 25441:1.0 25701:1.0 25704:1.0 25705:1.0 25956:2.0 26414:1.0 26735:1.0 26979:1.0 26990:1.0 28005:1.0 28263:1.0 28531:1.0 29556:1.0 29797:1.0 29801:1.0 
0.4121090677203361 1:18.0 2:2.0 3:0.0 4:7.0 5:0.0 6:0.0 7:5.333333333333333 8:0.0 9:0.0 10:0.0 11:0.0 12:2.0 13:0.0 14:0.0 23:0.0 24:2.0 25:2.0 26:0.0 27:0.0 28:0.0 29:0.0 30:0.0 31:125000.0 32:0.0 11875:1.0 11893:1.0 24946:1.0 25455:1.0 25702:1.0 26220:1.0 27759:1.0 28462:1.0 28516:1.0 28527:2.0 28530:1.0 29230:1.0 29298:1.0 29303:1.0 30059:1.0 30575:1.0 
0.41246600815798645 1:8.0 2:1.0 3:0.0 4:4.0 5:0.0 6:0.0 7:3.5 8:0.0 9:0.0 10:0.0 11:0.0 12:2.0 13:0.0 14:0.0 23:0.0 24:0.0 25:0.0 26:0.0 27:0.0 28:0.0 29:0.0 30:0.0 31:119000.0 32:0.0 11881:1.0 26981:1.0 28462:1.0 29301:1.0 29810:1.0 30070:1.0 30319:1.0 
0.2827889709631639 1:14.0 2:1.0 3:0.0 4:6.0 5:0.0 6:0.0 7:6.5 8:0.0 9:0.0 10:0.0 11:0.0 12:2.0 13:0.0 14:1.0 15:23.0 16:2302.0 17:0.0 18:31.0 19:1.0 20:0.0 21:0.0 22:0.0 23:1.0 24:0.0 25:0.0 26:0.0 27:0.0 28:0.0 29:0.0 30:0.0 31:5.0 32:0.0 11875:1.0 24878:1.0 24940:1.0 25455:1.0 26479:1.0 26990:1.0 26996:1.0 27769:1.0 28263:1.0 28513:1.0 28525:1.0 29793:1.0 31081:1.0 
0.1902450187933702 1:24.0 2:2.0 3:0.0 4:10.0 5:0.0 6:0.0 7:7.333333333333333 8:0.0 9:0.0 10:0.0 11:0.0 12:2.0 13:0.0 14:1.0 15:147.0 16:10237.0 17:9.0 18:104.0 19:1.0 20:0.0 21:0.0 22:0.0 23:1.0 24:0.0 25:0.0 26:0.0 27:0.0 28:0.0 29:0.0 30:0.0 31:3.0 32:0.0 11873:1.0 11875:1.0 24941:1.0 24942:1.0 24949:1.0 25445:1.0 25455:1.0 25902:1.0 25958:1.0 26209:1.0 26217:1.0 26735:1.0 26988:1.0 26990:1.0 27769:1.0 27950:1.0 28005:1.0 28009:1.0 28257:1.0 28259:1.0 28525:2.0 31080:1.0 
0.29295197572026344 1:18.0 2:1.0 3:0.0 4:5.0 5:0.0 6:0.0 7:8.5 8:0.0 9:0.0 10:0.0 11:0.0 12:1.0 13:0.0 14:1.0 15:39.0 16:3060.0 17:1.0 18:31.0 19:1.0 20:0.0 21:0.0 22:0.0 23:1.0 24:2.0 25:2.0 26:0.0 27:0.0 28:0.0 29:0.0 30:0.0 31:91.0 32:0.0 11875:1.0 24942:1.0 25455:2.0 25959:1.0 26473:1.0 26725:1.0 26988:1.0 27747:1.0 27756:1.0 28016:1.0 28281:1.0 28525:2.0 28769:1.0 29800:1.0 31022:1.0 
0.6904281762422396 1:17.0 2:2.0 3:2.0 4:3.0 5:0.0 6:0.0 7:5.0 8:0.11764705882352941 9:0.0 10:0.0 11:2.0 12:1.0 13:0.0 14:0.0 23:1.0 24:2.0 25:2.0 26:1.0 27:0.0 28:0.0 29:0.0 30:0.0 31:67200.0 32:0.0 11873:1.0 11890:1.0 12846:1.0 13618:1.0 24942:1.0 24948:1.0 27745:1.0 28213:1.0 28270:1.0 28276:1.0 29301:1.0 29804:1.0 29806:1.0 30510:1.0 30583:2.0 
0.4120436602207693 1:21.0 2:1.0 3:0.0 4:7.0 5:0.0 6:0.0 7:10.0 8:0.0 9:0.0 10:0.0 11:0.0 12:1.0 13:0.0 14:0.0 23:1.0 24:2.0 25:2.0 26:0.0 27:0.0 28:0.0 29:0.0 30:0.0 31:24900.0 32:0.0 11875:1.0 25189:1.0 25455:1.0 25902:1.0 25970:1.0 25971:1.0 25972:1.0 26223:1.0 26735:1.0 27749:1.0 28005:1.0 28525:2.0 28530:1.0 29286:1.0 29292:1.0 29544:1.0 29555:1.0 29797:1.0 29812:1.0 
0.43971522883207614 1:21.0 2:1.0 3:0.0 4:6.0 5:1.0 6:0.0 7:10.0 8:0.0 9:0.047619047619047616 10:0.0 11:0.0 12:1.0 13:1.0 14:1.0 15:360.0 16:26838.0 17:45.0 18:434.0 19:1.0 20:0.0 21:0.0 22:0.0 23:1.0 24:0.0 25:0.0 26:0.0 27:0.0 28:0.0 29:0.0 30:0.0 31:0.0 32:0.0 11634:1.0 11875:1.0 24939:1.0 24946:1.0 24947:1.0 25455:1.0 25465:1.0 25959:1.0 25966:1.0 26469:1.0 27489:1.0 27949:1.0 28001:1.0 28259:1.0 28525:1.0 29230:1.0 29285:1.0 29537:1.0 29555:1.0 31085:1.0 
0.4122521919480595 1:29.0 2:3.0 3:0.0 4:8.0 5:0.0 6:0.0 7:6.5 8:0.0 9:0.0 10:0.0 11:0.0 12:2.0 13:0.0 14:0.0 23:0.0 24:0.0 25:0.0 26:0.0 27:0.0 28:0.0 29:0.0 30:0.0 31:291000.0 32:0.0 11875:1.0 11888:1.0 11893:1.0 24946:1.0 25455:1.0 25970:1.0 26220:1.0 26414:1.0 26729:1.0 26990:1.0 26992:1.0 27759:1.0 28261:1.0 28263:1.0 28462:1.0 28527:1.0 28530:1.0 28769:1.0 28774:1.0 29289:1.0 29299:1.0 29300:1.0 29544:1.0 29806:1.0 30059:1.0 30510:1.0 30583:2.0 
0.41226328519414707 1:17.0 2:2.0 3:0.0 4:5.0 5:0.0 6:0.0 7:5.0 8:0.0 9:0.0 10:0.0 11:0.0 12:1.0 13:0.0 14:1.0 15:713.0 16:75398.0 17:247.0 18:1037.0 19:1.0 20:4.0 21:0.0 22:0.0 23:1.0 24:2.0 25:2.0 26:1.0 27:0.0 28:0.0 29:0.0 30:0.0 31:47.0 32:0.0 11875:1.0 11894:1.0 24935:1.0 24944:1.0 25455:1.0 25959:1.0 25971:1.0 26465:1.0 26469:1.0 28525:1.0 28769:1.0 29486:1.0 30309:1.0 30510:1.0 30583:2.0 
0.08237395257513805 1:16.0 2:1.0 3:0.0 4:5.0 5:0.0 6:0.0 7:7.5 8:0.0 9:0.0 10:0.0 11:0.0 12:1.0 13:0.0 14:0.0 23:0.0 24:2.0 25:2.0 26:0.0 27:0.0 28:0.0 29:0.0 30:0.0 31:1210.0 32:0.0 11875:1.0 24931:1.0 25448:1.0 25455:1.0 25902:1.0 25970:1.0 26725:1.0 26729:1.0 26990:1.0 28001:1.0 28261:1.0 28525:1.0 29298:1.0 29299:1.0 29549:1.0 
0.23689949700679422 1:15.0 2:2.0 3:0.0 4:5.0 5:0.0 6:0.0 7:4.333333333333333 8:0.0 9:0.0 10:0.0 11:0.0 12:2.0 13:0.0 14:0.0 23:1.0 24:0.0 25:0.0 26:0.0 27:0.0 28:0.0 29:0.0 30:0.0 31:4330.0 32:0.0 11875:1.0 11897:1.0 24878:1.0 24936:1.0 25455:1.0 26735:1.0 27489:1.0 28523:1.0 28525:1.0 28527:1.0 30510:1.0 30583:2.0 31073:1.0 
0.6036266160359589 1:19.0 2:1.0 3:0.0 4:8.0 5:0.0 6:0.0 7:9.0 8:0.0 9:0.0 10:0.0 11:0.0 12:2.0 13:0.0 14:0.0 23:0.0 24:2.0 25:2.0 26:0.0 27:0.0 28:0.0 29:0.0 30:0.0 31:13200.0 32:0.0 11881:1.0 24878:1.0 24942:1.0 25448:1.0 25455:1.0 26729:1.0 26977:1.0 26979:1.0 26996:1.0 27759:1.0 28257:1.0 28515:1.0 28524:1.0 28532:1.0 28786:1.0 29289:1.0 29295:1.0 29810:1.0 
0.412169203306992 1:13.0 2:2.0 3:0.0 4:2.0 5:0.0 6:0.0 7:3.6666666666666665 8:0.0 9:0.0 10:0.0 11:0.0 12:1.0 13:0.0 14:0.0 23:1.0 24:0.0 25:0.0 26:0.0 27:0.0 28:0.0 29:0.0 30:0.0 31:2970000.0 32:0.0 11877:1.0 11888:1.0 25459:1.0 25711:1.0 25971:1.0 26214:1.0 26220:1.0 27694:1.0 28515:1.0 28788:1.0 29486:1.0 29542:1.0 
0.41229219524958427 1:14.0 2:1.0 3:0.0 4:5.0 5:0.0 6:0.0 7:6.5 8:0.0 9:0.0 10:0.0 11:0.0 12:1.0 13:0.0 14:0.0 23:1.0 24:0.0 25:0.0 26:0.0 27:0.0 28:0.0 29:0.0 30:0.0 31:5400000.0 32:0.0 11881:1.0 24940:1.0 25902:1.0 25970:1.0 26223:1.0 26725:1.0 26990:1.0 27756:1.0 27763:1.0 28262:1.0 28776:1.0 29285:1.0 29552:1.0 
0.4120251446610583 1:18.0 2:1.0 3:0.0 4:8.0 5:0.0 6:0.0 7:8.5 8:0.0 9:0.0 10:0.0 11:0.0 12:1.0 13:0.0 14:0.0 23:0.0 24:0.0 25:0.0 26:0.0 27:0.0 28:0.0 29:0.0 30:0.0 31:7080000.0 32:0.0 11881:1.0 24940:1.0 25902:1.0 25959:1.0 26229:1.0 26465:1.0 26990:1.0 26996:1.0 27759:1.0 28265:1.0 28530:1.0 29285:2.0 29294:1.0 29813:1.0 30066:2.0 
0.10494909483966172 1:16.0 2:2.0 3:0.0 4:5.0 5:0.0 6:0.0 7:4.666666666666667 8:0.0 9:0.0 10:0.0 11:0.0 12:1.0 13:0.0 14:0.0 23:1.0 24:0.0 25:0.0 26:1.0 27:0.0 28:0.0 29:0.0 30:0.0 31:5150.0 32:0.0 11881:1.0 11894:1.0 25193:1.0 25902:1.0 26988:1.0 26992:1.0 26996:1.0 27749:1.0 28015:1.0 28514:1.0 28781:1.0 30313:1.0 30510:1.0 30583:2.0 
0.41233142419880525 1:17.0 2:2.0 3:0.0 4:6.0 5:0.0 6:0.0 7:5.0 8:0.0 9:0.0 10:0.0 11:0.0 12:2.0 13:0.0 14:0.0 23:1.0 24:2.0 25:2.0 26:0.0 27:0.0 28:0.0 29:0.0 30:0.0 31:4860000.0 32:0.0 11875:1.0 11890:1.0 24940:1.0 25455:1.0 25953:1.0 26670:1.0 26725:1.0 26991:1.0 27764:1.0 28264:1.0 28265:1.0 28462:1.0 28526:1.0 29299:1.0 29800:1.0 30062:1.0 
0.22009511428319414 1:21.0 2:2.0 3:0.0 4:6.0 5:0.0 6:0.0 7:6.333333333333333 8:0.0 9:0.0 10:0.0 11:0.0 12:2.0 13:0.0 14:0.0 23:0.0 24:0.0 25:0.0 26:0.0 27:0.0 28:0.0 29:0.0 30:0.0 31:1210.0 32:0.0 11875:1.0 11878:1.0 25445:1.0 25448:1.0 25455:1.0 25967:1.0 26217:1.0 26735:1.0 26979:1.0 26994:1.0 27438:1.0 28521:1.0 28523:1.0 28525:1.0 29299:1.0 29556:1.0 29795:1.0 30510:1.0 30583:2.0 
0.3900459868095873 1:27.0 2:1.0 3:0.0 4:9.0 5:2.0 6:0.0 7:13.0 8:0.0 9:0.07407407407407407 10:0.0 11:0.0 12:2.0 13:1.0 14:0.0 23:0.0 24:0.0 25:0.0 26:0.0 27:0.0 28:0.0 29:0.0 30:0.0 31:85800.0 32:0.0 11620:1.0 11634:1.0 11876:1.0 24935:1.0 24937:1.0 25133:1.0 25189:1.0 25448:1.0 25701:1.0 25711:1.0 25954:1.0 25955:1.0 25972:1.0 26413:1.0 26466:1.0 26741:1.0 26990:1.0 28001:1.0 28206:1.0 28263:1.0 28525:1.0 29281:1.0 29285:1.0 29810:1.0 30062:1.0 30565:1.0 
0.10506596638173024 1:13.0 2:3.0 3:0.0 4:3.0 5:0.0 6:0.0 7:2.5 8:0.0 9:0.0 10:0.0 11:0.0 12:1.0 13:0.0 14:0.0 23:1.0 24:2.0 25:2.0 26:1.0 27:0.0 28:0.0 29:0.0 30:0.0 31:6070.0 32:0.0 11875:1.0 11888:1.0 11890:1.0 24878:1.0 25455:1.0 27950:1.0 28525:1.0 28773:1.0 29281:1.0 30510:1.0 30583:2.0 
0.23942103940347495 1:29.0 2:2.0 3:0.0 4:9.0 5:1.0 6:0.0 7:9.0 8:0.0 9:0.034482758620689655 10:0.0 11:0.0 12:2.0 13:1.0 14:0.0 23:0.0 24:0.0 25:0.0 26:0.0 27:0.0 28:0.0 29:0.0 30:0.0 31:8510.0 32:0.0 11629:1.0 11875:1.0 11891:1.0 24931:1.0 25443:1.0 25455:2.0 25461:1.0 25955:1.0 25964:1.0 26473:1.0 26990:1.0 27759:1.0 28025:1.0 28205:1.0 28276:1.0 28519:1.0 28525:1.0 28533:1.0 29285:1.0 29541:1.0 29742:1.0 30062:1.0 30066:1.0 30510:1.0 30583:2.0 31073:1.0 
1.0 1:12.0 2:2.0 3:0.0 4:3.0 5:0.0 6:0.0 7:3.3333333333333335 8:0.0 9:0.0 10:0.0 11:0.0 12:1.0 13:0.0 14:0.0 23:1.0 24:3.0 25:3.0 26:0.0 27:0.0 28:0.0 29:0.0 30:0.0 31:65.0 32:0.0 11875:1.0 11894:1.0 25390:1.0 25455:1.0 25965:1.0 26979:1.0 27950:1.0 28009:1.0 28525:1.0 29541:1.0 30318:1.0 
0.41226392151755936 1:12.0 2:1.0 3:0.0 4:3.0 5:0.0 6:0.0 7:5.5 8:0.0 9:0.0 10:0.0 11:0.0 12:1.0 13:0.0 14:0.0 23:0.0 24:0.0 25:0.0 26:0.0 27:0.0 28:0.0 29:0.0 30:0.0 31:1170000.0 32:0.0 11875:1.0 25441:1.0 25701:1.0 25971:1.0 26478:1.0 26983:1.0 28275:1.0 29300:1.0 29486:1.0 29545:1.0 29796:1.0 
0.39250969190441326 1:28.0 2:3.0 3:0.0 4:12.0 5:0.0 6:0.0 7:6.25 8:0.0 9:0.0 10:0.0 11:0.0 12:2.0 13:0.0 14:1.0 15:86.0 16:5392.0 17:0.0 18:80.0 19:1.0 20:0.0 21:0.0 22:0.0 23:1.0 24:0.0 25:0.0 26:1.0 27:0.0 28:0.0 29:0.0 30:0.0 31:0.0 32:0.0 11873:1.0 11874:1.0 11875:1.0 24949:1.0 25196:1.0 25455:1.0 25902:1.0 25957:1.0 25970:5.0 26483:1.0 27759:1.0 27950:1.0 28519:1.0 28525:1.0 28532:1.0 28783:1.0 29285:5.0 29552:1.0 29742:1.0 
0.4120866028988044 1:12.0 2:1.0 3:0.0 4:5.0 5:0.0 6:0.0 7:5.5 8:0.0 9:0.0 10:0.0 11:0.0 12:2.0 13:0.0 14:0.0 23:0.0 24:2.0 25:2.0 26:0.0 27:0.0 28:0.0 29:0.0 30:0.0 31:1000000.0 32:0.0 11875:1.0 24930:1.0 24942:1.0 25196:1.0 25455:1.0 27253:1.0 27759:1.0 28272:1.0 28462:1.0 28769:1.0 30049:1.0 
0.41206797279442187 1:19.0 2:2.0 3:4.0 4:5.0 5:1.0 6:0.0 7:5.666666666666667 8:0.21052631578947367 9:0.05263157894736842 10:0.0 11:4.0 12:1.0 13:1.0 14:0.0 23:1.0 24:0.0 25:0.0 26:0.0 27:0.0 28:0.0 29:0.0 30:0.0 31:109000.0 32:0.0 11568:1.0 11888:1.0 11893:1.0 12345:1.0 13111:1.0 14126:1.0 14643:1.0 24948:1.0 25455:1.0 25697:1.0 25901:1.0 28538:1.0 28772:1.0 28780:1.0 29797:1.0 30051:1.0 30064:1.0 31278:1.0 
0.4120679727944044 1:21.0 2:2.0 3:0.0 4:6.0 5:0.0 6:0.0 7:6.333333333333333 8:0.0 9:0.0 10:0.0 11:0.0 12:2.0 13:0.0 14:0.0 23:0.0 24:0.0 25:0.0 26:0.0 27:0.0 28:0.0 29:0.0 30:0.0 31:1860000.0 32:0.0 11873:1.0 11890:1.0 24946:1.0 24947:1.0 25970:1.0 26482:1.0 28001:1.0 28533:1.0 28718:1.0 29287:1.0 29295:1.0 29300:1.0 29301:1.0 29556:1.0 29797:1.0 29805:1.0 30064:1.0 30510:1.0 30583:2.0 
1.0 1:8.0 2:1.0 3:0.0 4:3.0 5:0.0 6:0.0 7:3.5 8:0.0 9:0.0 10:0.0 11:0.0 12:1.0 13:0.0 14:0.0 23:1.0 24:2.0 25:2.0 26:0.0 27:0.0 28:0.0 29:0.0 30:0.0 31:74100.0 32:0.0 11881:1.0 25963:1.0 26994:1.0 26996:1.0 27438:1.0 29797:1.0 30313:1.0 
0.4116160424172369 1:13.0 2:2.0 3:0.0 4:3.0 5:0.0 6:0.0 7:3.6666666666666665 8:0.0 9:0.0 10:0.0 11:0.0 12:1.0 13:0.0 14:1.0 15:2150.0 16:203764.0 17:299.0 18:2015.0 19:1.0 20:5.0 21:0.0 22:0.0 23:1.0 24:2.0 25:2.0 26:0.0 27:0.0 28:0.0 29:0.0 30:0.0 31:0.0 32:0.0 11874:1.0 11875:1.0 24935:1.0 24947:1.0 25202:1.0 25455:1.0 26414:1.0 26465:1.0 27950:1.0 28257:1.0 28525:1.0 29550:1.0 
0.41233142419880525 1:14.0 2:2.0 3:0.0 4:3.0 5:0.0 6:0.0 7:4.0 8:0.0 9:0.0 10:0.0 11:0.0 12:1.0 13:0.0 14:0.0 23:1.0 24:0.0 25:0.0 26:0.0 27:0.0 28:0.0 29:0.0 30:0.0 31:7.4E7 32:0.0 11880:1.0 11888:1.0 25902:1.0 26213:1.0 26729:1.0 26982:1.0 26996:1.0 27753:1.0 28788:1.0 29804:1.0 30510:1.0 30583:2.0 
1.0 1:14.0 2:2.0 3:0.0 4:4.0 5:0.0 6:0.0 7:4.0 8:0.0 9:0.0 10:0.0 11:0.0 12:1.0 13:0.0 14:0.0 23:0.0 24:2.0 25:2.0 26:1.0 27:0.0 28:0.0 29:0.0 30:0.0 31:59.0 32:0.0 11875:1.0 11880:1.0 24938:1.0 25455:1.0 26735:1.0 26926:1.0 27241:1.0 28001:1.0 28525:2.0 30510:1.0 30583:2.0 
0.41244508546777703 1:13.0 2:1.0 3:0.0 4:6.0 5:0.0 6:0.0 7:6.0 8:0.0 9:0.0 10:0.0 11:0.0 12:2.0 13:0.0 14:0.0 23:1.0 24:2.0 25:2.0 26:0.0 27:0.0 28:0.0 29:0.0 30:0.0 31:218000.0 32:0.0 11881:1.0 24878:1.0 24931:1.0 24947:1.0 25441:1.0 25445:1.0 25970:1.0 26977:1.0 26996:1.0 29302:1.0 29537:1.0 30313:1.0 
0.4125511802847433 1:19.0 2:1.0 3:0.0 4:4.0 5:0.0 6:0.0 7:9.0 8:0.0 9:0.0 10:0.0 11:0.0 12:1.0 13:0.0 14:1.0 15:502.0 16:56328.0 17:47.0 18:374.0 19:1.0 20:0.0 21:0.0 22:0.0 23:1.0 24:0.0 25:0.0 26:0.0 27:0.0 28:0.0 29:0.0 30:0.0 31:0.0 32:0.0 11875:1.0 25455:1.0 25711:1.0 26228:1.0 26480:1.0 26990:1.0 28016:1.0 28263:1.0 28525:1.0 28531:1.0 28787:2.0 28789:1.0 29486:1.0 29540:1.0 29545:1.0 29808:1.0 30061:1.0 
0.4122632851941471 1:15.0 2:1.0 3:0.0 4:4.0 5:0.0 6:0.0 7:7.0 8:0.0 9:0.0 10:0.0 11:0.0 12:2.0 13:0.0 14:0.0 23:1.0 24:2.0 25:2.0 26:0.0 27:0.0 28:0.0 29:0.0 30:0.0 31:1620000.0 32:0.0 11875:1.0 24931:1.0 25448:2.0 25455:1.0 26670:1.0 26979:1.0 28025:1.0 28277:1.0 28513:1.0 29289:1.0 29810:1.0 30068:1.0 31086:1.0 
0.4124130661893141 1:18.0 2:1.0 3:0.0 4:6.0 5:0.0 6:0.0 7:8.5 8:0.0 9:0.0 10:0.0 11:0.0 12:2.0 13:0.0 14:1.0 15:299.0 16:42928.0 17:47.0 18:259.0 19:1.0 20:0.0 21:0.0 22:0.0 23:1.0 24:2.0 25:2.0 26:0.0 27:0.0 28:0.0 29:0.0 30:0.0 31:764000.0 32:0.0 11875:1.0 24940:1.0 24942:1.0 25202:1.0 25441:1.0 25717:1.0 26977:1.0 26990:1.0 27694:1.0 28260:1.0 28276:1.0 29281:1.0 29289:1.0 29556:1.0 29801:1.0 29810:1.0 30067:1.0 
0.41205425900793347 1:21.0 2:2.0 3:0.0 4:5.0 5:0.0 6:0.0 7:6.333333333333333 8:0.0 9:0.0 10:0.0 11:0.0 12:1.0 13:0.0 14:1.0 15:170.0 16:11426.0 17:15.0 18:149.0 19:1.0 20:0.0 21:0.0 22:0.0 23:1.0 24:2.0 25:2.0 26:0.0 27:0.0 28:0.0 29:0.0 30:0.0 31:10000.0 32:0.0 11875:1.0 11876:1.0 25448:1.0 25455:1.0 25705:1.0 25955:1.0 26489:1.0 26734:1.0 26995:1.0 27759:1.0 28271:1.0 28519:1.0 28524:1.0 28525:1.0 29556:1.0 29797:1.0 30510:1.0 30583:2.0 31022:1.0 
0.22718124270052395 1:25.0 2:3.0 3:0.0 4:9.0 5:0.0 6:0.0 7:5.5 8:0.0 9:0.0 10:0.0 11:0.0 12:2.0 13:0.0 14:1.0 15:142.0 16:6988.0 17:17.0 18:147.0 19:1.0 20:0.0 21:0.0 22:0.0 23:1.0 24:0.0 25:0.0 26:0.0 27:0.0 28:0.0 29:0.0 30:0.0 31:1.0 32:0.0 11875:1.0 11886:1.0 11891:1.0 24878:1.0 24949:1.0 25455:1.0 25461:1.0 25902:1.0 25955:1.0 25972:1.0 26485:1.0 28261:1.0 28525:1.0 29285:1.0 29541:1.0 29556:1.0 29793:2.0 30055:1.0 30066:1.0 30067:1.0 30510:1.0 30583:2.0 
0.41161782863027 1:18.0 2:2.0 3:0.0 4:5.0 5:0.0 6:0.0 7:5.333333333333333 8:0.0 9:0.0 10:0.0 11:0.0 12:2.0 13:0.0 14:0.0 23:1.0 24:2.0 25:2.0 26:1.0 27:0.0 28:0.0 29:0.0 30:0.0 31:1040000.0 32:0.0 11873:1.0 11879:1.0 24933:1.0 24940:1.0 25185:1.0 25646:1.0 25966:1.0 26476:1.0 27759:1.0 27764:1.0 28260:1.0 28514:1.0 29285:1.0 29810:1.0 30510:1.0 30583:2.0 
0.41194517386338964 1:17.0 2:2.0 3:0.0 4:5.0 5:0.0 6:0.0 7:5.0 8:0.0 9:0.0 10:0.0 11:0.0 12:1.0 13:0.0 14:1.0 15:673.0 16:66215.0 17:107.0 18:633.0 19:1.0 20:0.0 21:0.0 22:0.0 23:1.0 24:2.0 25:2.0 26:0.0 27:0.0 28:0.0 29:0.0 30:0.0 31:18900.0 32:0.0 11875:1.0 11893:1.0 25189:1.0 25455:2.0 25970:1.0 25971:1.0 28462:1.0 28532:1.0 29298:1.0 29305:1.0 29539:1.0 29742:1.0 29812:1.0 30059:1.0 31077:1.0 
0.41159221857823314 1:11.0 2:1.0 3:0.0 4:4.0 5:0.0 6:0.0 7:5.0 8:0.0 9:0.0 10:0.0 11:0.0 12:2.0 13:0.0 14:0.0 23:1.0 24:2.0 25:2.0 26:0.0 27:0.0 28:0.0 29:0.0 30:0.0 31:34400.0 32:0.0 11875:1.0 24932:1.0 24945:1.0 25441:1.0 25452:1.0 25697:1.0 25971:1.0 29045:1.0 29486:1.0 30053:1.0 
0.41197904601201485 1:22.0 2:2.0 3:0.0 4:7.0 5:0.0 6:0.0 7:6.666666666666667 8:0.0 9:0.0 10:0.0 11:0.0 12:2.0 13:0.0 14:1.0 15:307.0 16:45573.0 17:50.0 18:342.0 19:1.0 20:0.0 21:0.0 22:0.0 23:1.0 24:0.0 25:0.0 26:1.0 27:0.0 28:0.0 29:0.0 30:0.0 31:4180.0 32:0.0 11886:1.0 11888:1.0 24935:1.0 25717:1.0 25961:1.0 25971:1.0 25972:1.0 26469:1.0 26981:1.0 26990:1.0 28260:1.0 28261:1.0 28769:1.0 29289:1.0 29486:1.0 29556:1.0 29810:1.0 30067:1.0 30510:1.0 30583:2.0 
0.4120345793502605 1:26.0 2:2.0 3:0.0 4:7.0 5:0.0 6:0.0 7:8.0 8:0.0 9:0.0 10:0.0 11:0.0 12:2.0 13:0.0 14:1.0 15:254.0 16:17947.0 17:40.0 18:242.0 19:1.0 20:1.0 21:0.0 22:0.0 23:1.0 24:0.0 25:0.0 26:1.0 27:0.0 28:0.0 29:0.0 30:0.0 31:0.0 32:0.0 11875:1.0 11890:1.0 24940:1.0 24951:1.0 25448:1.0 25455:2.0 25966:1.0 26735:1.0 27694:1.0 27747:1.0 28276:1.0 28278:1.0 28524:1.0 28525:1.0 28526:1.0 28527:1.0 29281:1.0 29539:1.0 29811:1.0 30309:1.0 30510:1.0 30561:1.0 30583:2.0 
0.41209327053495565 1:17.0 2:1.0 3:0.0 4:7.0 5:0.0 6:0.0 7:8.0 8:0.0 9:0.0 10:0.0 11:0.0 12:1.0 13:0.0 14:1.0 15:520.0 16:35064.0 17:144.0 18:582.0 19:1.0 20:0.0 21:0.0 22:0.0 23:1.0 24:2.0 25:2.0 26:0.0 27:0.0 28:0.0 29:0.0 30:0.0 31:0.0 32:0.0 11875:1.0 25449:1.0 25455:1.0 25970:1.0 26213:1.0 26926:1.0 26979:1.0 26989:1.0 26995:1.0 26996:1.0 28006:1.0 28525:1.0 29289:1.0 29545:2.0 29801:1.0 
0.018585658738878227 1:14.0 2:1.0 3:0.0 4:5.0 5:0.0 6:0.0 7:6.5 8:0.0 9:0.0 10:0.0 11:0.0 12:1.0 13:0.0 14:1.0 15:61.0 16:5737.0 17:8.0 18:68.0 19:1.0 20:0.0 21:0.0 22:0.0 23:1.0 24:2.0 25:2.0 26:0.0 27:0.0 28:0.0 29:0.0 30:0.0 31:0.0 32:0.0 11875:1.0 24944:1.0 24948:1.0 25455:1.0 25966:1.0 26989:1.0 28001:1.0 28206:1.0 28525:1.0 28769:1.0 28786:1.0 29289:1.0 29797:1.0 
0.04179673700568905 1:10.0 2:2.0 3:0.0 4:1.0 5:0.0 6:0.0 7:2.6666666666666665 8:0.0 9:0.0 10:0.0 11:0.0 12:1.0 13:0.0 14:0.0 23:1.0 24:0.0 25:0.0 26:0.0 27:0.0 28:0.0 29:0.0 30:0.0 31:7.0 32:0.0 11887:1.0 11888:1.0 25390:1.0 26414:1.0 28530:1.0 28779:1.0 29283:1.0 29287:1.0 29810:1.0 
1.0 1:11.0 2:1.0 3:0.0 4:2.0 5:0.0 6:0.0 7:5.0 8:0.0 9:0.0 10:0.0 11:0.0 12:1.0 13:0.0 14:0.0 23:0.0 24:2.0 25:2.0 26:0.0 27:0.0 28:0.0 29:0.0 30:0.0 31:1.0E8 32:0.0 11888:1.0 24946:1.0 25134:1.0 25954:1.0 28001:1.0 28788:1.0 29300:1.0 29549:1.0 29815:1.0 30565:1.0 
0.41209055999354915 1:15.0 2:1.0 3:0.0 4:5.0 5:0.0 6:0.0 7:7.0 8:0.0 9:0.0 10:0.0 11:0.0 12:1.0 13:0.0 14:1.0 15:1941.0 16:111338.0 17:126.0 18:1520.0 19:1.0 20:24.0 21:0.0 22:0.0 23:1.0 24:2.0 25:2.0 26:0.0 27:0.0 28:0.0 29:0.0 30:0.0 31:4.0 32:0.0 11875:1.0 24942:1.0 24944:1.0 25441:1.0 25455:1.0 25705:1.0 26721:1.0 26979:1.0 26990:1.0 28260:1.0 28264:1.0 28525:1.0 28718:1.0 30569:1.0 
0.36225925627722594 1:28.0 2:2.0 3:0.0 4:8.0 5:0.0 6:0.0 7:8.666666666666666 8:0.0 9:0.0 10:0.0 11:0.0 12:2.0 13:0.0 14:1.0 15:203.0 16:11606.0 17:16.0 18:151.0 19:1.0 20:0.0 21:0.0 22:0.0 23:1.0 24:2.0 25:2.0 26:1.0 27:0.0 28:0.0 29:0.0 30:0.0 31:2.0 32:0.0 11874:1.0 11875:1.0 24937:1.0 24941:1.0 24942:1.0 25196:1.0 25455:1.0 25966:1.0 25968:1.0 26729:1.0 26992:1.0 26994:1.0 27493:1.0 27745:1.0 28016:1.0 28267:1.0 28275:1.0 28525:1.0 28769:2.0 28786:1.0 29230:1.0 29285:1.0 29544:1.0 30510:1.0 30583:2.0 
0.41389934081118074 1:15.0 2:1.0 3:0.0 4:5.0 5:0.0 6:0.0 7:7.0 8:0.0 9:0.0 10:0.0 11:0.0 12:2.0 13:0.0 14:1.0 15:81.0 16:3625.0 17:39.0 18:102.0 19:1.0 20:0.0 21:0.0 22:0.0 23:1.0 24:0.0 25:0.0 26:0.0 27:0.0 28:0.0 29:0.0 30:0.0 31:2.0 32:0.0 11875:1.0 24941:1.0 24946:1.0 25191:1.0 25199:1.0 25455:1.0 25646:1.0 25976:1.0 26469:1.0 28002:1.0 28513:1.0 28525:1.0 29284:1.0 30817:1.0 
0.35815533773558833 1:38.0 2:2.0 3:0.0 4:12.0 5:0.0 6:0.0 7:12.0 8:0.0 9:0.0 10:0.0 11:0.0 12:1.0 13:0.0 14:1.0 15:366.0 16:31546.0 17:63.0 18:304.0 19:1.0 20:0.0 21:0.0 22:0.0 23:1.0 24:2.0 25:2.0 26:0.0 27:0.0 28:0.0 29:0.0 30:0.0 31:0.0 32:0.0 11874:1.0 11886:1.0 25193:1.0 25965:1.0 25970:3.0 25971:1.0 25972:2.0 26469:2.0 26471:1.0 26983:1.0 26989:1.0 27759:1.0 28005:1.0 28015:2.0 28019:1.0 28261:1.0 28263:1.0 28526:1.0 28530:2.0 28773:1.0 29285:2.0 29292:1.0 29293:2.0 29486:1.0 29552:1.0 29801:1.0 30510:1.0 30583:2.0 
0.4101662347603888 1:20.0 2:3.0 3:0.0 4:6.0 5:0.0 6:0.0 7:4.25 8:0.0 9:0.0 10:0.0 11:0.0 12:2.0 13:0.0 14:1.0 15:82.0 16:19220.0 17:3.0 18:61.0 19:1.0 20:0.0 21:0.0 22:0.0 23:1.0 24:0.0 25:0.0 26:1.0 27:0.0 28:0.0 29:0.0 30:0.0 31:23.0 32:0.0 11878:2.0 11892:1.0 24942:1.0 24943:1.0 25448:1.0 25902:1.0 25957:1.0 26226:2.0 26721:2.0 26741:1.0 28206:1.0 28462:1.0 28776:1.0 29285:1.0 29800:1.0 30051:1.0 
0.20647219571517442 1:17.0 2:2.0 3:1.0 4:6.0 5:0.0 6:0.0 7:5.0 8:0.058823529411764705 9:0.0 10:0.0 11:1.0 12:2.0 13:0.0 14:0.0 23:1.0 24:2.0 25:2.0 26:0.0 27:0.0 28:0.0 29:0.0 30:0.0 31:11200.0 32:0.0 11874:1.0 11875:1.0 12921:1.0 25202:1.0 25455:1.0 25705:1.0 26991:1.0 27950:1.0 28466:1.0 28525:1.0 28533:1.0 29556:1.0 29813:1.0 29998:1.0 30052:1.0 31087:1.0 
0.0254552545680203 1:24.0 2:2.0 3:0.0 4:8.0 5:0.0 6:0.0 7:7.333333333333333 8:0.0 9:0.0 10:0.0 11:0.0 12:2.0 13:0.0 14:0.0 23:1.0 24:0.0 25:0.0 26:0.0 27:0.0 28:0.0 29:0.0 30:0.0 31:5130.0 32:0.0 11875:1.0 11880:1.0 24946:1.0 25448:1.0 25455:1.0 25953:1.0 25971:2.0 26728:1.0 26735:2.0 28005:1.0 28525:2.0 28533:1.0 29283:1.0 29486:1.0 29541:2.0 30067:1.0 30510:1.0 30583:2.0 
0.41189017274255135 1:13.0 2:2.0 3:0.0 4:4.0 5:0.0 6:0.0 7:3.6666666666666665 8:0.0 9:0.0 10:0.0 11:0.0 12:1.0 13:0.0 14:1.0 15:13.0 16:601.0 17:0.0 18:9.0 19:1.0 20:0.0 21:0.0 22:0.0 23:1.0 24:3.0 25:3.0 26:0.0 27:0.0 28:0.0 29:0.0 30:0.0 31:6600.0 32:0.0 11875:1.0 11886:1.0 24946:1.0 25455:1.0 25646:1.0 25956:1.0 26721:1.0 26995:1.0 28282:1.0 28462:1.0 29285:1.0 29544:1.0 
1.0 1:19.0 2:1.0 3:0.0 4:7.0 5:1.0 6:0.0 7:9.0 8:0.0 9:0.05263157894736842 10:0.0 11:0.0 12:2.0 13:1.0 14:0.0 23:1.0 24:2.0 25:2.0 26:0.0 27:0.0 28:0.0 29:0.0 30:0.0 31:1.0E8 32:0.0 11622:1.0 11881:1.0 25189:1.0 25203:1.0 25458:1.0 25901:1.0 25902:1.0 25957:1.0 26223:1.0 26226:1.0 26978:1.0 26990:1.0 28262:1.0 29285:1.0 29289:1.0 29539:1.0 29557:1.0 30050:1.0 
0.9279199588692272 1:27.0 2:1.0 3:0.0 4:9.0 5:1.0 6:0.0 7:13.0 8:0.0 9:0.037037037037037035 10:0.0 11:0.0 12:2.0 13:1.0 14:1.0 15:135.0 16:9040.0 17:16.0 18:145.0 19:1.0 20:0.0 21:0.0 22:0.0 23:1.0 24:4.0 25:4.0 26:0.0 27:0.0 28:0.0 29:0.0 30:0.0 31:8.0 32:0.0 11624:1.0 11876:1.0 24940:1.0 24942:1.0 25448:1.0 25701:2.0 25716:1.0 25955:1.0 25961:1.0 25966:1.0 25970:1.0 26721:1.0 26725:1.0 26734:1.0 26980:1.0 26987:1.0 27437:1.0 27745:1.0 27749:1.0 28260:1.0 28265:1.0 28276:1.0 29230:1.0 29797:1.0 29800:1.0 
0.22024340502869172 1:17.0 2:2.0 3:0.0 4:4.0 5:0.0 6:0.0 7:5.0 8:0.0 9:0.0 10:0.0 11:0.0 12:1.0 13:0.0 14:1.0 15:31.0 16:1958.0 17:1.0 18:26.0 19:1.0 20:0.0 21:0.0 22:0.0 23:1.0 24:2.0 25:2.0 26:1.0 27:0.0 28:0.0 29:0.0 30:0.0 31:79.0 32:0.0 11875:1.0 11885:1.0 25455:1.0 28015:1.0 28275:1.0 28276:1.0 28525:1.0 28526:2.0 28531:1.0 29486:1.0 29551:1.0 29807:1.0 30510:1.0 30583:2.0 
1.0 1:10.0 2:1.0 3:0.0 4:3.0 5:0.0 6:0.0 7:4.5 8:0.0 9:0.0 10:0.0 11:0.0 12:1.0 13:0.0 14:0.0 23:1.0 24:0.0 25:0.0 26:0.0 27:0.0 28:0.0 29:0.0 30:0.0 31:48.0 32:0.0 11875:1.0 24930:1.0 25197:1.0 25455:1.0 25697:1.0 27000:1.0 28009:1.0 28525:1.0 30766:1.0 
0.41210968845600954 1:14.0 2:1.0 3:0.0 4:5.0 5:0.0 6:0.0 7:6.5 8:0.0 9:0.0 10:0.0 11:0.0 12:1.0 13:0.0 14:0.0 23:1.0 24:2.0 25:3.0 26:0.0 27:0.0 28:0.0 29:0.0 30:0.0 31:4160000.0 32:0.0 11881:1.0 24931:1.0 25452:1.0 25902:1.0 25965:1.0 25966:1.0 26226:1.0 26996:1.0 27749:1.0 28005:1.0 28276:1.0 29281:1.0 29797:1.0 
0.4123907306176849 1:15.0 2:2.0 3:0.0 4:5.0 5:0.0 6:0.0 7:4.333333333333333 8:0.0 9:0.0 10:0.0 11:0.0 12:1.0 13:0.0 14:1.0 15:41.0 16:993.0 17:4.0 18:30.0 19:0.0 20:0.0 21:0.0 22:0.0 23:1.0 24:2.0 25:2.0 26:0.0 27:0.0 28:0.0 29:0.0 30:0.0 31:2930000.0 32:0.0 11875:1.0 11898:1.0 25455:1.0 25461:1.0 25972:1.0 27764:1.0 28462:1.0 29285:1.0 29813:1.0 29814:1.0 30060:1.0 30066:1.0 30254:1.0 31329:1.0 
0.41222362273980806 1:37.0 2:3.0 3:0.0 4:10.0 5:0.0 6:0.0 7:8.5 8:0.0 9:0.0 10:0.0 11:0.0 12:1.0 13:0.0 14:0.0 23:1.0 24:2.0 25:2.0 26:1.0 27:0.0 28:0.0 29:0.0 30:0.0 31:2.16E7 32:0.0 11875:1.0 11884:1.0 11893:1.0 24950:1.0 24953:1.0 25455:2.0 25697:1.0 25964:1.0 26220:1.0 26472:1.0 26735:1.0 26740:1.0 26980:1.0 26983:1.0 27694:1.0 27753:2.0 27759:1.0 28462:1.0 28524:1.0 28531:1.0 28535:1.0 29281:1.0 29556:2.0 29800:1.0 29810:1.0 29811:1.0 30059:1.0 30309:1.0 30510:1.0 30563:1.0 30583:2.0 31078:1.0 
0.4062006856790799 1:15.0 2:1.0 3:0.0 4:6.0 5:0.0 6:0.0 7:7.0 8:0.0 9:0.0 10:0.0 11:0.0 12:1.0 13:0.0 14:1.0 15:176.0 16:14578.0 17:38.0 18:157.0 19:1.0 20:0.0 21:0.0 22:0.0 23:1.0 24:2.0 25:2.0 26:0.0 27:0.0 28:0.0 29:0.0 30:0.0 31:4.0 32:0.0 11875:1.0 24940:1.0 24941:1.0 25441:1.0 25455:1.0 25705:1.0 25956:1.0 26979:1.0 26994:1.0 27694:1.0 28005:1.0 28009:1.0 28525:1.0 29281:1.0 
0.6783639474824458 1:14.0 2:2.0 3:0.0 4:2.0 5:1.0 6:0.0 7:4.0 8:0.0 9:0.07142857142857142 10:0.0 11:0.0 12:1.0 13:1.0 14:0.0 23:0.0 24:3.0 25:3.0 26:1.0 27:0.0 28:0.0 29:0.0 30:0.0 31:36.0 32:0.0 11635:1.0 11882:1.0 11888:1.0 26735:1.0 27247:1.0 28461:1.0 28528:1.0 28718:1.0 28780:1.0 29544:1.0 30510:1.0 30583:2.0 
0.3083093998649708 1:15.0 2:2.0 3:0.0 4:4.0 5:0.0 6:0.0 7:4.333333333333333 8:0.0 9:0.0 10:0.0 11:0.0 12:1.0 13:0.0 14:1.0 15:205.0 16:16130.0 17:77.0 18:292.0 19:1.0 20:0.0 21:0.0 22:0.0 23:1.0 24:0.0 25:0.0 26:0.0 27:0.0 28:0.0 29:0.0 30:0.0 31:1.0 32:0.0 11875:1.0 11883:1.0 25455:1.0 25705:1.0 26926:1.0 26987:1.0 26989:1.0 27497:2.0 28004:1.0 28525:1.0 30510:1.0 30583:2.0 
0.27791088627766475 1:16.0 2:2.0 3:1.0 4:3.0 5:1.0 6:0.0 7:4.666666666666667 8:0.0625 9:0.0625 10:0.0 11:1.0 12:1.0 13:1.0 14:1.0 15:89.0 16:9620.0 17:90.0 18:245.0 19:1.0 20:0.0 21:0.0 22:0.0 23:1.0 24:2.0 25:2.0 26:1.0 27:0.0 28:0.0 29:0.0 30:0.0 31:3.0 32:0.0 11619:1.0 11875:1.0 11878:1.0 12590:1.0 25455:2.0 26229:1.0 28024:1.0 28205:1.0 28525:1.0 28530:1.0 28718:1.0 29296:1.0 30062:1.0 30769:1.0 
0.412377816961759 1:21.0 2:1.0 3:0.0 4:8.0 5:0.0 6:0.0 7:10.0 8:0.0 9:0.0 10:0.0 11:0.0 12:1.0 13:0.0 14:1.0 15:299.0 16:26288.0 17:53.0 18:347.0 19:1.0 20:0.0 21:0.0 22:0.0 23:1.0 24:2.0 25:5.0 26:0.0 27:0.0 28:0.0 29:0.0 30:0.0 31:0.0 32:0.0 11887:1.0 24939:1.0 24940:1.0 24942:1.0 26741:1.0 27002:1.0 27489:1.0 27753:1.0 28257:1.0 28528:1.0 28530:1.0 28786:1.0 29281:1.0 29287:1.0 29557:1.0 29807:1.0 29812:1.0 30056:1.0 30068:1.0 31278:1.0 
0.41206777356967633 1:16.0 2:1.0 3:0.0 4:6.0 5:0.0 6:0.0 7:7.5 8:0.0 9:0.0 10:0.0 11:0.0 12:2.0 13:0.0 14:1.0 15:1351.0 16:126165.0 17:40.0 18:1096.0 19:1.0 20:0.0 21:0.0 22:0.0 23:1.0 24:2.0 25:2.0 26:0.0 27:0.0 28:0.0 29:0.0 30:0.0 31:0.0 32:0.0 11875:1.0 24932:1.0 24935:1.0 25455:2.0 25722:1.0 25953:1.0 25960:1.0 26469:1.0 26725:1.0 27745:1.0 27756:1.0 28524:1.0 28525:1.0 31278:1.0 
0.41231184489053757 1:12.0 2:2.0 3:0.0 4:3.0 5:0.0 6:0.0 7:3.3333333333333335 8:0.0 9:0.0 10:0.0 11:0.0 12:1.0 13:0.0 14:1.0 15:86.0 16:5582.0 17:8.0 18:78.0 19:1.0 20:0.0 21:0.0 22:0.0 23:2.0 24:0.0 25:0.0 26:0.0 27:0.0 28:0.0 29:0.0 30:0.0 31:2400000.0 32:0.0 11882:1.0 11891:1.0 25970:1.0 26469:1.0 27247:1.0 28519:1.0 29230:1.0 29541:1.0 30510:1.0 30583:2.0 
0.4124972618483962 1:23.0 2:2.0 3:0.0 4:8.0 5:0.0 6:0.0 7:7.0 8:0.0 9:0.0 10:0.0 11:0.0 12:1.0 13:0.0 14:0.0 23:1.0 24:2.0 25:6.0 26:0.0 27:0.0 28:0.0 29:0.0 30:0.0 31:1400000.0 32:0.0 11875:1.0 11881:1.0 24942:1.0 24948:1.0 25185:1.0 25455:1.0 25902:1.0 25954:1.0 26221:1.0 26990:1.0 27503:1.0 28025:1.0 28267:1.0 28462:1.0 28518:1.0 28530:1.0 29285:1.0 29551:1.0 29556:1.0 29793:1.0 29797:1.0 31091:1.0 
0.4124927105993959 1:24.0 2:2.0 3:0.0 4:9.0 5:0.0 6:0.0 7:7.333333333333333 8:0.0 9:0.0 10:0.0 11:0.0 12:2.0 13:0.0 14:1.0 15:590.0 16:101153.0 17:92.0 18:557.0 19:1.0 20:0.0 21:0.0 22:0.0 23:1.0 24:0.0 25:0.0 26:0.0 27:0.0 28:0.0 29:0.0 30:0.0 31:0.0 32:0.0 11873:1.0 11875:1.0 24949:1.0 25443:1.0 25445:1.0 25455:1.0 25964:1.0 25965:1.0 25966:1.0 25971:1.0 26227:1.0 27749:1.0 27950:1.0 28005:1.0 28276:1.0 28518:1.0 28525:1.0 29486:1.0 29551:1.0 29555:1.0 29557:1.0 29811:1.0 30051:1.0 
0.4115266296348017 1:15.0 2:1.0 3:0.0 4:6.0 5:0.0 6:0.0 7:7.0 8:0.0 9:0.0 10:0.0 11:0.0 12:2.0 13:0.0 14:1.0 15:52.0 16:21356.0 17:1.0 18:46.0 19:1.0 20:0.0 21:0.0 22:0.0 23:1.0 24:2.0 25:1.0 26:0.0 27:0.0 28:0.0 29:0.0 30:0.0 31:0.0 32:0.0 11875:1.0 24932:1.0 24949:1.0 25448:1.0 25455:1.0 25701:1.0 25902:1.0 25960:1.0 26721:1.0 26725:1.0 27747:1.0 28525:1.0 28769:1.0 30060:1.0 
0.4120328199987197 1:9.0 2:1.0 3:0.0 4:3.0 5:0.0 6:0.0 7:4.0 8:0.0 9:0.0 10:0.0 11:0.0 12:1.0 13:0.0 14:0.0 23:0.0 24:2.0 25:2.0 26:0.0 27:0.0 28:0.0 29:0.0 30:0.0 31:227000.0 32:0.0 11890:1.0 25646:1.0 25956:1.0 26988:1.0 27749:1.0 28265:1.0 29299:1.0 30062:1.0 
0.43346012153620217 1:19.0 2:2.0 3:0.0 4:5.0 5:0.0 6:0.0 7:5.666666666666667 8:0.0 9:0.0 10:0.0 11:0.0 12:2.0 13:0.0 14:0.0 23:0.0 24:2.0 25:2.0 26:1.0 27:0.0 28:0.0 29:0.0 30:0.0 31:6210.0 32:0.0 11874:1.0 11876:1.0 24933:1.0 25189:1.0 25707:1.0 25714:1.0 25956:1.0 25966:1.0 25970:1.0 25972:1.0 28257:1.0 29230:1.0 29285:1.0 29797:1.0 29812:1.0 30510:1.0 30583:2.0 
0.5958335851131304 1:15.0 2:1.0 3:0.0 4:5.0 5:1.0 6:0.0 7:7.0 8:0.0 9:0.06666666666666667 10:0.0 11:0.0 12:1.0 13:1.0 14:0.0 23:0.0 24:2.0 25:2.0 26:0.0 27:0.0 28:0.0 29:0.0 30:0.0 31:7400.0 32:0.0 11623:1.0 11875:1.0 25199:1.0 25441:1.0 25966:1.0 25971:1.0 26482:1.0 28205:1.0 28534:1.0 28535:1.0 29295:1.0 29486:1.0 30309:1.0 30565:1.0 
0.6952787486223071 1:14.0 2:1.0 3:0.0 4:5.0 5:0.0 6:0.0 7:6.5 8:0.0 9:0.0 10:0.0 11:0.0 12:2.0 13:0.0 14:0.0 23:1.0 24:0.0 25:0.0 26:0.0 27:0.0 28:0.0 29:0.0 30:0.0 31:283000.0 32:0.0 11890:1.0 28015:1.0 28525:1.0 28527:1.0 28528:1.0 28532:1.0 28786:1.0 28787:1.0 29295:3.0 29486:1.0 29810:1.0 
0.4119877298495919 1:30.0 2:3.0 3:0.0 4:10.0 5:0.0 6:0.0 7:6.75 8:0.0 9:0.0 10:0.0 11:0.0 12:2.0 13:0.0 14:0.0 23:1.0 24:0.0 25:0.0 26:1.0 27:0.0 28:0.0 29:0.0 30:0.0 31:7.03E7 32:0.0 11875:1.0 11888:1.0 11893:1.0 24932:1.0 25445:2.0 25455:1.0 25646:1.0 25718:1.0 25902:1.0 25953:1.0 25966:1.0 25970:1.0 26979:2.0 28260:1.0 28462:1.0 28528:1.0 28773:1.0 28786:2.0 29289:1.0 29295:1.0 29300:1.0 29541:1.0 29817:1.0 30059:1.0 30313:1.0 31088:1.0 
0.4118513233666091 1:13.0 2:1.0 3:0.0 4:4.0 5:0.0 6:0.0 7:6.0 8:0.0 9:0.0 10:0.0 11:0.0 12:1.0 13:0.0 14:0.0 23:1.0 24:0.0 25:0.0 26:0.0 27:0.0 28:0.0 29:0.0 30:0.0 31:2500000.0 32:0.0 11892:1.0 24878:1.0 25460:1.0 25955:1.0 26725:1.0 28015:1.0 28530:2.0 29281:1.0 29293:1.0 29807:1.0 29814:1.0 
0.41203249559357913 1:16.0 2:1.0 3:0.0 4:6.0 5:0.0 6:0.0 7:7.5 8:0.0 9:0.0 10:0.0 11:0.0 12:2.0 13:0.0 14:0.0 23:1.0 24:4.0 25:4.0 26:0.0 27:0.0 28:0.0 29:0.0 30:0.0 31:203000.0 32:0.0 11875:1.0 24940:1.0 24953:1.0 25455:1.0 25974:1.0 25975:1.0 26981:1.0 27762:1.0 28525:1.0 28769:2.0 29285:1.0 30313:1.0 30510:1.0 31088:1.0 
0.14844823297784748 1:20.0 2:1.0 3:0.0 4:10.0 5:0.0 6:0.0 7:9.5 8:0.0 9:0.0 10:0.0 11:0.0 12:3.0 13:0.0 14:1.0 15:70.0 16:4316.0 17:13.0 18:74.0 19:1.0 20:0.0 21:0.0 22:0.0 23:1.0 24:2.0 25:2.0 26:0.0 27:0.0 28:0.0 29:0.0 30:0.0 31:0.0 32:0.0 11875:1.0 24878:1.0 24933:1.0 24946:1.0 25455:1.0 25966:2.0 25976:1.0 26469:1.0 26721:1.0 26977:2.0 26989:1.0 28009:1.0 28263:1.0 28264:1.0 28525:1.0 29289:1.0 30825:1.0 
0.4041960986480035 1:19.0 2:2.0 3:0.0 4:6.0 5:0.0 6:0.0 7:5.666666666666667 8:0.0 9:0.0 10:0.0 11:0.0 12:2.0 13:0.0 14:1.0 15:134.0 16:7499.0 17:29.0 18:102.0 19:1.0 20:0.0 21:0.0 22:0.0 23:1.0 24:2.0 25:2.0 26:0.0 27:0.0 28:0.0 29:0.0 30:0.0 31:0.0 32:0.0 11875:1.0 11898:1.0 24937:1.0 25455:1.0 26741:3.0 26926:1.0 28525:1.0 30056:1.0 30071:1.0 30074:1.0 30510:1.0 30561:1.0 30583:2.0 31336:2.0 
0.21792803492062848 1:23.0 2:2.0 3:0.0 4:5.0 5:1.0 6:0.0 7:7.0 8:0.0 9:0.043478260869565216 10:0.0 11:0.0 12:1.0 13:1.0 14:1.0 15:22.0 16:1333.0 17:0.0 18:15.0 19:1.0 20:0.0 21:0.0 22:0.0 23:1.0 24:0.0 25:0.0 26:0.0 27:0.0 28:0.0 29:0.0 30:0.0 31:0.0 32:0.0 11639:1.0 11881:1.0 11891:1.0 24931:1.0 25445:1.0 25707:1.0 25902:1.0 26216:1.0 26724:1.0 26989:1.0 26990:1.0 26996:1.0 27438:1.0 27769:1.0 28016:1.0 28275:1.0 28769:1.0 28780:1.0 29545:1.0 29552:1.0 30569:1.0 31021:1.0 
0.41162253927736686 1:25.0 2:1.0 3:0.0 4:9.0 5:1.0 6:0.0 7:12.0 8:0.0 9:0.04 10:0.0 11:0.0 12:2.0 13:1.0 14:1.0 15:1053.0 16:133828.0 17:532.0 18:1375.0 19:1.0 20:0.0 21:0.0 22:0.0 23:1.0 24:2.0 25:2.0 26:0.0 27:0.0 28:0.0 29:0.0 30:0.0 31:0.0 32:0.0 11632:1.0 11875:1.0 25445:1.0 25455:1.0 25705:1.0 25902:1.0 25966:1.0 25970:1.0 25971:1.0 26981:1.0 26988:1.0 26995:1.0 27749:1.0 27756:1.0 28259:1.0 28525:1.0 28534:1.0 28786:1.0 29289:1.0 29295:1.0 29485:1.0 29556:1.0 29801:1.0 30309:1.0 
0.4178932699966044 1:22.0 2:2.0 3:0.0 4:5.0 5:1.0 6:0.0 7:6.666666666666667 8:0.0 9:0.045454545454545456 10:0.0 11:0.0 12:1.0 13:1.0 14:0.0 23:1.0 24:0.0 25:0.0 26:0.0 27:0.0 28:0.0 29:0.0 30:0.0 31:14700.0 32:0.0 11617:1.0 11890:1.0 11891:1.0 24931:1.0 24935:1.0 25389:1.0 25451:1.0 25955:1.0 26482:1.0 26992:1.0 27438:1.0 28769:1.0 29289:1.0 29295:1.0 29556:1.0 29561:1.0 29797:1.0 30510:1.0 30583:2.0 31091:1.0 
0.41174232881679684 1:16.0 2:2.0 3:0.0 4:3.0 5:0.0 6:0.0 7:4.666666666666667 8:0.0 9:0.0 10:0.0 11:0.0 12:1.0 13:0.0 14:0.0 23:1.0 24:0.0 25:0.0 26:0.0 27:0.0 28:0.0 29:0.0 30:0.0 31:32000.0 32:0.0 11878:1.0 11888:1.0 25964:1.0 26226:1.0 26992:1.0 26995:1.0 27694:1.0 28777:2.0 29285:1.0 29556:1.0 29810:1.0 30510:1.0 30583:2.0 
0.4123791189306234 1:9.0 2:2.0 3:0.0 4:2.0 5:0.0 6:0.0 7:2.3333333333333335 8:0.0 9:0.0 10:0.0 11:0.0 12:1.0 13:0.0 14:0.0 23:1.0 24:2.0 25:2.0 26:0.0 27:0.0 28:0.0 29:0.0 30:0.0 31:1820000.0 32:0.0 11875:1.0 11881:1.0 25200:1.0 25390:1.0 25455:1.0 26980:1.0 28462:1.0 28771:1.0 
1.0 1:11.0 2:2.0 3:0.0 4:3.0 5:0.0 6:0.0 7:3.0 8:0.0 9:0.0 10:0.0 11:0.0 12:1.0 13:0.0 14:0.0 23:1.0 24:2.0 25:2.0 26:0.0 27:0.0 28:0.0 29:0.0 30:0.0 31:54.0 32:0.0 11875:1.0 11892:1.0 25455:1.0 25711:1.0 27950:1.0 28462:1.0 28525:1.0 29810:1.0 29813:1.0 30052:1.0 
0.5990483059153591 1:19.0 2:2.0 3:0.0 4:6.0 5:0.0 6:0.0 7:5.666666666666667 8:0.0 9:0.0 10:0.0 11:0.0 12:1.0 13:0.0 14:1.0 15:70.0 16:9186.0 17:23.0 18:70.0 19:1.0 20:0.0 21:0.0 22:0.0 23:1.0 24:2.0 25:1.0 26:0.0 27:0.0 28:0.0 29:0.0 30:0.0 31:0.0 32:0.0 11874:1.0 11875:1.0 25202:1.0 25455:1.0 25717:1.0 25965:1.0 26992:1.0 27749:1.0 27950:1.0 28009:1.0 28516:1.0 28525:1.0 28531:1.0 28786:1.0 29295:1.0 29486:1.0 29807:1.0 30068:1.0 
0.41188162997460215 1:22.0 2:2.0 3:0.0 4:5.0 5:0.0 6:0.0 7:6.666666666666667 8:0.0 9:0.0 10:0.0 11:0.0 12:1.0 13:0.0 14:1.0 15:291.0 16:32034.0 17:59.0 18:288.0 19:1.0 20:0.0 21:0.0 22:0.0 23:1.0 24:3.0 25:6.0 26:1.0 27:0.0 28:0.0 29:0.0 30:0.0 31:1020000.0 32:0.0 11875:1.0 11888:1.0 25445:1.0 25722:1.0 25966:1.0 26926:1.0 26990:1.0 27497:1.0 28018:1.0 28267:1.0 28276:1.0 28516:1.0 28780:1.0 29295:1.0 29301:1.0 29810:1.0 30061:1.0 30510:1.0 30583:2.0 31337:1.0 
0.41204290155512896 1:15.0 2:1.0 3:0.0 4:7.0 5:0.0 6:0.0 7:7.0 8:0.0 9:0.0 10:0.0 11:0.0 12:3.0 13:0.0 14:1.0 15:449.0 16:39977.0 17:135.0 18:416.0 19:1.0 20:0.0 21:0.0 22:0.0 23:1.0 24:4.0 25:4.0 26:0.0 27:0.0 28:0.0 29:0.0 30:0.0 31:2.53E7 32:0.0 11890:1.0 24949:1.0 25205:1.0 25953:1.0 25970:1.0 26220:1.0 27759:1.0 28535:1.0 29282:1.0 29285:1.0 29301:1.0 29998:1.0 30066:1.0 30565:1.0 
0.4229596598952944 1:17.0 2:1.0 3:0.0 4:6.0 5:0.0 6:0.0 7:8.0 8:0.0 9:0.0 10:0.0 11:0.0 12:1.0 13:0.0 14:1.0 15:435.0 16:31862.0 17:27.0 18:243.0 19:1.0 20:0.0 21:0.0 22:0.0 23:1.0 24:2.0 25:2.0 26:0.0 27:0.0 28:0.0 29:0.0 30:0.0 31:2.0 32:0.0 11875:1.0 24946:1.0 25455:1.0 25965:1.0 25966:1.0 25972:1.0 27493:2.0 28001:1.0 28275:1.0 28525:1.0 29291:1.0 29557:1.0 29742:1.0 29797:1.0 30059:1.0 
0.7985469940727347 1:14.0 2:1.0 3:0.0 4:6.0 5:0.0 6:0.0 7:6.5 8:0.0 9:0.0 10:0.0 11:0.0 12:2.0 13:0.0 14:0.0 23:1.0 24:2.0 25:2.0 26:0.0 27:0.0 28:0.0 29:0.0 30:0.0 31:30.0 32:0.0 11875:1.0 24932:1.0 24944:1.0 25441:1.0 25455:1.0 25705:1.0 25902:1.0 26977:1.0 26989:1.0 28005:1.0 28525:1.0 28786:1.0 29289:1.0 
0.4120082891893946 1:17.0 2:2.0 3:0.0 4:7.0 5:0.0 6:0.0 7:5.0 8:0.0 9:0.0 10:0.0 11:0.0 12:2.0 13:0.0 14:1.0 15:311.0 16:73610.0 17:18.0 18:266.0 19:1.0 20:1.0 21:0.0 22:0.0 23:1.0 24:2.0 25:2.0 26:0.0 27:0.0 28:0.0 29:0.0 30:0.0 31:28300.0 32:0.0 11875:1.0 11898:1.0 24931:1.0 25449:1.0 25455:1.0 25902:1.0 25966:1.0 26482:1.0 26981:1.0 28282:1.0 28462:1.0 28519:1.0 29281:1.0 29285:1.0 31329:1.0 31343:1.0 
0.6587812558884893 1:11.0 2:1.0 3:0.0 4:2.0 5:0.0 6:0.0 7:5.0 8:0.0 9:0.0 10:0.0 11:0.0 12:1.0 13:0.0 14:0.0 23:1.0 24:2.0 25:2.0 26:0.0 27:0.0 28:0.0 29:0.0 30:0.0 31:1260.0 32:0.0 11875:1.0 25455:1.0 25460:1.0 28206:1.0 28525:1.0 28535:1.0 29283:1.0 29807:1.0 29812:1.0 30574:1.0 
0.412026080360492 1:20.0 2:2.0 3:0.0 4:6.0 5:0.0 6:0.0 7:6.0 8:0.0 9:0.0 10:0.0 11:0.0 12:1.0 13:0.0 14:1.0 15:88.0 16:60028.0 17:5.0 18:148.0 19:1.0 20:0.0 21:0.0 22:0.0 23:1.0 24:2.0 25:2.0 26:1.0 27:0.0 28:0.0 29:0.0 30:0.0 31:5420.0 32:0.0 11875:1.0 11879:1.0 24940:1.0 24948:1.0 25455:1.0 25697:1.0 25902:1.0 25970:1.0 26465:1.0 27749:1.0 28525:1.0 28772:1.0 29300:1.0 29797:1.0 29813:1.0 30064:1.0 30510:1.0 30583:2.0 
0.4120019882690019 1:20.0 2:1.0 3:0.0 4:7.0 5:0.0 6:0.0 7:9.5 8:0.0 9:0.0 10:0.0 11:0.0 12:2.0 13:0.0 14:1.0 15:1844.0 16:154428.0 17:308.0 18:1774.0 19:1.0 20:0.0 21:0.0 22:0.0 23:1.0 24:0.0 25:0.0 26:0.0 27:0.0 28:0.0 29:0.0 30:0.0 31:0.0 32:0.0 11875:1.0 25390:1.0 25448:1.0 25455:1.0 25461:1.0 25955:1.0 25961:1.0 26738:1.0 26990:1.0 27764:1.0 28005:1.0 28259:1.0 28525:2.0 29285:1.0 29295:1.0 29813:1.0 30060:1.0 30066:1.0 
1.0 1:13.0 2:1.0 3:1.0 4:4.0 5:0.0 6:0.0 7:6.0 8:0.07692307692307693 9:0.0 10:0.0 11:1.0 12:1.0 13:0.0 14:0.0 23:1.0 24:0.0 25:0.0 26:0.0 27:0.0 28:0.0 29:0.0 30:0.0 31:1.0E8 32:0.0 11881:1.0 13427:1.0 24946:1.0 25448:1.0 25902:1.0 25955:1.0 26676:1.0 26721:1.0 26994:1.0 29285:1.0 29544:1.0 29797:1.0 
0.2575691226140566 1:17.0 2:3.0 3:0.0 4:3.0 5:0.0 6:0.0 7:3.5 8:0.0 9:0.0 10:0.0 11:0.0 12:1.0 13:0.0 14:1.0 15:337.0 16:28116.0 17:50.0 18:288.0 19:1.0 20:0.0 21:0.0 22:0.0 23:1.0 24:0.0 25:0.0 26:1.0 27:0.0 28:0.0 29:0.0 30:0.0 31:1.0 32:0.0 11875:1.0 11887:1.0 11893:1.0 25459:1.0 25972:1.0 26414:1.0 28261:1.0 28530:1.0 29287:1.0 29294:1.0 29554:1.0 29742:1.0 30059:1.0 30510:1.0 30583:2.0 
0.17776369656302207 1:37.0 2:1.0 3:0.0 4:11.0 5:2.0 6:0.0 7:18.0 8:0.0 9:0.05405405405405406 10:0.0 11:0.0 12:2.0 13:1.0 14:1.0 15:102.0 16:5684.0 17:11.0 18:72.0 19:1.0 20:0.0 21:0.0 22:0.0 23:1.0 24:2.0 25:2.0 26:0.0 27:0.0 28:0.0 29:0.0 30:0.0 31:0.0 32:0.0 11617:1.0 11621:1.0 11875:1.0 24930:1.0 24931:1.0 24946:1.0 24947:1.0 25185:1.0 25198:1.0 25203:1.0 25455:1.0 25460:1.0 25971:1.0 25976:1.0 26978:1.0 26991:1.0 26995:1.0 27950:1.0 28265:1.0 28272:1.0 28525:1.0 28526:1.0 28769:1.0 28784:1.0 28786:1.0 29281:1.0 29285:1.0 29289:1.0 29485:1.0 29545:1.0 29549:1.0 29555:1.0 29556:1.0 29741:1.0 29810:1.0 30832:1.0 
0.20083510499435722 1:24.0 2:1.0 3:0.0 4:8.0 5:0.0 6:0.0 7:11.5 8:0.0 9:0.0 10:0.0 11:0.0 12:2.0 13:0.0 14:1.0 15:10.0 16:6566.0 17:0.0 18:8.0 19:0.0 20:1.0 21:0.0 22:0.0 23:2.0 24:2.0 25:2.0 26:0.0 27:0.0 28:0.0 29:0.0 30:0.0 31:2.0 32:0.0 11875:1.0 24930:1.0 24940:1.0 24942:1.0 25205:1.0 25455:1.0 25697:1.0 25953:1.0 26472:1.0 26670:1.0 26725:1.0 26990:1.0 26998:1.0 27753:1.0 27764:1.0 28260:1.0 28263:1.0 28276:1.0 28525:1.0 29800:1.0 29804:1.0 30062:1.0 30313:1.0 
0.40959575620027106 1:29.0 2:2.0 3:0.0 4:10.0 5:0.0 6:0.0 7:9.0 8:0.0 9:0.0 10:0.0 11:0.0 12:3.0 13:0.0 14:0.0 23:1.0 24:0.0 25:0.0 26:1.0 27:0.0 28:0.0 29:0.0 30:0.0 31:37800.0 32:0.0 11877:1.0 11881:1.0 25961:1.0 25964:1.0 25966:1.0 25970:1.0 26223:2.0 26981:1.0 26990:2.0 27763:1.0 28261:1.0 28262:2.0 28270:1.0 28278:1.0 28526:1.0 28531:1.0 28773:1.0 29299:1.0 29486:1.0 29551:1.0 29552:1.0 30313:1.0 30510:1.0 30583:2.0 
0.267802314228472 1:10.0 2:1.0 3:0.0 4:3.0 5:1.0 6:0.0 7:4.5 8:0.0 9:0.1 10:0.0 11:0.0 12:1.0 13:1.0 14:1.0 15:30.0 16:7041.0 17:0.0 18:20.0 19:1.0 20:0.0 21:0.0 22:0.0 23:1.0 24:2.0 25:2.0 26:0.0 27:0.0 28:0.0 29:0.0 30:0.0 31:0.0 32:0.0 11627:1.0 11875:1.0 24878:1.0 25455:1.0 26925:1.0 27507:1.0 28525:1.0 28777:1.0 29537:1.0 
0.4120440074157021 1:17.0 2:2.0 3:0.0 4:3.0 5:0.0 6:0.0 7:5.0 8:0.0 9:0.0 10:0.0 11:0.0 12:1.0 13:0.0 14:0.0 23:0.0 24:2.0 25:2.0 26:1.0 27:0.0 28:0.0 29:0.0 30:0.0 31:2160000.0 32:0.0 11874:1.0 11895:1.0 24948:1.0 25185:1.0 25461:1.0 27748:1.0 28530:1.0 28718:1.0 29292:1.0 29795:1.0 29812:1.0 30064:1.0 30510:1.0 30575:1.0 30583:2.0 
0.007617026454567272 1:22.0 2:2.0 3:3.0 4:4.0 5:0.0 6:0.0 7:6.666666666666667 8:0.13636363636363635 9:0.0 10:0.0 11:3.0 12:1.0 13:0.0 14:1.0 15:10.0 16:6562.0 17:0.0 18:8.0 19:0.0 20:1.0 21:0.0 22:0.0 23:1.0 24:0.0 25:0.0 26:1.0 27:0.0 28:0.0 29:0.0 30:0.0 31:2.0 32:0.0 11829:1.0 11875:1.0 12595:1.0 13172:1.0 13617:1.0 25448:1.0 25455:1.0 25955:1.0 26739:1.0 28525:1.0 28530:1.0 28783:1.0 28784:1.0 29300:1.0 29557:1.0 29742:1.0 29797:1.0 30064:1.0 30510:1.0 30583:2.0 
0.4118662278587406 1:22.0 2:2.0 3:0.0 4:6.0 5:0.0 6:0.0 7:6.666666666666667 8:0.0 9:0.0 10:0.0 11:0.0 12:1.0 13:0.0 14:0.0 23:0.0 24:2.0 25:2.0 26:0.0 27:0.0 28:0.0 29:0.0 30:0.0 31:101000.0 32:0.0 11874:1.0 11877:1.0 24942:1.0 25191:1.0 25445:1.0 25715:1.0 25902:1.0 25956:1.0 25959:1.0 25964:1.0 26465:1.0 26483:1.0 26990:1.0 27749:1.0 28259:1.0 28263:1.0 28786:1.0 29285:1.0 29289:1.0 29486:1.0 29552:1.0 
0.05340390388425612 1:21.0 2:2.0 3:0.0 4:6.0 5:0.0 6:0.0 7:6.333333333333333 8:0.0 9:0.0 10:0.0 11:0.0 12:1.0 13:0.0 14:1.0 15:143.0 16:11152.0 17:13.0 18:100.0 19:1.0 20:0.0 21:0.0 22:0.0 23:1.0 24:0.0 25:0.0 26:0.0 27:0.0 28:0.0 29:0.0 30:0.0 31:45.0 32:0.0 11875:1.0 11886:1.0 24940:1.0 25455:1.0 25964:1.0 26735:1.0 27763:1.0 27764:1.0 27950:1.0 28263:1.0 28264:1.0 28525:1.0 28526:1.0 28532:1.0 28537:1.0 29295:1.0 29486:1.0 29797:1.0 29807:1.0 31073:1.0 
0.2415388793328113 1:10.0 2:2.0 3:0.0 4:1.0 5:0.0 6:0.0 7:2.6666666666666665 8:0.0 9:0.0 10:0.0 11:0.0 12:1.0 13:0.0 14:0.0 23:0.0 24:2.0 25:2.0 26:0.0 27:0.0 28:0.0 29:0.0 30:0.0 31:16600.0 32:0.0 11874:1.0 11875:1.0 25202:1.0 25455:1.0 27950:1.0 28206:1.0 28270:1.0 28525:1.0 29550:1.0 
0.4125561101327511 1:13.0 2:2.0 3:0.0 4:1.0 5:0.0 6:0.0 7:3.6666666666666665 8:0.0 9:0.0 10:0.0 11:0.0 12:1.0 13:0.0 14:1.0 15:266.0 16:112236.0 17:21.0 18:202.0 19:1.0 20:0.0 21:0.0 22:0.0 23:1.0 24:2.0 25:2.0 26:1.0 27:0.0 28:0.0 29:0.0 30:0.0 31:26.0 32:0.0 11875:2.0 25452:1.0 25455:1.0 25456:1.0 27694:1.0 28003:1.0 28525:1.0 28781:1.0 30510:1.0 30583:2.0 
0.26524401431502487 1:22.0 2:1.0 3:0.0 4:7.0 5:0.0 6:0.0 7:10.5 8:0.0 9:0.0 10:0.0 11:0.0 12:1.0 13:0.0 14:1.0 15:329.0 16:16636.0 17:25.0 18:209.0 19:1.0 20:0.0 21:0.0 22:0.0 23:1.0 24:0.0 25:0.0 26:0.0 27:0.0 28:0.0 29:0.0 30:0.0 31:0.0 32:0.0 11875:1.0 24942:1.0 24944:1.0 24946:1.0 24948:1.0 24954:1.0 25455:1.0 25966:1.0 27745:1.0 28001:1.0 28005:1.0 28257:1.0 28276:1.0 28525:1.0 28769:1.0 29300:1.0 29486:1.0 29804:1.0 29805:1.0 29811:1.0 31329:1.0 
0.2490907111709244 1:18.0 2:2.0 3:0.0 4:5.0 5:0.0 6:0.0 7:5.333333333333333 8:0.0 9:0.0 10:0.0 11:0.0 12:1.0 13:0.0 14:1.0 15:142.0 16:15562.0 17:20.0 18:136.0 19:2.0 20:0.0 21:0.0 22:0.0 23:1.0 24:2.0 25:0.0 26:1.0 27:0.0 28:0.0 29:0.0 30:0.0 31:0.0 32:0.0 11875:1.0 11892:1.0 24944:1.0 24946:1.0 25455:1.0 25971:1.0 27002:1.0 28525:1.0 28777:1.0 29300:1.0 29486:1.0 29793:1.0 29797:1.0 30510:1.0 30583:2.0 31329:1.0 
1.0 1:26.0 2:1.0 3:0.0 4:9.0 5:0.0 6:0.0 7:12.5 8:0.0 9:0.0 10:0.0 11:0.0 12:2.0 13:0.0 14:0.0 23:0.0 24:2.0 25:2.0 26:0.0 27:0.0 28:0.0 29:0.0 30:0.0 31:1.0E8 32:0.0 11875:1.0 24931:1.0 24942:1.0 24948:1.0 25443:1.0 25452:2.0 25455:1.0 25953:1.0 25970:2.0 27749:1.0 27765:1.0 28001:1.0 28016:1.0 28279:1.0 28525:1.0 28789:1.0 29230:1.0 29283:1.0 29797:2.0 30050:1.0 30068:1.0 30561:1.0 
0.07940794457559877 1:10.0 2:1.0 3:0.0 4:3.0 5:0.0 6:0.0 7:4.5 8:0.0 9:0.0 10:0.0 11:0.0 12:2.0 13:0.0 14:0.0 23:1.0 24:2.0 25:2.0 26:0.0 27:0.0 28:0.0 29:0.0 30:0.0 31:0.0 32:0.0 11875:1.0 25193:1.0 25455:1.0 25708:1.0 26991:1.0 27746:1.0 28525:1.0 28536:1.0 30766:1.0 
1.0 1:15.0 2:1.0 3:0.0 4:6.0 5:0.0 6:0.0 7:7.0 8:0.0 9:0.0 10:0.0 11:0.0 12:1.0 13:0.0 14:0.0 23:4.0 24:4.0 25:4.0 26:0.0 27:0.0 28:0.0 29:0.0 30:0.0 31:21800.0 32:0.0 11881:1.0 24946:1.0 25902:1.0 25964:1.0 26223:1.0 26228:1.0 26996:1.0 27750:1.0 28518:1.0 28531:1.0 29285:1.0 29551:1.0 29815:1.0 30561:1.0 
1.0 1:14.0 2:1.0 3:0.0 4:4.0 5:0.0 6:0.0 7:6.5 8:0.0 9:0.0 10:0.0 11:0.0 12:1.0 13:0.0 14:0.0 23:0.0 24:2.0 25:1.0 26:0.0 27:0.0 28:0.0 29:0.0 30:0.0 31:76.0 32:0.0 11875:1.0 24948:1.0 25448:1.0 25455:1.0 25964:1.0 26213:1.0 26721:1.0 27756:1.0 27759:1.0 28525:1.0 28535:1.0 29798:1.0 30510:1.0 
0.41203924085057464 1:18.0 2:1.0 3:0.0 4:5.0 5:0.0 6:0.0 7:8.5 8:0.0 9:0.0 10:0.0 11:0.0 12:2.0 13:0.0 14:0.0 23:0.0 24:2.0 25:2.0 26:0.0 27:0.0 28:0.0 29:0.0 30:0.0 31:7420000.0 32:0.0 11874:1.0 24947:1.0 25210:1.0 25953:1.0 25970:1.0 26414:1.0 26725:1.0 26990:1.0 27749:1.0 28263:1.0 28268:1.0 28271:1.0 28530:1.0 29294:1.0 29300:1.0 29545:1.0 29800:1.0 
0.41205994971453347 1:4.0 2:1.0 3:0.0 4:0.0 5:0.0 6:0.0 7:1.5 8:0.0 9:0.0 10:0.0 11:0.0 12:0.0 13:0.0 14:1.0 15:307.0 16:42948.0 17:30.0 18:260.0 19:1.0 20:1.0 21:0.0 22:0.0 23:2.0 24:2.0 25:2.0 26:0.0 27:0.0 28:0.0 29:0.0 30:0.0 31:535.0 32:0.0 11879:1.0 26483:1.0 27182:1.0 
1.0 1:21.0 2:2.0 3:0.0 4:6.0 5:0.0 6:0.0 7:6.333333333333333 8:0.0 9:0.0 10:0.0 11:0.0 12:1.0 13:0.0 14:1.0 15:4.0 16:44.0 17:0.0 18:4.0 19:0.0 20:0.0 21:0.0 22:0.0 23:1.0 24:0.0 25:0.0 26:0.0 27:0.0 28:0.0 29:0.0 30:0.0 31:1850.0 32:0.0 11873:1.0 11875:1.0 24932:1.0 24946:1.0 25455:1.0 25715:1.0 25972:2.0 27438:1.0 27493:1.0 28001:1.0 28261:1.0 28525:1.0 28530:1.0 29291:2.0 29549:1.0 29742:1.0 29815:1.0 30575:1.0 
0.13107109129731945 1:22.0 2:3.0 3:0.0 4:5.0 5:0.0 6:0.0 7:4.75 8:0.0 9:0.0 10:0.0 11:0.0 12:1.0 13:0.0 14:1.0 15:12.0 16:519.0 17:1.0 18:9.0 19:1.0 20:0.0 21:0.0 22:0.0 23:1.0 24:0.0 25:0.0 26:0.0 27:0.0 28:0.0 29:0.0 30:0.0 31:0.0 32:0.0 11874:1.0 11875:2.0 24946:1.0 25185:1.0 25448:1.0 25454:1.0 25455:1.0 25964:1.0 26725:1.0 26979:1.0 27756:1.0 27759:1.0 27950:1.0 28462:1.0 28525:1.0 29289:1.0 29298:1.0 30510:1.0 30583:2.0 
0.41240855735093257 1:16.0 2:2.0 3:0.0 4:5.0 5:0.0 6:0.0 7:4.666666666666667 8:0.0 9:0.0 10:0.0 11:0.0 12:2.0 13:0.0 14:0.0 23:1.0 24:2.0 25:2.0 26:0.0 27:0.0 28:0.0 29:0.0 30:0.0 31:2210000.0 32:0.0 11875:1.0 11881:1.0 25455:1.0 25957:1.0 25970:1.0 26228:1.0 26473:1.0 26725:1.0 26982:1.0 26988:1.0 28462:1.0 29287:1.0 29486:1.0 29544:1.0 29811:1.0 
1.0 1:15.0 2:1.0 3:0.0 4:6.0 5:0.0 6:0.0 7:7.0 8:0.0 9:0.0 10:0.0 11:0.0 12:2.0 13:0.0 14:0.0 23:0.0 24:0.0 25:0.0 26:0.0 27:0.0 28:0.0 29:0.0 30:0.0 31:1.0E8 32:0.0 11881:1.0 24940:1.0 25448:1.0 25449:1.0 25646:1.0 25955:1.0 26729:1.0 26977:1.0 26981:1.0 26988:1.0 27747:1.0 27748:1.0 28773:1.0 29552:1.0 
0.4123438729591746 1:22.0 2:2.0 3:0.0 4:6.0 5:0.0 6:0.0 7:6.666666666666667 8:0.0 9:0.0 10:0.0 11:0.0 12:1.0 13:0.0 14:0.0 23:1.0 24:0.0 25:0.0 26:1.0 27:0.0 28:0.0 29:0.0 30:0.0 31:2040000.0 32:0.0 11875:1.0 11885:1.0 24946:2.0 24947:1.0 24948:1.0 25452:1.0 26465:1.0 26735:1.0 26996:1.0 28001:2.0 28525:1.0 29287:1.0 29289:1.0 29486:1.0 29793:1.0 29800:1.0 30510:1.0 30583:2.0 
0.41223777509044807 1:19.0 2:2.0 3:0.0 4:4.0 5:0.0 6:0.0 7:5.666666666666667 8:0.0 9:0.0 10:0.0 11:0.0 12:1.0 13:0.0 14:0.0 23:1.0 24:2.0 25:2.0 26:0.0 27:0.0 28:0.0 29:0.0 30:0.0 31:1.1E7 32:0.0 11885:1.0 11893:1.0 24942:1.0 26480:1.0 26988:1.0 26990:1.0 27497:1.0 27756:1.0 27763:1.0 28001:1.0 28263:1.0 28267:1.0 28777:1.0 29486:1.0 30067:1.0 30510:1.0 30583:2.0 
0.4124777249695409 1:17.0 2:2.0 3:0.0 4:6.0 5:0.0 6:0.0 7:5.0 8:0.0 9:0.0 10:0.0 11:0.0 12:2.0 13:0.0 14:0.0 23:1.0 24:2.0 25:2.0 26:0.0 27:0.0 28:0.0 29:0.0 30:0.0 31:500000.0 32:0.0 11886:1.0 11890:1.0 24940:1.0 24941:1.0 24946:1.0 24950:1.0 26977:1.0 27753:1.0 27950:1.0 28257:1.0 29281:1.0 29295:1.0 30305:1.0 30510:1.0 30583:2.0 
0.4123482947567062 1:15.0 2:2.0 3:0.0 4:4.0 5:0.0 6:0.0 7:4.333333333333333 8:0.0 9:0.0 10:0.0 11:0.0 12:2.0 13:0.0 14:1.0 15:369.0 16:22250.0 17:47.0 18:368.0 19:1.0 20:0.0 21:0.0 22:0.0 23:1.0 24:0.0 25:0.0 26:0.0 27:0.0 28:0.0 29:0.0 30:0.0 31:9440.0 32:0.0 11873:1.0 11875:1.0 24949:1.0 25455:1.0 26736:1.0 28462:1.0 28525:1.0 28786:1.0 29295:1.0 29800:1.0 30068:1.0 30510:1.0 30583:2.0 
0.41225727868437856 1:23.0 2:2.0 3:0.0 4:6.0 5:0.0 6:0.0 7:7.0 8:0.0 9:0.0 10:0.0 11:0.0 12:2.0 13:0.0 14:0.0 23:1.0 24:0.0 25:0.0 26:1.0 27:0.0 28:0.0 29:0.0 30:0.0 31:130000.0 32:0.0 11892:1.0 11894:1.0 24937:1.0 24942:1.0 25966:1.0 26721:1.0 26729:1.0 26734:1.0 26926:1.0 26990:1.0 28257:1.0 28264:3.0 29301:1.0 29810:1.0 30073:1.0 30318:1.0 30510:1.0 30583:2.0 31077:1.0 
0.41223600210306505 1:16.0 2:1.0 3:1.0 4:4.0 5:0.0 6:0.0 7:7.5 8:0.0625 9:0.0 10:0.0 11:1.0 12:1.0 13:0.0 14:1.0 15:576.0 16:54989.0 17:39.0 18:452.0 19:1.0 20:0.0 21:0.0 22:0.0 23:1.0 24:2.0 25:2.0 26:0.0 27:0.0 28:0.0 29:0.0 30:0.0 31:91.0 32:0.0 11875:1.0 13175:1.0 24931:1.0 25455:1.0 25460:1.0 25907:1.0 26209:1.0 26725:1.0 28525:1.0 28530:1.0 29305:1.0 29800:1.0 29807:1.0 30566:1.0 31022:1.0 
0.25778224321766335 1:20.0 2:1.0 3:0.0 4:4.0 5:0.0 6:0.0 7:9.5 8:0.0 9:0.0 10:0.0 11:0.0 12:1.0 13:0.0 14:1.0 15:159.0 16:7169.0 17:13.0 18:126.0 19:1.0 20:3.0 21:0.0 22:0.0 23:1.0 24:2.0 25:1.0 26:0.0 27:0.0 28:0.0 29:0.0 30:0.0 31:1.0 32:0.0 11875:1.0 24940:1.0 25185:1.0 25455:1.0 25459:1.0 26476:1.0 26480:1.0 26745:1.0 26979:1.0 27759:1.0 27760:1.0 27950:1.0 28514:1.0 28525:1.0 28776:1.0 28781:1.0 29543:1.0 29545:1.0 31091:1.0 
0.4118662278587469 1:21.0 2:1.0 3:0.0 4:7.0 5:1.0 6:0.0 7:10.0 8:0.0 9:0.047619047619047616 10:0.0 11:0.0 12:1.0 13:1.0 14:1.0 15:398.0 16:51056.0 17:37.0 18:300.0 19:1.0 20:1.0 21:0.0 22:0.0 23:1.0 24:2.0 25:2.0 26:0.0 27:0.0 28:0.0 29:0.0 30:0.0 31:98.0 32:0.0 11635:1.0 11875:1.0 24950:1.0 25449:1.0 25455:1.0 25460:1.0 25955:1.0 25964:1.0 25970:1.0 26979:1.0 26996:1.0 27749:1.0 28525:1.0 29230:1.0 29289:1.0 29537:1.0 29810:1.0 29817:1.0 30309:1.0 31021:1.0 
0.37874163849809345 1:18.0 2:1.0 3:0.0 4:6.0 5:0.0 6:0.0 7:8.5 8:0.0 9:0.0 10:0.0 11:0.0 12:2.0 13:0.0 14:0.0 23:0.0 24:0.0 25:0.0 26:0.0 27:0.0 28:0.0 29:0.0 30:0.0 31:10600.0 32:0.0 11888:1.0 24878:1.0 24931:1.0 24937:1.0 24947:1.0 25450:1.0 26990:1.0 26994:1.0 27233:1.0 28257:1.0 28275:1.0 28777:1.0 28780:1.0 29281:1.0 29552:1.0 29562:1.0 31329:1.0 
0.4954714893680959 1:13.0 2:1.0 3:0.0 4:3.0 5:0.0 6:0.0 7:6.0 8:0.0 9:0.0 10:0.0 11:0.0 12:1.0 13:0.0 14:0.0 23:1.0 24:0.0 25:0.0 26:0.0 27:0.0 28:0.0 29:0.0 30:0.0 31:2640.0 32:0.0 11875:1.0 24942:1.0 25390:1.0 25448:1.0 25455:1.0 25705:1.0 26738:1.0 26990:1.0 28259:1.0 28260:1.0 28525:1.0 29281:1.0 
0.4117259053889406 1:18.0 2:3.0 3:0.0 4:6.0 5:0.0 6:0.0 7:3.75 8:0.0 9:0.0 10:0.0 11:0.0 12:2.0 13:0.0 14:0.0 23:0.0 24:3.0 25:2.0 26:1.0 27:0.0 28:0.0 29:0.0 30:0.0 31:872000.0 32:0.0 11875:1.0 11876:1.0 11893:1.0 25455:1.0 25701:1.0 25902:1.0 25957:1.0 25958:1.0 25978:1.0 26226:1.0 28462:1.0 29285:1.0 30059:1.0 30510:1.0 30583:2.0 31333:1.0 
0.4124085573509366 1:15.0 2:3.0 3:0.0 4:3.0 5:0.0 6:0.0 7:3.0 8:0.0 9:0.0 10:0.0 11:0.0 12:1.0 13:0.0 14:0.0 23:1.0 24:2.0 25:2.0 26:1.0 27:0.0 28:0.0 29:0.0 30:0.0 31:259000.0 32:0.0 11875:1.0 11888:1.0 11898:1.0 25455:1.0 28462:1.0 28528:1.0 28783:1.0 28784:1.0 28793:1.0 30510:1.0 30583:2.0 31022:1.0 31329:1.0 
0.3286965052522429 1:23.0 2:2.0 3:0.0 4:7.0 5:1.0 6:0.0 7:7.0 8:0.0 9:0.043478260869565216 10:0.0 11:0.0 12:3.0 13:1.0 14:1.0 15:30.0 16:1768.0 17:2.0 18:29.0 19:1.0 20:0.0 21:0.0 22:0.0 23:1.0 24:0.0 25:0.0 26:0.0 27:0.0 28:0.0 29:0.0 30:0.0 31:1040.0 32:0.0 11620:1.0 11874:1.0 11875:1.0 24949:1.0 25189:1.0 25455:1.0 25711:1.0 25953:1.0 26229:1.0 26982:1.0 27693:1.0 27756:1.0 27763:1.0 28524:1.0 28525:1.0 29486:1.0 29801:1.0 30060:1.0 30068:1.0 30510:1.0 30583:2.0 
0.41204064710208815 1:18.0 2:2.0 3:0.0 4:4.0 5:1.0 6:0.0 7:5.333333333333333 8:0.0 9:0.05555555555555555 10:0.0 11:0.0 12:1.0 13:1.0 14:0.0 23:0.0 24:0.0 25:0.0 26:0.0 27:0.0 28:0.0 29:0.0 30:0.0 31:1.92E7 32:0.0 11620:1.0 11883:1.0 11890:1.0 24878:1.0 24948:1.0 25722:1.0 26721:1.0 26990:1.0 27489:1.0 28205:1.0 29289:1.0 29301:1.0 29810:1.0 30510:1.0 30583:2.0 31336:1.0 
0.41203144106949585 1:15.0 2:2.0 3:0.0 4:4.0 5:1.0 6:0.0 7:4.333333333333333 8:0.0 9:0.06666666666666667 10:0.0 11:0.0 12:1.0 13:1.0 14:0.0 23:0.0 24:0.0 25:0.0 26:0.0 27:0.0 28:0.0 29:0.0 30:0.0 31:1.74E7 32:0.0 11619:1.0 11876:1.0 11877:1.0 24877:1.0 24946:1.0 25441:1.0 25701:1.0 25965:1.0 28001:1.0 28013:1.0 29230:1.0 30510:1.0 30583:2.0 
0.2255687636820602 1:18.0 2:2.0 3:0.0 4:5.0 5:0.0 6:0.0 7:5.333333333333333 8:0.0 9:0.0 10:0.0 11:0.0 12:2.0 13:0.0 14:0.0 23:1.0 24:0.0 25:0.0 26:1.0 27:0.0 28:0.0 29:0.0 30:0.0 31:4170.0 32:0.0 11875:1.0 11881:1.0 24941:1.0 24948:1.0 25448:1.0 25455:1.0 25705:1.0 26670:1.0 26977:1.0 26990:1.0 28001:1.0 28260:1.0 28525:1.0 29795:1.0 30510:1.0 30583:2.0 
0.41159196381238483 1:17.0 2:2.0 3:0.0 4:4.0 5:0.0 6:0.0 7:5.0 8:0.0 9:0.0 10:0.0 11:0.0 12:1.0 13:0.0 14:0.0 23:0.0 24:2.0 25:2.0 26:0.0 27:0.0 28:0.0 29:0.0 30:0.0 31:1460000.0 32:0.0 11875:2.0 24940:1.0 25445:1.0 25452:1.0 25970:1.0 27694:1.0 28001:1.0 28271:1.0 28526:1.0 28530:1.0 29293:1.0 29295:1.0 30510:1.0 30583:2.0 
0.4120631136218052 1:16.0 2:3.0 3:0.0 4:4.0 5:0.0 6:0.0 7:3.25 8:0.0 9:0.0 10:0.0 11:0.0 12:2.0 13:0.0 14:1.0 15:16.0 16:906.0 17:0.0 18:13.0 19:1.0 20:0.0 21:0.0 22:0.0 23:1.0 24:0.0 25:0.0 26:0.0 27:0.0 28:0.0 29:0.0 30:0.0 31:137000.0 32:0.0 11875:1.0 11883:1.0 11891:1.0 25455:1.0 25902:1.0 27506:1.0 27757:1.0 28015:1.0 28462:1.0 28517:1.0 28524:1.0 29551:1.0 30510:1.0 30583:2.0 
0.4119256358307915 1:25.0 2:4.0 3:0.0 4:3.0 5:1.0 6:0.0 7:4.2 8:0.0 9:0.04 10:0.0 11:0.0 12:2.0 13:1.0 14:0.0 23:1.0 24:0.0 25:0.0 26:0.0 27:0.0 28:0.0 29:0.0 30:0.0 31:18500.0 32:0.0 11635:1.0 11875:1.0 11876:1.0 11878:1.0 11891:1.0 25452:1.0 25458:1.0 25646:1.0 25701:1.0 25974:1.0 26226:2.0 27759:1.0 28259:1.0 28533:1.0 29230:2.0 29542:1.0 29550:1.0 30052:1.0 30253:1.0 30510:1.0 30583:2.0 
0.3568136137369972 1:11.0 2:2.0 3:0.0 4:5.0 5:0.0 6:0.0 7:3.0 8:0.0 9:0.0 10:0.0 11:0.0 12:3.0 13:0.0 14:1.0 15:455.0 16:65307.0 17:50.0 18:362.0 19:2.0 20:0.0 21:0.0 22:0.0 23:1.0 24:0.0 25:0.0 26:0.0 27:0.0 28:0.0 29:0.0 30:0.0 31:0.0 32:0.0 11887:1.0 11893:1.0 25972:1.0 26414:1.0 26981:1.0 26985:1.0 28530:1.0 29287:1.0 29742:1.0 30059:1.0 
0.3737726590330318 1:16.0 2:2.0 3:0.0 4:4.0 5:0.0 6:0.0 7:4.666666666666667 8:0.0 9:0.0 10:0.0 11:0.0 12:1.0 13:0.0 14:1.0 15:146.0 16:8138.0 17:11.0 18:129.0 19:1.0 20:0.0 21:0.0 22:0.0 23:1.0 24:0.0 25:0.0 26:0.0 27:0.0 28:0.0 29:0.0 30:0.0 31:87.0 32:0.0 11875:1.0 11880:1.0 25455:1.0 25902:1.0 26228:1.0 26735:1.0 26996:1.0 27749:1.0 28518:1.0 28525:1.0 29801:1.0 29804:1.0 30510:1.0 30583:2.0 
0.24925354272199057 1:10.0 2:1.0 3:0.0 4:4.0 5:0.0 6:0.0 7:4.5 8:0.0 9:0.0 10:0.0 11:0.0 12:2.0 13:0.0 14:1.0 15:130.0 16:11186.0 17:17.0 18:108.0 19:1.0 20:0.0 21:0.0 22:0.0 23:1.0 24:4.0 25:4.0 26:0.0 27:0.0 28:0.0 29:0.0 30:0.0 31:0.0 32:0.0 11875:1.0 24953:1.0 25455:1.0 25972:1.0 26981:1.0 27233:1.0 28525:1.0 29802:1.0 31022:1.0 
0.3892458062640245 1:22.0 2:2.0 3:0.0 4:7.0 5:0.0 6:0.0 7:6.666666666666667 8:0.0 9:0.0 10:0.0 11:0.0 12:2.0 13:0.0 14:0.0 23:0.0 24:4.0 25:4.0 26:0.0 27:0.0 28:0.0 29:0.0 30:0.0 31:1630000.0 32:0.0 11875:1.0 11883:1.0 25455:1.0 25717:1.0 25971:1.0 26473:1.0 26981:1.0 26990:2.0 27493:1.0 28260:1.0 28263:1.0 28462:1.0 28786:1.0 29289:2.0 29486:1.0 29552:1.0 29556:1.0 29810:1.0 30067:1.0 
0.41171778376226587 1:12.0 2:2.0 3:0.0 4:2.0 5:0.0 6:0.0 7:3.3333333333333335 8:0.0 9:0.0 10:0.0 11:0.0 12:1.0 13:0.0 14:0.0 23:0.0 24:0.0 25:0.0 26:0.0 27:0.0 28:0.0 29:0.0 30:0.0 31:492000.0 32:0.0 11874:1.0 11877:1.0 25188:1.0 25195:1.0 25448:1.0 25717:1.0 25956:1.0 26739:1.0 27491:1.0 29486:1.0 29998:1.0 
0.4118540200594305 1:23.0 2:2.0 3:0.0 4:9.0 5:0.0 6:0.0 7:7.0 8:0.0 9:0.0 10:0.0 11:0.0 12:1.0 13:0.0 14:0.0 23:0.0 24:0.0 25:0.0 26:0.0 27:0.0 28:0.0 29:0.0 30:0.0 31:806000.0 32:0.0 11887:1.0 11888:1.0 24935:1.0 25455:1.0 25701:1.0 25955:1.0 25971:1.0 26469:1.0 26989:1.0 26990:2.0 27753:1.0 28001:1.0 28260:1.0 28261:1.0 28268:1.0 28526:1.0 28530:1.0 28786:1.0 29230:1.0 29289:1.0 29486:1.0 
0.1100565014903798 1:11.0 2:1.0 3:0.0 4:4.0 5:0.0 6:0.0 7:5.0 8:0.0 9:0.0 10:0.0 11:0.0 12:2.0 13:0.0 14:0.0 23:0.0 24:4.0 25:4.0 26:0.0 27:0.0 28:0.0 29:0.0 30:0.0 31:4480.0 32:0.0 11891:1.0 25390:1.0 25955:1.0 25966:1.0 28275:1.0 28517:1.0 28773:1.0 29552:1.0 29557:1.0 30319:1.0 
0.41192869764470075 1:20.0 2:2.0 3:0.0 4:6.0 5:0.0 6:0.0 7:6.0 8:0.0 9:0.0 10:0.0 11:0.0 12:1.0 13:0.0 14:0.0 23:0.0 24:0.0 25:0.0 26:1.0 27:0.0 28:0.0 29:0.0 30:0.0 31:870000.0 32:0.0 11875:1.0 11881:1.0 24878:1.0 24950:1.0 25445:1.0 25455:1.0 25966:1.0 25971:1.0 26996:1.0 28257:1.0 28270:1.0 28532:1.0 29281:1.0 29539:1.0 29810:1.0 30309:1.0 30510:1.0 30583:2.0 
0.6913683694480345 1:10.0 2:1.0 3:0.0 4:3.0 5:1.0 6:0.0 7:4.5 8:0.0 9:0.1 10:0.0 11:0.0 12:1.0 13:1.0 14:0.0 23:1.0 24:2.0 25:2.0 26:0.0 27:0.0 28:0.0 29:0.0 30:0.0 31:91000.0 32:0.0 11625:1.0 11890:1.0 25189:1.0 25964:1.0 26996:1.0 27437:1.0 27755:1.0 29301:1.0 29742:1.0 
0.406521177934423 1:20.0 2:1.0 3:0.0 4:7.0 5:0.0 6:0.0 7:9.5 8:0.0 9:0.0 10:0.0 11:0.0 12:1.0 13:0.0 14:1.0 15:42.0 16:5031.0 17:6.0 18:35.0 19:1.0 20:0.0 21:0.0 22:0.0 23:1.0 24:2.0 25:2.0 26:0.0 27:0.0 28:0.0 29:0.0 30:0.0 31:2.0 32:0.0 11875:1.0 24946:1.0 25202:1.0 25452:1.0 25455:1.0 25965:1.0 26978:1.0 26979:1.0 26989:1.0 27753:2.0 28005:1.0 28021:1.0 28525:1.0 29281:1.0 29305:1.0 29545:1.0 30067:1.0 31022:1.0 
0.13270018752038207 1:18.0 2:2.0 3:0.0 4:5.0 5:0.0 6:0.0 7:5.333333333333333 8:0.0 9:0.0 10:0.0 11:0.0 12:1.0 13:0.0 14:1.0 15:119.0 16:8757.0 17:20.0 18:100.0 19:1.0 20:0.0 21:0.0 22:0.0 23:1.0 24:0.0 25:0.0 26:0.0 27:0.0 28:0.0 29:0.0 30:0.0 31:0.0 32:0.0 11874:1.0 11875:1.0 25202:1.0 25455:1.0 26670:1.0 26990:1.0 26996:1.0 27950:1.0 28264:1.0 28275:1.0 28525:1.0 28526:1.0 29556:1.0 29801:1.0 29807:1.0 29813:1.0 30068:1.0 
0.21944330327327152 1:13.0 2:1.0 3:0.0 4:4.0 5:0.0 6:0.0 7:6.0 8:0.0 9:0.0 10:0.0 11:0.0 12:1.0 13:0.0 14:1.0 15:4.0 16:44.0 17:0.0 18:4.0 19:0.0 20:0.0 21:0.0 22:0.0 23:1.0 24:2.0 25:2.0 26:0.0 27:0.0 28:0.0 29:0.0 30:0.0 31:11200.0 32:0.0 11875:1.0 25445:1.0 25455:1.0 25964:1.0 25966:1.0 25970:1.0 27694:1.0 27756:1.0 28276:1.0 28525:1.0 29283:1.0 29797:1.0 
0.4102878906982967 1:12.0 2:1.0 3:0.0 4:3.0 5:0.0 6:0.0 7:5.5 8:0.0 9:0.0 10:0.0 11:0.0 12:1.0 13:0.0 14:1.0 15:278.0 16:18889.0 17:16.0 18:203.0 19:1.0 20:0.0 21:0.0 22:0.0 23:1.0 24:4.0 25:3.0 26:0.0 27:0.0 28:0.0 29:0.0 30:0.0 31:0.0 32:0.0 11875:1.0 24946:1.0 24951:1.0 25185:1.0 25455:1.0 26721:1.0 28525:1.0 29300:1.0 29544:1.0 29811:1.0 30510:1.0 
0.20638163501382617 1:12.0 2:2.0 3:0.0 4:3.0 5:0.0 6:0.0 7:3.3333333333333335 8:0.0 9:0.0 10:0.0 11:0.0 12:2.0 13:0.0 14:0.0 23:0.0 24:2.0 25:1.0 26:1.0 27:0.0 28:0.0 29:0.0 30:0.0 31:1.08E7 32:0.0 11882:1.0 11892:1.0 25969:1.0 26926:1.0 27237:1.0 29045:1.0 29814:1.0 30057:1.0 30510:1.0 30583:2.0 
0.41216878436411647 1:18.0 2:2.0 3:0.0 4:4.0 5:0.0 6:0.0 7:5.333333333333333 8:0.0 9:0.0 10:0.0 11:0.0 12:1.0 13:0.0 14:0.0 23:1.0 24:0.0 25:0.0 26:1.0 27:0.0 28:0.0 29:0.0 30:0.0 31:175000.0 32:0.0 11890:1.0 11891:1.0 25203:1.0 25461:1.0 25955:1.0 26996:1.0 28002:1.0 29289:1.0 29295:1.0 29541:1.0 29549:1.0 29817:1.0 30066:1.0 30510:1.0 30583:2.0 31022:1.0 
0.4118505441424248 1:15.0 2:1.0 3:0.0 4:7.0 5:0.0 6:0.0 7:7.0 8:0.0 9:0.0 10:0.0 11:0.0 12:2.0 13:0.0 14:1.0 15:10.0 16:203.0 17:0.0 18:9.0 19:0.0 20:0.0 21:0.0 22:0.0 23:1.0 24:2.0 25:2.0 26:0.0 27:0.0 28:0.0 29:0.0 30:0.0 31:78600.0 32:0.0 11892:1.0 24950:1.0 26977:1.0 26991:1.0 26995:2.0 28206:1.0 28271:1.0 28521:1.0 28526:1.0 29545:2.0 29814:1.0 30313:1.0 
0.4071888215889244 1:37.0 2:3.0 3:11.0 4:8.0 5:4.0 6:0.0 7:8.5 8:0.2972972972972973 9:0.10810810810810811 10:0.0 11:3.0 12:1.0 13:1.0 14:1.0 15:266.0 16:17380.0 17:29.0 18:239.0 19:1.0 20:0.0 21:0.0 22:0.0 23:1.0 24:0.0 25:0.0 26:0.0 27:0.0 28:0.0 29:0.0 30:0.0 31:0.0 32:0.0 11569:2.0 11570:1.0 11575:1.0 11881:1.0 11886:1.0 11891:1.0 12596:1.0 12598:1.0 12845:1.0 12846:1.0 12852:1.0 13362:1.0 13369:1.0 13879:1.0 14125:1.0 14130:1.0 14637:1.0 25461:1.0 25955:1.0 25970:2.0 25971:1.0 25972:1.0 26992:2.0 28261:1.0 28717:1.0 28718:1.0 29230:1.0 29285:1.0 29302:1.0 29541:2.0 30066:1.0 30309:1.0 
0.41216783354029457 1:27.0 2:3.0 3:0.0 4:10.0 5:0.0 6:0.0 7:6.0 8:0.0 9:0.0 10:0.0 11:0.0 12:2.0 13:0.0 14:1.0 15:59.0 16:6785.0 17:4.0 18:102.0 19:1.0 20:0.0 21:0.0 22:0.0 23:1.0 24:2.0 25:2.0 26:1.0 27:0.0 28:0.0 29:0.0 30:0.0 31:1020000.0 32:0.0 11875:2.0 11898:1.0 24940:1.0 25445:1.0 25455:1.0 25902:1.0 25966:1.0 26991:1.0 26996:1.0 27756:1.0 27763:1.0 28257:1.0 28276:1.0 28462:1.0 28526:1.0 29289:1.0 29557:1.0 29797:1.0 29813:1.0 30057:1.0 30066:1.0 30510:1.0 30583:2.0 31329:1.0 
0.05305060379677212 1:21.0 2:2.0 3:1.0 4:5.0 5:0.0 6:0.0 7:6.333333333333333 8:0.047619047619047616 9:0.0 10:0.0 11:1.0 12:1.0 13:0.0 14:0.0 23:1.0 24:0.0 25:0.0 26:0.0 27:0.0 28:0.0 29:0.0 30:0.0 31:17200.0 32:0.0 11827:1.0 11875:1.0 13156:1.0 25445:1.0 25455:1.0 25701:1.0 25966:1.0 25970:1.0 25971:1.0 26478:1.0 26983:1.0 28259:1.0 28276:1.0 28525:1.0 29230:1.0 29545:1.0 29797:1.0 30510:1.0 30583:2.0 
