svm_type c_svc
kernel_type rbf
gamma 3.189385724309498E-5
nr_class 2
total_sv 276
rho 0.6625235755540797
label 1 -1
nr_sv 91 185
SV
1.0 1:10.0 2:1.0 3:6.0 4:0.0 5:1.0 6:0.0 7:4.5 8:0.6 9:0.1 10:0.0 11:3.0 12:0.0 13:1.0 14:0.0 23:0.0 24:2.0 25:20.0 26:0.0 27:0.0 28:0.0 29:0.0 30:0.0 31:82.0 32:0.0 11568:1.0 11875:1.0 12333:1.0 12334:1.0 12336:4.0 25454:1.0 
0.740202653207247 1:10.0 2:1.0 3:6.0 4:1.0 5:0.0 6:0.0 7:4.5 8:0.6 9:0.0 10:0.0 11:6.0 12:1.0 13:0.0 14:0.0 23:1.0 24:12.0 25:12.0 26:0.0 27:0.0 28:0.0 29:0.0 30:0.0 31:0.0 32:0.0 11875:1.0 12336:1.0 12342:1.0 13112:1.0 13360:1.0 13875:1.0 14382:1.0 25455:1.0 28525:1.0 
1.0 1:14.0 2:1.0 3:10.0 4:1.0 5:0.0 6:0.0 7:6.5 8:0.7142857142857143 9:0.0 10:0.0 11:10.0 12:1.0 13:0.0 14:1.0 15:25.0 16:1696.0 17:0.0 18:41.0 19:1.0 20:0.0 21:0.0 22:0.0 23:1.0 24:6.0 25:15.0 26:0.0 27:0.0 28:0.0 29:0.0 30:0.0 31:0.0 32:0.0 11875:1.0 12334:1.0 12336:2.0 12342:1.0 12601:1.0 13360:1.0 13878:1.0 13880:1.0 14385:1.0 14640:1.0 25455:1.0 28525:1.0 
0.3275271619868601 1:7.0 2:1.0 3:4.0 4:0.0 5:0.0 6:0.0 7:3.0 8:0.5714285714285714 9:0.0 10:0.0 11:4.0 12:0.0 13:0.0 14:0.0 23:1.0 24:6.0 25:15.0 26:0.0 27:0.0 28:0.0 29:0.0 30:0.0 31:706.0 32:0.0 11880:1.0 12336:1.0 12344:1.0 13360:1.0 14382:1.0 26731:1.0 
1.0 1:7.0 2:1.0 3:3.0 4:1.0 5:0.0 6:0.0 7:3.0 8:0.42857142857142855 9:0.0 10:0.0 11:3.0 12:1.0 13:0.0 14:0.0 23:2.0 24:2.0 25:2.0 26:0.0 27:0.0 28:0.0 29:0.0 30:0.0 31:73800.0 32:0.0 11875:1.0 12336:1.0 12385:1.0 13360:1.0 24878:1.0 25454:1.0 
1.0 1:9.0 2:1.0 3:2.0 4:2.0 5:0.0 6:0.0 7:4.0 8:0.2222222222222222 9:0.0 10:0.0 11:2.0 12:1.0 13:0.0 14:0.0 23:1.0 24:0.0 25:0.0 26:0.0 27:0.0 28:0.0 29:0.0 30:0.0 31:6180.0 32:0.0 11875:1.0 13366:1.0 13943:1.0 25455:1.0 25966:1.0 28206:1.0 28525:1.0 30565:1.0 
0.7571126563876724 1:9.0 2:1.0 3:5.0 4:1.0 5:0.0 6:0.0 7:4.0 8:0.5555555555555556 9:0.0 10:0.0 11:5.0 12:1.0 13:0.0 14:0.0 23:1.0 24:2.0 25:9.0 26:1.0 27:0.0 28:0.0 29:0.0 30:0.0 31:790.0 32:0.0 11875:1.0 13102:1.0 13107:2.0 13367:1.0 14131:1.0 25455:1.0 28525:1.0 
1.0 1:10.0 2:1.0 3:6.0 4:1.0 5:0.0 6:0.0 7:4.5 8:0.6 9:0.0 10:0.0 11:6.0 12:1.0 13:0.0 14:1.0 15:8.0 16:27191.0 17:0.0 18:6.0 19:0.0 20:0.0 21:0.0 22:0.0 23:1.0 24:2.0 25:10.0 26:0.0 27:0.0 28:0.0 29:0.0 30:0.0 31:0.0 32:0.0 11875:1.0 13102:1.0 13107:1.0 13367:1.0 14137:1.0 14643:1.0 14649:1.0 25455:1.0 28525:1.0 
1.0 1:12.0 2:1.0 3:2.0 4:0.0 5:0.0 6:0.0 7:5.5 8:0.16666666666666666 9:0.0 10:0.0 11:2.0 12:0.0 13:0.0 14:0.0 23:0.0 24:0.0 25:0.0 26:0.0 27:0.0 28:0.0 29:0.0 30:0.0 31:70.0 32:0.0 11888:1.0 13367:1.0 14182:1.0 25715:1.0 26216:1.0 26230:1.0 26468:1.0 26726:1.0 28791:1.0 29486:1.0 30311:1.0 
1.0 1:8.0 2:1.0 3:2.0 4:1.0 5:0.0 6:0.0 7:3.5 8:0.25 9:0.0 10:0.0 11:2.0 12:1.0 13:0.0 14:0.0 23:2.0 24:2.0 25:4.0 26:1.0 27:0.0 28:0.0 29:0.0 30:0.0 31:2090.0 32:0.0 11875:1.0 13367:1.0 14184:1.0 25455:1.0 26746:1.0 28525:1.0 31278:1.0 
0.46174226574966987 1:10.0 2:1.0 3:6.0 4:1.0 5:0.0 6:0.0 7:4.5 8:0.6 9:0.0 10:0.0 11:6.0 12:1.0 13:0.0 14:1.0 15:8.0 16:261.0 17:0.0 18:6.0 19:0.0 20:0.0 21:0.0 22:0.0 23:1.0 24:12.0 25:12.0 26:0.0 27:0.0 28:0.0 29:0.0 30:0.0 31:1.0 32:0.0 11875:1.0 13112:1.0 13368:2.0 14382:1.0 14387:1.0 14388:1.0 25455:1.0 28525:1.0 
1.0 1:8.0 2:1.0 3:4.0 4:1.0 5:0.0 6:0.0 7:3.5 8:0.5 9:0.0 10:0.0 11:4.0 12:1.0 13:0.0 14:0.0 23:1.0 24:2.0 25:8.0 26:1.0 27:0.0 28:0.0 29:0.0 30:0.0 31:21700.0 32:0.0 11875:1.0 13368:1.0 14126:1.0 14391:1.0 14392:1.0 25455:1.0 28525:1.0 
1.0 1:8.0 2:1.0 3:2.0 4:1.0 5:0.0 6:0.0 7:3.5 8:0.25 9:0.0 10:0.0 11:2.0 12:1.0 13:0.0 14:0.0 23:0.0 24:0.0 25:0.0 26:0.0 27:0.0 28:0.0 29:0.0 30:0.0 31:1890.0 32:0.0 11875:1.0 13368:1.0 14438:1.0 25455:1.0 26233:1.0 28525:1.0 31022:1.0 
1.0 1:10.0 2:1.0 3:2.0 4:1.0 5:0.0 6:0.0 7:4.5 8:0.2 9:0.0 10:0.0 11:2.0 12:1.0 13:0.0 14:0.0 23:1.0 24:0.0 25:0.0 26:0.0 27:0.0 28:0.0 29:0.0 30:0.0 31:607.0 32:0.0 11875:1.0 13368:1.0 14457:1.0 25455:1.0 28525:1.0 31022:1.0 31097:3.0 
1.0 1:11.0 2:1.0 3:7.0 4:1.0 5:0.0 6:0.0 7:5.0 8:0.6363636363636364 9:0.0 10:0.0 11:7.0 12:1.0 13:0.0 14:1.0 15:10.0 16:291.0 17:0.0 18:8.0 19:1.0 20:0.0 21:0.0 22:0.0 23:1.0 24:2.0 25:10.0 26:0.0 27:0.0 28:0.0 29:0.0 30:0.0 31:0.0 32:0.0 11875:1.0 12590:1.0 12593:4.0 13369:1.0 14641:1.0 25455:1.0 28525:1.0 
1.0 1:10.0 2:1.0 3:6.0 4:1.0 5:0.0 6:0.0 7:4.5 8:0.6 9:0.0 10:0.0 11:6.0 12:1.0 13:0.0 14:0.0 23:1.0 24:2.0 25:10.0 26:0.0 27:0.0 28:0.0 29:0.0 30:0.0 31:2860.0 32:0.0 11875:1.0 12846:1.0 12850:3.0 13369:1.0 14642:1.0 25455:1.0 28525:1.0 
1.0 1:6.0 2:1.0 3:3.0 4:0.0 5:0.0 6:0.0 7:2.5 8:0.5 9:0.0 10:0.0 11:3.0 12:0.0 13:0.0 14:0.0 23:0.0 24:5.0 25:5.0 26:0.0 27:0.0 28:0.0 29:0.0 30:0.0 31:217000.0 32:0.0 11892:1.0 13102:1.0 13369:1.0 14643:1.0 29814:1.0 
0.08653070665406473 1:10.0 2:1.0 3:6.0 4:1.0 5:0.0 6:0.0 7:4.5 8:0.6 9:0.0 10:0.0 11:6.0 12:1.0 13:0.0 14:1.0 15:7.0 16:161.0 17:1.0 18:6.0 19:0.0 20:0.0 21:0.0 22:0.0 23:1.0 24:0.0 25:0.0 26:0.0 27:0.0 28:0.0 29:0.0 30:0.0 31:2.0 32:0.0 11875:1.0 13107:1.0 13109:1.0 13369:1.0 13614:1.0 13621:1.0 14643:1.0 25455:1.0 28525:1.0 
1.0 1:9.0 2:1.0 3:5.0 4:1.0 5:0.0 6:0.0 7:4.0 8:0.5555555555555556 9:0.0 10:0.0 11:5.0 12:1.0 13:0.0 14:1.0 15:318.0 16:31721.0 17:39.0 18:339.0 19:1.0 20:4.0 21:0.0 22:0.0 23:1.0 24:2.0 25:9.0 26:0.0 27:0.0 28:0.0 29:0.0 30:0.0 31:81.0 32:0.0 11875:1.0 13112:1.0 13369:1.0 14382:1.0 14392:1.0 14643:1.0 25455:1.0 28525:1.0 
1.0 1:9.0 2:1.0 3:4.0 4:1.0 5:1.0 6:0.0 7:4.0 8:0.4444444444444444 9:0.1111111111111111 10:0.0 11:2.0 12:1.0 13:1.0 14:1.0 15:70.0 16:5552.0 17:7.0 18:78.0 19:1.0 20:9.0 21:0.0 22:0.0 23:1.0 24:2.0 25:4.0 26:0.0 27:0.0 28:0.0 29:0.0 30:0.0 31:19800.0 32:0.0 11572:1.0 11875:1.0 13368:1.0 13369:1.0 14382:1.0 14637:1.0 25455:1.0 28525:1.0 
1.0 1:8.0 2:1.0 3:4.0 4:1.0 5:0.0 6:0.0 7:3.5 8:0.5 9:0.0 10:0.0 11:4.0 12:1.0 13:0.0 14:0.0 23:1.0 24:2.0 25:9.0 26:1.0 27:0.0 28:0.0 29:0.0 30:0.0 31:1640.0 32:0.0 11875:1.0 12334:1.0 13369:1.0 13616:1.0 14645:1.0 25455:1.0 28525:1.0 
0.8086475993613865 1:8.0 2:1.0 3:4.0 4:1.0 5:0.0 6:0.0 7:3.5 8:0.5 9:0.0 10:0.0 11:4.0 12:1.0 13:0.0 14:0.0 23:1.0 24:2.0 25:9.0 26:1.0 27:0.0 28:0.0 29:0.0 30:0.0 31:46.0 32:0.0 11875:1.0 13369:1.0 13622:1.0 13870:1.0 14645:1.0 25455:1.0 28525:1.0 
0.2637776939151784 1:9.0 2:1.0 3:5.0 4:1.0 5:0.0 6:0.0 7:4.0 8:0.5555555555555556 9:0.0 10:0.0 11:5.0 12:1.0 13:0.0 14:0.0 23:1.0 24:3.0 25:9.0 26:0.0 27:0.0 28:0.0 29:0.0 30:0.0 31:1000.0 32:0.0 11875:1.0 13369:1.0 13870:1.0 13878:2.0 14646:1.0 25455:1.0 28525:1.0 
1.0 1:10.0 2:1.0 3:6.0 4:1.0 5:0.0 6:0.0 7:4.5 8:0.6 9:0.0 10:0.0 11:6.0 12:1.0 13:0.0 14:1.0 15:187.0 16:7615.0 17:38.0 18:203.0 19:1.0 20:0.0 21:0.0 22:0.0 23:1.0 24:2.0 25:10.0 26:0.0 27:0.0 28:0.0 29:0.0 30:0.0 31:0.0 32:0.0 11875:1.0 12341:1.0 13369:1.0 13614:1.0 13621:1.0 14640:1.0 14649:1.0 25455:1.0 28525:1.0 
1.0 1:8.0 2:1.0 3:2.0 4:1.0 5:0.0 6:0.0 7:3.5 8:0.25 9:0.0 10:0.0 11:2.0 12:1.0 13:0.0 14:0.0 23:0.0 24:0.0 25:0.0 26:0.0 27:0.0 28:0.0 29:0.0 30:0.0 31:5480.0 32:0.0 11875:1.0 13369:1.0 14692:1.0 25455:1.0 25714:1.0 28525:1.0 29230:1.0 
1.0 1:8.0 2:1.0 3:2.0 4:1.0 5:0.0 6:0.0 7:3.5 8:0.25 9:0.0 10:0.0 11:2.0 12:1.0 13:0.0 14:0.0 23:0.0 24:0.0 25:0.0 26:0.0 27:0.0 28:0.0 29:0.0 30:0.0 31:68.0 32:0.0 11875:1.0 13369:1.0 14692:1.0 25455:1.0 25718:1.0 28525:1.0 30254:1.0 
1.0 1:8.0 2:1.0 3:2.0 4:1.0 5:0.0 6:0.0 7:3.5 8:0.25 9:0.0 10:0.0 11:2.0 12:1.0 13:0.0 14:0.0 23:0.0 24:0.0 25:0.0 26:0.0 27:0.0 28:0.0 29:0.0 30:0.0 31:5050.0 32:0.0 11875:1.0 13369:1.0 14694:1.0 25455:1.0 26226:1.0 28525:1.0 29230:1.0 
1.0 1:8.0 2:1.0 3:2.0 4:2.0 5:0.0 6:0.0 7:3.5 8:0.25 9:0.0 10:0.0 11:2.0 12:1.0 13:0.0 14:0.0 23:1.0 24:2.0 25:10.0 26:0.0 27:0.0 28:0.0 29:0.0 30:0.0 31:9740.0 32:0.0 11875:1.0 13369:1.0 14701:1.0 24878:1.0 25455:1.0 28001:1.0 28525:1.0 
1.0 1:6.0 2:1.0 3:1.0 4:2.0 5:0.0 6:0.0 7:2.5 8:0.16666666666666666 9:0.0 10:0.0 11:1.0 12:2.0 13:0.0 14:0.0 23:0.0 24:0.0 25:0.0 26:0.0 27:0.0 28:0.0 29:0.0 30:0.0 31:96100.0 32:0.0 11875:1.0 13409:1.0 24878:1.0 24929:1.0 25443:1.0 
1.0 1:9.0 2:1.0 3:1.0 4:1.0 5:0.0 6:0.0 7:4.0 8:0.1111111111111111 9:0.0 10:0.0 11:1.0 12:1.0 13:0.0 14:0.0 23:1.0 24:2.0 25:10.0 26:1.0 27:0.0 28:0.0 29:0.0 30:0.0 31:7840.0 32:0.0 11875:1.0 13410:1.0 25134:1.0 25186:3.0 25455:1.0 28525:1.0 
1.0 1:5.0 2:1.0 3:1.0 4:0.0 5:0.0 6:0.0 7:2.0 8:0.2 9:0.0 10:0.0 11:1.0 12:0.0 13:0.0 14:1.0 15:353.0 16:21664.0 17:6.0 18:378.0 19:1.0 20:0.0 21:0.0 22:0.0 23:1.0 24:0.0 25:0.0 26:0.0 27:0.0 28:0.0 29:0.0 30:0.0 31:3660.0 32:0.0 11880:1.0 13411:1.0 25390:1.0 26731:1.0 
1.0 1:9.0 2:1.0 3:1.0 4:1.0 5:0.0 6:0.0 7:4.0 8:0.1111111111111111 9:0.0 10:0.0 11:1.0 12:1.0 13:0.0 14:0.0 23:2.0 24:0.0 25:0.0 26:0.0 27:0.0 28:0.0 29:0.0 30:0.0 31:34.0 32:0.0 11875:1.0 13412:1.0 25455:1.0 25700:1.0 25720:1.0 28525:1.0 30766:1.0 30840:1.0 
1.0 1:9.0 2:1.0 3:1.0 4:2.0 5:0.0 6:0.0 7:4.0 8:0.1111111111111111 9:0.0 10:0.0 11:1.0 12:1.0 13:0.0 14:1.0 15:148.0 16:8412.0 17:60.0 18:162.0 19:1.0 20:0.0 21:0.0 22:0.0 23:1.0 24:2.0 25:10.0 26:0.0 27:0.0 28:0.0 29:0.0 30:0.0 31:10.0 32:0.0 11886:1.0 13414:1.0 24942:1.0 25972:1.0 26209:1.0 26414:1.0 28261:1.0 28263:1.0 
1.0 1:7.0 2:1.0 3:1.0 4:2.0 5:0.0 6:0.0 7:3.0 8:0.14285714285714285 9:0.0 10:0.0 11:1.0 12:1.0 13:0.0 14:0.0 23:1.0 24:0.0 25:0.0 26:0.0 27:0.0 28:0.0 29:0.0 30:0.0 31:20300.0 32:0.0 11887:1.0 13414:1.0 26229:1.0 28530:1.0 29287:1.0 29998:1.0 
0.10028083204001897 1:8.0 2:1.0 3:1.0 4:1.0 5:0.0 6:0.0 7:3.5 8:0.125 9:0.0 10:0.0 11:1.0 12:1.0 13:0.0 14:0.0 23:0.0 24:0.0 25:0.0 26:0.0 27:0.0 28:0.0 29:0.0 30:0.0 31:728.0 32:0.0 11875:1.0 13414:1.0 25455:1.0 26234:1.0 28525:1.0 31278:1.0 31354:1.0 
1.0 1:10.0 2:1.0 3:0.0 4:4.0 5:0.0 6:0.0 7:4.5 8:0.0 9:0.0 10:0.0 11:0.0 12:2.0 13:0.0 14:0.0 23:0.0 24:0.0 25:0.0 26:0.0 27:0.0 28:0.0 29:0.0 30:0.0 31:1850.0 32:0.0 11875:1.0 25454:1.0 25977:1.0 26735:1.0 28005:1.0 28462:1.0 28525:1.0 28527:1.0 31087:1.0 
1.0 1:12.0 2:1.0 3:0.0 4:4.0 5:0.0 6:0.0 7:5.5 8:0.0 9:0.0 10:0.0 11:0.0 12:1.0 13:0.0 14:0.0 23:2.0 24:0.0 25:0.0 26:1.0 27:0.0 28:0.0 29:0.0 30:0.0 31:1.0 32:0.0 11886:1.0 25193:1.0 25972:1.0 26466:1.0 26735:1.0 26926:1.0 27002:1.0 28261:1.0 28263:1.0 28526:1.0 31337:1.0 
1.0 1:12.0 2:1.0 3:0.0 4:3.0 5:0.0 6:0.0 7:5.5 8:0.0 9:0.0 10:0.0 11:0.0 12:1.0 13:0.0 14:1.0 15:570.0 16:33689.0 17:220.0 18:648.0 19:1.0 20:0.0 21:0.0 22:0.0 23:1.0 24:2.0 25:6.0 26:0.0 27:0.0 28:0.0 29:0.0 30:0.0 31:1.0 32:0.0 11875:1.0 24935:1.0 25455:1.0 25697:1.0 26468:1.0 26474:1.0 26735:1.0 27182:1.0 28263:1.0 28525:1.0 28526:1.0 
1.0 1:17.0 2:1.0 3:0.0 4:4.0 5:1.0 6:0.0 7:8.0 8:0.0 9:0.058823529411764705 10:0.0 11:0.0 12:1.0 13:1.0 14:0.0 23:1.0 24:2.0 25:2.0 26:0.0 27:0.0 28:0.0 29:0.0 30:0.0 31:3240.0 32:0.0 11636:1.0 11886:1.0 25972:1.0 26413:1.0 26475:1.0 26735:1.0 26992:1.0 27503:1.0 28261:1.0 28263:2.0 28526:2.0 28718:1.0 29289:1.0 29810:1.0 
1.0 1:15.0 2:2.0 3:0.0 4:1.0 5:0.0 6:0.0 7:4.333333333333333 8:0.0 9:0.0 10:0.0 11:0.0 12:1.0 13:0.0 14:0.0 23:0.0 24:0.0 25:0.0 26:0.0 27:0.0 28:0.0 29:0.0 30:0.0 31:1160.0 32:0.0 11873:1.0 11875:1.0 24952:1.0 25454:1.0 25459:1.0 26489:1.0 26738:1.0 27694:1.0 28012:1.0 29293:1.0 29486:1.0 29799:1.0 30836:1.0 31075:1.0 
1.0 1:10.0 2:1.0 3:0.0 4:2.0 5:0.0 6:0.0 7:4.5 8:0.0 9:0.0 10:0.0 11:0.0 12:1.0 13:0.0 14:0.0 23:1.0 24:0.0 25:0.0 26:0.0 27:0.0 28:0.0 29:0.0 30:0.0 31:11400.0 32:0.0 11875:1.0 25454:1.0 25970:1.0 26738:1.0 28535:1.0 28783:1.0 29230:1.0 29296:1.0 30565:1.0 
1.0 1:10.0 2:1.0 3:0.0 4:3.0 5:0.0 6:0.0 7:4.5 8:0.0 9:0.0 10:0.0 11:0.0 12:2.0 13:0.0 14:1.0 15:177.0 16:11540.0 17:85.0 18:263.0 19:1.0 20:0.0 21:0.0 22:0.0 23:1.0 24:2.0 25:6.0 26:0.0 27:0.0 28:0.0 29:0.0 30:0.0 31:0.0 32:0.0 11875:1.0 24949:1.0 25455:1.0 26738:1.0 28525:1.0 29304:1.0 29742:1.0 30068:1.0 30817:1.0 
1.0 1:11.0 2:1.0 3:0.0 4:3.0 5:0.0 6:0.0 7:5.0 8:0.0 9:0.0 10:0.0 11:0.0 12:2.0 13:0.0 14:0.0 23:1.0 24:2.0 25:2.0 26:0.0 27:0.0 28:0.0 29:0.0 30:0.0 31:6510.0 32:0.0 11875:1.0 24948:1.0 25454:1.0 25458:1.0 25902:1.0 25953:1.0 26739:1.0 29285:1.0 29539:1.0 29797:1.0 
1.0 1:9.0 2:1.0 3:0.0 4:1.0 5:0.0 6:0.0 7:4.0 8:0.0 9:0.0 10:0.0 11:0.0 12:1.0 13:0.0 14:1.0 15:300.0 16:16805.0 17:40.0 18:230.0 19:1.0 20:0.0 21:0.0 22:0.0 23:1.0 24:2.0 25:12.0 26:0.0 27:0.0 28:0.0 29:0.0 30:0.0 31:0.0 32:0.0 11875:1.0 25455:1.0 25712:1.0 26739:1.0 28525:1.0 28788:1.0 29540:1.0 29742:1.0 
1.0 1:10.0 2:1.0 3:0.0 4:1.0 5:0.0 6:0.0 7:4.5 8:0.0 9:0.0 10:0.0 11:0.0 12:1.0 13:0.0 14:0.0 23:1.0 24:0.0 25:0.0 26:0.0 27:0.0 28:0.0 29:0.0 30:0.0 31:1020.0 32:0.0 11875:1.0 25455:1.0 25720:1.0 26739:1.0 28525:1.0 29540:1.0 30841:1.0 31022:1.0 31097:1.0 
0.8436587971225639 1:12.0 2:1.0 3:0.0 4:4.0 5:0.0 6:0.0 7:5.5 8:0.0 9:0.0 10:0.0 11:0.0 12:2.0 13:0.0 14:0.0 23:0.0 24:0.0 25:0.0 26:0.0 27:0.0 28:0.0 29:0.0 30:0.0 31:0.0 32:0.0 11875:1.0 24937:1.0 25441:1.0 25455:1.0 26220:1.0 26739:1.0 26926:1.0 27765:1.0 28525:1.0 29542:1.0 30051:1.0 
1.0 1:9.0 2:1.0 3:0.0 4:1.0 5:0.0 6:0.0 7:4.0 8:0.0 9:0.0 10:0.0 11:0.0 12:1.0 13:0.0 14:0.0 23:1.0 24:2.0 25:12.0 26:0.0 27:0.0 28:0.0 29:0.0 30:0.0 31:77.0 32:0.0 11875:1.0 25447:1.0 25455:1.0 26414:1.0 26723:1.0 26739:1.0 28525:1.0 29544:1.0 
1.0 1:13.0 2:2.0 3:0.0 4:4.0 5:0.0 6:0.0 7:3.6666666666666665 8:0.0 9:0.0 10:0.0 11:0.0 12:3.0 13:0.0 14:1.0 15:179.0 16:16233.0 17:28.0 18:180.0 19:1.0 20:0.0 21:0.0 22:0.0 23:1.0 24:0.0 25:0.0 26:0.0 27:0.0 28:0.0 29:0.0 30:0.0 31:1840.0 32:0.0 11875:2.0 24943:1.0 25454:1.0 25455:1.0 26739:1.0 26977:1.0 27241:1.0 27950:1.0 28462:1.0 28525:1.0 29546:1.0 
1.0 1:10.0 2:1.0 3:0.0 4:0.0 5:0.0 6:0.0 7:4.5 8:0.0 9:0.0 10:0.0 11:0.0 12:0.0 13:0.0 14:0.0 23:1.0 24:0.0 25:0.0 26:0.0 27:0.0 28:0.0 29:0.0 30:0.0 31:2520.0 32:0.0 11892:1.0 25718:1.0 26468:1.0 26739:1.0 27252:1.0 29546:1.0 29799:1.0 29803:1.0 30254:1.0 
1.0 1:9.0 2:1.0 3:0.0 4:1.0 5:0.0 6:0.0 7:4.0 8:0.0 9:0.0 10:0.0 11:0.0 12:1.0 13:0.0 14:0.0 23:1.0 24:2.0 25:6.0 26:1.0 27:0.0 28:0.0 29:0.0 30:0.0 31:1750.0 32:0.0 11875:1.0 25444:1.0 25455:1.0 25646:1.0 26739:1.0 27747:1.0 28525:1.0 29548:1.0 
1.0 1:9.0 2:1.0 3:0.0 4:1.0 5:0.0 6:0.0 7:4.0 8:0.0 9:0.0 10:0.0 11:0.0 12:1.0 13:0.0 14:0.0 23:0.0 24:6.0 25:8.0 26:0.0 27:0.0 28:0.0 29:0.0 30:0.0 31:0.0 32:0.0 11875:1.0 25455:1.0 25646:1.0 26212:1.0 26739:1.0 27750:1.0 28525:1.0 29548:1.0 
1.0 1:12.0 2:1.0 3:0.0 4:2.0 5:0.0 6:0.0 7:5.5 8:0.0 9:0.0 10:0.0 11:0.0 12:1.0 13:0.0 14:0.0 23:1.0 24:0.0 25:0.0 26:0.0 27:0.0 28:0.0 29:0.0 30:0.0 31:71.0 32:0.0 11875:1.0 25454:1.0 25455:1.0 26739:1.0 27769:1.0 28206:1.0 28524:1.0 28525:1.0 28783:1.0 29552:1.0 31075:1.0 
1.0 1:7.0 2:1.0 3:0.0 4:0.0 5:0.0 6:0.0 7:3.0 8:0.0 9:0.0 10:0.0 11:0.0 12:0.0 13:0.0 14:0.0 23:0.0 24:0.0 25:0.0 26:0.0 27:0.0 28:0.0 29:0.0 30:0.0 31:244000.0 32:0.0 11875:1.0 25443:1.0 26739:1.0 28974:1.0 29041:1.0 29553:1.0 
1.0 1:19.0 2:3.0 3:0.0 4:4.0 5:0.0 6:0.0 7:4.0 8:0.0 9:0.0 10:0.0 11:0.0 12:2.0 13:0.0 14:1.0 15:337.0 16:24171.0 17:100.0 18:455.0 19:1.0 20:1.0 21:0.0 22:0.0 23:3.0 24:0.0 25:0.0 26:1.0 27:0.0 28:0.0 29:0.0 30:0.0 31:0.0 32:0.0 11875:1.0 11879:1.0 11891:1.0 25454:1.0 26479:1.0 26729:1.0 26739:1.0 26988:1.0 27759:1.0 28533:1.0 28534:1.0 29544:1.0 29560:1.0 29562:1.0 29998:1.0 30254:1.0 30835:1.0 31278:1.0 
1.0 1:16.0 2:2.0 3:2.0 4:3.0 5:0.0 6:0.0 7:4.666666666666667 8:0.125 9:0.0 10:0.0 11:2.0 12:1.0 13:0.0 14:1.0 15:96.0 16:4713.0 17:26.0 18:79.0 19:1.0 20:0.0 21:0.0 22:0.0 23:1.0 24:0.0 25:0.0 26:0.0 27:0.0 28:0.0 29:0.0 30:0.0 31:0.0 32:0.0 11874:1.0 11875:1.0 12846:1.0 13874:1.0 25196:1.0 25205:1.0 25455:1.0 26466:1.0 26740:1.0 27759:1.0 28519:1.0 28525:1.0 29486:1.0 29750:1.0 30067:1.0 
0.7682383707916057 1:30.0 2:4.0 3:3.0 4:8.0 5:0.0 6:0.0 7:5.2 8:0.1 9:0.0 10:0.0 11:3.0 12:2.0 13:0.0 14:0.0 23:4.0 24:0.0 25:0.0 26:0.0 27:0.0 28:0.0 29:0.0 30:0.0 31:1.0 32:0.0 11832:1.0 11875:2.0 11881:1.0 12336:1.0 12387:1.0 14384:1.0 24948:1.0 24949:1.0 25390:1.0 25444:1.0 25455:2.0 25710:1.0 26414:1.0 26740:1.0 26979:1.0 26989:1.0 27950:1.0 28001:1.0 28007:1.0 28206:1.0 28525:3.0 29793:1.0 29801:1.0 29807:1.0 30068:1.0 
1.0 1:31.0 2:2.0 3:0.0 4:7.0 5:0.0 6:0.0 7:9.666666666666666 8:0.0 9:0.0 10:0.0 11:0.0 12:2.0 13:0.0 14:0.0 23:1.0 24:0.0 25:0.0 26:0.0 27:0.0 28:0.0 29:0.0 30:0.0 31:0.0 32:0.0 11875:1.0 11883:1.0 24948:1.0 25448:1.0 25455:1.0 25966:1.0 26158:1.0 26217:1.0 26218:1.0 26725:1.0 26731:1.0 26740:1.0 26995:1.0 26996:1.0 27238:1.0 27489:1.0 27497:1.0 27503:1.0 28206:1.0 28276:1.0 28525:1.0 28533:1.0 29305:1.0 29544:1.0 29795:1.0 29798:2.0 29810:1.0 30062:1.0 31083:1.0 
1.0 1:9.0 2:1.0 3:0.0 4:1.0 5:0.0 6:0.0 7:4.0 8:0.0 9:0.0 10:0.0 11:0.0 12:1.0 13:0.0 14:0.0 23:1.0 24:4.0 25:4.0 26:0.0 27:0.0 28:0.0 29:0.0 30:0.0 31:1310.0 32:0.0 11875:1.0 25455:1.0 26414:1.0 26731:1.0 26740:1.0 27495:1.0 28525:1.0 29800:1.0 
1.0 1:11.0 2:1.0 3:0.0 4:2.0 5:0.0 6:0.0 7:5.0 8:0.0 9:0.0 10:0.0 11:0.0 12:1.0 13:0.0 14:1.0 15:11.0 16:430.0 17:0.0 18:10.0 19:0.0 20:0.0 21:0.0 22:0.0 23:1.0 24:6.0 25:12.0 26:0.0 27:0.0 28:0.0 29:0.0 30:0.0 31:1550.0 32:0.0 11875:1.0 25455:1.0 26735:1.0 26740:1.0 27763:1.0 28525:1.0 28535:1.0 29544:1.0 29804:1.0 30510:1.0 
1.0 1:9.0 2:1.0 3:0.0 4:2.0 5:0.0 6:0.0 7:4.0 8:0.0 9:0.0 10:0.0 11:0.0 12:1.0 13:0.0 14:0.0 23:1.0 24:2.0 25:10.0 26:0.0 27:0.0 28:0.0 29:0.0 30:0.0 31:45.0 32:0.0 11886:1.0 25972:1.0 26740:1.0 28261:1.0 28271:1.0 28535:1.0 29806:1.0 30510:1.0 
1.0 1:8.0 2:1.0 3:0.0 4:1.0 5:0.0 6:0.0 7:3.5 8:0.0 9:0.0 10:0.0 11:0.0 12:1.0 13:0.0 14:0.0 23:1.0 24:0.0 25:0.0 26:0.0 27:0.0 28:0.0 29:0.0 30:0.0 31:98.0 32:0.0 11875:1.0 25455:1.0 26740:1.0 28525:1.0 29812:1.0 29816:1.0 30766:1.0 
1.0 1:8.0 2:1.0 3:0.0 4:0.0 5:0.0 6:0.0 7:3.5 8:0.0 9:0.0 10:0.0 11:0.0 12:0.0 13:0.0 14:1.0 15:359.0 16:22266.0 17:166.0 18:598.0 19:1.0 20:0.0 21:0.0 22:0.0 23:1.0 24:0.0 25:0.0 26:1.0 27:0.0 28:0.0 29:0.0 30:0.0 31:2180.0 32:0.0 11875:1.0 25454:1.0 26740:1.0 29486:1.0 29817:1.0 31098:1.0 31347:1.0 
1.0 1:12.0 2:1.0 3:0.0 4:5.0 5:0.0 6:0.0 7:5.5 8:0.0 9:0.0 10:0.0 11:0.0 12:2.0 13:0.0 14:0.0 23:0.0 24:0.0 25:0.0 26:0.0 27:0.0 28:0.0 29:0.0 30:0.0 31:1.0 32:0.0 11875:1.0 24930:1.0 25189:1.0 25455:1.0 25961:1.0 26741:1.0 26994:1.0 27694:1.0 28525:1.0 29292:1.0 30049:1.0 
1.0 1:14.0 2:2.0 3:0.0 4:4.0 5:0.0 6:0.0 7:4.0 8:0.0 9:0.0 10:0.0 11:0.0 12:1.0 13:0.0 14:1.0 15:1000.0 16:81995.0 17:80.0 18:805.0 19:1.0 20:0.0 21:0.0 22:0.0 23:1.0 24:0.0 25:0.0 26:0.0 27:0.0 28:0.0 29:0.0 30:0.0 31:0.0 32:0.0 11875:1.0 11898:1.0 24942:1.0 25455:1.0 26988:1.0 26989:1.0 27514:1.0 27745:1.0 28009:1.0 28206:1.0 28525:1.0 31278:1.0 31337:1.0 
1.0 1:9.0 2:1.0 3:0.0 4:1.0 5:0.0 6:0.0 7:4.0 8:0.0 9:0.0 10:0.0 11:0.0 12:1.0 13:0.0 14:0.0 23:1.0 24:6.0 25:8.0 26:0.0 27:0.0 28:0.0 29:0.0 30:0.0 31:0.0 32:0.0 11875:1.0 25455:1.0 26484:1.0 26727:1.0 27514:1.0 28525:1.0 29742:1.0 31336:1.0 
1.0 1:17.0 2:2.0 3:0.0 4:5.0 5:0.0 6:0.0 7:5.0 8:0.0 9:0.0 10:0.0 11:0.0 12:2.0 13:0.0 14:0.0 23:0.0 24:0.0 25:0.0 26:0.0 27:0.0 28:0.0 29:0.0 30:0.0 31:88.0 32:0.0 11875:1.0 11897:1.0 24943:1.0 25449:1.0 25452:1.0 27002:1.0 27514:1.0 28462:1.0 28536:1.0 29551:1.0 30072:1.0 30766:1.0 30819:1.0 31073:1.0 31347:1.0 31349:1.0 
0.8795611747757377 1:8.0 2:1.0 3:0.0 4:1.0 5:0.0 6:0.0 7:3.5 8:0.0 9:0.0 10:0.0 11:0.0 12:1.0 13:0.0 14:0.0 23:1.0 24:6.0 25:8.0 26:1.0 27:0.0 28:0.0 29:0.0 30:0.0 31:929.0 32:0.0 11886:1.0 25972:1.0 27514:1.0 28261:1.0 30841:1.0 31022:1.0 31352:1.0 
1.0 1:14.0 2:3.0 3:3.0 4:1.0 5:0.0 6:0.0 7:2.75 8:0.21428571428571427 9:0.0 10:0.0 11:3.0 12:1.0 13:0.0 14:0.0 23:1.0 24:0.0 25:0.0 26:0.0 27:0.0 28:0.0 29:0.0 30:0.0 31:78.0 32:0.0 11829:1.0 11875:1.0 11892:1.0 12342:1.0 13616:1.0 13936:1.0 25455:1.0 27438:1.0 27694:1.0 28525:1.0 28779:1.0 29742:1.0 29812:1.0 
1.0 1:10.0 2:1.0 3:5.0 4:1.0 5:0.0 6:0.0 7:4.5 8:0.5 9:0.0 10:0.0 11:5.0 12:1.0 13:0.0 14:0.0 23:0.0 24:2.0 25:6.0 26:0.0 27:0.0 28:0.0 29:0.0 30:0.0 31:5130.0 32:0.0 11875:1.0 12334:1.0 12336:4.0 25455:1.0 27696:1.0 28525:1.0 
1.0 1:9.0 2:2.0 3:2.0 4:0.0 5:0.0 6:0.0 7:2.3333333333333335 8:0.2222222222222222 9:0.0 10:0.0 11:1.0 12:0.0 13:0.0 14:0.0 23:1.0 24:0.0 25:0.0 26:1.0 27:0.0 28:0.0 29:0.0 30:0.0 31:78.0 32:0.0 11875:1.0 11888:1.0 12590:1.0 13102:1.0 25454:1.0 27697:1.0 28723:1.0 28784:1.0 
1.0 1:10.0 2:1.0 3:1.0 4:3.0 5:1.0 6:0.0 7:4.5 8:0.1 9:0.1 10:0.0 11:1.0 12:1.0 13:1.0 14:0.0 23:0.0 24:0.0 25:0.0 26:0.0 27:0.0 28:0.0 29:0.0 30:0.0 31:33900.0 32:0.0 11628:1.0 11890:1.0 12845:1.0 25902:1.0 26213:1.0 26982:1.0 27698:1.0 27753:1.0 29301:1.0 
1.0 1:26.0 2:2.0 3:0.0 4:11.0 5:0.0 6:0.0 7:8.0 8:0.0 9:0.0 10:0.0 11:0.0 12:2.0 13:0.0 14:0.0 23:1.0 24:2.0 25:2.0 26:0.0 27:0.0 28:0.0 29:0.0 30:0.0 31:1600.0 32:0.0 11874:1.0 11875:1.0 24930:1.0 24948:1.0 25193:1.0 25199:1.0 25202:1.0 25455:1.0 25902:1.0 26991:2.0 27745:1.0 27950:1.0 28271:1.0 28514:1.0 28525:1.0 28526:1.0 28530:3.0 29281:1.0 29289:1.0 29300:1.0 29797:1.0 29807:1.0 
1.0 1:12.0 2:1.0 3:0.0 4:3.0 5:1.0 6:0.0 7:5.5 8:0.0 9:0.08333333333333333 10:0.0 11:0.0 12:1.0 13:1.0 14:0.0 23:0.0 24:2.0 25:4.0 26:1.0 27:0.0 28:0.0 29:0.0 30:0.0 31:585.0 32:0.0 11635:1.0 11875:1.0 24930:1.0 24946:1.0 25133:1.0 25455:1.0 27745:1.0 28525:1.0 29230:1.0 29556:1.0 29793:1.0 
1.0 1:16.0 2:1.0 3:0.0 4:5.0 5:0.0 6:0.0 7:7.5 8:0.0 9:0.0 10:0.0 11:0.0 12:1.0 13:0.0 14:0.0 23:1.0 24:4.0 25:4.0 26:0.0 27:0.0 28:0.0 29:0.0 30:0.0 31:106.0 32:0.0 11875:1.0 24931:1.0 24946:1.0 25189:1.0 25448:1.0 25455:1.0 25971:1.0 27694:1.0 27745:1.0 27759:1.0 28002:1.0 28524:1.0 28525:1.0 29292:1.0 29537:1.0 
1.0 1:14.0 2:1.0 3:0.0 4:5.0 5:0.0 6:0.0 7:6.5 8:0.0 9:0.0 10:0.0 11:0.0 12:1.0 13:0.0 14:0.0 23:1.0 24:2.0 25:10.0 26:0.0 27:0.0 28:0.0 29:0.0 30:0.0 31:85300.0 32:0.0 11875:1.0 24878:1.0 24931:1.0 25448:1.0 25455:2.0 26729:1.0 26990:1.0 27745:1.0 28003:1.0 28257:1.0 28525:2.0 
1.0 1:12.0 2:1.0 3:0.0 4:5.0 5:0.0 6:0.0 7:5.5 8:0.0 9:0.0 10:0.0 11:0.0 12:3.0 13:0.0 14:0.0 23:1.0 24:4.0 25:8.0 26:0.0 27:0.0 28:0.0 29:0.0 30:0.0 31:0.0 32:0.0 11875:1.0 24932:1.0 25455:1.0 25721:1.0 26479:1.0 27745:1.0 28462:1.0 28525:1.0 28527:2.0 31079:1.0 
1.0 1:11.0 2:1.0 3:0.0 4:4.0 5:0.0 6:0.0 7:5.0 8:0.0 9:0.0 10:0.0 11:0.0 12:2.0 13:0.0 14:0.0 23:1.0 24:2.0 25:2.0 26:0.0 27:0.0 28:0.0 29:0.0 30:0.0 31:4320.0 32:0.0 11875:1.0 24932:1.0 24943:1.0 25455:1.0 25721:1.0 26721:1.0 27745:1.0 28462:1.0 28525:1.0 31080:1.0 
1.0 1:12.0 2:1.0 3:0.0 4:4.0 5:0.0 6:0.0 7:5.5 8:0.0 9:0.0 10:0.0 11:0.0 12:1.0 13:0.0 14:0.0 23:0.0 24:0.0 25:0.0 26:0.0 27:0.0 28:0.0 29:0.0 30:0.0 31:6530.0 32:0.0 11886:1.0 24932:1.0 25721:1.0 25902:1.0 25972:1.0 26996:1.0 27745:1.0 28261:1.0 29545:1.0 29797:1.0 31091:1.0 
1.0 1:8.0 2:1.0 3:0.0 4:1.0 5:0.0 6:0.0 7:3.5 8:0.0 9:0.0 10:0.0 11:0.0 12:1.0 13:0.0 14:0.0 23:0.0 24:0.0 25:0.0 26:0.0 27:0.0 28:0.0 29:0.0 30:0.0 31:17200.0 32:0.0 11875:1.0 24932:1.0 25454:1.0 25721:1.0 27745:1.0 31022:1.0 31097:1.0 
1.0 1:11.0 2:1.0 3:0.0 4:4.0 5:0.0 6:0.0 7:5.0 8:0.0 9:0.0 10:0.0 11:0.0 12:2.0 13:0.0 14:1.0 15:171.0 16:10371.0 17:40.0 18:182.0 19:1.0 20:0.0 21:0.0 22:0.0 23:1.0 24:2.0 25:10.0 26:0.0 27:0.0 28:0.0 29:0.0 30:0.0 31:0.0 32:0.0 11875:1.0 25455:1.0 26926:1.0 27770:1.0 28525:1.0 28533:1.0 30073:1.0 31081:1.0 31087:1.0 31353:1.0 
1.0 1:10.0 2:1.0 3:0.0 4:3.0 5:0.0 6:0.0 7:4.5 8:0.0 9:0.0 10:0.0 11:0.0 12:2.0 13:0.0 14:0.0 23:0.0 24:0.0 25:0.0 26:0.0 27:0.0 28:0.0 29:0.0 30:0.0 31:0.0 32:0.0 11875:1.0 25454:1.0 25961:1.0 26926:1.0 27749:1.0 27770:1.0 30060:1.0 31093:1.0 31353:1.0 
1.0 1:12.0 2:2.0 3:4.0 4:3.0 5:0.0 6:0.0 7:3.3333333333333335 8:0.3333333333333333 9:0.0 10:0.0 11:2.0 12:2.0 13:0.0 14:1.0 15:28.0 16:1264.0 17:2.0 18:27.0 19:1.0 20:0.0 21:0.0 22:0.0 23:1.0 24:0.0 25:0.0 26:0.0 27:0.0 28:0.0 29:0.0 30:0.0 31:927.0 32:0.0 11824:1.0 11875:1.0 12334:1.0 12336:2.0 12399:1.0 25455:1.0 27950:1.0 28464:1.0 28525:1.0 28527:1.0 
1.0 1:11.0 2:2.0 3:2.0 4:2.0 5:0.0 6:0.0 7:3.0 8:0.18181818181818182 9:0.0 10:0.0 11:2.0 12:1.0 13:0.0 14:0.0 23:2.0 24:0.0 25:0.0 26:1.0 27:0.0 28:0.0 29:0.0 30:0.0 31:135000.0 32:0.0 11824:1.0 11875:1.0 12341:1.0 13683:1.0 25455:1.0 27950:1.0 28206:1.0 28525:1.0 29557:1.0 30062:1.0 
1.0 1:11.0 2:2.0 3:3.0 4:1.0 5:0.0 6:0.0 7:3.0 8:0.2727272727272727 9:0.0 10:0.0 11:3.0 12:1.0 13:0.0 14:0.0 23:0.0 24:0.0 25:0.0 26:1.0 27:0.0 28:0.0 29:0.0 30:0.0 31:51000.0 32:0.0 11825:1.0 11875:1.0 12593:1.0 12600:1.0 14443:1.0 25455:1.0 27182:1.0 27498:1.0 27950:1.0 28525:1.0 
1.0 1:10.0 2:2.0 3:1.0 4:2.0 5:0.0 6:0.0 7:2.6666666666666665 8:0.1 9:0.0 10:0.0 11:1.0 12:1.0 13:0.0 14:0.0 23:2.0 24:0.0 25:0.0 26:1.0 27:0.0 28:0.0 29:0.0 30:0.0 31:54.0 32:0.0 11825:1.0 11875:1.0 12659:1.0 25455:1.0 25902:1.0 26725:1.0 27950:1.0 28525:1.0 29544:1.0 
1.0 1:12.0 2:2.0 3:3.0 4:2.0 5:0.0 6:0.0 7:3.3333333333333335 8:0.25 9:0.0 10:0.0 11:3.0 12:1.0 13:0.0 14:1.0 15:1615.0 16:114982.0 17:387.0 18:1867.0 19:1.0 20:1.0 21:0.0 22:0.0 23:1.0 24:0.0 25:0.0 26:0.0 27:0.0 28:0.0 29:0.0 30:0.0 31:0.0 32:0.0 11829:1.0 11875:1.0 12663:1.0 13625:1.0 14641:1.0 25455:1.0 25646:1.0 25956:1.0 27950:1.0 28525:1.0 30565:1.0 
1.0 1:13.0 2:2.0 3:7.0 4:1.0 5:0.0 6:0.0 7:3.6666666666666665 8:0.5384615384615384 9:0.0 10:0.0 11:7.0 12:1.0 13:0.0 14:1.0 15:143.0 16:9400.0 17:63.0 18:205.0 19:1.0 20:0.0 21:0.0 22:0.0 23:1.0 24:0.0 25:0.0 26:0.0 27:0.0 28:0.0 29:0.0 30:0.0 31:1.0 32:0.0 11829:1.0 11875:1.0 13625:1.0 14137:1.0 14638:1.0 14647:1.0 14649:3.0 25455:1.0 27950:1.0 28525:1.0 
1.0 1:13.0 2:2.0 3:5.0 4:2.0 5:0.0 6:0.0 7:3.6666666666666665 8:0.38461538461538464 9:0.0 10:0.0 11:5.0 12:1.0 13:0.0 14:0.0 23:0.0 24:0.0 25:0.0 26:0.0 27:0.0 28:0.0 29:0.0 30:0.0 31:1290.0 32:0.0 11873:1.0 11885:1.0 12336:1.0 12344:1.0 12592:1.0 13870:1.0 14390:1.0 24930:1.0 25193:1.0 26929:1.0 27950:1.0 28012:1.0 
1.0 1:12.0 2:2.0 3:0.0 4:5.0 5:0.0 6:0.0 7:3.3333333333333335 8:0.0 9:0.0 10:0.0 11:0.0 12:2.0 13:0.0 14:0.0 23:1.0 24:0.0 25:0.0 26:0.0 27:0.0 28:0.0 29:0.0 30:0.0 31:0.0 32:0.0 11873:1.0 11875:1.0 24935:1.0 25455:1.0 25717:1.0 26479:1.0 27950:1.0 28525:1.0 28533:1.0 29998:1.0 30052:1.0 
1.0 1:10.0 2:2.0 3:1.0 4:3.0 5:0.0 6:0.0 7:2.6666666666666665 8:0.1 9:0.0 10:0.0 11:1.0 12:2.0 13:0.0 14:1.0 15:196.0 16:21105.0 17:16.0 18:154.0 19:1.0 20:0.0 21:0.0 22:0.0 23:1.0 24:0.0 25:0.0 26:0.0 27:0.0 28:0.0 29:0.0 30:0.0 31:0.0 32:0.0 11873:1.0 11875:1.0 14439:1.0 24937:1.0 25455:1.0 26414:1.0 26936:1.0 27950:1.0 28525:1.0 
1.0 1:11.0 2:2.0 3:1.0 4:2.0 5:0.0 6:0.0 7:3.0 8:0.09090909090909091 9:0.0 10:0.0 11:1.0 12:1.0 13:0.0 14:0.0 23:0.0 24:0.0 25:0.0 26:0.0 27:0.0 28:0.0 29:0.0 30:0.0 31:87.0 32:0.0 11873:1.0 11886:1.0 12846:1.0 24950:1.0 25972:1.0 27950:1.0 28261:1.0 29746:1.0 29812:1.0 30324:1.0 
-0.33742593651772895 1:12.0 2:1.0 3:0.0 4:5.0 5:0.0 6:0.0 7:5.5 8:0.0 9:0.0 10:0.0 11:0.0 12:2.0 13:0.0 14:0.0 23:1.0 24:0.0 25:0.0 26:0.0 27:0.0 28:0.0 29:0.0 30:0.0 31:93600.0 32:0.0 11875:1.0 24931:1.0 25199:1.0 25445:1.0 25455:1.0 25954:1.0 26209:1.0 27438:1.0 28523:1.0 28525:1.0 28527:1.0 
-0.33733032668396185 1:11.0 2:1.0 3:0.0 4:5.0 5:0.0 6:0.0 7:5.0 8:0.0 9:0.0 10:0.0 11:0.0 12:2.0 13:0.0 14:0.0 23:1.0 24:4.0 25:4.0 26:0.0 27:0.0 28:0.0 29:0.0 30:0.0 31:497000.0 32:0.0 11875:1.0 25189:1.0 25455:1.0 25902:1.0 28525:1.0 28533:1.0 29813:1.0 30050:1.0 30068:1.0 31087:1.0 
-0.3374789682395837 1:9.0 2:1.0 3:0.0 4:4.0 5:0.0 6:0.0 7:4.0 8:0.0 9:0.0 10:0.0 11:0.0 12:2.0 13:0.0 14:0.0 23:3.0 24:6.0 25:6.0 26:0.0 27:0.0 28:0.0 29:0.0 30:0.0 31:726000.0 32:0.0 11875:1.0 24936:1.0 25455:1.0 26735:1.0 28462:1.0 28525:1.0 28527:1.0 31073:1.0 
-0.33743506296468617 1:9.0 2:1.0 3:0.0 4:4.0 5:0.0 6:0.0 7:4.0 8:0.0 9:0.0 10:0.0 11:0.0 12:2.0 13:0.0 14:1.0 15:6.0 16:116.0 17:0.0 18:5.0 19:0.0 20:0.0 21:0.0 22:0.0 23:4.0 24:5.0 25:5.0 26:0.0 27:0.0 28:0.0 29:0.0 30:0.0 31:7820000.0 32:0.0 11875:1.0 24937:1.0 25185:1.0 25455:1.0 25717:1.0 26980:1.0 28525:1.0 29998:1.0 
-0.3376606004680773 1:13.0 2:1.0 3:0.0 4:6.0 5:0.0 6:0.0 7:6.0 8:0.0 9:0.0 10:0.0 11:0.0 12:2.0 13:0.0 14:0.0 23:1.0 24:3.0 25:3.0 26:0.0 27:0.0 28:0.0 29:0.0 30:0.0 31:1350000.0 32:0.0 11887:1.0 24878:1.0 25705:1.0 25956:1.0 26977:1.0 26987:1.0 26992:1.0 27497:1.0 28530:1.0 28773:1.0 29287:1.0 30569:1.0 
-0.3375136626734265 1:6.0 2:1.0 3:0.0 4:1.0 5:0.0 6:0.0 7:2.5 8:0.0 9:0.0 10:0.0 11:0.0 12:1.0 13:0.0 14:1.0 15:2262.0 16:211233.0 17:963.0 18:2392.0 19:1.0 20:3.0 21:0.0 22:0.0 23:2.0 24:4.0 25:10.0 26:0.0 27:0.0 28:0.0 29:0.0 30:0.0 31:17400.0 32:0.0 11875:1.0 25455:1.0 28525:1.0 28974:1.0 29041:1.0 
-0.3375203065236913 1:12.0 2:1.0 3:0.0 4:4.0 5:0.0 6:0.0 7:5.5 8:0.0 9:0.0 10:0.0 11:0.0 12:1.0 13:0.0 14:1.0 15:4.0 16:44.0 17:0.0 18:4.0 19:0.0 20:0.0 21:0.0 22:0.0 23:0.0 24:4.0 25:4.0 26:0.0 27:0.0 28:0.0 29:0.0 30:0.0 31:83700.0 32:0.0 11875:1.0 25455:1.0 25705:1.0 25956:1.0 26990:2.0 27493:1.0 27753:1.0 28206:1.0 28267:1.0 28525:1.0 
-0.3374746341832648 1:10.0 2:1.0 3:0.0 4:5.0 5:0.0 6:0.0 7:4.5 8:0.0 9:0.0 10:0.0 11:0.0 12:2.0 13:0.0 14:1.0 15:11.0 16:265.0 17:0.0 18:8.0 19:1.0 20:0.0 21:0.0 22:0.0 23:2.0 24:4.0 25:4.0 26:0.0 27:0.0 28:0.0 29:0.0 30:0.0 31:2350000.0 32:0.0 11875:1.0 24943:2.0 25185:1.0 25455:1.0 28462:1.0 28514:1.0 28525:1.0 29793:1.0 
-0.3373172056177794 1:11.0 2:1.0 3:0.0 4:3.0 5:0.0 6:0.0 7:5.0 8:0.0 9:0.0 10:0.0 11:0.0 12:1.0 13:0.0 14:0.0 23:1.0 24:0.0 25:0.0 26:0.0 27:0.0 28:0.0 29:0.0 30:0.0 31:54400.0 32:0.0 11875:1.0 25455:1.0 25970:1.0 26996:1.0 28525:1.0 29230:1.0 29797:1.0 29812:1.0 29815:1.0 30569:1.0 
-0.233567469980958 1:8.0 2:1.0 3:0.0 4:3.0 5:0.0 6:0.0 7:3.5 8:0.0 9:0.0 10:0.0 11:0.0 12:1.0 13:0.0 14:1.0 15:8.0 16:160.0 17:1.0 18:7.0 19:1.0 20:0.0 21:0.0 22:0.0 23:1.0 24:4.0 25:4.0 26:0.0 27:0.0 28:0.0 29:0.0 30:0.0 31:1.0E8 32:0.0 11875:1.0 25455:1.0 25902:1.0 26998:1.0 27753:1.0 28525:1.0 30309:1.0 
-0.3374612801077141 1:10.0 2:1.0 3:0.0 4:4.0 5:0.0 6:0.0 7:4.5 8:0.0 9:0.0 10:0.0 11:0.0 12:1.0 13:0.0 14:0.0 23:6.0 24:6.0 25:6.0 26:0.0 27:0.0 28:0.0 29:0.0 30:0.0 31:545000.0 32:0.0 11875:1.0 24941:1.0 24954:1.0 25455:1.0 28001:1.0 28206:1.0 28525:1.0 28526:1.0 31343:1.0 
-0.33740799894077333 1:11.0 2:2.0 3:0.0 4:3.0 5:0.0 6:0.0 7:3.0 8:0.0 9:0.0 10:0.0 11:0.0 12:1.0 13:0.0 14:1.0 15:3593.0 16:561929.0 17:1642.0 18:4008.0 19:2.0 20:0.0 21:0.0 22:0.0 23:2.0 24:4.0 25:4.0 26:0.0 27:0.0 28:0.0 29:0.0 30:0.0 31:1370000.0 32:0.0 11875:2.0 24878:1.0 25454:1.0 25455:1.0 26990:1.0 27950:1.0 28257:1.0 28525:1.0 29545:1.0 
-0.3373408227957163 1:12.0 2:2.0 3:0.0 4:5.0 5:0.0 6:0.0 7:3.3333333333333335 8:0.0 9:0.0 10:0.0 11:0.0 12:2.0 13:0.0 14:0.0 23:1.0 24:0.0 25:0.0 26:0.0 27:0.0 28:0.0 29:0.0 30:0.0 31:7.13E7 32:0.0 11875:1.0 11881:1.0 25455:1.0 25902:1.0 26476:1.0 26479:1.0 26990:1.0 27749:1.0 28462:1.0 28519:1.0 28527:1.0 
-0.3374475500399181 1:10.0 2:1.0 3:3.0 4:3.0 5:0.0 6:0.0 7:4.5 8:0.3 9:0.0 10:0.0 11:3.0 12:2.0 13:0.0 14:1.0 15:388.0 16:668532.0 17:69.0 18:326.0 19:1.0 20:0.0 21:0.0 22:0.0 23:4.0 24:6.0 25:6.0 26:0.0 27:0.0 28:0.0 29:0.0 30:0.0 31:65500.0 32:0.0 11875:1.0 12594:1.0 12851:1.0 13102:1.0 24943:1.0 25455:1.0 26721:1.0 28465:1.0 28525:1.0 
-0.33744256397158384 1:12.0 2:1.0 3:0.0 4:3.0 5:0.0 6:0.0 7:5.5 8:0.0 9:0.0 10:0.0 11:0.0 12:1.0 13:0.0 14:0.0 23:1.0 24:0.0 25:0.0 26:0.0 27:0.0 28:0.0 29:0.0 30:0.0 31:160000.0 32:0.0 11875:1.0 25196:1.0 25455:1.0 26483:1.0 27759:1.0 28519:1.0 28525:1.0 28532:1.0 28783:1.0 29552:1.0 29742:1.0 
-0.33754375608599435 1:9.0 2:1.0 3:0.0 4:4.0 5:0.0 6:0.0 7:4.0 8:0.0 9:0.0 10:0.0 11:0.0 12:2.0 13:0.0 14:1.0 15:4.0 16:44.0 17:0.0 18:4.0 19:0.0 20:0.0 21:0.0 22:0.0 23:1.0 24:6.0 25:6.0 26:0.0 27:0.0 28:0.0 29:0.0 30:0.0 31:1470000.0 32:0.0 11875:1.0 25199:1.0 25455:1.0 25961:1.0 26978:1.0 28462:1.0 28525:1.0 30565:1.0 
-0.33745250405767974 1:13.0 2:1.0 3:0.0 4:3.0 5:0.0 6:0.0 7:6.0 8:0.0 9:0.0 10:0.0 11:0.0 12:1.0 13:0.0 14:0.0 23:0.0 24:0.0 25:0.0 26:0.0 27:0.0 28:0.0 29:0.0 30:0.0 31:496000.0 32:0.0 11875:1.0 25455:1.0 25712:1.0 25971:1.0 28525:1.0 28530:1.0 28786:1.0 29284:1.0 29285:1.0 29486:1.0 29555:1.0 30575:1.0 
-0.3205474843936266 1:9.0 2:1.0 3:0.0 4:3.0 5:0.0 6:0.0 7:4.0 8:0.0 9:0.0 10:0.0 11:0.0 12:1.0 13:0.0 14:1.0 15:4.0 16:44.0 17:0.0 18:4.0 19:0.0 20:0.0 21:0.0 22:0.0 23:4.0 24:2.0 25:2.0 26:0.0 27:0.0 28:0.0 29:0.0 30:0.0 31:35600.0 32:0.0 11890:1.0 24942:1.0 25701:1.0 25976:1.0 28260:1.0 29301:1.0 30766:1.0 31073:1.0 
-0.3374746341832646 1:11.0 2:2.0 3:0.0 4:4.0 5:0.0 6:0.0 7:3.0 8:0.0 9:0.0 10:0.0 11:0.0 12:2.0 13:0.0 14:1.0 15:349.0 16:23841.0 17:64.0 18:380.0 19:1.0 20:0.0 21:0.0 22:0.0 23:2.0 24:4.0 25:4.0 26:0.0 27:0.0 28:0.0 29:0.0 30:0.0 31:173000.0 32:0.0 11875:1.0 11882:1.0 24936:1.0 25455:1.0 26735:1.0 27248:1.0 28462:2.0 28527:1.0 31073:1.0 
-0.33757675987967106 1:8.0 2:1.0 3:0.0 4:2.0 5:0.0 6:0.0 7:3.5 8:0.0 9:0.0 10:0.0 11:0.0 12:1.0 13:0.0 14:1.0 15:223.0 16:161823.0 17:36.0 18:192.0 19:1.0 20:0.0 21:0.0 22:0.0 23:2.0 24:4.0 25:4.0 26:0.0 27:0.0 28:0.0 29:0.0 30:0.0 31:3000.0 32:0.0 11875:1.0 25193:1.0 25455:1.0 26414:1.0 26990:1.0 28263:1.0 28525:1.0 
-0.30516700296166954 1:9.0 2:1.0 3:0.0 4:2.0 5:0.0 6:0.0 7:4.0 8:0.0 9:0.0 10:0.0 11:0.0 12:1.0 13:0.0 14:1.0 15:11.0 16:265.0 17:0.0 18:8.0 19:1.0 20:0.0 21:0.0 22:0.0 23:2.0 24:4.0 25:4.0 26:0.0 27:0.0 28:0.0 29:0.0 30:0.0 31:857000.0 32:0.0 11875:1.0 24940:1.0 25455:1.0 27694:1.0 27756:1.0 28001:1.0 28525:1.0 29805:1.0 
-0.3375136626734266 1:6.0 2:1.0 3:3.0 4:0.0 5:0.0 6:0.0 7:2.5 8:0.5 9:0.0 10:0.0 11:3.0 12:0.0 13:0.0 14:1.0 15:1724.0 16:257983.0 17:456.0 18:1327.0 19:1.0 20:0.0 21:0.0 22:0.0 23:1.0 24:6.0 25:6.0 26:0.0 27:0.0 28:0.0 29:0.0 30:0.0 31:1900000.0 32:0.0 11875:1.0 12334:1.0 13110:1.0 13872:1.0 25454:1.0 
-0.33766833525249884 1:6.0 2:1.0 3:0.0 4:1.0 5:0.0 6:0.0 7:2.5 8:0.0 9:0.0 10:0.0 11:0.0 12:1.0 13:0.0 14:0.0 23:3.0 24:3.0 25:3.0 26:0.0 27:0.0 28:0.0 29:0.0 30:0.0 31:8780000.0 32:0.0 11875:1.0 25455:1.0 27438:1.0 28525:1.0 30315:1.0 
-0.1960322626286459 1:8.0 2:1.0 3:0.0 4:3.0 5:0.0 6:0.0 7:3.5 8:0.0 9:0.0 10:0.0 11:0.0 12:1.0 13:0.0 14:0.0 23:6.0 24:8.0 25:8.0 26:0.0 27:0.0 28:0.0 29:0.0 30:0.0 31:28900.0 32:0.0 11875:1.0 24953:1.0 25185:1.0 25455:1.0 25954:1.0 28525:1.0 31022:1.0 
-0.3375089866908164 1:8.0 2:1.0 3:0.0 4:3.0 5:0.0 6:0.0 7:3.5 8:0.0 9:0.0 10:0.0 11:0.0 12:1.0 13:0.0 14:1.0 15:2426.0 16:433078.0 17:1237.0 18:3188.0 19:1.0 20:1.0 21:0.0 22:0.0 23:1.0 24:6.0 25:6.0 26:0.0 27:0.0 28:0.0 29:0.0 30:0.0 31:1580000.0 32:0.0 11875:1.0 25455:1.0 26741:1.0 28520:1.0 28525:1.0 29551:1.0 29998:1.0 
-0.33755369680809494 1:13.0 2:1.0 3:0.0 4:4.0 5:0.0 6:0.0 7:6.0 8:0.0 9:0.0 10:0.0 11:0.0 12:1.0 13:0.0 14:1.0 15:10.0 16:193.0 17:1.0 18:6.0 19:1.0 20:0.0 21:0.0 22:0.0 23:4.0 24:4.0 25:3.0 26:0.0 27:0.0 28:0.0 29:0.0 30:0.0 31:216000.0 32:0.0 11875:1.0 25455:1.0 25970:1.0 25971:1.0 26990:1.0 28276:1.0 28525:1.0 28777:1.0 29285:1.0 29556:1.0 29742:1.0 29797:1.0 
-0.3374601871016006 1:7.0 2:1.0 3:0.0 4:2.0 5:0.0 6:0.0 7:3.0 8:0.0 9:0.0 10:0.0 11:0.0 12:1.0 13:0.0 14:0.0 23:1.0 24:0.0 25:0.0 26:0.0 27:0.0 28:0.0 29:0.0 30:0.0 31:878000.0 32:0.0 11875:1.0 24947:1.0 25455:1.0 27438:1.0 28525:1.0 29547:1.0 
-0.3375640873695753 1:7.0 2:1.0 3:3.0 4:1.0 5:0.0 6:0.0 7:3.0 8:0.42857142857142855 9:0.0 10:0.0 11:3.0 12:1.0 13:0.0 14:1.0 15:3312.0 16:711735.0 17:1626.0 18:4047.0 19:1.0 20:0.0 21:0.0 22:0.0 23:2.0 24:7.0 25:8.0 26:0.0 27:0.0 28:0.0 29:0.0 30:0.0 31:2320000.0 32:0.0 11875:1.0 12598:1.0 13102:1.0 13875:1.0 25455:1.0 28525:1.0 
-0.33751364062078715 1:8.0 2:1.0 3:0.0 4:3.0 5:0.0 6:0.0 7:3.5 8:0.0 9:0.0 10:0.0 11:0.0 12:1.0 13:0.0 14:0.0 23:1.0 24:2.0 25:2.0 26:0.0 27:0.0 28:0.0 29:0.0 30:0.0 31:46500.0 32:0.0 11875:1.0 25455:1.0 28462:1.0 28525:1.0 28531:1.0 29551:2.0 
-0.3373209756943676 1:7.0 2:1.0 3:0.0 4:1.0 5:0.0 6:0.0 7:3.0 8:0.0 9:0.0 10:0.0 11:0.0 12:1.0 13:0.0 14:1.0 15:392.0 16:33040.0 17:123.0 18:434.0 19:1.0 20:0.0 21:0.0 22:0.0 23:1.0 24:4.0 25:4.0 26:0.0 27:0.0 28:0.0 29:0.0 30:0.0 31:92800.0 32:0.0 11875:1.0 25455:1.0 28019:1.0 28206:1.0 28525:1.0 29550:1.0 
-0.3376612802998707 1:10.0 2:1.0 3:0.0 4:2.0 5:0.0 6:0.0 7:4.5 8:0.0 9:0.0 10:0.0 11:0.0 12:1.0 13:0.0 14:0.0 23:1.0 24:9.0 25:9.0 26:0.0 27:0.0 28:0.0 29:0.0 30:0.0 31:1.53E7 32:0.0 11875:1.0 25196:1.0 25455:1.0 27762:1.0 28002:1.0 28525:1.0 29230:1.0 29813:1.0 30061:1.0 
-0.3237324220260124 1:13.0 2:1.0 3:0.0 4:4.0 5:0.0 6:0.0 7:6.0 8:0.0 9:0.0 10:0.0 11:0.0 12:1.0 13:0.0 14:0.0 23:1.0 24:0.0 25:0.0 26:0.0 27:0.0 28:0.0 29:0.0 30:0.0 31:24500.0 32:0.0 11875:1.0 24935:1.0 24941:1.0 25455:1.0 26482:1.0 26990:1.0 27950:1.0 28275:1.0 28525:1.0 29281:1.0 29556:1.0 29793:1.0 
-0.3375055035630388 1:12.0 2:2.0 3:0.0 4:4.0 5:0.0 6:0.0 7:3.3333333333333335 8:0.0 9:0.0 10:0.0 11:0.0 12:2.0 13:0.0 14:0.0 23:1.0 24:0.0 25:0.0 26:0.0 27:0.0 28:0.0 29:0.0 30:0.0 31:281000.0 32:0.0 11875:1.0 11882:1.0 25455:1.0 25902:1.0 26476:1.0 26479:1.0 27248:1.0 27749:1.0 28462:1.0 28519:1.0 28527:1.0 
-0.33745386986269693 1:7.0 2:1.0 3:0.0 4:3.0 5:0.0 6:0.0 7:3.0 8:0.0 9:0.0 10:0.0 11:0.0 12:2.0 13:0.0 14:0.0 23:4.0 24:3.0 25:3.0 26:0.0 27:0.0 28:0.0 29:0.0 30:0.0 31:116000.0 32:0.0 11890:1.0 24937:1.0 26988:1.0 27694:1.0 28001:1.0 29301:1.0 
-0.3373482403772561 1:13.0 2:1.0 3:0.0 4:4.0 5:0.0 6:0.0 7:6.0 8:0.0 9:0.0 10:0.0 11:0.0 12:1.0 13:0.0 14:0.0 23:5.0 24:4.0 25:4.0 26:0.0 27:0.0 28:0.0 29:0.0 30:0.0 31:932000.0 32:0.0 11875:1.0 25455:1.0 25458:1.0 26228:1.0 26979:1.0 28009:1.0 28518:1.0 28525:1.0 28531:1.0 29295:1.0 29551:1.0 29742:1.0 
-1.0 1:13.0 2:2.0 3:0.0 4:4.0 5:0.0 6:0.0 7:3.6666666666666665 8:0.0 9:0.0 10:0.0 11:0.0 12:2.0 13:0.0 14:0.0 23:1.0 24:0.0 25:0.0 26:0.0 27:0.0 28:0.0 29:0.0 30:0.0 31:58.0 32:0.0 11874:1.0 11875:1.0 25202:1.0 25455:1.0 25902:1.0 26476:1.0 26479:1.0 27749:1.0 27950:1.0 28519:1.0 28525:1.0 28527:1.0 
-0.14209417320518863 1:9.0 2:1.0 3:0.0 4:4.0 5:0.0 6:0.0 7:4.0 8:0.0 9:0.0 10:0.0 11:0.0 12:2.0 13:0.0 14:0.0 23:1.0 24:4.0 25:4.0 26:0.0 27:0.0 28:0.0 29:0.0 30:0.0 31:6.18E7 32:0.0 11890:1.0 25902:1.0 26476:1.0 26479:1.0 27749:1.0 28519:1.0 28527:1.0 29301:1.0 
-0.33711415225413105 1:10.0 2:1.0 3:0.0 4:3.0 5:0.0 6:0.0 7:4.5 8:0.0 9:0.0 10:0.0 11:0.0 12:1.0 13:0.0 14:0.0 23:2.0 24:0.0 25:0.0 26:0.0 27:0.0 28:0.0 29:0.0 30:0.0 31:259000.0 32:0.0 11875:1.0 24940:1.0 24953:1.0 25455:1.0 27694:1.0 28525:1.0 28769:2.0 31088:1.0 
-0.33740617740327666 1:11.0 2:1.0 3:0.0 4:4.0 5:0.0 6:0.0 7:5.0 8:0.0 9:0.0 10:0.0 11:0.0 12:2.0 13:0.0 14:0.0 23:10.0 24:6.0 25:6.0 26:0.0 27:0.0 28:0.0 29:0.0 30:0.0 31:2.2E7 32:0.0 11875:1.0 25455:1.0 25701:1.0 25967:1.0 26980:1.0 28525:1.0 28531:1.0 29486:1.0 30313:1.0 30838:1.0 
-0.3375203065236913 1:8.0 2:1.0 3:0.0 4:2.0 5:0.0 6:0.0 7:3.5 8:0.0 9:0.0 10:0.0 11:0.0 12:1.0 13:0.0 14:0.0 23:3.0 24:10.0 25:10.0 26:0.0 27:0.0 28:0.0 29:0.0 30:0.0 31:3.58E7 32:0.0 11875:1.0 25134:1.0 25455:1.0 25698:1.0 26989:1.0 28004:1.0 28525:1.0 
-0.33745631610376897 1:9.0 2:1.0 3:0.0 4:3.0 5:0.0 6:0.0 7:4.0 8:0.0 9:0.0 10:0.0 11:0.0 12:1.0 13:0.0 14:1.0 15:385.0 16:37470.0 17:86.0 18:441.0 19:1.0 20:0.0 21:0.0 22:0.0 23:3.0 24:8.0 25:8.0 26:0.0 27:0.0 28:0.0 29:0.0 30:0.0 31:932000.0 32:0.0 11875:1.0 24944:1.0 25455:1.0 25902:1.0 27749:1.0 28525:1.0 28780:1.0 28784:1.0 
-0.33751599835455054 1:13.0 2:1.0 3:0.0 4:5.0 5:0.0 6:0.0 7:6.0 8:0.0 9:0.0 10:0.0 11:0.0 12:2.0 13:0.0 14:1.0 15:1772.0 16:242042.0 17:772.0 18:2137.0 19:1.0 20:15.0 21:0.0 22:0.0 23:2.0 24:3.0 25:3.0 26:0.0 27:0.0 28:0.0 29:0.0 30:0.0 31:167000.0 32:0.0 11875:1.0 24942:1.0 25455:1.0 25972:1.0 26741:1.0 26990:1.0 28261:1.0 28264:1.0 28525:1.0 29742:1.0 30049:1.0 30825:1.0 
-0.3374989809910891 1:12.0 2:2.0 3:0.0 4:4.0 5:0.0 6:0.0 7:3.3333333333333335 8:0.0 9:0.0 10:0.0 11:0.0 12:1.0 13:0.0 14:0.0 23:3.0 24:10.0 25:10.0 26:0.0 27:0.0 28:0.0 29:0.0 30:0.0 31:203000.0 32:0.0 11875:1.0 11882:1.0 24941:1.0 24954:1.0 25455:1.0 27248:1.0 28001:1.0 28206:1.0 28462:1.0 28526:1.0 31343:1.0 
-0.33704553878751603 1:17.0 2:1.0 3:0.0 4:5.0 5:0.0 6:0.0 7:8.0 8:0.0 9:0.0 10:0.0 11:0.0 12:1.0 13:0.0 14:0.0 23:4.0 24:4.0 25:4.0 26:0.0 27:0.0 28:0.0 29:0.0 30:0.0 31:71400.0 32:0.0 11875:1.0 24931:1.0 25451:1.0 25455:1.0 25970:1.0 26220:1.0 27503:1.0 27759:1.0 28525:1.0 28534:1.0 28535:1.0 29286:1.0 29556:1.0 29793:1.0 30309:1.0 30510:1.0 
-0.3374309396626607 1:9.0 2:1.0 3:0.0 4:3.0 5:0.0 6:0.0 7:4.0 8:0.0 9:0.0 10:0.0 11:0.0 12:1.0 13:0.0 14:0.0 23:1.0 24:4.0 25:4.0 26:0.0 27:0.0 28:0.0 29:0.0 30:0.0 31:57100.0 32:0.0 11875:1.0 25455:1.0 26485:1.0 26989:1.0 28007:1.0 28525:1.0 29230:1.0 30066:1.0 
-1.0 1:10.0 2:1.0 3:0.0 4:4.0 5:0.0 6:0.0 7:4.5 8:0.0 9:0.0 10:0.0 11:0.0 12:2.0 13:0.0 14:0.0 23:1.0 24:2.0 25:2.0 26:0.0 27:0.0 28:0.0 29:0.0 30:0.0 31:16.0 32:0.0 11875:1.0 25205:1.0 25455:1.0 25967:1.0 28261:1.0 28514:1.0 28525:1.0 30072:1.0 30766:1.0 
-0.3375640873695735 1:13.0 2:2.0 3:0.0 4:4.0 5:0.0 6:0.0 7:3.6666666666666665 8:0.0 9:0.0 10:0.0 11:0.0 12:2.0 13:0.0 14:0.0 23:1.0 24:0.0 25:0.0 26:0.0 27:0.0 28:0.0 29:0.0 30:0.0 31:412000.0 32:0.0 11875:1.0 11880:1.0 25455:1.0 25902:1.0 26476:1.0 26479:1.0 26731:1.0 27749:1.0 27950:1.0 28519:1.0 28525:1.0 28527:1.0 
-1.0 1:10.0 2:1.0 3:0.0 4:3.0 5:0.0 6:0.0 7:4.5 8:0.0 9:0.0 10:0.0 11:0.0 12:1.0 13:0.0 14:0.0 23:1.0 24:4.0 25:4.0 26:0.0 27:0.0 28:0.0 29:0.0 30:0.0 31:10.0 32:0.0 11875:1.0 24932:1.0 24947:1.0 25441:1.0 25455:1.0 25699:1.0 26670:1.0 28525:1.0 29544:1.0 
-0.33746128010771426 1:9.0 2:1.0 3:0.0 4:3.0 5:0.0 6:0.0 7:4.0 8:0.0 9:0.0 10:0.0 11:0.0 12:1.0 13:0.0 14:1.0 15:3143.0 16:333322.0 17:1290.0 18:3439.0 19:1.0 20:1.0 21:0.0 22:0.0 23:1.0 24:4.0 25:10.0 26:0.0 27:0.0 28:0.0 29:0.0 30:0.0 31:642000.0 32:0.0 11875:1.0 25455:1.0 25966:1.0 26213:1.0 26414:1.0 26982:1.0 28263:1.0 28525:1.0 
-1.0 1:12.0 2:1.0 3:0.0 4:3.0 5:0.0 6:0.0 7:5.5 8:0.0 9:0.0 10:0.0 11:0.0 12:1.0 13:0.0 14:1.0 15:4.0 16:44.0 17:0.0 18:4.0 19:0.0 20:0.0 21:0.0 22:0.0 23:2.0 24:4.0 25:4.0 26:0.0 27:0.0 28:0.0 29:0.0 30:0.0 31:9810.0 32:0.0 11875:1.0 24941:1.0 25455:1.0 25970:1.0 26721:1.0 28019:1.0 28525:1.0 29230:1.0 29556:1.0 29797:1.0 30824:1.0 
-1.0 1:13.0 2:2.0 3:0.0 4:4.0 5:0.0 6:0.0 7:3.6666666666666665 8:0.0 9:0.0 10:0.0 11:0.0 12:2.0 13:0.0 14:0.0 23:1.0 24:0.0 25:0.0 26:0.0 27:0.0 28:0.0 29:0.0 30:0.0 31:82.0 32:0.0 11875:1.0 11885:1.0 25455:1.0 25902:1.0 26476:1.0 26479:1.0 27749:1.0 27950:1.0 28024:1.0 28519:1.0 28525:1.0 28527:1.0 
-0.3052967664894035 1:9.0 2:2.0 3:0.0 4:2.0 5:0.0 6:0.0 7:2.3333333333333335 8:0.0 9:0.0 10:0.0 11:0.0 12:1.0 13:0.0 14:0.0 23:4.0 24:4.0 25:4.0 26:0.0 27:0.0 28:0.0 29:0.0 30:0.0 31:857000.0 32:0.0 11875:1.0 11893:1.0 25186:1.0 25187:1.0 25390:1.0 25455:1.0 28462:1.0 30059:1.0 
-0.1858893068031652 1:10.0 2:1.0 3:0.0 4:3.0 5:0.0 6:0.0 7:4.5 8:0.0 9:0.0 10:0.0 11:0.0 12:1.0 13:0.0 14:0.0 23:4.0 24:4.0 25:4.0 26:0.0 27:0.0 28:0.0 29:0.0 30:0.0 31:22100.0 32:0.0 11875:1.0 25455:1.0 25700:1.0 25705:1.0 25956:1.0 26996:1.0 28525:1.0 29285:1.0 29742:1.0 
-0.33743257894074863 1:7.0 2:1.0 3:0.0 4:1.0 5:0.0 6:0.0 7:3.0 8:0.0 9:0.0 10:0.0 11:0.0 12:1.0 13:0.0 14:0.0 23:4.0 24:10.0 25:10.0 26:0.0 27:0.0 28:0.0 29:0.0 30:0.0 31:120000.0 32:0.0 11875:1.0 25454:1.0 25455:1.0 28206:1.0 28270:1.0 28525:1.0 
-0.20754000460912178 1:11.0 2:1.0 3:0.0 4:3.0 5:0.0 6:0.0 7:5.0 8:0.0 9:0.0 10:0.0 11:0.0 12:1.0 13:0.0 14:0.0 23:1.0 24:0.0 25:0.0 26:0.0 27:0.0 28:0.0 29:0.0 30:0.0 31:11800.0 32:0.0 11875:1.0 25196:1.0 25455:1.0 25970:1.0 26469:1.0 26471:1.0 27759:1.0 28519:1.0 28525:1.0 29230:1.0 
-0.3371551924143763 1:7.0 2:1.0 3:1.0 4:1.0 5:0.0 6:0.0 7:3.0 8:0.14285714285714285 9:0.0 10:0.0 11:1.0 12:1.0 13:0.0 14:0.0 23:2.0 24:4.0 25:4.0 26:0.0 27:0.0 28:0.0 29:0.0 30:0.0 31:22600.0 32:0.0 11875:1.0 12846:1.0 25394:1.0 25455:1.0 26211:1.0 28525:1.0 
-0.3374538698626972 1:13.0 2:2.0 3:0.0 4:4.0 5:0.0 6:0.0 7:3.6666666666666665 8:0.0 9:0.0 10:0.0 11:0.0 12:2.0 13:0.0 14:1.0 15:1233.0 16:132067.0 17:792.0 18:1981.0 19:1.0 20:3.0 21:0.0 22:0.0 23:1.0 24:4.0 25:4.0 26:1.0 27:0.0 28:0.0 29:0.0 30:0.0 31:328000.0 32:0.0 11875:2.0 25454:1.0 25455:1.0 25902:1.0 25967:1.0 27749:1.0 27950:1.0 28525:1.0 28528:1.0 28773:1.0 28780:1.0 
-1.0 1:12.0 2:1.0 3:0.0 4:5.0 5:0.0 6:0.0 7:5.5 8:0.0 9:0.0 10:0.0 11:0.0 12:2.0 13:0.0 14:0.0 23:0.0 24:12.0 25:12.0 26:0.0 27:0.0 28:0.0 29:0.0 30:0.0 31:78.0 32:0.0 11886:1.0 24937:1.0 24939:1.0 24941:1.0 25646:1.0 25972:1.0 26724:1.0 26984:1.0 27489:1.0 28001:1.0 28261:1.0 
-0.33746474555104594 1:6.0 2:1.0 3:0.0 4:0.0 5:0.0 6:0.0 7:2.5 8:0.0 9:0.0 10:0.0 11:0.0 12:0.0 13:0.0 14:1.0 15:1778.0 16:129610.0 17:613.0 18:1835.0 19:1.0 20:0.0 21:0.0 22:0.0 23:2.0 24:4.0 25:4.0 26:1.0 27:0.0 28:0.0 29:0.0 30:0.0 31:897000.0 32:0.0 11875:1.0 25454:1.0 26477:1.0 28023:1.0 30510:1.0 
-1.0 1:8.0 2:1.0 3:0.0 4:3.0 5:0.0 6:0.0 7:3.5 8:0.0 9:0.0 10:0.0 11:0.0 12:1.0 13:0.0 14:0.0 23:6.0 24:2.0 25:2.0 26:0.0 27:0.0 28:0.0 29:0.0 30:0.0 31:49.0 32:0.0 11875:1.0 25189:1.0 25455:1.0 25902:1.0 28525:1.0 30050:1.0 30325:1.0 
-0.3374425639715839 1:10.0 2:1.0 3:0.0 4:4.0 5:0.0 6:0.0 7:4.5 8:0.0 9:0.0 10:0.0 11:0.0 12:1.0 13:0.0 14:1.0 15:11.0 16:285.0 17:0.0 18:8.0 19:1.0 20:0.0 21:0.0 22:0.0 23:2.0 24:4.0 25:7.0 26:0.0 27:0.0 28:0.0 29:0.0 30:0.0 31:32700.0 32:0.0 11875:1.0 24940:1.0 24953:1.0 25455:1.0 26992:1.0 27753:1.0 28525:1.0 28769:1.0 31022:1.0 
-0.33755369680809055 1:4.0 2:1.0 3:0.0 4:1.0 5:0.0 6:0.0 7:1.5 8:0.0 9:0.0 10:0.0 11:0.0 12:1.0 13:0.0 14:0.0 23:4.0 24:8.0 25:8.0 26:0.0 27:0.0 28:0.0 29:0.0 30:0.0 31:233000.0 32:0.0 11875:1.0 25455:1.0 29742:1.0 
-0.3374746341832647 1:13.0 2:1.0 3:0.0 4:3.0 5:0.0 6:0.0 7:6.0 8:0.0 9:0.0 10:0.0 11:0.0 12:1.0 13:0.0 14:1.0 15:14.0 16:201.0 17:0.0 18:9.0 19:1.0 20:0.0 21:0.0 22:0.0 23:2.0 24:4.0 25:4.0 26:0.0 27:0.0 28:0.0 29:0.0 30:0.0 31:327000.0 32:0.0 11887:1.0 25712:1.0 25971:1.0 28530:2.0 28786:1.0 29284:1.0 29285:1.0 29287:1.0 29486:1.0 29555:1.0 30575:1.0 
-0.33760009261295254 1:21.0 2:1.0 3:0.0 4:8.0 5:0.0 6:0.0 7:10.0 8:0.0 9:0.0 10:0.0 11:0.0 12:2.0 13:0.0 14:0.0 23:0.0 24:4.0 25:4.0 26:0.0 27:0.0 28:0.0 29:0.0 30:0.0 31:929000.0 32:0.0 11875:1.0 25455:2.0 25966:1.0 25970:1.0 25973:1.0 26476:1.0 26479:1.0 27749:1.0 28276:2.0 28519:1.0 28525:1.0 28526:1.0 28527:1.0 29283:1.0 29541:1.0 29742:1.0 29797:1.0 30067:1.0 
-0.3374085097636712 1:16.0 2:1.0 3:0.0 4:6.0 5:0.0 6:0.0 7:7.5 8:0.0 9:0.0 10:0.0 11:0.0 12:1.0 13:0.0 14:0.0 23:3.0 24:4.0 25:3.0 26:0.0 27:0.0 28:0.0 29:0.0 30:0.0 31:337000.0 32:0.0 11890:1.0 24947:1.0 25710:1.0 26926:1.0 26987:1.0 27497:1.0 27500:1.0 27745:1.0 28265:1.0 28271:1.0 28516:1.0 28523:1.0 29301:1.0 29550:1.0 29555:1.0 
-0.3374615427706146 1:11.0 2:1.0 3:0.0 4:5.0 5:0.0 6:0.0 7:5.0 8:0.0 9:0.0 10:0.0 11:0.0 12:1.0 13:0.0 14:1.0 15:1587.0 16:142410.0 17:382.0 18:1066.0 19:1.0 20:0.0 21:0.0 22:0.0 23:2.0 24:4.0 25:8.0 26:0.0 27:0.0 28:0.0 29:0.0 30:0.0 31:1110000.0 32:0.0 11875:1.0 24878:1.0 24930:1.0 24940:1.0 25185:2.0 25455:1.0 26978:1.0 27753:1.0 28525:1.0 
-0.33743506296468617 1:9.0 2:1.0 3:0.0 4:4.0 5:0.0 6:0.0 7:4.0 8:0.0 9:0.0 10:0.0 11:0.0 12:2.0 13:0.0 14:0.0 23:2.0 24:4.0 25:4.0 26:0.0 27:0.0 28:0.0 29:0.0 30:0.0 31:1.8E7 32:0.0 11875:1.0 25455:1.0 27509:1.0 28525:1.0 28533:1.0 29998:1.0 30059:1.0 31087:1.0 
-0.33743842784368683 1:11.0 2:1.0 3:0.0 4:4.0 5:0.0 6:0.0 7:5.0 8:0.0 9:0.0 10:0.0 11:0.0 12:2.0 13:0.0 14:1.0 15:142.0 16:10338.0 17:18.0 18:108.0 19:1.0 20:1.0 21:0.0 22:0.0 23:1.0 24:4.0 25:4.0 26:0.0 27:0.0 28:0.0 29:0.0 30:0.0 31:2290.0 32:0.0 11875:1.0 25455:2.0 25717:1.0 26996:1.0 28260:1.0 28525:1.0 28526:1.0 29742:1.0 30057:1.0 
-1.0 1:13.0 2:2.0 3:0.0 4:4.0 5:0.0 6:0.0 7:3.6666666666666665 8:0.0 9:0.0 10:0.0 11:0.0 12:2.0 13:0.0 14:0.0 23:1.0 24:0.0 25:0.0 26:0.0 27:0.0 28:0.0 29:0.0 30:0.0 31:55.0 32:0.0 11875:1.0 11892:1.0 25455:1.0 25902:1.0 26476:1.0 26479:1.0 27749:1.0 27950:1.0 28519:1.0 28525:1.0 28527:1.0 29810:1.0 
-0.16275718052147986 1:11.0 2:1.0 3:0.0 4:3.0 5:0.0 6:0.0 7:5.0 8:0.0 9:0.0 10:0.0 11:0.0 12:1.0 13:0.0 14:1.0 15:8.0 16:150.0 17:1.0 18:7.0 19:1.0 20:0.0 21:0.0 22:0.0 23:1.0 24:9.0 25:9.0 26:0.0 27:0.0 28:0.0 29:0.0 30:0.0 31:7500.0 32:0.0 11875:1.0 24932:1.0 25455:1.0 25697:1.0 25700:1.0 25721:1.0 26479:1.0 28516:1.0 28525:1.0 31022:1.0 
-0.3375605605797484 1:14.0 2:1.0 3:0.0 4:5.0 5:0.0 6:0.0 7:6.5 8:0.0 9:0.0 10:0.0 11:0.0 12:2.0 13:0.0 14:1.0 15:11.0 16:285.0 17:0.0 18:8.0 19:1.0 20:0.0 21:0.0 22:0.0 23:2.0 24:4.0 25:8.0 26:0.0 27:0.0 28:0.0 29:0.0 30:0.0 31:115000.0 32:0.0 11875:1.0 24940:1.0 25455:1.0 25971:1.0 25976:1.0 26981:1.0 27753:1.0 28525:1.0 28786:1.0 29285:1.0 29486:1.0 29555:1.0 30832:1.0 
-0.3375767598796711 1:10.0 2:1.0 3:0.0 4:2.0 5:0.0 6:0.0 7:4.5 8:0.0 9:0.0 10:0.0 11:0.0 12:1.0 13:0.0 14:0.0 23:1.0 24:0.0 25:0.0 26:0.0 27:0.0 28:0.0 29:0.0 30:0.0 31:15400.0 32:0.0 11875:1.0 25451:1.0 25455:1.0 26220:1.0 26979:1.0 27506:1.0 27753:1.0 28525:1.0 29230:1.0 
-0.33746018710160053 1:18.0 2:1.0 3:0.0 4:5.0 5:0.0 6:0.0 7:8.5 8:0.0 9:0.0 10:0.0 11:0.0 12:1.0 13:0.0 14:0.0 23:5.0 24:8.0 25:8.0 26:0.0 27:0.0 28:0.0 29:0.0 30:0.0 31:341000.0 32:0.0 11875:1.0 25455:1.0 26214:1.0 26217:1.0 26484:1.0 26741:1.0 26990:1.0 28263:1.0 28272:1.0 28525:1.0 28526:1.0 28531:1.0 28783:1.0 29556:1.0 29742:1.0 29807:1.0 30054:1.0 
-0.3375605605797486 1:11.0 2:1.0 3:0.0 4:3.0 5:0.0 6:0.0 7:5.0 8:0.0 9:0.0 10:0.0 11:0.0 12:1.0 13:0.0 14:0.0 23:1.0 24:8.0 25:8.0 26:0.0 27:0.0 28:0.0 29:0.0 30:0.0 31:2.51E7 32:0.0 11875:1.0 25134:1.0 25455:1.0 26741:1.0 28264:1.0 28525:1.0 28530:1.0 28783:1.0 29294:1.0 30050:1.0 
-0.33747452844160464 1:13.0 2:2.0 3:0.0 4:6.0 5:0.0 6:0.0 7:3.6666666666666665 8:0.0 9:0.0 10:0.0 11:0.0 12:2.0 13:0.0 14:0.0 23:1.0 24:0.0 25:0.0 26:0.0 27:0.0 28:0.0 29:0.0 30:0.0 31:896000.0 32:0.0 11873:1.0 11875:1.0 24949:1.0 25455:1.0 25902:1.0 26476:1.0 26479:1.0 27749:1.0 27950:1.0 28519:1.0 28525:1.0 28527:1.0 
-0.33766060046807733 1:9.0 2:1.0 3:0.0 4:4.0 5:0.0 6:0.0 7:4.0 8:0.0 9:0.0 10:0.0 11:0.0 12:1.0 13:0.0 14:0.0 23:1.0 24:10.0 25:10.0 26:0.0 27:0.0 28:0.0 29:0.0 30:0.0 31:445000.0 32:0.0 11875:1.0 24932:1.0 25189:1.0 25455:1.0 25711:1.0 25902:1.0 28514:1.0 28525:1.0 
-0.2693583107046156 1:9.0 2:1.0 3:0.0 4:4.0 5:0.0 6:0.0 7:4.0 8:0.0 9:0.0 10:0.0 11:0.0 12:1.0 13:0.0 14:0.0 23:3.0 24:6.0 25:6.0 26:0.0 27:0.0 28:0.0 29:0.0 30:0.0 31:24000.0 32:0.0 11876:1.0 24941:1.0 24954:1.0 25701:1.0 28001:1.0 28206:1.0 28526:1.0 31343:1.0 
-0.11622994787624692 1:7.0 2:1.0 3:0.0 4:3.0 5:0.0 6:0.0 7:3.0 8:0.0 9:0.0 10:0.0 11:0.0 12:1.0 13:0.0 14:0.0 23:5.0 24:8.0 25:8.0 26:0.0 27:0.0 28:0.0 29:0.0 30:0.0 31:1.0E8 32:0.0 11876:1.0 24953:1.0 25185:1.0 25701:1.0 25954:1.0 31022:1.0 
-0.337509247598663 1:11.0 2:1.0 3:0.0 4:3.0 5:0.0 6:0.0 7:5.0 8:0.0 9:0.0 10:0.0 11:0.0 12:1.0 13:0.0 14:0.0 23:1.0 24:4.0 25:4.0 26:0.0 27:0.0 28:0.0 29:0.0 30:0.0 31:7900000.0 32:0.0 11881:1.0 25196:1.0 26483:1.0 26990:1.0 27759:1.0 28519:1.0 28532:1.0 28783:1.0 29552:1.0 29742:1.0 
-1.0 1:11.0 2:1.0 3:0.0 4:3.0 5:0.0 6:0.0 7:5.0 8:0.0 9:0.0 10:0.0 11:0.0 12:1.0 13:0.0 14:0.0 23:8.0 24:4.0 25:4.0 26:0.0 27:0.0 28:0.0 29:0.0 30:0.0 31:6430.0 32:0.0 11875:1.0 25455:1.0 25972:1.0 26220:1.0 27000:1.0 27753:1.0 28261:1.0 28525:1.0 29798:1.0 30766:1.0 
-0.3436066077274955 1:9.0 2:1.0 3:0.0 4:3.0 5:0.0 6:0.0 7:4.0 8:0.0 9:0.0 10:0.0 11:0.0 12:2.0 13:0.0 14:0.0 23:1.0 24:0.0 25:0.0 26:0.0 27:0.0 28:0.0 29:0.0 30:0.0 31:74200.0 32:0.0 11888:1.0 25902:1.0 26476:1.0 26479:1.0 27749:1.0 28519:1.0 28527:1.0 28780:1.0 
-0.33740605319765304 1:10.0 2:1.0 3:0.0 4:3.0 5:0.0 6:0.0 7:4.5 8:0.0 9:0.0 10:0.0 11:0.0 12:1.0 13:0.0 14:0.0 23:1.0 24:0.0 25:0.0 26:0.0 27:0.0 28:0.0 29:0.0 30:0.0 31:2.26E7 32:0.0 11892:1.0 24947:1.0 25451:1.0 26979:1.0 27489:1.0 27497:1.0 29486:1.0 29555:1.0 29807:1.0 
-1.0 1:15.0 2:2.0 3:0.0 4:3.0 5:0.0 6:0.0 7:4.333333333333333 8:0.0 9:0.0 10:0.0 11:0.0 12:1.0 13:0.0 14:0.0 23:1.0 24:0.0 25:0.0 26:0.0 27:0.0 28:0.0 29:0.0 30:0.0 31:60.0 32:0.0 11874:1.0 11875:1.0 25196:1.0 25200:1.0 25455:1.0 26483:1.0 27759:1.0 28519:1.0 28525:1.0 28532:1.0 28718:1.0 28783:1.0 29552:1.0 29742:1.0 
-0.33748985742435383 1:15.0 2:1.0 3:0.0 4:6.0 5:0.0 6:0.0 7:7.0 8:0.0 9:0.0 10:0.0 11:0.0 12:1.0 13:0.0 14:1.0 15:4.0 16:44.0 17:0.0 18:4.0 19:0.0 20:0.0 21:0.0 22:0.0 23:2.0 24:2.0 25:2.0 26:0.0 27:0.0 28:0.0 29:0.0 30:0.0 31:2280000.0 32:0.0 11891:1.0 24948:1.0 24953:1.0 25185:1.0 25954:1.0 25968:1.0 26725:1.0 26994:1.0 28777:1.0 29281:1.0 29541:1.0 29797:1.0 29800:1.0 31022:1.0 
-0.3375203065236914 1:11.0 2:1.0 3:0.0 4:4.0 5:0.0 6:0.0 7:5.0 8:0.0 9:0.0 10:0.0 11:0.0 12:2.0 13:0.0 14:0.0 23:1.0 24:6.0 25:6.0 26:0.0 27:0.0 28:0.0 29:0.0 30:0.0 31:89300.0 32:0.0 11875:1.0 24948:1.0 25455:1.0 25953:1.0 25970:1.0 26725:1.0 28525:1.0 29230:1.0 29800:1.0 30565:1.0 
-0.337464745551046 1:9.0 2:1.0 3:0.0 4:4.0 5:0.0 6:0.0 7:4.0 8:0.0 9:0.0 10:0.0 11:0.0 12:2.0 13:0.0 14:0.0 23:1.0 24:0.0 25:0.0 26:0.0 27:0.0 28:0.0 29:0.0 30:0.0 31:9360000.0 32:0.0 11875:1.0 25455:1.0 25967:1.0 26989:1.0 28005:1.0 28462:1.0 28525:1.0 30313:1.0 
-0.33770658218800226 1:7.0 2:1.0 3:1.0 4:2.0 5:0.0 6:0.0 7:3.0 8:0.14285714285714285 9:0.0 10:0.0 11:1.0 12:1.0 13:0.0 14:1.0 15:1566.0 16:134733.0 17:425.0 18:1590.0 19:2.0 20:0.0 21:0.0 22:0.0 23:1.0 24:4.0 25:4.0 26:0.0 27:0.0 28:0.0 29:0.0 30:0.0 31:638000.0 32:0.0 11875:1.0 13870:1.0 25455:1.0 27509:1.0 28525:1.0 30006:1.0 
-1.0 1:15.0 2:1.0 3:0.0 4:6.0 5:0.0 6:0.0 7:7.0 8:0.0 9:0.0 10:0.0 11:0.0 12:2.0 13:0.0 14:0.0 23:1.0 24:0.0 25:0.0 26:0.0 27:0.0 28:0.0 29:0.0 30:0.0 31:3250.0 32:0.0 11875:1.0 24937:1.0 25455:1.0 25697:1.0 26988:1.0 26991:1.0 27769:1.0 28015:1.0 28206:1.0 28525:1.0 28526:1.0 28532:1.0 29801:1.0 31085:1.0 
-0.3375067215135158 1:8.0 2:1.0 3:0.0 4:2.0 5:0.0 6:0.0 7:3.5 8:0.0 9:0.0 10:0.0 11:0.0 12:1.0 13:0.0 14:0.0 23:1.0 24:5.0 25:5.0 26:0.0 27:0.0 28:0.0 29:0.0 30:0.0 31:252000.0 32:0.0 11875:1.0 25454:1.0 25455:1.0 25972:1.0 28261:1.0 28525:1.0 29742:1.0 
-0.1621182348749578 1:11.0 2:2.0 3:0.0 4:3.0 5:0.0 6:0.0 7:3.0 8:0.0 9:0.0 10:0.0 11:0.0 12:1.0 13:0.0 14:0.0 23:1.0 24:0.0 25:0.0 26:1.0 27:0.0 28:0.0 29:0.0 30:0.0 31:10400.0 32:0.0 11875:1.0 11879:1.0 25455:1.0 25971:1.0 26479:1.0 28206:1.0 28462:1.0 28525:1.0 28782:1.0 29552:1.0 
-0.337114152254131 1:15.0 2:2.0 3:0.0 4:6.0 5:0.0 6:0.0 7:4.333333333333333 8:0.0 9:0.0 10:0.0 11:0.0 12:2.0 13:0.0 14:0.0 23:2.0 24:6.0 25:6.0 26:0.0 27:0.0 28:0.0 29:0.0 30:0.0 31:1.51E7 32:0.0 11875:1.0 11893:1.0 24937:2.0 25455:1.0 25697:1.0 26988:2.0 27694:1.0 27769:1.0 28001:1.0 28462:1.0 30059:1.0 31085:1.0 
-0.33745250405768445 1:13.0 2:2.0 3:0.0 4:4.0 5:0.0 6:0.0 7:3.6666666666666665 8:0.0 9:0.0 10:0.0 11:0.0 12:1.0 13:0.0 14:0.0 23:1.0 24:4.0 25:4.0 26:0.0 27:0.0 28:0.0 29:0.0 30:0.0 31:9340000.0 32:0.0 11875:1.0 11882:1.0 24939:1.0 25455:1.0 25966:1.0 27248:1.0 27509:1.0 28206:1.0 28462:1.0 29281:1.0 29797:1.0 30068:1.0 
-0.6877909008775007 1:14.0 2:1.0 3:0.0 4:5.0 5:0.0 6:0.0 7:6.5 8:0.0 9:0.0 10:0.0 11:0.0 12:1.0 13:0.0 14:0.0 23:1.0 24:2.0 25:2.0 26:0.0 27:0.0 28:0.0 29:0.0 30:0.0 31:2360.0 32:0.0 11875:1.0 24947:1.0 25455:1.0 25962:1.0 26990:1.0 26998:1.0 27233:1.0 27753:1.0 28009:1.0 28206:1.0 28525:1.0 29549:1.0 30309:1.0 
-0.33764265176864644 1:8.0 2:1.0 3:0.0 4:1.0 5:0.0 6:0.0 7:3.5 8:0.0 9:0.0 10:0.0 11:0.0 12:1.0 13:0.0 14:0.0 23:10.0 24:6.0 25:6.0 26:0.0 27:0.0 28:0.0 29:0.0 30:0.0 31:1.69E7 32:0.0 11875:1.0 25455:1.0 28280:1.0 28525:1.0 30766:1.0 30830:1.0 30840:1.0 
-0.33750672151351596 1:15.0 2:1.0 3:0.0 4:5.0 5:0.0 6:0.0 7:7.0 8:0.0 9:0.0 10:0.0 11:0.0 12:1.0 13:0.0 14:1.0 15:4.0 16:44.0 17:0.0 18:4.0 19:0.0 20:0.0 21:0.0 22:0.0 23:1.0 24:6.0 25:6.0 26:0.0 27:0.0 28:0.0 29:0.0 30:0.0 31:4.22E7 32:0.0 11886:1.0 25958:1.0 25965:1.0 25971:1.0 25972:1.0 26223:1.0 26725:1.0 28005:1.0 28261:1.0 28530:1.0 29285:1.0 29556:1.0 29742:1.0 29800:1.0 
-0.33757658810831787 1:14.0 2:1.0 3:0.0 4:6.0 5:0.0 6:0.0 7:6.5 8:0.0 9:0.0 10:0.0 11:0.0 12:2.0 13:0.0 14:0.0 23:1.0 24:10.0 25:10.0 26:0.0 27:0.0 28:0.0 29:0.0 30:0.0 31:12700.0 32:0.0 11875:1.0 24948:1.0 25455:1.0 25705:1.0 25971:1.0 26977:1.0 26989:1.0 26990:1.0 28005:1.0 28260:1.0 28525:1.0 29486:1.0 29801:1.0 
-0.33752030652369136 1:7.0 2:1.0 3:0.0 4:3.0 5:0.0 6:0.0 7:3.0 8:0.0 9:0.0 10:0.0 11:0.0 12:2.0 13:0.0 14:0.0 23:5.0 24:4.0 25:4.0 26:0.0 27:0.0 28:0.0 29:0.0 30:0.0 31:7140000.0 32:0.0 11875:1.0 24943:1.0 25455:1.0 27694:1.0 28524:1.0 28525:1.0 
-0.15806678225847431 1:13.0 2:1.0 3:0.0 4:5.0 5:0.0 6:0.0 7:6.0 8:0.0 9:0.0 10:0.0 11:0.0 12:1.0 13:0.0 14:0.0 23:3.0 24:4.0 25:4.0 26:0.0 27:0.0 28:0.0 29:0.0 30:0.0 31:10400.0 32:0.0 11875:1.0 24941:1.0 24951:1.0 24954:1.0 25455:1.0 28001:1.0 28257:1.0 28525:1.0 28526:1.0 29486:1.0 30579:1.0 31343:1.0 
-0.136992684466817 1:10.0 2:2.0 3:0.0 4:3.0 5:0.0 6:0.0 7:2.6666666666666665 8:0.0 9:0.0 10:0.0 11:0.0 12:2.0 13:0.0 14:0.0 23:2.0 24:3.0 25:3.0 26:0.0 27:0.0 28:0.0 29:0.0 30:0.0 31:14200.0 32:0.0 11874:1.0 11875:1.0 25202:1.0 25455:1.0 27694:1.0 27950:1.0 28524:1.0 28525:1.0 30063:1.0 
-0.33744755003991816 1:11.0 2:1.0 3:0.0 4:3.0 5:0.0 6:0.0 7:5.0 8:0.0 9:0.0 10:0.0 11:0.0 12:1.0 13:0.0 14:0.0 23:1.0 24:0.0 25:0.0 26:0.0 27:0.0 28:0.0 29:0.0 30:0.0 31:241000.0 32:0.0 11875:1.0 25199:1.0 25455:1.0 25714:1.0 28525:1.0 28528:1.0 28536:1.0 28770:1.0 29295:1.0 30766:1.0 
-0.3375124693551698 1:11.0 2:1.0 3:0.0 4:4.0 5:0.0 6:0.0 7:5.0 8:0.0 9:0.0 10:0.0 11:0.0 12:1.0 13:0.0 14:0.0 23:1.0 24:8.0 25:8.0 26:0.0 27:0.0 28:0.0 29:0.0 30:0.0 31:25200.0 32:0.0 11875:1.0 25189:1.0 25455:1.0 25716:1.0 25902:1.0 25956:1.0 28525:1.0 29285:1.0 29813:1.0 30050:1.0 
-0.33731720561777934 1:9.0 2:1.0 3:0.0 4:3.0 5:0.0 6:0.0 7:4.0 8:0.0 9:0.0 10:0.0 11:0.0 12:1.0 13:0.0 14:1.0 15:2366.0 16:213852.0 17:782.0 18:2701.0 19:1.0 20:12.0 21:0.0 22:0.0 23:2.0 24:3.0 25:3.0 26:0.0 27:0.0 28:0.0 29:0.0 30:0.0 31:3450000.0 32:0.0 11875:1.0 24878:1.0 25448:1.0 25455:1.0 26729:1.0 26990:1.0 28257:1.0 28525:1.0 
-0.33740850976367137 1:12.0 2:2.0 3:0.0 4:5.0 5:0.0 6:0.0 7:3.3333333333333335 8:0.0 9:0.0 10:0.0 11:0.0 12:1.0 13:0.0 14:0.0 23:3.0 24:10.0 25:10.0 26:0.0 27:0.0 28:0.0 29:0.0 30:0.0 31:299000.0 32:0.0 11875:1.0 11893:1.0 24941:1.0 24954:1.0 25455:1.0 28001:1.0 28206:1.0 28462:1.0 28526:1.0 30059:1.0 31343:1.0 
-0.3374898574243539 1:13.0 2:2.0 3:0.0 4:5.0 5:0.0 6:0.0 7:3.6666666666666665 8:0.0 9:0.0 10:0.0 11:0.0 12:2.0 13:0.0 14:0.0 23:1.0 24:0.0 25:0.0 26:0.0 27:0.0 28:0.0 29:0.0 30:0.0 31:582000.0 32:0.0 11873:1.0 11875:1.0 24946:1.0 25455:1.0 25902:1.0 26476:1.0 26479:1.0 27749:1.0 27950:1.0 28519:1.0 28525:1.0 28527:1.0 
-1.0 1:13.0 2:2.0 3:0.0 4:5.0 5:0.0 6:0.0 7:3.6666666666666665 8:0.0 9:0.0 10:0.0 11:0.0 12:2.0 13:0.0 14:0.0 23:1.0 24:0.0 25:0.0 26:0.0 27:0.0 28:0.0 29:0.0 30:0.0 31:73.0 32:0.0 11875:1.0 11891:1.0 25455:1.0 25902:1.0 26476:1.0 26479:1.0 27749:1.0 27950:1.0 28519:1.0 28525:1.0 28527:1.0 29537:1.0 
-1.0 1:10.0 2:1.0 3:0.0 4:3.0 5:0.0 6:0.0 7:4.5 8:0.0 9:0.0 10:0.0 11:0.0 12:1.0 13:0.0 14:0.0 23:1.0 24:3.0 25:3.0 26:0.0 27:0.0 28:0.0 29:0.0 30:0.0 31:5030.0 32:0.0 11886:1.0 25972:2.0 27000:1.0 28261:2.0 28777:1.0 29742:1.0 30830:1.0 
-0.31032200751568256 1:14.0 2:1.0 3:0.0 4:5.0 5:0.0 6:0.0 7:6.5 8:0.0 9:0.0 10:0.0 11:0.0 12:1.0 13:0.0 14:0.0 23:1.0 24:4.0 25:4.0 26:0.0 27:0.0 28:0.0 29:0.0 30:0.0 31:3490.0 32:0.0 11886:1.0 24946:1.0 25701:1.0 25902:1.0 25971:1.0 25972:1.0 26721:1.0 26980:1.0 27753:1.0 28261:1.0 29285:1.0 29544:1.0 29548:1.0 
-1.0 1:14.0 2:1.0 3:1.0 4:5.0 5:0.0 6:0.0 7:6.5 8:0.07142857142857142 9:0.0 10:0.0 11:1.0 12:2.0 13:0.0 14:0.0 23:1.0 24:2.0 25:2.0 26:0.0 27:0.0 28:0.0 29:0.0 30:0.0 31:1600.0 32:0.0 11875:1.0 12910:1.0 24878:1.0 25455:1.0 25705:1.0 25956:1.0 25975:1.0 26977:1.0 27954:1.0 28005:1.0 28261:1.0 28525:1.0 30573:1.0 
-1.0 1:13.0 2:2.0 3:0.0 4:5.0 5:0.0 6:0.0 7:3.6666666666666665 8:0.0 9:0.0 10:0.0 11:0.0 12:2.0 13:0.0 14:0.0 23:1.0 24:0.0 25:0.0 26:0.0 27:0.0 28:0.0 29:0.0 30:0.0 31:46.0 32:0.0 11875:1.0 11877:1.0 25455:1.0 25902:1.0 25959:1.0 26476:1.0 26479:1.0 27749:1.0 27950:1.0 28519:1.0 28525:1.0 28527:1.0 
-1.0 1:9.0 2:1.0 3:0.0 4:3.0 5:0.0 6:0.0 7:4.0 8:0.0 9:0.0 10:0.0 11:0.0 12:1.0 13:0.0 14:0.0 23:1.0 24:4.0 25:4.0 26:0.0 27:0.0 28:0.0 29:0.0 30:0.0 31:1890.0 32:0.0 11875:1.0 25199:1.0 25455:1.0 26476:1.0 27759:1.0 28462:1.0 28514:1.0 28525:1.0 
-0.3374060531976531 1:6.0 2:1.0 3:0.0 4:1.0 5:0.0 6:0.0 7:2.5 8:0.0 9:0.0 10:0.0 11:0.0 12:1.0 13:0.0 14:1.0 15:307.0 16:43068.0 17:30.0 18:260.0 19:1.0 20:1.0 21:0.0 22:0.0 23:2.0 24:2.0 25:2.0 26:0.0 27:0.0 28:0.0 29:0.0 30:0.0 31:66700.0 32:0.0 11884:1.0 24932:1.0 25702:1.0 26158:1.0 27769:1.0 
-0.24517605696035316 1:13.0 2:1.0 3:0.0 4:6.0 5:0.0 6:0.0 7:6.0 8:0.0 9:0.0 10:0.0 11:0.0 12:2.0 13:0.0 14:0.0 23:1.0 24:3.0 25:3.0 26:0.0 27:0.0 28:0.0 29:0.0 30:0.0 31:7210.0 32:0.0 11887:1.0 24878:1.0 25705:1.0 25956:1.0 26977:1.0 26987:1.0 26989:1.0 27497:1.0 28005:1.0 28530:1.0 29287:1.0 30569:1.0 
-0.3378340605911706 1:11.0 2:1.0 3:0.0 4:4.0 5:0.0 6:0.0 7:5.0 8:0.0 9:0.0 10:0.0 11:0.0 12:2.0 13:0.0 14:0.0 23:1.0 24:4.0 25:4.0 26:0.0 27:0.0 28:0.0 29:0.0 30:0.0 31:3760000.0 32:0.0 11875:1.0 25199:1.0 25455:1.0 26414:1.0 26990:1.0 27497:1.0 28263:1.0 28523:1.0 28525:1.0 28527:1.0 
-0.33756935635387136 1:11.0 2:1.0 3:0.0 4:4.0 5:0.0 6:0.0 7:5.0 8:0.0 9:0.0 10:0.0 11:0.0 12:1.0 13:0.0 14:1.0 15:4.0 16:44.0 17:0.0 18:4.0 19:0.0 20:0.0 21:0.0 22:0.0 23:1.0 24:4.0 25:4.0 26:0.0 27:0.0 28:0.0 29:0.0 30:0.0 31:211000.0 32:0.0 11887:1.0 24878:1.0 26988:1.0 27745:1.0 27756:1.0 28015:1.0 28530:1.0 28538:1.0 29287:1.0 31337:1.0 
-1.0 1:10.0 2:1.0 3:0.0 4:3.0 5:0.0 6:0.0 7:4.5 8:0.0 9:0.0 10:0.0 11:0.0 12:1.0 13:0.0 14:0.0 23:5.0 24:2.0 25:2.0 26:0.0 27:0.0 28:0.0 29:0.0 30:0.0 31:56.0 32:0.0 11875:1.0 25455:1.0 25970:1.0 26217:1.0 26998:1.0 28525:1.0 29230:1.0 29298:1.0 30309:1.0 
-0.3373303265777332 1:16.0 2:1.0 3:0.0 4:6.0 5:0.0 6:0.0 7:7.5 8:0.0 9:0.0 10:0.0 11:0.0 12:1.0 13:0.0 14:1.0 15:8.0 16:170.0 17:1.0 18:7.0 19:1.0 20:0.0 21:0.0 22:0.0 23:1.0 24:8.0 25:8.0 26:0.0 27:0.0 28:0.0 29:0.0 30:0.0 31:29800.0 32:0.0 11886:1.0 25461:1.0 25955:1.0 25970:2.0 25971:1.0 25972:1.0 28261:1.0 29230:1.0 29285:1.0 29302:1.0 29541:2.0 30066:1.0 30309:1.0 
-0.19533916466017834 1:12.0 2:1.0 3:0.0 4:4.0 5:0.0 6:0.0 7:5.5 8:0.0 9:0.0 10:0.0 11:0.0 12:2.0 13:0.0 14:0.0 23:2.0 24:4.0 25:4.0 26:0.0 27:0.0 28:0.0 29:0.0 30:0.0 31:29000.0 32:0.0 11875:1.0 25205:1.0 25455:1.0 25646:1.0 25956:1.0 25957:1.0 26213:1.0 28525:1.0 30074:1.0 31334:1.0 31354:1.0 
-0.3920442895516919 1:15.0 2:1.0 3:0.0 4:6.0 5:0.0 6:0.0 7:7.0 8:0.0 9:0.0 10:0.0 11:0.0 12:2.0 13:0.0 14:0.0 23:1.0 24:2.0 25:2.0 26:0.0 27:0.0 28:0.0 29:0.0 30:0.0 31:11100.0 32:0.0 11875:1.0 24940:1.0 25455:1.0 25962:1.0 26998:1.0 27247:1.0 27694:1.0 27753:1.0 28257:1.0 28525:1.0 28533:1.0 29294:1.0 30066:1.0 30309:1.0 
-1.0 1:13.0 2:2.0 3:0.0 4:4.0 5:0.0 6:0.0 7:3.6666666666666665 8:0.0 9:0.0 10:0.0 11:0.0 12:2.0 13:0.0 14:0.0 23:1.0 24:0.0 25:0.0 26:0.0 27:0.0 28:0.0 29:0.0 30:0.0 31:66.0 32:0.0 11875:1.0 11888:1.0 25455:1.0 25902:1.0 26476:1.0 26479:1.0 27749:1.0 27950:1.0 28519:1.0 28525:1.0 28527:1.0 28779:1.0 
-0.8836222520077124 1:13.0 2:1.0 3:0.0 4:4.0 5:0.0 6:0.0 7:6.0 8:0.0 9:0.0 10:0.0 11:0.0 12:1.0 13:0.0 14:0.0 23:1.0 24:4.0 25:4.0 26:0.0 27:0.0 28:0.0 29:0.0 30:0.0 31:3000.0 32:0.0 11875:1.0 25455:1.0 25460:1.0 25705:1.0 25955:1.0 25974:1.0 26994:1.0 28525:1.0 29285:2.0 29810:1.0 30254:1.0 
-0.5349756314396164 1:9.0 2:1.0 3:0.0 4:3.0 5:0.0 6:0.0 7:4.0 8:0.0 9:0.0 10:0.0 11:0.0 12:1.0 13:0.0 14:1.0 15:308.0 16:31940.0 17:68.0 18:381.0 19:1.0 20:1.0 21:0.0 22:0.0 23:1.0 24:4.0 25:4.0 26:0.0 27:0.0 28:0.0 29:0.0 30:0.0 31:90.0 32:0.0 11882:1.0 24941:1.0 25196:1.0 25954:1.0 27248:1.0 27759:1.0 28005:1.0 28462:1.0 
-0.16944778423508824 1:8.0 2:1.0 3:0.0 4:2.0 5:0.0 6:0.0 7:3.5 8:0.0 9:0.0 10:0.0 11:0.0 12:1.0 13:0.0 14:0.0 23:2.0 24:8.0 25:8.0 26:0.0 27:0.0 28:0.0 29:0.0 30:0.0 31:3840.0 32:0.0 11875:1.0 25455:1.0 25964:1.0 27760:1.0 28525:1.0 28718:1.0 31077:1.0 
-0.3375517851875132 1:13.0 2:2.0 3:0.0 4:4.0 5:0.0 6:0.0 7:3.6666666666666665 8:0.0 9:0.0 10:0.0 11:0.0 12:2.0 13:0.0 14:0.0 23:1.0 24:0.0 25:0.0 26:0.0 27:0.0 28:0.0 29:0.0 30:0.0 31:2070000.0 32:0.0 11875:1.0 11892:1.0 25455:1.0 25902:1.0 26476:1.0 26479:1.0 27749:1.0 27950:1.0 28519:1.0 28525:1.0 28527:1.0 29815:1.0 
-0.3376623380702944 1:9.0 2:1.0 3:0.0 4:4.0 5:0.0 6:0.0 7:4.0 8:0.0 9:0.0 10:0.0 11:0.0 12:2.0 13:0.0 14:1.0 15:14.0 16:177.0 17:0.0 18:9.0 19:1.0 20:0.0 21:0.0 22:0.0 23:8.0 24:2.0 25:2.0 26:1.0 27:0.0 28:0.0 29:0.0 30:0.0 31:413000.0 32:0.0 11875:1.0 25455:1.0 26479:1.0 28519:1.0 28525:1.0 28533:1.0 29551:1.0 29998:1.0 
-0.3374384278436867 1:14.0 2:1.0 3:0.0 4:5.0 5:0.0 6:0.0 7:6.5 8:0.0 9:0.0 10:0.0 11:0.0 12:2.0 13:0.0 14:0.0 23:8.0 24:4.0 25:4.0 26:0.0 27:0.0 28:0.0 29:0.0 30:0.0 31:144000.0 32:0.0 11875:1.0 24942:1.0 24946:1.0 25455:1.0 25701:1.0 25974:1.0 26977:1.0 28276:1.0 28525:1.0 29300:1.0 29742:1.0 29793:1.0 30313:1.0 
-1.0 1:13.0 2:1.0 3:0.0 4:6.0 5:0.0 6:0.0 7:6.0 8:0.0 9:0.0 10:0.0 11:0.0 12:2.0 13:0.0 14:0.0 23:1.0 24:0.0 25:0.0 26:0.0 27:0.0 28:0.0 29:0.0 30:0.0 31:26.0 32:0.0 11875:1.0 25455:1.0 25902:1.0 26735:1.0 26996:1.0 28525:1.0 28527:1.0 28532:1.0 29557:1.0 29797:1.0 29811:1.0 30057:1.0 
-0.33749898099108905 1:16.0 2:1.0 3:0.0 4:7.0 5:0.0 6:0.0 7:7.5 8:0.0 9:0.0 10:0.0 11:0.0 12:1.0 13:0.0 14:0.0 23:1.0 24:1.0 25:1.0 26:0.0 27:0.0 28:0.0 29:0.0 30:0.0 31:2.67E7 32:0.0 11881:1.0 25701:1.0 25964:1.0 25974:1.0 26223:1.0 26990:1.0 26996:1.0 27759:1.0 28262:1.0 28265:1.0 28528:1.0 28789:1.0 29742:1.0 30062:1.0 30309:1.0 
-1.0 1:12.0 2:1.0 3:0.0 4:3.0 5:0.0 6:0.0 7:5.5 8:0.0 9:0.0 10:0.0 11:0.0 12:1.0 13:0.0 14:0.0 23:1.0 24:4.0 25:4.0 26:0.0 27:0.0 28:0.0 29:0.0 30:0.0 31:81.0 32:0.0 11875:1.0 24946:1.0 25455:1.0 26220:1.0 26992:1.0 27489:1.0 27753:1.0 28525:1.0 28779:1.0 29300:1.0 29742:1.0 
-0.5638910723640482 1:9.0 2:1.0 3:0.0 4:4.0 5:0.0 6:0.0 7:4.0 8:0.0 9:0.0 10:0.0 11:0.0 12:2.0 13:0.0 14:0.0 23:4.0 24:4.0 25:4.0 26:0.0 27:0.0 28:0.0 29:0.0 30:0.0 31:21900.0 32:0.0 11875:1.0 24878:1.0 25455:1.0 26977:1.0 26987:1.0 27497:1.0 28525:1.0 30569:1.0 
-1.0 1:10.0 2:1.0 3:0.0 4:3.0 5:0.0 6:0.0 7:4.5 8:0.0 9:0.0 10:0.0 11:0.0 12:1.0 13:0.0 14:0.0 23:2.0 24:2.0 25:2.0 26:0.0 27:0.0 28:0.0 29:0.0 30:0.0 31:12.0 32:0.0 11875:1.0 24878:1.0 25196:1.0 25455:1.0 26209:1.0 26470:1.0 27759:1.0 28519:1.0 28525:1.0 
-0.3374563161037691 1:8.0 2:1.0 3:0.0 4:2.0 5:0.0 6:0.0 7:3.5 8:0.0 9:0.0 10:0.0 11:0.0 12:1.0 13:0.0 14:0.0 23:1.0 24:8.0 25:8.0 26:0.0 27:0.0 28:0.0 29:0.0 30:0.0 31:19000.0 32:0.0 11875:1.0 25455:1.0 25972:1.0 28525:1.0 29561:1.0 29811:1.0 31022:1.0 
-1.0 1:12.0 2:1.0 3:0.0 4:5.0 5:0.0 6:0.0 7:5.5 8:0.0 9:0.0 10:0.0 11:0.0 12:2.0 13:0.0 14:0.0 23:4.0 24:8.0 25:8.0 26:0.0 27:0.0 28:0.0 29:0.0 30:0.0 31:19.0 32:0.0 11875:1.0 24937:1.0 25202:1.0 25455:1.0 26990:1.0 28206:1.0 28525:1.0 28533:1.0 29281:1.0 29794:1.0 30068:1.0 
-0.3373408227957164 1:11.0 2:1.0 3:0.0 4:4.0 5:0.0 6:0.0 7:5.0 8:0.0 9:0.0 10:0.0 11:0.0 12:1.0 13:0.0 14:0.0 23:1.0 24:6.0 25:6.0 26:0.0 27:0.0 28:0.0 29:0.0 30:0.0 31:1310000.0 32:0.0 11875:1.0 25455:1.0 26735:1.0 26984:1.0 26987:1.0 27497:1.0 28525:1.0 28535:1.0 30510:1.0 30569:1.0 
-1.0 1:10.0 2:1.0 3:0.0 4:2.0 5:0.0 6:0.0 7:4.5 8:0.0 9:0.0 10:0.0 11:0.0 12:1.0 13:0.0 14:0.0 23:1.0 24:0.0 25:0.0 26:0.0 27:0.0 28:0.0 29:0.0 30:0.0 31:1.0 32:0.0 11875:1.0 25452:1.0 25455:1.0 27501:1.0 27755:1.0 28015:1.0 28206:1.0 28525:1.0 28526:1.0 
-0.13482893113456362 1:7.0 2:1.0 3:0.0 4:2.0 5:0.0 6:0.0 7:3.0 8:0.0 9:0.0 10:0.0 11:0.0 12:1.0 13:0.0 14:0.0 23:2.0 24:6.0 25:6.0 26:0.0 27:0.0 28:0.0 29:0.0 30:0.0 31:28000.0 32:0.0 11875:1.0 24950:1.0 25455:1.0 26414:1.0 28525:1.0 30311:1.0 
-0.33748471276346015 1:12.0 2:2.0 3:0.0 4:4.0 5:0.0 6:0.0 7:3.3333333333333335 8:0.0 9:0.0 10:0.0 11:0.0 12:2.0 13:0.0 14:0.0 23:1.0 24:0.0 25:0.0 26:0.0 27:0.0 28:0.0 29:0.0 30:0.0 31:248000.0 32:0.0 11875:1.0 11892:1.0 25455:1.0 25902:1.0 26476:1.0 26479:1.0 27749:1.0 28462:1.0 28519:1.0 28527:1.0 29800:1.0 
-0.3375381428932525 1:12.0 2:2.0 3:0.0 4:5.0 5:0.0 6:0.0 7:3.3333333333333335 8:0.0 9:0.0 10:0.0 11:0.0 12:2.0 13:0.0 14:0.0 23:1.0 24:0.0 25:0.0 26:0.0 27:0.0 28:0.0 29:0.0 30:0.0 31:990000.0 32:0.0 11875:1.0 11898:1.0 25455:1.0 25902:1.0 26476:1.0 26479:1.0 27749:1.0 28462:1.0 28519:1.0 28527:1.0 31329:1.0 
-1.0 1:15.0 2:1.0 3:0.0 4:5.0 5:0.0 6:0.0 7:7.0 8:0.0 9:0.0 10:0.0 11:0.0 12:2.0 13:0.0 14:0.0 23:1.0 24:4.0 25:4.0 26:0.0 27:0.0 28:0.0 29:0.0 30:0.0 31:639.0 32:0.0 11875:1.0 25196:1.0 25455:1.0 25973:1.0 27749:1.0 28002:1.0 28206:1.0 28525:1.0 28526:1.0 28783:1.0 29556:1.0 29813:1.0 30061:1.0 30064:1.0 
-1.0 1:13.0 2:1.0 3:1.0 4:3.0 5:0.0 6:0.0 7:6.0 8:0.07692307692307693 9:0.0 10:0.0 11:1.0 12:2.0 13:0.0 14:0.0 23:1.0 24:2.0 25:2.0 26:0.0 27:0.0 28:0.0 29:0.0 30:0.0 31:1840.0 32:0.0 11875:1.0 13171:1.0 25448:1.0 25455:1.0 26735:1.0 27763:1.0 28524:1.0 28525:1.0 28527:1.0 29486:1.0 29539:1.0 30515:1.0 
-1.0 1:14.0 2:1.0 3:0.0 4:5.0 5:0.0 6:0.0 7:6.5 8:0.0 9:0.0 10:0.0 11:0.0 12:2.0 13:0.0 14:0.0 23:1.0 24:0.0 25:0.0 26:0.0 27:0.0 28:0.0 29:0.0 30:0.0 31:6160.0 32:0.0 11875:1.0 25452:1.0 25455:1.0 25646:1.0 25699:1.0 27759:1.0 28260:1.0 28525:1.0 28533:2.0 29551:1.0 30052:1.0 30062:1.0 
-1.0 1:12.0 2:1.0 3:0.0 4:5.0 5:0.0 6:0.0 7:5.5 8:0.0 9:0.0 10:0.0 11:0.0 12:2.0 13:0.0 14:0.0 23:1.0 24:2.0 25:2.0 26:0.0 27:0.0 28:0.0 29:0.0 30:0.0 31:59.0 32:0.0 11875:1.0 25455:1.0 25711:1.0 25956:1.0 26998:1.0 27753:1.0 28525:1.0 28527:1.0 28530:1.0 29230:1.0 30309:1.0 
-1.0 1:16.0 2:1.0 3:0.0 4:5.0 5:0.0 6:0.0 7:7.5 8:0.0 9:0.0 10:0.0 11:0.0 12:1.0 13:0.0 14:0.0 23:0.0 24:4.0 25:4.0 26:0.0 27:0.0 28:0.0 29:0.0 30:0.0 31:1300.0 32:0.0 11875:1.0 25449:1.0 25455:1.0 25458:1.0 25971:1.0 26223:1.0 26979:1.0 26990:1.0 28259:1.0 28262:1.0 28462:1.0 28525:1.0 28782:1.0 29289:1.0 29552:1.0 
-0.20338390491387703 1:15.0 2:1.0 3:0.0 4:6.0 5:0.0 6:0.0 7:7.0 8:0.0 9:0.0 10:0.0 11:0.0 12:2.0 13:0.0 14:0.0 23:4.0 24:4.0 25:4.0 26:0.0 27:0.0 28:0.0 29:0.0 30:0.0 31:28000.0 32:0.0 11875:1.0 24942:1.0 24946:1.0 25455:1.0 25705:1.0 25959:1.0 26485:1.0 26725:1.0 26977:1.0 28206:1.0 28525:1.0 29284:1.0 29800:1.0 30049:1.0 
-1.0 1:11.0 2:1.0 3:1.0 4:3.0 5:0.0 6:0.0 7:5.0 8:0.09090909090909091 9:0.0 10:0.0 11:1.0 12:1.0 13:0.0 14:0.0 23:1.0 24:0.0 25:0.0 26:0.0 27:0.0 28:0.0 29:0.0 30:0.0 31:2060.0 32:0.0 11875:1.0 13427:1.0 24946:1.0 25455:1.0 25646:1.0 25956:1.0 26721:1.0 28525:1.0 29285:1.0 29544:1.0 
-0.33744207054830977 1:11.0 2:1.0 3:0.0 4:4.0 5:0.0 6:0.0 7:5.0 8:0.0 9:0.0 10:0.0 11:0.0 12:1.0 13:0.0 14:0.0 23:1.0 24:0.0 25:0.0 26:0.0 27:0.0 28:0.0 29:0.0 30:0.0 31:66900.0 32:0.0 11887:1.0 24946:1.0 25448:1.0 25902:1.0 26729:1.0 26998:1.0 28530:1.0 29283:1.0 29287:1.0 30309:1.0 
-0.11320712760220533 1:19.0 2:2.0 3:0.0 4:5.0 5:0.0 6:0.0 7:5.666666666666667 8:0.0 9:0.0 10:0.0 11:0.0 12:1.0 13:0.0 14:0.0 23:0.0 24:4.0 25:1.0 26:0.0 27:0.0 28:0.0 29:0.0 30:0.0 31:7480.0 32:0.0 11875:1.0 11895:1.0 25455:1.0 25712:1.0 25971:2.0 26217:1.0 26988:1.0 27749:1.0 28525:1.0 28530:1.0 28786:1.0 29284:1.0 29285:1.0 29486:2.0 29555:1.0 30575:1.0 
-0.3374061774032766 1:15.0 2:1.0 3:0.0 4:6.0 5:0.0 6:0.0 7:7.0 8:0.0 9:0.0 10:0.0 11:0.0 12:2.0 13:0.0 14:0.0 23:1.0 24:5.0 25:5.0 26:0.0 27:0.0 28:0.0 29:0.0 30:0.0 31:257000.0 32:0.0 11886:1.0 25445:1.0 25902:1.0 25958:1.0 25972:1.0 26223:1.0 26469:1.0 28261:1.0 28530:1.0 28533:1.0 29283:1.0 29287:1.0 29551:1.0 30066:1.0 
-0.38135911543412215 1:9.0 2:1.0 3:0.0 4:4.0 5:0.0 6:0.0 7:4.0 8:0.0 9:0.0 10:0.0 11:0.0 12:2.0 13:0.0 14:1.0 15:11.0 16:336.0 17:1.0 18:7.0 19:1.0 20:0.0 21:0.0 22:0.0 23:2.0 24:4.0 25:4.0 26:0.0 27:0.0 28:0.0 29:0.0 30:0.0 31:637.0 32:0.0 11875:1.0 24932:1.0 25185:1.0 25455:1.0 25711:1.0 28462:1.0 28525:1.0 28527:1.0 
-0.1952558938094265 1:13.0 2:1.0 3:0.0 4:6.0 5:0.0 6:0.0 7:6.0 8:0.0 9:0.0 10:0.0 11:0.0 12:2.0 13:0.0 14:0.0 23:2.0 24:4.0 25:4.0 26:0.0 27:0.0 28:0.0 29:0.0 30:0.0 31:13400.0 32:0.0 11875:1.0 24934:1.0 25455:1.0 25705:1.0 25902:1.0 25956:1.0 26217:1.0 26977:1.0 26994:1.0 28005:1.0 28525:1.0 29285:1.0 
-0.32042938379559804 1:11.0 2:1.0 3:0.0 4:3.0 5:0.0 6:0.0 7:5.0 8:0.0 9:0.0 10:0.0 11:0.0 12:1.0 13:0.0 14:0.0 23:1.0 24:4.0 25:4.0 26:0.0 27:0.0 28:0.0 29:0.0 30:0.0 31:35300.0 32:0.0 11875:1.0 24942:1.0 25455:1.0 25970:1.0 28275:1.0 28525:1.0 29299:1.0 29486:1.0 29559:1.0 30565:1.0 
-0.3170804439559829 1:10.0 2:1.0 3:0.0 4:3.0 5:0.0 6:0.0 7:4.5 8:0.0 9:0.0 10:0.0 11:0.0 12:1.0 13:0.0 14:0.0 23:1.0 24:8.0 25:0.0 26:0.0 27:0.0 28:0.0 29:0.0 30:0.0 31:10700.0 32:0.0 11875:1.0 25189:1.0 25455:1.0 25971:1.0 26223:1.0 28525:1.0 28530:1.0 29282:1.0 29486:1.0 
-0.1959507461048631 1:17.0 2:1.0 3:0.0 4:7.0 5:0.0 6:0.0 7:8.0 8:0.0 9:0.0 10:0.0 11:0.0 12:1.0 13:0.0 14:0.0 23:2.0 24:6.0 25:6.0 26:0.0 27:0.0 28:0.0 29:0.0 30:0.0 31:13300.0 32:0.0 11875:1.0 24878:1.0 24941:1.0 24942:1.0 25185:1.0 25441:1.0 25455:1.0 25970:1.0 26209:1.0 26979:1.0 27503:1.0 28005:1.0 28267:1.0 28518:1.0 28525:1.0 29289:1.0 
-0.3370285635294528 1:11.0 2:1.0 3:0.0 4:4.0 5:0.0 6:0.0 7:5.0 8:0.0 9:0.0 10:0.0 11:0.0 12:2.0 13:0.0 14:0.0 23:1.0 24:0.0 25:0.0 26:0.0 27:0.0 28:0.0 29:0.0 30:0.0 31:3050000.0 32:0.0 11877:1.0 25966:1.0 25973:1.0 28276:1.0 28530:1.0 29285:1.0 29298:1.0 29807:1.0 29818:1.0 31278:1.0 
-1.0 1:10.0 2:1.0 3:0.0 4:4.0 5:0.0 6:0.0 7:4.5 8:0.0 9:0.0 10:0.0 11:0.0 12:1.0 13:0.0 14:0.0 23:1.0 24:8.0 25:8.0 26:0.0 27:0.0 28:0.0 29:0.0 30:0.0 31:11.0 32:0.0 11875:1.0 24951:1.0 25189:1.0 25455:1.0 25954:1.0 25970:1.0 28525:1.0 29230:1.0 30565:1.0 
-0.35048393355109336 1:15.0 2:1.0 3:0.0 4:6.0 5:0.0 6:0.0 7:7.0 8:0.0 9:0.0 10:0.0 11:0.0 12:2.0 13:0.0 14:0.0 23:2.0 24:2.0 25:2.0 26:0.0 27:0.0 28:0.0 29:0.0 30:0.0 31:2050.0 32:0.0 11890:1.0 25961:1.0 25970:1.0 25972:1.0 26990:1.0 26998:1.0 27753:1.0 28261:1.0 28276:1.0 29294:1.0 29301:1.0 29742:1.0 29797:1.0 30309:1.0 
-1.0 1:11.0 2:1.0 3:0.0 4:3.0 5:0.0 6:0.0 7:5.0 8:0.0 9:0.0 10:0.0 11:0.0 12:1.0 13:0.0 14:0.0 23:1.0 24:4.0 25:4.0 26:0.0 27:0.0 28:0.0 29:0.0 30:0.0 31:1610.0 32:0.0 11875:1.0 24932:1.0 25455:1.0 25700:1.0 25716:1.0 26729:1.0 26995:1.0 28525:1.0 29486:1.0 29800:1.0 
-0.31673885322358114 1:14.0 2:1.0 3:0.0 4:5.0 5:0.0 6:0.0 7:6.5 8:0.0 9:0.0 10:0.0 11:0.0 12:1.0 13:0.0 14:1.0 15:4.0 16:44.0 17:0.0 18:4.0 19:0.0 20:0.0 21:0.0 22:0.0 23:1.0 24:10.0 25:10.0 26:0.0 27:0.0 28:0.0 29:0.0 30:0.0 31:7640.0 32:0.0 11875:1.0 24940:1.0 25445:1.0 25455:1.0 25902:1.0 25971:1.0 26223:1.0 27749:1.0 28525:1.0 28530:1.0 29283:1.0 29537:1.0 29542:1.0 
-0.2004922117217522 1:11.0 2:1.0 3:0.0 4:3.0 5:0.0 6:0.0 7:5.0 8:0.0 9:0.0 10:0.0 11:0.0 12:1.0 13:0.0 14:0.0 23:2.0 24:8.0 25:8.0 26:0.0 27:0.0 28:0.0 29:0.0 30:0.0 31:14200.0 32:0.0 11875:1.0 25455:1.0 25975:1.0 26223:1.0 28261:1.0 28525:1.0 28536:1.0 29486:1.0 30579:1.0 30830:1.0 
-0.24371618088028468 1:9.0 2:1.0 3:0.0 4:3.0 5:0.0 6:0.0 7:4.0 8:0.0 9:0.0 10:0.0 11:0.0 12:1.0 13:0.0 14:0.0 23:7.0 24:8.0 25:6.0 26:0.0 27:0.0 28:0.0 29:0.0 30:0.0 31:24200.0 32:0.0 11875:1.0 24947:1.0 25448:1.0 25455:1.0 25902:1.0 26721:1.0 28525:1.0 29541:1.0 
-0.33745592538933356 1:10.0 2:1.0 3:0.0 4:4.0 5:0.0 6:0.0 7:4.5 8:0.0 9:0.0 10:0.0 11:0.0 12:2.0 13:0.0 14:0.0 23:1.0 24:4.0 25:4.0 26:0.0 27:0.0 28:0.0 29:0.0 30:0.0 31:25800.0 32:0.0 11875:1.0 25455:1.0 25646:1.0 25701:1.0 25956:1.0 25957:1.0 26990:1.0 28260:1.0 28525:1.0 
-0.3374789682395837 1:12.0 2:2.0 3:0.0 4:3.0 5:0.0 6:0.0 7:3.3333333333333335 8:0.0 9:0.0 10:0.0 11:0.0 12:1.0 13:0.0 14:1.0 15:1372.0 16:97296.0 17:666.0 18:1550.0 19:1.0 20:16.0 21:0.0 22:0.0 23:1.0 24:2.0 25:2.0 26:0.0 27:0.0 28:0.0 29:0.0 30:0.0 31:1130000.0 32:0.0 11875:2.0 24878:1.0 25448:1.0 25454:1.0 25455:1.0 26729:1.0 26990:1.0 27950:1.0 28257:1.0 28525:1.0 
-1.0 1:6.0 2:1.0 3:0.0 4:1.0 5:0.0 6:0.0 7:2.5 8:0.0 9:0.0 10:0.0 11:0.0 12:1.0 13:0.0 14:0.0 23:0.0 24:4.0 25:4.0 26:0.0 27:0.0 28:0.0 29:0.0 30:0.0 31:11.0 32:0.0 11878:1.0 24947:1.0 26221:1.0 27438:1.0 29547:1.0 
-0.3375089866908163 1:9.0 2:1.0 3:0.0 4:3.0 5:0.0 6:0.0 7:4.0 8:0.0 9:0.0 10:0.0 11:0.0 12:1.0 13:0.0 14:1.0 15:742.0 16:81193.0 17:222.0 18:1015.0 19:1.0 20:8.0 21:0.0 22:0.0 23:4.0 24:2.0 25:2.0 26:0.0 27:0.0 28:0.0 29:0.0 30:0.0 31:13600.0 32:0.0 11875:1.0 24950:1.0 25455:1.0 25970:1.0 28257:1.0 28525:1.0 29230:1.0 30309:1.0 
-0.33746299801566493 1:9.0 2:1.0 3:0.0 4:2.0 5:0.0 6:0.0 7:4.0 8:0.0 9:0.0 10:0.0 11:0.0 12:1.0 13:0.0 14:0.0 23:4.0 24:4.0 25:4.0 26:0.0 27:0.0 28:0.0 29:0.0 30:0.0 31:285000.0 32:0.0 11875:1.0 25455:1.0 25902:1.0 27513:1.0 28525:1.0 28773:1.0 29547:1.0 31088:1.0 
-0.3376612802998707 1:13.0 2:1.0 3:0.0 4:5.0 5:0.0 6:0.0 7:6.0 8:0.0 9:0.0 10:0.0 11:0.0 12:1.0 13:0.0 14:0.0 23:1.0 24:0.0 25:0.0 26:0.0 27:0.0 28:0.0 29:0.0 30:0.0 31:278000.0 32:0.0 11875:1.0 25445:1.0 25455:1.0 25902:1.0 25958:1.0 25966:1.0 25970:1.0 26213:1.0 28259:1.0 28525:1.0 29285:2.0 
-0.47778791826507366 1:13.0 2:1.0 3:0.0 4:4.0 5:0.0 6:0.0 7:6.0 8:0.0 9:0.0 10:0.0 11:0.0 12:1.0 13:0.0 14:0.0 23:1.0 24:4.0 25:4.0 26:0.0 27:0.0 28:0.0 29:0.0 30:0.0 31:1470.0 32:0.0 11875:1.0 24948:1.0 25455:1.0 26465:1.0 26735:1.0 28525:1.0 28530:1.0 28531:1.0 29230:1.0 29556:1.0 29799:1.0 29807:1.0 
-1.0 1:10.0 2:1.0 3:3.0 4:2.0 5:0.0 6:0.0 7:4.5 8:0.3 9:0.0 10:0.0 11:3.0 12:1.0 13:0.0 14:0.0 23:1.0 24:6.0 25:6.0 26:0.0 27:0.0 28:0.0 29:0.0 30:0.0 31:0.0 32:0.0 11875:1.0 13110:1.0 13614:1.0 13877:1.0 25189:1.0 25455:1.0 25972:1.0 28525:1.0 29747:1.0 
-0.33747452844160464 1:10.0 2:1.0 3:0.0 4:3.0 5:0.0 6:0.0 7:4.5 8:0.0 9:0.0 10:0.0 11:0.0 12:1.0 13:0.0 14:1.0 15:4.0 16:44.0 17:0.0 18:4.0 19:0.0 20:0.0 21:0.0 22:0.0 23:2.0 24:4.0 25:4.0 26:0.0 27:0.0 28:0.0 29:0.0 30:0.0 31:225000.0 32:0.0 11875:1.0 25134:1.0 25455:1.0 26473:1.0 26741:1.0 26996:1.0 28525:1.0 29800:1.0 30050:1.0 
-1.0 1:13.0 2:1.0 3:0.0 4:5.0 5:0.0 6:0.0 7:6.0 8:0.0 9:0.0 10:0.0 11:0.0 12:1.0 13:0.0 14:0.0 23:1.0 24:3.0 25:3.0 26:0.0 27:0.0 28:0.0 29:0.0 30:0.0 31:2620.0 32:0.0 11875:1.0 24941:1.0 25455:1.0 25902:1.0 25958:1.0 26223:1.0 26465:1.0 26469:1.0 28005:1.0 28525:1.0 28530:1.0 29287:1.0 
-0.3374746341832649 1:9.0 2:1.0 3:0.0 4:3.0 5:0.0 6:0.0 7:4.0 8:0.0 9:0.0 10:0.0 11:0.0 12:2.0 13:0.0 14:0.0 23:1.0 24:0.0 25:0.0 26:0.0 27:0.0 28:0.0 29:0.0 30:0.0 31:92000.0 32:0.0 11879:1.0 25902:1.0 26476:1.0 26479:1.0 26482:1.0 27749:1.0 28519:1.0 28527:1.0 
-0.22469758071157622 1:15.0 2:1.0 3:0.0 4:5.0 5:0.0 6:0.0 7:7.0 8:0.0 9:0.0 10:0.0 11:0.0 12:2.0 13:0.0 14:0.0 23:2.0 24:2.0 25:2.0 26:0.0 27:0.0 28:0.0 29:0.0 30:0.0 31:3940.0 32:0.0 11875:1.0 24948:1.0 25455:2.0 25970:1.0 28276:1.0 28525:1.0 28533:1.0 29230:1.0 29556:1.0 29793:1.0 29795:1.0 29797:1.0 30062:1.0 
-0.33754225279442357 1:13.0 2:2.0 3:0.0 4:5.0 5:0.0 6:0.0 7:3.6666666666666665 8:0.0 9:0.0 10:0.0 11:0.0 12:2.0 13:0.0 14:0.0 23:1.0 24:0.0 25:0.0 26:0.0 27:0.0 28:0.0 29:0.0 30:0.0 31:757000.0 32:0.0 11875:2.0 25455:2.0 25902:1.0 26476:1.0 26479:1.0 27749:1.0 27950:1.0 28519:1.0 28525:1.0 28527:1.0 
-0.33745938885558097 1:10.0 2:1.0 3:0.0 4:4.0 5:0.0 6:0.0 7:4.5 8:0.0 9:0.0 10:0.0 11:0.0 12:2.0 13:0.0 14:0.0 23:1.0 24:3.0 25:3.0 26:0.0 27:0.0 28:0.0 29:0.0 30:0.0 31:269000.0 32:0.0 11876:1.0 25701:1.0 25959:1.0 25964:1.0 26469:1.0 26981:1.0 27694:1.0 28777:1.0 29552:1.0 
-0.2697382893067797 1:7.0 2:1.0 3:0.0 4:2.0 5:0.0 6:0.0 7:3.0 8:0.0 9:0.0 10:0.0 11:0.0 12:1.0 13:0.0 14:0.0 23:1.0 24:6.0 25:6.0 26:0.0 27:0.0 28:0.0 29:0.0 30:0.0 31:7010.0 32:0.0 11888:1.0 25972:1.0 28261:1.0 28526:1.0 28780:1.0 29742:1.0 
-0.11925613400473 1:12.0 2:2.0 3:0.0 4:5.0 5:0.0 6:0.0 7:3.3333333333333335 8:0.0 9:0.0 10:0.0 11:0.0 12:2.0 13:0.0 14:0.0 23:1.0 24:0.0 25:0.0 26:0.0 27:0.0 28:0.0 29:0.0 30:0.0 31:1.0E8 32:0.0 11875:1.0 11881:1.0 25455:1.0 25902:1.0 26476:1.0 26479:1.0 26980:1.0 27749:1.0 28462:1.0 28519:1.0 28527:1.0 
-1.0 1:16.0 2:1.0 3:0.0 4:4.0 5:0.0 6:0.0 7:7.5 8:0.0 9:0.0 10:0.0 11:0.0 12:1.0 13:0.0 14:0.0 23:1.0 24:4.0 25:4.0 26:0.0 27:0.0 28:0.0 29:0.0 30:0.0 31:1260.0 32:0.0 11875:1.0 25451:1.0 25455:1.0 25970:1.0 26741:1.0 27438:1.0 28515:1.0 28525:1.0 29299:1.0 29544:1.0 29556:1.0 29797:1.0 29807:1.0 29812:1.0 30068:1.0 
-0.18728326356082722 1:12.0 2:1.0 3:0.0 4:4.0 5:0.0 6:0.0 7:5.5 8:0.0 9:0.0 10:0.0 11:0.0 12:1.0 13:0.0 14:0.0 23:0.0 24:3.0 25:3.0 26:0.0 27:0.0 28:0.0 29:0.0 30:0.0 31:11900.0 32:0.0 11875:1.0 25390:1.0 25455:1.0 26228:1.0 26979:1.0 28265:1.0 28518:1.0 28525:1.0 28526:1.0 29551:1.0 29807:1.0 
-1.0 1:13.0 2:2.0 3:0.0 4:4.0 5:0.0 6:0.0 7:3.6666666666666665 8:0.0 9:0.0 10:0.0 11:0.0 12:2.0 13:0.0 14:0.0 23:1.0 24:0.0 25:0.0 26:0.0 27:0.0 28:0.0 29:0.0 30:0.0 31:77.0 32:0.0 11875:1.0 11894:1.0 25455:1.0 25902:1.0 26476:1.0 26479:1.0 27749:1.0 27950:1.0 28519:1.0 28525:1.0 28527:1.0 30318:1.0 
-0.3374079989407733 1:6.0 2:1.0 3:0.0 4:2.0 5:0.0 6:0.0 7:2.5 8:0.0 9:0.0 10:0.0 11:0.0 12:1.0 13:0.0 14:1.0 15:14.0 16:201.0 17:0.0 18:9.0 19:1.0 20:0.0 21:0.0 22:0.0 23:1.0 24:6.0 25:6.0 26:0.0 27:0.0 28:0.0 29:0.0 30:0.0 31:1440000.0 32:0.0 11875:1.0 25455:1.0 28462:1.0 28525:1.0 29551:1.0 
-0.6162452755505793 1:12.0 2:1.0 3:0.0 4:5.0 5:0.0 6:0.0 7:5.5 8:0.0 9:0.0 10:0.0 11:0.0 12:2.0 13:0.0 14:0.0 23:1.0 24:2.0 25:2.0 26:0.0 27:0.0 28:0.0 29:0.0 30:0.0 31:51200.0 32:0.0 11882:1.0 25455:1.0 25701:1.0 25967:1.0 26979:1.0 26980:1.0 27248:1.0 28265:1.0 28462:1.0 28534:1.0 30313:1.0 
-0.19569975029932096 1:9.0 2:1.0 3:0.0 4:4.0 5:0.0 6:0.0 7:4.0 8:0.0 9:0.0 10:0.0 11:0.0 12:2.0 13:0.0 14:0.0 23:1.0 24:0.0 25:0.0 26:0.0 27:0.0 28:0.0 29:0.0 30:0.0 31:6.18E7 32:0.0 11874:1.0 25189:1.0 25902:1.0 26476:1.0 26479:1.0 27749:1.0 28519:1.0 28527:1.0 
-0.33752711335666075 1:11.0 2:1.0 3:0.0 4:3.0 5:0.0 6:0.0 7:5.0 8:0.0 9:0.0 10:0.0 11:0.0 12:1.0 13:0.0 14:0.0 23:2.0 24:12.0 25:12.0 26:0.0 27:0.0 28:0.0 29:0.0 30:0.0 31:23100.0 32:0.0 11875:1.0 24940:1.0 24946:1.0 25455:1.0 27757:1.0 28001:1.0 28525:1.0 29300:1.0 29742:1.0 30561:1.0 
-1.0 1:13.0 2:2.0 3:0.0 4:6.0 5:0.0 6:0.0 7:3.6666666666666665 8:0.0 9:0.0 10:0.0 11:0.0 12:2.0 13:0.0 14:0.0 23:1.0 24:4.0 25:4.0 26:0.0 27:0.0 28:0.0 29:0.0 30:0.0 31:45.0 32:0.0 11875:1.0 11893:1.0 25455:1.0 25902:1.0 26476:1.0 26479:1.0 27749:1.0 27950:1.0 28519:1.0 28525:1.0 28527:1.0 30049:1.0 
-1.0 1:13.0 2:1.0 3:0.0 4:4.0 5:0.0 6:0.0 7:6.0 8:0.0 9:0.0 10:0.0 11:0.0 12:2.0 13:0.0 14:1.0 15:4.0 16:44.0 17:0.0 18:4.0 19:0.0 20:0.0 21:0.0 22:0.0 23:1.0 24:6.0 25:6.0 26:0.0 27:0.0 28:0.0 29:0.0 30:0.0 31:980.0 32:0.0 11875:1.0 24937:1.0 25448:1.0 25455:1.0 26729:1.0 26988:1.0 26989:1.0 27747:1.0 28001:1.0 28016:1.0 28525:1.0 28718:1.0 
-1.0 1:17.0 2:1.0 3:0.0 4:5.0 5:0.0 6:0.0 7:8.0 8:0.0 9:0.0 10:0.0 11:0.0 12:1.0 13:0.0 14:0.0 23:4.0 24:4.0 25:4.0 26:0.0 27:0.0 28:0.0 29:0.0 30:0.0 31:7870.0 32:0.0 11875:1.0 24931:1.0 24942:1.0 25448:1.0 25451:1.0 25455:1.0 25902:1.0 25976:1.0 26469:1.0 26721:1.0 27493:1.0 28263:1.0 28525:1.0 29556:1.0 29793:1.0 30819:1.0 
