svm_type c_svc
kernel_type rbf
gamma 3.1900979360066355E-5
nr_class 2
total_sv 169
rho 0.3100860613026117
label 1 -1
nr_sv 72 97
SV
1.0 1:16.0 2:3.0 4:4.0 7:3.25 12:1.0 14:0.0 25:1.0 33:5.49E7 11875:1.0 11881:1.0 11893:1.0 24931:1.0 25451:1.0 25455:1.0 26996:1.0 27233:1.0 27438:1.0 28462:1.0 29802:1.0 30059:1.0 30510:1.0 30583:2.0 
1.0 1:16.0 2:1.0 4:6.0 7:7.5 12:1.0 14:1.0 15:580.0 16:46564.0 17:84.0 18:479.0 19:1.0 25:1.0 26:2.0 27:2.0 33:831.0 11875:1.0 24946:1.0 25455:1.0 25968:1.0 26735:1.0 26990:1.0 28001:1.0 28261:1.0 28525:1.0 28531:1.0 28532:1.0 28776:1.0 29289:1.0 29486:1.0 29807:1.0 
1.0 1:35.0 2:3.0 4:11.0 5:1.0 7:8.0 9:0.02857142857142857 12:2.0 13:1.0 14:0.0 25:1.0 33:636000.0 11625:1.0 11878:1.0 11881:1.0 11886:1.0 24948:1.0 25445:1.0 25901:1.0 25902:1.0 25964:1.0 25966:1.0 26223:1.0 26226:1.0 26469:1.0 26983:1.0 26990:2.0 26993:1.0 27753:1.0 27756:1.0 28001:1.0 28259:1.0 28262:2.0 28276:1.0 28530:1.0 29045:1.0 29230:1.0 29293:1.0 29797:1.0 29801:1.0 30053:1.0 30510:1.0 30583:2.0 
1.0 1:23.0 2:2.0 4:6.0 5:1.0 7:7.0 9:0.043478260869565216 12:1.0 13:1.0 14:1.0 15:39.0 16:3273.0 17:7.0 18:45.0 19:1.0 25:1.0 33:1420000.0 11635:1.0 11891:2.0 24944:1.0 25134:1.0 25185:1.0 25461:1.0 25954:1.0 25955:1.0 26996:1.0 28770:1.0 28784:1.0 28787:1.0 29289:1.0 29485:1.0 29541:1.0 29552:1.0 29557:1.0 29817:1.0 30066:1.0 30565:1.0 31022:1.0 
1.0 1:18.0 2:2.0 4:5.0 7:5.333333333333333 12:2.0 14:0.0 25:1.0 33:6820000.0 11875:1.0 11890:1.0 25445:1.0 25711:1.0 25966:1.0 28276:1.0 28516:1.0 28527:1.0 28530:1.0 29295:1.0 29299:1.0 29301:1.0 29486:1.0 29810:1.0 30510:1.0 30583:2.0 
0.5882614664253407 1:18.0 2:2.0 4:6.0 7:5.333333333333333 12:2.0 14:1.0 15:22.0 16:1639.0 18:16.0 19:1.0 25:1.0 26:3.0 27:2.0 33:1.0 11874:1.0 11875:1.0 24946:2.0 25202:1.0 25441:1.0 25455:1.0 26979:1.0 26991:1.0 27950:1.0 28001:1.0 28525:1.0 28530:1.0 29289:2.0 29300:1.0 29742:1.0 
1.0 1:19.0 2:2.0 4:8.0 7:5.666666666666667 12:2.0 14:1.0 15:141.0 16:16869.0 17:22.0 18:289.0 19:1.0 20:2.0 25:1.0 26:2.0 11874:1.0 11875:1.0 24878:1.0 24932:1.0 24944:1.0 24948:1.0 25202:1.0 25455:1.0 25697:1.0 26977:1.0 27950:1.0 28525:1.0 28533:1.0 28777:1.0 28783:1.0 29537:1.0 29793:1.0 30067:1.0 
1.0 1:20.0 2:2.0 4:5.0 7:6.0 12:1.0 14:0.0 25:1.0 26:2.0 27:2.0 28:1.0 33:3.13E7 11875:1.0 11895:1.0 24932:1.0 24947:1.0 25441:1.0 25452:1.0 25711:1.0 26217:1.0 26979:1.0 26982:1.0 27745:1.0 28531:1.0 29486:1.0 29545:1.0 29555:1.0 30510:1.0 30579:1.0 30583:2.0 
1.0 1:21.0 2:2.0 4:7.0 7:6.333333333333333 12:1.0 14:1.0 15:14.0 16:6136.0 17:38.0 18:84.0 19:1.0 25:1.0 26:2.0 27:2.0 28:1.0 33:236.0 11881:1.0 11891:1.0 24930:1.0 24939:2.0 24946:1.0 25193:1.0 26465:1.0 26983:1.0 26990:1.0 26994:1.0 27438:1.0 27501:1.0 28001:1.0 29281:2.0 29545:1.0 30510:1.0 30583:2.0 
1.0 1:30.0 2:2.0 4:11.0 7:9.333333333333334 12:2.0 14:1.0 15:139.0 16:17885.0 17:12.0 18:146.0 19:1.0 25:1.0 26:2.0 27:2.0 28:1.0 11875:1.0 11885:1.0 24937:1.0 25134:1.0 25452:1.0 25455:1.0 25722:1.0 25955:1.0 25957:1.0 25966:1.0 25970:1.0 26990:1.0 27765:1.0 28015:1.0 28260:1.0 28261:2.0 28276:1.0 28525:1.0 28526:1.0 28533:1.0 29285:1.0 29793:1.0 30050:1.0 30062:1.0 30510:1.0 30583:2.0 31343:1.0 
0.41106146068190397 1:15.0 2:1.0 4:6.0 7:7.0 12:2.0 14:0.0 25:1.0 26:2.0 27:2.0 33:1500.0 11875:1.0 24932:1.0 25455:1.0 25701:1.0 25703:1.0 25902:1.0 25956:1.0 25973:1.0 26469:1.0 28525:1.0 29281:1.0 29556:1.0 29810:1.0 30067:1.0 
1.0 1:14.0 2:1.0 4:5.0 7:6.5 12:1.0 14:1.0 15:170.0 16:9991.0 17:29.0 18:170.0 19:3.0 25:1.0 26:4.0 27:14.0 33:2.0 11886:1.0 24946:1.0 25445:1.0 25902:1.0 25972:1.0 25975:1.0 26990:1.0 28259:1.0 28261:1.0 28786:1.0 29285:1.0 29289:1.0 30561:1.0 
0.6107961921967711 1:13.0 2:1.0 4:5.0 7:6.0 12:2.0 14:0.0 25:1.0 26:2.0 27:2.0 33:1500.0 11875:1.0 25455:2.0 25902:1.0 26725:1.0 28275:1.0 28525:1.0 28526:1.0 28533:1.0 28783:1.0 29544:1.0 30064:1.0 
1.0 1:8.0 2:1.0 4:2.0 7:3.5 12:1.0 14:1.0 15:12.0 16:389.0 18:8.0 19:1.0 25:1.0 26:2.0 27:2.0 33:6600.0 11876:1.0 24938:1.0 25707:1.0 26996:1.0 27182:1.0 27497:1.0 29793:1.0 
0.7398040232750616 1:27.0 2:2.0 4:9.0 5:1.0 7:8.333333333333334 9:0.037037037037037035 12:2.0 13:1.0 14:1.0 15:14.0 16:4729.0 18:11.0 19:1.0 25:1.0 11622:1.0 11875:1.0 11876:1.0 24935:1.0 25196:1.0 25455:1.0 25714:1.0 25971:1.0 25972:1.0 26223:1.0 26469:1.0 26669:1.0 27765:1.0 28525:1.0 28527:1.0 28528:1.0 28532:1.0 28536:1.0 28769:1.0 28784:1.0 29295:1.0 29486:1.0 29800:1.0 29807:1.0 30053:1.0 30766:1.0 
1.0 1:15.0 2:1.0 4:4.0 5:1.0 7:7.0 9:0.06666666666666667 12:2.0 13:1.0 14:0.0 25:1.0 26:2.0 27:2.0 33:42200.0 11635:1.0 11883:1.0 25701:1.0 25966:1.0 25970:1.0 26926:1.0 27495:1.0 28260:1.0 28521:1.0 29229:1.0 29295:1.0 29556:1.0 29797:1.0 29810:1.0 
1.0 1:7.0 2:1.0 4:2.0 7:3.0 12:1.0 14:1.0 15:14.0 16:201.0 18:9.0 19:1.0 25:2.0 26:3.0 27:3.0 33:2020000.0 11884:1.0 25958:1.0 26158:1.0 26738:1.0 27753:1.0 29285:1.0 
1.0 1:11.0 2:1.0 4:3.0 7:5.0 12:1.0 14:1.0 15:285.0 16:20070.0 17:44.0 18:269.0 19:1.0 25:1.0 26:2.0 27:2.0 33:6.0 11875:1.0 24947:1.0 25455:1.0 26729:1.0 26995:1.0 28525:1.0 29486:1.0 29544:1.0 29559:1.0 30561:1.0 
1.0 1:19.0 2:2.0 4:5.0 7:5.666666666666667 12:1.0 14:1.0 15:217.0 16:43868.0 17:31.0 18:177.0 19:1.0 20:2.0 25:1.0 26:4.0 27:2.0 33:12.0 11875:1.0 11892:1.0 24942:1.0 24947:1.0 25448:1.0 25455:1.0 25902:1.0 26721:1.0 27950:1.0 28259:1.0 28276:1.0 28525:1.0 28526:1.0 29541:1.0 29556:1.0 29793:1.0 29807:1.0 29810:1.0 
0.37701113571056544 1:9.0 2:1.0 4:4.0 7:4.0 12:1.0 14:0.0 11881:1.0 24940:1.0 26994:2.0 27765:1.0 28009:1.0 29230:1.0 30061:1.0 
1.0 1:9.0 2:1.0 4:1.0 7:4.0 12:1.0 14:1.0 15:10.0 16:643.0 18:8.0 19:1.0 25:1.0 33:1.0 11879:1.0 26158:1.0 26465:1.0 26470:1.0 27499:1.0 27500:1.0 27757:1.0 28007:1.0 
1.0 1:11.0 2:1.0 4:3.0 7:5.0 12:1.0 14:1.0 15:90.0 16:10346.0 17:11.0 18:81.0 19:1.0 25:1.0 26:2.0 27:4.0 33:13.0 11875:1.0 25455:1.0 26729:1.0 26926:1.0 28276:1.0 28525:1.0 29544:1.0 29557:1.0 29811:1.0 30067:1.0 
1.0 1:13.0 2:2.0 4:2.0 7:3.6666666666666665 12:1.0 14:1.0 15:10.0 16:224.0 18:8.0 19:1.0 25:1.0 26:3.0 27:3.0 28:1.0 33:1270.0 11875:1.0 11886:1.0 25455:1.0 25977:1.0 28206:1.0 28261:1.0 28525:1.0 29550:1.0 30510:1.0 30583:2.0 31091:1.0 
0.7979954083820617 1:20.0 2:2.0 4:6.0 7:6.0 12:2.0 14:0.0 25:1.0 26:2.0 27:2.0 28:1.0 33:1310.0 11873:1.0 11875:1.0 24935:1.0 24940:1.0 24949:1.0 25455:1.0 26220:1.0 26483:1.0 27745:1.0 27750:1.0 27756:1.0 28462:1.0 28525:1.0 29537:1.0 29807:1.0 30068:1.0 30510:1.0 30583:2.0 
1.0 1:17.0 2:1.0 4:7.0 7:8.0 12:2.0 14:1.0 15:349.0 16:42148.0 17:65.0 18:350.0 19:1.0 25:1.0 26:2.0 27:2.0 33:1.0 11875:1.0 24878:1.0 25455:1.0 25705:2.0 25956:1.0 25966:1.0 26977:1.0 26981:1.0 26990:1.0 28260:1.0 28276:1.0 28525:1.0 28773:1.0 29801:1.0 30832:1.0 
1.0 1:21.0 2:1.0 4:7.0 7:10.0 12:2.0 14:1.0 15:14.0 16:2892.0 17:17.0 18:42.0 19:1.0 25:1.0 26:3.0 27:3.0 33:1660.0 11875:1.0 24948:1.0 25448:1.0 25455:1.0 25971:1.0 25975:1.0 26217:1.0 26736:1.0 26981:1.0 26988:1.0 27749:1.0 28001:1.0 28518:1.0 28525:1.0 28786:1.0 29295:1.0 29486:1.0 29795:1.0 30313:1.0 30573:1.0 
1.0 1:11.0 2:2.0 7:3.0 14:1.0 15:1193.0 16:121375.0 17:729.0 18:2006.0 19:1.0 25:1.0 33:39.0 11875:1.0 11884:1.0 25390:1.0 25454:1.0 26738:1.0 27752:1.0 29283:1.0 30510:1.0 30583:2.0 
1.0 1:19.0 2:2.0 4:7.0 7:5.666666666666667 12:3.0 14:0.0 25:1.0 26:3.0 27:3.0 33:2190.0 11874:1.0 11875:1.0 24933:1.0 25202:1.0 25449:1.0 25455:1.0 25717:1.0 25956:1.0 26977:1.0 26990:1.0 26992:1.0 27950:1.0 28259:1.0 28525:1.0 28777:1.0 28786:1.0 29289:1.0 29998:1.0 
1.0 1:17.0 2:1.0 4:5.0 7:8.0 12:2.0 14:1.0 15:10.0 16:6564.0 18:8.0 20:1.0 25:2.0 26:2.0 27:2.0 11875:1.0 24937:1.0 25455:1.0 25970:1.0 26228:1.0 26982:1.0 26990:1.0 28276:1.0 28525:1.0 28769:1.0 29299:1.0 29486:1.0 29559:1.0 29797:1.0 29808:1.0 30569:1.0 
1.0 1:18.0 2:1.0 4:6.0 7:8.5 12:1.0 14:1.0 15:271.0 16:16993.0 17:25.0 18:258.0 19:1.0 25:1.0 26:2.0 27:2.0 33:178000.0 11881:1.0 25970:1.0 26223:1.0 26990:2.0 28262:1.0 28275:1.0 28276:1.0 28526:1.0 28535:1.0 29299:1.0 29486:1.0 29556:1.0 29807:2.0 30565:1.0 30569:1.0 
1.0 1:16.0 2:2.0 4:5.0 7:4.666666666666667 12:1.0 14:0.0 25:1.0 33:2940.0 11875:1.0 11877:1.0 24948:1.0 25455:1.0 25902:1.0 25966:1.0 27247:1.0 28266:1.0 28525:1.0 28537:1.0 29797:1.0 30510:1.0 30583:2.0 31073:1.0 
1.0 1:14.0 2:2.0 4:3.0 7:4.0 12:1.0 14:0.0 25:1.0 26:3.0 27:3.0 28:1.0 33:3.0 11874:1.0 11876:1.0 24944:1.0 25185:1.0 25390:1.0 25701:1.0 25964:1.0 27764:1.0 28771:1.0 29793:1.0 30510:1.0 30583:2.0 
1.0 1:19.0 2:1.0 4:7.0 5:1.0 7:9.0 9:0.05263157894736842 12:2.0 13:1.0 14:1.0 15:243.0 16:27382.0 17:71.0 18:258.0 19:1.0 25:1.0 26:2.0 27:2.0 33:685.0 11636:1.0 11875:1.0 24937:1.0 24942:2.0 25455:1.0 25646:1.0 25901:1.0 26469:1.0 26721:1.0 26988:1.0 27745:1.0 28260:1.0 28263:1.0 28525:1.0 28530:1.0 29281:1.0 29800:1.0 
1.0 1:22.0 2:2.0 3:1.0 4:5.0 5:1.0 7:6.666666666666667 8:0.045454545454545456 9:0.045454545454545456 11:1.0 12:1.0 13:1.0 14:0.0 33:1010000.0 11637:1.0 11885:1.0 11890:1.0 12590:1.0 25455:1.0 25460:1.0 25955:1.0 25970:1.0 27769:1.0 28025:1.0 28530:1.0 29285:1.0 29298:1.0 29299:1.0 29301:1.0 29486:1.0 29541:1.0 29804:1.0 30067:1.0 31021:1.0 31025:1.0 
1.0 1:12.0 2:1.0 4:1.0 7:5.5 12:1.0 14:1.0 15:344.0 16:40328.0 17:103.0 18:493.0 19:1.0 25:1.0 26:2.0 27:2.0 33:1.0 11875:1.0 25202:1.0 25455:1.0 27500:1.0 27769:1.0 28018:1.0 28206:1.0 28525:1.0 29282:1.0 29291:1.0 31086:1.0 
1.0 1:20.0 2:1.0 4:7.0 7:9.5 12:2.0 14:1.0 15:1038.0 16:92430.0 17:80.0 18:798.0 19:1.0 20:1.0 25:1.0 26:2.0 27:2.0 11887:1.0 24935:1.0 24940:1.0 24942:1.0 25185:1.0 25965:1.0 26476:1.0 26977:1.0 27694:1.0 27759:1.0 28001:1.0 28265:1.0 28514:1.0 28530:1.0 29287:1.0 29556:1.0 29561:1.0 29797:1.0 31091:1.0 
1.0 1:20.0 2:1.0 4:7.0 7:9.5 12:1.0 14:1.0 15:349.0 16:23491.0 17:65.0 18:336.0 19:1.0 20:1.0 25:1.0 26:2.0 27:2.0 11880:1.0 24946:1.0 25189:1.0 25954:1.0 25964:1.0 25970:1.0 25972:1.0 26735:1.0 26741:1.0 27496:1.0 27694:1.0 28532:1.0 28769:1.0 29291:1.0 29306:1.0 29541:1.0 29797:1.0 29808:1.0 31347:1.0 
1.0 1:16.0 2:1.0 4:6.0 7:7.5 12:2.0 14:0.0 25:1.0 26:2.0 27:2.0 33:4420.0 11875:1.0 24935:1.0 24940:1.0 24949:1.0 25455:1.0 26220:1.0 26483:1.0 27745:1.0 27750:1.0 27756:1.0 28462:1.0 28525:1.0 29537:1.0 29807:1.0 30068:1.0 
1.0 1:17.0 2:1.0 4:6.0 7:8.0 12:2.0 14:1.0 15:677.0 16:115567.0 17:198.0 18:738.0 19:1.0 20:5.0 25:1.0 26:2.0 27:2.0 11887:1.0 25966:1.0 25970:2.0 25977:1.0 26469:1.0 27253:1.0 28005:1.0 28275:1.0 28530:1.0 29230:1.0 29287:2.0 29549:1.0 30053:1.0 31077:1.0 
1.0 1:20.0 2:2.0 4:8.0 7:6.0 12:2.0 14:0.0 26:4.0 27:4.0 28:1.0 33:1180000.0 11877:1.0 11890:1.0 24942:1.0 24949:1.0 25705:1.0 25956:1.0 26996:1.0 28277:1.0 29281:2.0 29295:1.0 29486:1.0 29813:1.0 30066:2.0 30067:1.0 30510:1.0 30583:2.0 
0.7403478184934439 1:15.0 2:2.0 4:3.0 7:4.333333333333333 12:1.0 14:1.0 15:54.0 16:4796.0 17:4.0 18:54.0 19:1.0 25:1.0 26:2.0 27:1.0 11874:1.0 11875:1.0 25202:1.0 25448:1.0 25455:1.0 25955:1.0 25966:1.0 26670:1.0 27749:1.0 27950:1.0 28276:1.0 28525:1.0 28780:1.0 29797:1.0 
1.0 1:16.0 2:1.0 4:7.0 7:7.5 12:3.0 14:1.0 15:212.0 16:24568.0 17:25.0 18:194.0 19:1.0 25:1.0 26:2.0 27:2.0 11875:1.0 24878:1.0 24929:2.0 24937:1.0 24942:1.0 25185:1.0 25455:1.0 25704:1.0 26721:1.0 26990:1.0 27489:1.0 28258:1.0 28267:1.0 28525:1.0 
1.0 1:12.0 2:1.0 4:2.0 7:5.5 12:1.0 14:1.0 15:108.0 16:8228.0 17:22.0 18:108.0 19:1.0 25:1.0 26:2.0 27:2.0 33:4290000.0 11888:1.0 24934:1.0 25707:1.0 26228:1.0 26990:1.0 27506:1.0 28260:1.0 28780:1.0 29281:1.0 29742:1.0 30569:1.0 
1.0 1:19.0 2:2.0 4:9.0 7:5.666666666666667 12:2.0 14:0.0 25:1.0 33:636.0 11873:1.0 11875:1.0 24930:1.0 24939:1.0 24940:1.0 24949:1.0 25185:1.0 25455:1.0 26990:1.0 27497:1.0 27503:1.0 27765:1.0 27950:1.0 28257:1.0 28525:1.0 28532:1.0 29793:1.0 29998:1.0 
1.0 1:15.0 2:2.0 3:1.0 4:5.0 7:4.333333333333333 8:0.06666666666666667 11:1.0 12:1.0 14:0.0 33:340000.0 11874:1.0 11877:1.0 12900:1.0 25202:1.0 25701:1.0 25717:1.0 25956:1.0 25962:1.0 26735:1.0 27253:1.0 27752:1.0 28462:1.0 29998:1.0 30060:1.0 
1.0 1:22.0 2:2.0 4:7.0 7:6.666666666666667 12:2.0 14:1.0 15:10.0 16:251.0 17:1.0 18:8.0 19:1.0 25:1.0 28:1.0 11875:1.0 11877:1.0 24944:1.0 24947:1.0 25441:1.0 25455:1.0 25953:1.0 25966:1.0 25971:1.0 27247:1.0 28266:1.0 28525:1.0 28537:1.0 28773:1.0 29486:1.0 29539:1.0 29797:1.0 30510:1.0 30583:2.0 31092:1.0 
1.0 1:11.0 2:1.0 4:2.0 7:5.0 12:1.0 14:0.0 25:1.0 26:2.0 27:2.0 33:5.0 11875:1.0 24946:1.0 25455:1.0 25702:1.0 26158:1.0 28525:1.0 28769:1.0 28772:1.0 29300:1.0 29808:1.0 
1.0 1:19.0 2:2.0 4:5.0 7:5.666666666666667 12:1.0 14:0.0 25:1.0 26:2.0 27:2.0 28:1.0 33:76.0 11875:2.0 24878:1.0 24932:1.0 24942:1.0 25441:1.0 25449:1.0 25452:1.0 25455:1.0 25697:1.0 26990:1.0 27747:1.0 28257:1.0 28259:1.0 28525:1.0 30510:1.0 30583:2.0 
1.0 1:14.0 2:2.0 4:4.0 7:4.0 12:2.0 14:0.0 25:1.0 26:2.0 27:2.0 28:1.0 33:71.0 11875:2.0 25441:1.0 25455:1.0 27764:1.0 28524:1.0 28527:1.0 28537:1.0 29807:1.0 30510:1.0 30583:2.0 31022:1.0 
1.0 1:10.0 2:1.0 4:5.0 7:4.5 12:3.0 14:0.0 25:1.0 26:2.0 27:2.0 33:15.0 11875:1.0 24929:1.0 24942:1.0 25455:1.0 28271:1.0 28525:1.0 28535:1.0 30049:1.0 30510:1.0 
1.0 1:12.0 2:1.0 4:5.0 7:5.5 12:2.0 14:0.0 25:1.0 26:3.0 27:3.0 33:5450.0 11894:1.0 24940:1.0 24942:1.0 25972:1.0 27493:1.0 27759:1.0 28206:1.0 28513:1.0 28523:1.0 29807:1.0 30318:1.0 
1.0 1:12.0 2:1.0 4:5.0 7:5.5 12:2.0 14:0.0 25:1.0 26:2.0 27:2.0 33:60.0 11875:1.0 24942:1.0 25455:1.0 25953:1.0 25972:1.0 28261:1.0 28271:1.0 28462:1.0 28525:1.0 29814:1.0 30309:1.0 
1.0 1:25.0 2:3.0 4:7.0 7:5.5 12:1.0 14:0.0 25:1.0 26:2.0 27:2.0 28:1.0 33:102000.0 11873:1.0 11875:1.0 11893:1.0 24932:1.0 24946:1.0 25455:1.0 25700:1.0 25701:1.0 25970:1.0 25977:1.0 26989:1.0 27749:1.0 28001:1.0 28462:1.0 28786:1.0 29289:1.0 29292:1.0 29305:1.0 30059:1.0 30510:1.0 30583:2.0 31022:1.0 31088:1.0 
1.0 1:15.0 2:2.0 4:3.0 7:4.333333333333333 12:1.0 14:0.0 25:1.0 28:1.0 33:56500.0 11880:1.0 11888:1.0 26741:1.0 28015:1.0 28276:1.0 28526:1.0 28531:1.0 28783:1.0 29556:1.0 29742:1.0 29805:1.0 30510:1.0 30583:2.0 
1.0 1:15.0 2:2.0 4:3.0 7:4.333333333333333 12:2.0 14:1.0 15:363.0 16:16553.0 17:84.0 18:300.0 19:1.0 25:1.0 11875:1.0 11880:1.0 24931:1.0 25448:1.0 25454:2.0 26729:1.0 26741:1.0 26979:1.0 28206:1.0 30049:1.0 30510:1.0 30583:2.0 
1.0 1:12.0 2:2.0 4:2.0 7:3.3333333333333335 12:1.0 14:1.0 15:206.0 16:25848.0 17:41.0 18:233.0 19:1.0 25:1.0 33:7440.0 11875:1.0 11879:1.0 24947:1.0 25455:1.0 26477:1.0 28001:1.0 29486:1.0 29555:1.0 30510:1.0 30583:2.0 
1.0 1:26.0 2:1.0 4:9.0 7:12.5 12:1.0 14:1.0 15:201.0 16:17082.0 17:7.0 18:153.0 19:1.0 25:1.0 26:2.0 27:1.0 11875:1.0 24947:1.0 25196:1.0 25441:1.0 25455:1.0 25699:1.0 25968:1.0 25971:1.0 26414:1.0 26978:1.0 26990:1.0 26994:1.0 26995:1.0 27749:1.0 28263:1.0 28516:1.0 28525:1.0 28783:1.0 29285:1.0 29298:1.0 29545:1.0 29556:2.0 29801:2.0 
1.0 1:16.0 2:1.0 4:5.0 7:7.5 12:2.0 14:0.0 25:1.0 26:2.0 27:2.0 33:3.3E7 11890:1.0 24878:1.0 25197:1.0 25202:1.0 25452:1.0 26977:1.0 27765:1.0 28023:1.0 29301:2.0 29545:1.0 29555:1.0 30050:1.0 30067:1.0 30563:1.0 
0.7316493378336444 1:8.0 2:1.0 4:2.0 7:3.5 12:1.0 14:1.0 15:46.0 16:1652.0 17:1.0 18:36.0 19:1.0 23:1.0 24:1.0 25:1.0 11890:1.0 25715:1.0 26479:1.0 28462:1.0 29301:1.0 29543:1.0 29796:1.0 
1.0 1:15.0 2:1.0 4:4.0 7:7.0 12:1.0 14:1.0 15:18.0 16:1416.0 17:2.0 18:15.0 19:1.0 24:1.0 25:1.0 26:2.0 27:2.0 33:730.0 11875:1.0 25390:1.0 25455:1.0 25701:1.0 25712:1.0 25971:1.0 26478:1.0 26983:1.0 26990:1.0 28259:1.0 28265:1.0 28525:1.0 28772:1.0 29545:1.0 
1.0 1:26.0 2:3.0 4:8.0 7:5.75 12:2.0 14:1.0 15:471.0 16:37118.0 17:111.0 18:443.0 19:1.0 20:1.0 24:1.0 25:1.0 26:2.0 27:2.0 28:1.0 33:3.0 11873:1.0 11875:1.0 11877:1.0 24949:1.0 25455:2.0 25460:1.0 25705:1.0 25955:1.0 25971:1.0 26994:1.0 27950:1.0 28525:1.0 28530:2.0 29285:1.0 29300:1.0 29305:1.0 29539:1.0 29796:1.0 29807:1.0 30510:1.0 30583:2.0 31022:1.0 
1.0 1:28.0 2:2.0 4:10.0 7:8.666666666666666 12:2.0 14:0.0 26:4.0 27:4.0 28:1.0 33:321000.0 11875:1.0 11892:1.0 24930:1.0 24937:1.0 24938:1.0 25185:1.0 25441:1.0 25452:1.0 25701:1.0 25961:1.0 25970:1.0 26926:1.0 26981:1.0 26990:1.0 27247:1.0 28271:1.0 28278:1.0 28515:1.0 28531:1.0 29281:1.0 29294:1.0 29540:1.0 29810:1.0 30313:1.0 30510:1.0 30583:2.0 
1.0 1:12.0 2:1.0 4:4.0 7:5.5 12:2.0 14:1.0 15:24.0 16:845.0 17:13.0 18:33.0 19:1.0 24:1.0 25:1.0 26:2.0 27:2.0 33:20.0 11880:1.0 24941:1.0 26476:1.0 26731:1.0 27745:1.0 28015:1.0 28530:1.0 28533:1.0 29295:1.0 29486:1.0 30067:1.0 
1.0 1:13.0 2:2.0 4:3.0 7:3.6666666666666665 12:1.0 14:0.0 25:1.0 26:2.0 27:2.0 28:1.0 33:2720.0 11873:1.0 11875:1.0 24945:1.0 25455:1.0 25646:1.0 28525:1.0 28534:1.0 29039:1.0 30308:1.0 30510:1.0 30583:2.0 
1.0 1:21.0 2:1.0 4:7.0 7:10.0 12:1.0 14:1.0 15:16.0 16:1289.0 18:12.0 24:1.0 25:1.0 26:3.0 27:3.0 11887:1.0 25966:2.0 25972:1.0 25974:1.0 26223:1.0 26469:1.0 28005:1.0 28271:1.0 28276:1.0 28530:2.0 28532:1.0 29287:2.0 29486:1.0 29797:1.0 29805:1.0 29811:1.0 30309:1.0 
0.11155338760256381 1:10.0 2:1.0 4:1.0 7:4.5 12:1.0 14:0.0 25:1.0 26:2.0 27:2.0 11887:1.0 25191:1.0 25390:1.0 26467:1.0 27242:1.0 27243:1.0 27490:1.0 28530:1.0 29287:1.0 
1.0 1:25.0 2:2.0 4:8.0 5:2.0 7:7.666666666666667 9:0.08 12:2.0 13:1.0 14:1.0 15:14.0 16:480.0 17:2.0 18:12.0 19:1.0 24:1.0 25:1.0 26:2.0 27:2.0 33:11600.0 11621:1.0 11628:1.0 11875:1.0 11893:1.0 25455:1.0 25701:1.0 25901:1.0 25957:1.0 25966:1.0 25974:1.0 26229:1.0 26472:1.0 26740:1.0 26983:1.0 27693:1.0 27753:1.0 28276:1.0 28462:1.0 29486:1.0 29798:1.0 29811:1.0 30059:1.0 30060:1.0 30309:1.0 
0.6157489625597685 1:96.0 2:10.0 3:1.0 4:31.0 5:3.0 7:7.818181818181818 8:0.010416666666666666 9:0.03125 11:1.0 12:2.0 13:1.0 14:0.0 25:1.0 11617:1.0 11629:1.0 11637:1.0 11873:2.0 11874:1.0 11875:3.0 11876:1.0 11887:1.0 11890:1.0 11891:1.0 14382:1.0 24931:2.0 24935:1.0 24937:1.0 24940:1.0 24942:1.0 24947:1.0 24948:1.0 25202:1.0 25443:1.0 25455:4.0 25460:1.0 25705:1.0 25953:1.0 25961:1.0 25965:1.0 25966:1.0 25970:2.0 26424:1.0 26469:1.0 26725:1.0 26988:1.0 26990:2.0 26991:1.0 26994:1.0 26998:1.0 27694:1.0 27749:1.0 27753:1.0 27949:1.0 27950:2.0 28001:2.0 28005:1.0 28206:1.0 28257:1.0 28261:1.0 28264:1.0 28268:1.0 28276:3.0 28462:1.0 28525:3.0 28526:2.0 28533:1.0 28717:1.0 29287:1.0 29293:1.0 29295:1.0 29300:1.0 29301:1.0 29485:1.0 29541:1.0 29552:1.0 29556:1.0 29557:1.0 29742:3.0 29801:2.0 29810:1.0 29811:1.0 30062:2.0 30067:2.0 30305:1.0 30510:1.0 30583:2.0 
1.0 1:20.0 2:2.0 4:8.0 5:1.0 7:6.0 9:0.05 12:2.0 13:1.0 14:1.0 15:13.0 16:615.0 18:9.0 19:1.0 20:1.0 24:1.0 25:1.0 33:1210.0 11629:1.0 11887:1.0 11891:1.0 24937:1.0 26988:1.0 27437:1.0 27759:2.0 28001:1.0 28462:1.0 28523:1.0 28527:1.0 28533:1.0 29541:1.0 29804:1.0 30068:1.0 30510:1.0 30583:2.0 
1.0 1:19.0 2:1.0 4:6.0 7:9.0 12:2.0 14:0.0 25:1.0 26:2.0 27:1.0 33:583.0 11886:1.0 24940:1.0 24946:1.0 25441:1.0 25451:1.0 25953:1.0 25971:1.0 25972:1.0 26723:1.0 26725:1.0 27438:1.0 27764:1.0 28261:1.0 28515:1.0 29285:1.0 29556:1.0 29800:1.0 29807:1.0 
1.0 1:13.0 2:2.0 4:6.0 7:3.6666666666666665 12:2.0 14:0.0 25:2.0 26:2.0 27:2.0 33:295000.0 11875:1.0 11893:1.0 25193:1.0 25455:1.0 25902:1.0 25966:1.0 26991:1.0 28261:1.0 28462:1.0 28534:1.0 30059:1.0 30309:1.0 
1.0 1:25.0 2:3.0 4:5.0 7:5.5 12:1.0 14:0.0 25:1.0 26:2.0 27:2.0 28:1.0 33:9330.0 11881:1.0 11891:2.0 24941:1.0 24953:1.0 25185:1.0 25448:1.0 25710:1.0 26670:1.0 26980:1.0 27509:1.0 27759:1.0 28002:1.0 28206:1.0 28274:1.0 28526:1.0 29281:1.0 29539:1.0 29540:1.0 30060:1.0 30510:1.0 30583:2.0 31083:1.0 
-0.6899211656855884 1:12.0 2:1.0 4:5.0 7:5.5 12:2.0 14:0.0 25:1.0 33:93500.0 11875:1.0 24931:1.0 25199:1.0 25445:1.0 25455:1.0 25954:1.0 26209:1.0 27438:1.0 28523:1.0 28525:1.0 28527:1.0 
-0.6898682058563175 1:11.0 2:1.0 4:5.0 7:5.0 12:2.0 14:0.0 25:1.0 33:496000.0 11875:1.0 25189:1.0 25455:1.0 25902:1.0 28525:1.0 28533:1.0 29813:1.0 30050:1.0 30068:1.0 31087:1.0 
-0.6898135578876641 1:9.0 2:1.0 4:4.0 7:4.0 12:2.0 14:1.0 15:11.0 16:334.0 18:10.0 19:1.0 24:1.0 25:3.0 26:6.0 27:6.0 33:877000.0 11875:1.0 24936:1.0 25455:1.0 26735:1.0 28462:1.0 28525:1.0 28527:1.0 31073:1.0 
-0.6899129071791701 1:9.0 2:1.0 4:4.0 7:4.0 12:2.0 14:1.0 15:6.0 16:116.0 18:5.0 24:1.0 25:4.0 26:5.0 27:5.0 33:7640000.0 11875:1.0 24937:1.0 25185:1.0 25455:1.0 25717:1.0 26980:1.0 28525:1.0 29998:1.0 
-0.690311946039728 1:13.0 2:1.0 4:6.0 7:6.0 12:2.0 14:0.0 25:1.0 26:3.0 27:3.0 33:1260000.0 11887:1.0 24878:1.0 25705:1.0 25956:1.0 26977:1.0 26987:1.0 26992:1.0 27497:1.0 28530:1.0 28773:1.0 29287:1.0 30569:1.0 
-0.6898356192243578 1:6.0 2:1.0 4:1.0 7:2.5 12:1.0 14:1.0 15:2263.0 16:210255.0 17:953.0 18:2380.0 19:1.0 20:3.0 24:1.0 25:2.0 26:4.0 27:10.0 33:16700.0 11875:1.0 25455:1.0 28525:1.0 28974:1.0 29041:1.0 
-0.6900139273158684 1:12.0 2:1.0 4:4.0 7:5.5 12:1.0 14:1.0 15:4.0 16:44.0 18:4.0 24:1.0 25:1.0 26:8.0 27:8.0 33:79200.0 11875:1.0 25455:1.0 25705:1.0 25956:1.0 26990:2.0 27493:1.0 27753:1.0 28206:1.0 28267:1.0 28525:1.0 
-0.6899164635815668 1:10.0 2:1.0 4:5.0 7:4.5 12:2.0 14:1.0 15:11.0 16:265.0 18:8.0 19:1.0 24:1.0 25:2.0 26:4.0 27:4.0 33:2290000.0 11875:1.0 24943:2.0 25185:1.0 25455:1.0 28462:1.0 28514:1.0 28525:1.0 29793:1.0 
-0.6898312990412548 1:11.0 2:1.0 4:3.0 7:5.0 12:1.0 14:0.0 25:1.0 33:55600.0 11875:1.0 25455:1.0 25970:1.0 26996:1.0 28525:1.0 29230:1.0 29797:1.0 29812:1.0 29815:1.0 30569:1.0 
-0.6896443260892964 1:10.0 2:1.0 4:4.0 7:4.5 12:1.0 14:0.0 25:6.0 26:6.0 27:6.0 33:490000.0 11875:1.0 24941:1.0 24954:1.0 25455:1.0 28001:1.0 28206:1.0 28525:1.0 28526:1.0 31343:1.0 
-0.6900139273158684 1:11.0 2:2.0 4:3.0 7:3.0 12:1.0 14:1.0 15:3683.0 16:562297.0 17:1668.0 18:4087.0 19:2.0 24:1.0 25:2.0 26:4.0 27:4.0 33:1340000.0 11875:2.0 24878:1.0 25454:1.0 25455:1.0 26990:1.0 27950:1.0 28257:1.0 28525:1.0 29545:1.0 
-0.6901588545538799 1:12.0 2:2.0 4:5.0 7:3.3333333333333335 12:2.0 14:0.0 25:1.0 33:7.12E7 11875:1.0 11881:1.0 25455:1.0 25902:1.0 26476:1.0 26479:1.0 26990:1.0 27749:1.0 28462:1.0 28519:1.0 28527:1.0 
-0.6904507069906218 1:10.0 2:1.0 3:3.0 4:3.0 7:4.5 8:0.3 11:3.0 12:2.0 14:1.0 15:391.0 16:684072.0 17:70.0 18:330.0 19:1.0 23:1.0 24:1.0 25:4.0 26:6.0 27:6.0 33:67300.0 11875:1.0 12594:1.0 12851:1.0 13102:1.0 24943:1.0 25455:1.0 26721:1.0 28465:1.0 28525:1.0 
-0.6897490689839342 1:12.0 2:1.0 4:3.0 7:5.5 12:1.0 14:0.0 25:1.0 33:160000.0 11875:1.0 25196:1.0 25455:1.0 26483:1.0 27759:1.0 28519:1.0 28525:1.0 28532:1.0 28783:1.0 29552:1.0 29742:1.0 
-0.6898325993615665 1:9.0 2:1.0 4:4.0 7:4.0 12:2.0 14:1.0 15:4.0 16:44.0 18:4.0 24:1.0 25:1.0 26:6.0 27:6.0 33:1540000.0 11875:1.0 25199:1.0 25455:1.0 25961:1.0 26978:1.0 28462:1.0 28525:1.0 30565:1.0 
-0.6900548155388596 1:13.0 2:1.0 4:3.0 7:6.0 12:1.0 14:1.0 15:14.0 16:201.0 18:9.0 19:1.0 24:1.0 25:2.0 26:4.0 27:4.0 33:501000.0 11875:1.0 25455:1.0 25712:1.0 25971:1.0 28525:1.0 28530:1.0 28786:1.0 29284:1.0 29285:1.0 29486:1.0 29555:1.0 30575:1.0 
-0.6418806933515975 1:9.0 2:1.0 4:3.0 7:4.0 12:1.0 14:0.0 25:4.0 26:2.0 27:2.0 33:32600.0 11890:1.0 24942:1.0 25701:1.0 25976:1.0 28260:1.0 29301:1.0 30766:1.0 31073:1.0 
-0.6899164635815668 1:11.0 2:2.0 4:4.0 7:3.0 12:2.0 14:1.0 15:349.0 16:24116.0 17:64.0 18:382.0 19:1.0 24:1.0 25:2.0 26:4.0 27:4.0 33:161000.0 11875:1.0 11882:1.0 24936:1.0 25455:1.0 26735:1.0 27248:1.0 28462:2.0 28527:1.0 31073:1.0 
-0.6901702025553977 1:8.0 2:1.0 4:2.0 7:3.5 12:1.0 14:1.0 15:221.0 16:123362.0 17:36.0 18:190.0 19:1.0 24:1.0 25:2.0 26:4.0 27:4.0 33:1650.0 11875:1.0 25193:1.0 25455:1.0 26414:1.0 26990:1.0 28263:1.0 28525:1.0 
-0.6899591851727677 1:9.0 2:1.0 4:2.0 7:4.0 12:1.0 14:1.0 15:11.0 16:265.0 18:8.0 19:1.0 24:1.0 25:2.0 26:4.0 27:4.0 33:840000.0 11875:1.0 24940:1.0 25455:1.0 27694:1.0 27756:1.0 28001:1.0 28525:1.0 29805:1.0 
-0.6898312990352665 1:6.0 2:1.0 3:3.0 7:2.5 8:0.5 11:3.0 14:1.0 15:1745.0 16:259684.0 17:460.0 18:1339.0 19:1.0 24:1.0 25:1.0 26:6.0 27:6.0 33:1940000.0 11875:1.0 12334:1.0 13110:1.0 13872:1.0 25454:1.0 
-0.6897971577203947 1:6.0 2:1.0 4:1.0 7:2.5 12:1.0 14:1.0 15:4.0 16:44.0 18:4.0 24:1.0 25:3.0 26:3.0 27:3.0 33:8730000.0 11875:1.0 25455:1.0 27438:1.0 28525:1.0 30315:1.0 
-0.6898312990352665 1:8.0 2:1.0 4:3.0 7:3.5 12:1.0 14:0.0 25:6.0 26:8.0 27:8.0 33:27400.0 11875:1.0 24953:1.0 25185:1.0 25455:1.0 25954:1.0 28525:1.0 31022:1.0 
-0.6899601803451529 1:8.0 2:1.0 4:3.0 7:3.5 12:1.0 14:1.0 15:2423.0 16:432354.0 17:1229.0 18:3176.0 19:1.0 20:1.0 24:1.0 25:1.0 26:7.0 27:7.0 33:1590000.0 11875:1.0 25455:1.0 26741:1.0 28520:1.0 28525:1.0 29551:1.0 29998:1.0 
-0.3440115857483994 1:9.0 2:1.0 4:4.0 7:4.0 12:2.0 14:0.0 25:1.0 33:6.17E7 11876:1.0 25701:1.0 25902:1.0 26476:1.0 26479:1.0 27749:1.0 28519:1.0 28527:1.0 
-0.6901677785718409 1:13.0 2:1.0 4:4.0 7:6.0 12:1.0 14:1.0 15:10.0 16:193.0 17:1.0 18:6.0 19:1.0 24:1.0 25:4.0 26:4.0 27:4.0 33:209000.0 11875:1.0 25455:1.0 25970:1.0 25971:1.0 26990:1.0 28276:1.0 28525:1.0 28777:1.0 29285:1.0 29556:1.0 29742:1.0 29797:1.0 
-0.6898325993615666 1:12.0 2:2.0 4:5.0 7:3.3333333333333335 12:2.0 14:0.0 25:1.0 33:7.1E7 11875:1.0 11893:1.0 25455:1.0 25902:1.0 26476:1.0 26479:1.0 27749:1.0 28462:1.0 28519:1.0 28527:1.0 30059:1.0 
-0.6898325993615665 1:7.0 2:1.0 4:2.0 7:3.0 12:1.0 14:0.0 25:1.0 33:909000.0 11875:1.0 24947:1.0 25455:1.0 27438:1.0 28525:1.0 29547:1.0 
-0.6904507069906218 1:9.0 2:1.0 4:3.0 7:4.0 12:2.0 14:0.0 25:1.0 33:6.15E7 11878:1.0 25902:1.0 26226:1.0 26476:1.0 26479:1.0 27749:1.0 28519:1.0 28527:1.0 
-0.6898682058563175 1:7.0 2:1.0 3:3.0 4:1.0 7:3.0 8:0.42857142857142855 11:3.0 12:1.0 14:1.0 15:3781.0 16:422515.0 17:1773.0 18:4516.0 19:1.0 20:16.0 24:1.0 25:2.0 26:7.0 27:8.0 33:2350000.0 11875:1.0 12598:1.0 13102:1.0 13875:1.0 25455:1.0 28525:1.0 
-0.6897971577203947 1:8.0 2:1.0 4:3.0 7:3.5 12:1.0 14:1.0 15:14.0 16:177.0 18:9.0 19:1.0 24:1.0 25:1.0 26:2.0 27:2.0 33:45800.0 11875:1.0 25455:1.0 28462:1.0 28525:1.0 28531:1.0 29551:2.0 
-0.6899672377909929 1:7.0 2:1.0 4:1.0 7:3.0 12:1.0 14:0.0 25:1.0 26:4.0 27:4.0 33:90500.0 11875:1.0 25455:1.0 28019:1.0 28206:1.0 28525:1.0 29550:1.0 
-0.6898495010610656 1:10.0 2:1.0 4:2.0 7:4.5 12:1.0 14:0.0 25:1.0 26:9.0 27:9.0 33:1.53E7 11875:1.0 25196:1.0 25455:1.0 27762:1.0 28002:1.0 28525:1.0 29230:1.0 29813:1.0 30061:1.0 
-0.6896443260892964 1:13.0 2:1.0 4:4.0 7:6.0 12:1.0 14:0.0 25:1.0 33:25000.0 11875:1.0 24935:1.0 24941:1.0 25455:1.0 26482:1.0 26990:1.0 27950:1.0 28275:1.0 28525:1.0 29281:1.0 29556:1.0 29793:1.0 
-0.6898942536282896 1:12.0 2:2.0 4:4.0 7:3.3333333333333335 12:2.0 14:0.0 25:1.0 33:285000.0 11875:1.0 11882:1.0 25455:1.0 25902:1.0 26476:1.0 26479:1.0 27248:1.0 27749:1.0 28462:1.0 28519:1.0 28527:1.0 
-0.6899849302439243 1:7.0 2:1.0 4:3.0 7:3.0 12:2.0 14:0.0 25:4.0 26:3.0 27:3.0 33:99400.0 11890:1.0 24937:1.0 26988:1.0 27694:1.0 28001:1.0 29301:1.0 
-0.6899164635815667 1:13.0 2:1.0 4:4.0 7:6.0 12:1.0 14:1.0 15:4.0 16:44.0 18:4.0 24:1.0 25:5.0 26:4.0 27:4.0 33:934000.0 11875:1.0 25455:1.0 25458:1.0 26228:1.0 26979:1.0 28009:1.0 28518:1.0 28525:1.0 28531:1.0 29295:1.0 29551:1.0 29742:1.0 
-1.0 1:13.0 2:2.0 4:4.0 7:3.6666666666666665 12:2.0 14:0.0 25:1.0 33:61.0 11874:1.0 11875:1.0 25202:1.0 25455:1.0 25902:1.0 26476:1.0 26479:1.0 27749:1.0 27950:1.0 28519:1.0 28525:1.0 28527:1.0 
-0.6898495010610656 1:9.0 2:1.0 4:4.0 7:4.0 12:2.0 14:0.0 25:1.0 33:6.16E7 11890:1.0 25902:1.0 26476:1.0 26479:1.0 27749:1.0 28519:1.0 28527:1.0 29301:1.0 
-0.6898460881238864 1:10.0 2:1.0 4:3.0 7:4.5 12:1.0 14:1.0 15:4.0 16:44.0 18:4.0 24:1.0 25:2.0 26:4.0 27:4.0 33:255000.0 11875:1.0 24940:1.0 24953:1.0 25455:1.0 27694:1.0 28525:1.0 28769:2.0 31088:1.0 
-0.689750675272168 1:11.0 2:1.0 4:4.0 7:5.0 12:2.0 14:0.0 25:13.0 26:6.0 27:6.0 33:4.8E7 11875:1.0 25455:1.0 25701:1.0 25967:1.0 26980:1.0 28525:1.0 28531:1.0 29486:1.0 30313:1.0 30838:1.0 
-0.6899969202524345 1:9.0 2:1.0 4:4.0 7:4.0 12:2.0 14:0.0 25:1.0 33:6.18E7 11877:1.0 25902:1.0 25971:1.0 26476:1.0 26479:1.0 27749:1.0 28519:1.0 28527:1.0 
-0.690311946039728 1:8.0 2:1.0 4:2.0 7:3.5 12:1.0 14:0.0 25:3.0 26:10.0 27:10.0 33:3.58E7 11875:1.0 25134:1.0 25455:1.0 25698:1.0 26989:1.0 28004:1.0 28525:1.0 
-0.6900548155388596 1:9.0 2:1.0 4:3.0 7:4.0 12:1.0 14:1.0 15:385.0 16:37505.0 17:86.0 18:441.0 19:1.0 24:1.0 25:3.0 26:8.0 27:8.0 33:904000.0 11875:1.0 24944:1.0 25455:1.0 25902:1.0 27749:1.0 28525:1.0 28780:1.0 28784:1.0 
-0.345863966597715 1:9.0 2:1.0 4:4.0 7:4.0 12:2.0 14:0.0 25:1.0 33:6.17E7 11881:1.0 25902:1.0 26476:1.0 26479:1.0 26996:1.0 27749:1.0 28519:1.0 28527:1.0 
-0.6897633171669896 1:13.0 2:1.0 4:5.0 7:6.0 12:2.0 14:1.0 15:1789.0 16:244750.0 17:775.0 18:2190.0 19:1.0 20:15.0 24:1.0 25:2.0 26:3.0 27:3.0 33:154000.0 11875:1.0 24942:1.0 25455:1.0 25972:1.0 26741:1.0 26990:1.0 28261:1.0 28264:1.0 28525:1.0 29742:1.0 30049:1.0 30825:1.0 
-0.6868829119540221 1:14.0 2:1.0 4:4.0 7:6.5 12:2.0 14:0.0 25:1.0 26:4.0 27:4.0 33:3710.0 11887:1.0 24937:1.0 25458:1.0 26483:1.0 26983:1.0 26995:1.0 27753:1.0 28530:1.0 29281:1.0 29287:1.0 29548:1.0 29556:1.0 29742:1.0 
-0.6899150257725859 1:12.0 2:2.0 4:4.0 7:3.3333333333333335 12:1.0 14:1.0 15:10.0 16:241.0 17:1.0 18:8.0 19:1.0 24:1.0 25:3.0 26:10.0 27:10.0 33:196000.0 11875:1.0 11882:1.0 24941:1.0 24954:1.0 25455:1.0 27248:1.0 28001:1.0 28206:1.0 28462:1.0 28526:1.0 31343:1.0 
-0.6899150257725764 1:17.0 2:1.0 4:5.0 7:8.0 12:1.0 14:0.0 25:4.0 26:4.0 27:4.0 33:71500.0 11875:1.0 24931:1.0 25451:1.0 25455:1.0 25970:1.0 26220:1.0 27503:1.0 27759:1.0 28525:1.0 28534:1.0 28535:1.0 29286:1.0 29556:1.0 29793:1.0 30309:1.0 30510:1.0 
-0.68997432588457 1:9.0 2:1.0 4:3.0 7:4.0 12:1.0 14:1.0 15:1844.0 16:119544.0 17:122.0 18:1309.0 19:1.0 20:1.0 24:1.0 25:1.0 26:4.0 27:4.0 33:88300.0 11875:1.0 25455:1.0 26485:1.0 26989:1.0 28007:1.0 28525:1.0 29230:1.0 30066:1.0 
-1.0 1:10.0 2:1.0 4:4.0 7:4.5 12:2.0 14:0.0 25:1.0 26:2.0 27:2.0 33:15.0 11875:1.0 25205:1.0 25455:1.0 25967:1.0 28261:1.0 28514:1.0 28525:1.0 30072:1.0 30766:1.0 
-0.689905912198141 1:13.0 2:2.0 4:4.0 7:3.6666666666666665 12:2.0 14:0.0 25:1.0 33:375000.0 11875:1.0 11880:1.0 25455:1.0 25902:1.0 26476:1.0 26479:1.0 26731:1.0 27749:1.0 27950:1.0 28519:1.0 28525:1.0 28527:1.0 
-0.689824664290423 1:10.0 2:1.0 4:3.0 7:4.5 12:1.0 14:1.0 15:843.0 16:173838.0 17:99.0 18:693.0 19:1.0 20:1.0 24:1.0 25:1.0 26:4.0 27:4.0 33:8.0 11875:1.0 24932:1.0 24947:1.0 25441:1.0 25455:1.0 25699:1.0 26670:1.0 28525:1.0 29544:1.0 
-0.6899108112542541 1:9.0 2:1.0 4:3.0 7:4.0 12:1.0 14:1.0 15:3136.0 16:330016.0 17:1295.0 18:3448.0 19:1.0 20:1.0 24:1.0 25:1.0 26:4.0 27:4.0 33:631000.0 11875:1.0 25455:1.0 25966:1.0 26213:1.0 26414:1.0 26982:1.0 28263:1.0 28525:1.0 
-0.6898495010610656 1:12.0 2:1.0 4:3.0 7:5.5 12:1.0 14:0.0 25:2.0 26:4.0 27:4.0 33:13500.0 11875:1.0 24941:1.0 25455:1.0 25970:1.0 26721:1.0 28019:1.0 28525:1.0 29230:1.0 29556:1.0 29797:1.0 30824:1.0 
-1.0 1:13.0 2:2.0 4:4.0 7:3.6666666666666665 12:2.0 14:0.0 25:1.0 33:84.0 11875:1.0 11885:1.0 25455:1.0 25902:1.0 26476:1.0 26479:1.0 27749:1.0 27950:1.0 28024:1.0 28519:1.0 28525:1.0 28527:1.0 
-0.689824664290423 1:9.0 2:2.0 4:2.0 7:2.3333333333333335 12:1.0 14:0.0 25:4.0 26:4.0 27:4.0 33:2.01E7 11875:1.0 11893:1.0 25186:1.0 25187:1.0 25390:1.0 25455:1.0 28462:1.0 30059:1.0 
-0.6898650364502936 1:10.0 2:1.0 4:3.0 7:4.5 12:1.0 14:1.0 15:4.0 16:44.0 18:4.0 24:1.0 25:4.0 26:4.0 27:4.0 33:20400.0 11875:1.0 25455:1.0 25700:1.0 25705:1.0 25956:1.0 26996:1.0 28525:1.0 29285:1.0 29742:1.0 
-0.6898234019849152 1:7.0 2:1.0 4:1.0 7:3.0 12:1.0 14:0.0 25:4.0 26:10.0 27:10.0 33:119000.0 11875:1.0 25454:1.0 25455:1.0 28206:1.0 28270:1.0 28525:1.0 
-0.6897971578228856 1:11.0 2:1.0 4:3.0 7:5.0 12:1.0 14:0.0 25:1.0 33:12300.0 11875:1.0 25196:1.0 25455:1.0 25970:1.0 26469:1.0 26471:1.0 27759:1.0 28519:1.0 28525:1.0 29230:1.0 
-0.6901702025553882 1:7.0 2:1.0 3:1.0 4:1.0 7:3.0 8:0.14285714285714285 11:1.0 12:1.0 14:0.0 25:2.0 26:4.0 27:4.0 33:22600.0 11875:1.0 12846:1.0 25394:1.0 25455:1.0 26211:1.0 28525:1.0 
-0.3444810377884291 1:9.0 2:1.0 4:4.0 7:4.0 12:2.0 14:0.0 25:1.0 33:1.0E8 11875:1.0 25441:1.0 25902:1.0 26476:1.0 26479:1.0 27749:1.0 28519:1.0 28527:1.0 
-0.6897356175443738 1:13.0 2:2.0 4:4.0 7:3.6666666666666665 12:2.0 14:1.0 15:1234.0 16:132644.0 17:799.0 18:1991.0 19:1.0 20:3.0 23:1.0 24:1.0 25:1.0 26:4.0 27:4.0 28:1.0 33:334000.0 11875:2.0 25454:1.0 25455:1.0 25902:1.0 25967:1.0 27749:1.0 27950:1.0 28525:1.0 28528:1.0 28773:1.0 28780:1.0 
-1.0 1:12.0 2:1.0 4:5.0 7:5.5 12:2.0 14:0.0 26:12.0 27:12.0 33:76.0 11886:1.0 24937:1.0 24939:1.0 24941:1.0 25646:1.0 25972:1.0 26724:1.0 26984:1.0 27489:1.0 28001:1.0 28261:1.0 
-0.6897131540160348 1:6.0 2:1.0 7:2.5 14:1.0 15:1779.0 16:129709.0 17:614.0 18:1837.0 19:1.0 24:1.0 25:2.0 26:4.0 27:4.0 28:1.0 33:203000.0 11875:1.0 25454:1.0 26477:1.0 28023:1.0 30510:1.0 
-1.0 1:8.0 2:1.0 4:3.0 7:3.5 12:1.0 14:0.0 25:6.0 26:2.0 27:2.0 33:54.0 11875:1.0 25189:1.0 25455:1.0 25902:1.0 28525:1.0 30050:1.0 30325:1.0 
-0.34688720402767514 1:9.0 2:1.0 4:4.0 7:4.0 12:2.0 14:0.0 25:1.0 26:8.0 27:8.0 33:1.0E8 11875:1.0 24930:1.0 25199:1.0 25455:1.0 28525:1.0 28533:1.0 29742:1.0 30068:1.0 
-0.6421798037127069 1:10.0 2:1.0 4:4.0 7:4.5 12:1.0 14:1.0 15:11.0 16:285.0 18:8.0 19:1.0 24:1.0 25:2.0 26:4.0 27:7.0 33:32600.0 11875:1.0 24940:1.0 24953:1.0 25455:1.0 26992:1.0 27753:1.0 28525:1.0 28769:1.0 31022:1.0 
-0.6899164635815802 1:4.0 2:1.0 4:1.0 7:1.5 12:1.0 14:0.0 25:1.0 26:6.0 27:6.0 33:637000.0 11875:1.0 25455:1.0 29742:1.0 
-0.6899129071791701 1:13.0 2:1.0 4:3.0 7:6.0 12:1.0 14:1.0 15:14.0 16:201.0 18:9.0 19:1.0 24:1.0 25:2.0 26:4.0 27:4.0 33:327000.0 11887:1.0 25712:1.0 25971:1.0 28530:2.0 28786:1.0 29284:1.0 29285:1.0 29287:1.0 29486:1.0 29555:1.0 30575:1.0 
-0.6897633171669896 1:21.0 2:1.0 4:8.0 7:10.0 12:2.0 14:0.0 26:4.0 27:4.0 33:722000.0 11875:1.0 25455:2.0 25966:1.0 25970:1.0 25973:1.0 26476:1.0 26479:1.0 27749:1.0 28276:2.0 28519:1.0 28525:1.0 28526:1.0 28527:1.0 29283:1.0 29541:1.0 29742:1.0 29797:1.0 30067:1.0 
-0.6899546796686205 1:16.0 2:1.0 4:6.0 7:7.5 12:1.0 14:0.0 25:3.0 26:4.0 27:2.0 33:342000.0 11890:1.0 24947:1.0 25710:1.0 26926:1.0 26987:1.0 27497:1.0 27500:1.0 27745:1.0 28265:1.0 28271:1.0 28516:1.0 28523:1.0 29301:1.0 29550:1.0 29555:1.0 
-0.6896443260892964 1:11.0 2:1.0 4:5.0 7:5.0 12:1.0 14:1.0 15:1629.0 16:146494.0 17:410.0 18:1097.0 19:1.0 24:1.0 25:2.0 26:4.0 27:8.0 33:1270000.0 11875:1.0 24878:1.0 24930:1.0 24940:1.0 25185:2.0 25455:1.0 26978:1.0 27753:1.0 28525:1.0 
-0.690311946039728 1:9.0 2:1.0 4:4.0 7:4.0 12:2.0 14:1.0 15:3919.0 16:569449.0 17:621.0 18:3769.0 19:1.0 24:1.0 25:2.0 26:4.0 27:4.0 33:1.79E7 11875:1.0 25455:1.0 27509:1.0 28525:1.0 28533:1.0 29998:1.0 30059:1.0 31087:1.0 
-0.6897971577203947 1:11.0 2:1.0 4:4.0 7:5.0 12:2.0 14:1.0 15:142.0 16:10338.0 17:18.0 18:108.0 19:1.0 20:1.0 24:1.0 25:1.0 26:4.0 27:4.0 33:2150.0 11875:1.0 25455:2.0 25717:1.0 26996:1.0 28260:1.0 28525:1.0 28526:1.0 29742:1.0 30057:1.0 
-1.0 1:13.0 2:2.0 4:4.0 7:3.6666666666666665 12:2.0 14:0.0 25:1.0 33:49.0 11875:1.0 11892:1.0 25455:1.0 25902:1.0 26476:1.0 26479:1.0 27749:1.0 27950:1.0 28519:1.0 28525:1.0 28527:1.0 29810:1.0 
-0.6898337849186702 1:11.0 2:1.0 4:3.0 7:5.0 12:1.0 14:1.0 15:8.0 16:150.0 17:1.0 18:7.0 19:1.0 24:1.0 25:1.0 26:9.0 27:9.0 33:7190.0 11875:1.0 24932:1.0 25455:1.0 25697:1.0 25700:1.0 25721:1.0 26479:1.0 28516:1.0 28525:1.0 31022:1.0 
-0.6899591851727677 1:14.0 2:1.0 4:5.0 7:6.5 12:2.0 14:1.0 15:11.0 16:285.0 18:8.0 19:1.0 24:1.0 25:2.0 26:4.0 27:8.0 33:112000.0 11875:1.0 24940:1.0 25455:1.0 25971:1.0 25976:1.0 26981:1.0 27753:1.0 28525:1.0 28786:1.0 29285:1.0 29486:1.0 29555:1.0 30832:1.0 
-0.6898356192243578 1:10.0 2:1.0 4:2.0 7:4.5 12:1.0 14:0.0 25:1.0 33:14600.0 11875:1.0 25451:1.0 25455:1.0 26220:1.0 26979:1.0 27506:1.0 27753:1.0 28525:1.0 29230:1.0 
-0.6898460881238864 1:18.0 2:1.0 4:5.0 7:8.5 12:1.0 14:1.0 15:2424.0 16:301217.0 17:360.0 18:1567.0 19:1.0 24:1.0 25:5.0 26:8.0 27:8.0 33:181000.0 11875:1.0 25455:1.0 26214:1.0 26217:1.0 26484:1.0 26741:1.0 26990:1.0 28263:1.0 28272:1.0 28525:1.0 28526:1.0 28531:1.0 28783:1.0 29556:1.0 29742:1.0 29807:1.0 30054:1.0 
-0.6898650364502936 1:11.0 2:1.0 4:3.0 7:5.0 12:1.0 14:0.0 25:1.0 26:8.0 27:8.0 33:2.51E7 11875:1.0 25134:1.0 25455:1.0 26741:1.0 28264:1.0 28525:1.0 28530:1.0 28783:1.0 29294:1.0 30050:1.0 
-0.690311946039728 1:13.0 2:2.0 4:6.0 7:3.6666666666666665 12:2.0 14:0.0 25:1.0 33:899000.0 11873:1.0 11875:1.0 24949:1.0 25455:1.0 25902:1.0 26476:1.0 26479:1.0 27749:1.0 27950:1.0 28519:1.0 28525:1.0 28527:1.0 
-0.6896443260892964 1:9.0 2:1.0 4:4.0 7:4.0 12:1.0 14:1.0 15:790.0 16:128310.0 17:153.0 18:733.0 19:1.0 24:1.0 25:1.0 26:10.0 27:10.0 33:435000.0 11875:1.0 24932:1.0 25189:1.0 25455:1.0 25711:1.0 25902:1.0 28514:1.0 28525:1.0 
-0.6902473996916474 1:9.0 2:1.0 4:4.0 7:4.0 12:1.0 14:0.0 25:3.0 26:6.0 27:6.0 33:23600.0 11876:1.0 24941:1.0 24954:1.0 25701:1.0 28001:1.0 28206:1.0 28526:1.0 31343:1.0 
-0.6901588545538799 1:7.0 2:1.0 4:3.0 7:3.0 12:1.0 14:1.0 15:1943.0 16:186829.0 17:456.0 18:2007.0 19:1.0 24:1.0 25:5.0 26:8.0 27:8.0 33:1.0E8 11876:1.0 24953:1.0 25185:1.0 25701:1.0 25954:1.0 31022:1.0 
-0.6897490689839342 1:11.0 2:1.0 4:3.0 7:5.0 12:1.0 14:0.0 25:1.0 26:4.0 27:4.0 33:7890000.0 11881:1.0 25196:1.0 26483:1.0 26990:1.0 27759:1.0 28519:1.0 28532:1.0 28783:1.0 29552:1.0 29742:1.0 
-0.7040944028556679 1:11.0 2:1.0 4:3.0 7:5.0 12:1.0 14:1.0 15:4.0 16:44.0 18:4.0 24:1.0 25:8.0 26:4.0 27:4.0 33:6480.0 11875:1.0 25455:1.0 25972:1.0 26220:1.0 27000:1.0 27753:1.0 28261:1.0 28525:1.0 29798:1.0 30766:1.0 
-0.6898942536282802 1:9.0 2:1.0 4:3.0 7:4.0 12:2.0 14:0.0 25:1.0 33:70500.0 11888:1.0 25902:1.0 26476:1.0 26479:1.0 27749:1.0 28519:1.0 28527:1.0 28780:1.0 
-0.6898135578876641 1:10.0 2:1.0 4:3.0 7:4.5 12:1.0 14:1.0 15:10.0 16:269.0 18:7.0 19:1.0 24:1.0 25:1.0 33:2.26E7 11892:1.0 24947:1.0 25451:1.0 26979:1.0 27489:1.0 27497:1.0 29486:1.0 29555:1.0 29807:1.0 
-1.0 1:15.0 2:2.0 4:3.0 7:4.333333333333333 12:1.0 14:0.0 25:1.0 33:575.0 11874:1.0 11875:1.0 25196:1.0 25200:1.0 25455:1.0 26483:1.0 27759:1.0 28519:1.0 28525:1.0 28532:1.0 28718:1.0 28783:1.0 29552:1.0 29742:1.0 
-0.6902473996916572 1:15.0 2:1.0 4:6.0 7:7.0 12:1.0 14:1.0 15:4.0 16:44.0 18:4.0 24:1.0 25:2.0 26:2.0 27:2.0 33:2270000.0 11891:1.0 24948:1.0 24953:1.0 25185:1.0 25954:1.0 25968:1.0 26725:1.0 26994:1.0 28777:1.0 29281:1.0 29541:1.0 29797:1.0 29800:1.0 31022:1.0 
-0.6898988179235516 1:11.0 2:1.0 4:4.0 7:5.0 12:2.0 14:0.0 25:1.0 26:6.0 27:6.0 33:89900.0 11875:1.0 24948:1.0 25455:1.0 25953:1.0 25970:1.0 26725:1.0 28525:1.0 29230:1.0 29800:1.0 30565:1.0 
-0.6899601803451529 1:9.0 2:1.0 4:4.0 7:4.0 12:2.0 14:0.0 25:1.0 33:4800000.0 11875:1.0 25455:1.0 25967:1.0 26989:1.0 28005:1.0 28462:1.0 28525:1.0 30313:1.0 
-0.6898325993615666 1:7.0 2:1.0 3:1.0 4:2.0 7:3.0 8:0.14285714285714285 11:1.0 12:1.0 14:1.0 15:1568.0 16:133879.0 17:424.0 18:1593.0 19:2.0 24:1.0 25:1.0 26:4.0 27:4.0 33:631000.0 11875:1.0 13870:1.0 25455:1.0 27509:1.0 28525:1.0 30006:1.0 
-0.7027238415961012 1:15.0 2:1.0 4:6.0 7:7.0 12:2.0 14:0.0 25:1.0 33:3300.0 11875:1.0 24937:1.0 25455:1.0 25697:1.0 26988:1.0 26991:1.0 27769:1.0 28015:1.0 28206:1.0 28525:1.0 28526:1.0 28532:1.0 29801:1.0 31085:1.0 
-0.6898495010610656 1:8.0 2:1.0 4:2.0 7:3.5 12:1.0 14:1.0 15:14.0 16:201.0 18:9.0 19:1.0 24:1.0 25:1.0 26:5.0 27:5.0 33:248000.0 11875:1.0 25454:1.0 25455:1.0 25972:1.0 28261:1.0 28525:1.0 29742:1.0 
-0.7711766262337719 1:11.0 2:2.0 4:3.0 7:3.0 12:1.0 14:0.0 25:1.0 28:1.0 33:9610.0 11875:1.0 11879:1.0 25455:1.0 25971:1.0 26479:1.0 28206:1.0 28462:1.0 28525:1.0 28782:1.0 29552:1.0 
